//SIDE: 28
float Network_weights1[25088] = {
	-0.417679,
	0.0767768,
	0.376636,
	0.360123,
	0.16635,
	0.425555,
	0.311584,
	0.339877,
	0.474832,
	0.483948,
	0.0615392,
	0.13506,
	0.109352,
	0.113405,
	-0.0957228,
	-0.194057,
	0.249332,
	0.286689,
	0.0876568,
	0.372126,
	0.285919,
	0.311274,
	0.214958,
	0.292036,
	0.111642,
	0.113471,
	0.221949,
	0.194972,
	-0.256944,
	0.349953,
	0.0377218,
	0.225891,
	-0.131534,
	-0.0427386,
	0.0170219,
	0.243863,
	0.157085,
	0.173875,
	-0.0026933,
	0.00703491,
	0.133661,
	0.0847946,
	0.0826825,
	0.289349,
	-0.0119374,
	0.0206573,
	0.182949,
	0.151724,
	0.108348,
	0.0806211,
	0.0222627,
	-0.201509,
	-0.0770411,
	0.0699693,
	0.222756,
	-0.0119671,
	0.236794,
	0.195043,
	0.248849,
	0.160118,
	0.110909,
	0.489971,
	0.139268,
	0.172802,
	0.515014,
	0.322862,
	0.198429,
	0.15693,
	0.083103,
	0.075973,
	-0.0637962,
	-0.151659,
	-0.174703,
	-0.119177,
	-0.312394,
	-0.267761,
	-0.295811,
	-0.242446,
	-0.281945,
	0.0814746,
	-0.243805,
	0.0350907,
	-0.25539,
	0.0227624,
	0.38877,
	0.361657,
	0.504917,
	0.52603,
	-0.0828822,
	0.0325568,
	-0.325163,
	0.0133497,
	0.444853,
	0.522272,
	0.162183,
	-0.118737,
	-0.397379,
	-0.121611,
	-0.214291,
	-0.136484,
	-0.185847,
	-0.217118,
	-0.196678,
	-0.12282,
	-0.23031,
	-0.151934,
	-0.182228,
	0.0251311,
	-0.292961,
	0.187623,
	-0.180148,
	0.457946,
	0.65359,
	0.487112,
	0.746243,
	0.349258,
	0.391393,
	-0.47562,
	0.216932,
	0.482371,
	0.381673,
	0.454916,
	-0.432658,
	-0.489184,
	-0.642122,
	-0.538462,
	-0.524528,
	0.0121269,
	0.158669,
	0.182492,
	-0.152614,
	-0.292921,
	-0.109507,
	-0.0864592,
	0.0168321,
	0.0077516,
	-0.305799,
	0.128435,
	-0.0347146,
	0.324249,
	0.595867,
	0.395187,
	0.518987,
	0.563894,
	0.0276364,
	-0.358433,
	0.263871,
	0.458204,
	0.125545,
	0.475379,
	-0.00851143,
	-0.564825,
	-0.760306,
	-0.763381,
	-0.582626,
	-0.217353,
	0.237924,
	0.367497,
	0.509221,
	-0.35456,
	-0.35267,
	-0.163592,
	-0.192147,
	0.158779,
	-0.182766,
	-0.00812425,
	0.00358117,
	0.432475,
	0.259507,
	0.281645,
	0.496335,
	0.523901,
	-0.252539,
	-0.763675,
	0.155254,
	0.467195,
	0.132612,
	0.524326,
	0.258813,
	-0.296948,
	-0.684858,
	-0.559997,
	-0.73281,
	0.00389593,
	0.285414,
	0.405049,
	0.366107,
	0.0557058,
	-0.30006,
	-0.486267,
	0.0311927,
	0.00754962,
	-0.274712,
	0.165705,
	0.0723099,
	0.0652186,
	0.394805,
	0.0293944,
	0.189734,
	-0.285256,
	-0.262572,
	-0.237791,
	0.397026,
	0.728624,
	0.261213,
	0.269092,
	0.235843,
	-0.329851,
	-0.683211,
	-0.760847,
	-0.564171,
	0.039739,
	0.0296781,
	0.065048,
	0.324708,
	-0.10409,
	-0.352066,
	-0.377673,
	0.164318,
	-0.141777,
	0.0546349,
	0.33788,
	0.419459,
	-0.0613557,
	0.0592678,
	-0.138706,
	0.254586,
	-0.075334,
	-0.292052,
	-0.195854,
	0.353133,
	0.588919,
	0.377202,
	0.3571,
	0.0952331,
	-0.305937,
	-0.469145,
	-0.656662,
	-0.36685,
	-0.132654,
	-0.167576,
	0.092772,
	0.253763,
	-0.187575,
	-0.528158,
	-0.275485,
	0.0976229,
	-0.144243,
	-0.112911,
	0.241669,
	-0.0957186,
	0.0106991,
	-0.399689,
	-0.493897,
	0.189734,
	-0.0555726,
	-0.267516,
	-0.376137,
	0.146137,
	0.331958,
	0.322523,
	0.444336,
	0.152476,
	-0.105475,
	-0.537968,
	-0.441001,
	-0.169675,
	-0.0825075,
	-0.391273,
	-0.291019,
	-0.247636,
	-0.207859,
	-0.644541,
	-0.203097,
	0.210459,
	-0.0720227,
	0.133158,
	-0.129758,
	-0.116446,
	-0.0422226,
	-0.0205507,
	-0.4643,
	0.176153,
	0.0732516,
	-0.609368,
	-0.334388,
	-0.00903039,
	0.190835,
	0.237679,
	0.177502,
	-0.0707098,
	-0.353035,
	-0.667182,
	-0.320879,
	-0.24684,
	0.00528968,
	-0.48771,
	-0.236699,
	-0.0309368,
	-0.146689,
	-0.331911,
	-0.409321,
	0.0720177,
	0.0419149,
	0.344191,
	-0.0379337,
	-0.168488,
	-0.251576,
	0.432228,
	-0.42904,
	0.166691,
	0.0892935,
	-0.497488,
	-0.377711,
	-0.0524917,
	0.396759,
	0.0904349,
	0.267274,
	0.21052,
	-0.171749,
	-0.263103,
	-0.282095,
	-0.0763921,
	0.0170373,
	-0.287182,
	-0.152618,
	0.0209189,
	-0.224076,
	-0.556049,
	-0.237842,
	-0.0805564,
	-0.161773,
	0.20125,
	-0.0509643,
	-0.464222,
	-0.0218885,
	0.381315,
	0.0256205,
	0.489356,
	0.139262,
	-0.119302,
	-0.334353,
	-0.319483,
	0.0310672,
	0.152273,
	0.313265,
	0.340917,
	-0.313915,
	-0.343551,
	-0.465616,
	-0.0130601,
	0.165369,
	0.149522,
	0.165356,
	0.111244,
	-0.296467,
	-0.520096,
	-0.198149,
	0.0946434,
	0.00624137,
	0.270869,
	-0.265843,
	-0.00718187,
	-0.080766,
	0.241689,
	0.324641,
	0.364243,
	0.16169,
	-0.335986,
	-0.133949,
	-0.303967,
	-0.0422564,
	0.183508,
	0.303273,
	0.201759,
	-0.0942974,
	-0.401538,
	-0.508563,
	-0.10326,
	0.0422091,
	0.183958,
	0.303816,
	-0.0911314,
	-0.12456,
	-0.27394,
	-0.3371,
	-0.263724,
	-0.206555,
	0.259896,
	0.101926,
	-0.109116,
	0.14563,
	0.325022,
	-0.00471415,
	0.407859,
	0.0700218,
	-0.235592,
	-0.124622,
	-0.305355,
	0.108239,
	-0.0435715,
	0.307354,
	0.226128,
	-0.0433645,
	-0.42902,
	-0.356274,
	-0.231901,
	0.330946,
	0.183945,
	0.174768,
	-0.0251675,
	0.117235,
	-0.162527,
	-0.37266,
	-0.0126101,
	-0.293361,
	0.164232,
	0.0147131,
	-0.13921,
	-0.0690927,
	0.209406,
	0.195015,
	0.443363,
	0.171009,
	-0.0950181,
	0.0474942,
	-0.0244992,
	-0.0899681,
	0.0482865,
	0.367583,
	0.17253,
	-0.0125039,
	-0.473401,
	-0.330372,
	0.0631385,
	0.32351,
	0.236086,
	0.343716,
	0.268884,
	-0.0816991,
	-0.487297,
	-0.265925,
	0.0263367,
	-0.163102,
	0.31419,
	-0.207019,
	-0.0562929,
	0.0205436,
	0.210744,
	0.0327886,
	0.363448,
	0.271667,
	-0.173218,
	-0.0651542,
	0.0831896,
	0.0605629,
	-0.0140592,
	0.186278,
	0.120054,
	-0.0191004,
	-0.324752,
	-0.296106,
	0.136529,
	0.354843,
	0.469782,
	0.177562,
	0.0741184,
	0.104893,
	0.0109938,
	-0.0620255,
	-0.254113,
	-0.298316,
	0.352773,
	0.210352,
	0.0988812,
	0.00993892,
	0.310197,
	0.18441,
	0.0331316,
	0.0848657,
	-0.448518,
	-0.262939,
	-0.142317,
	0.324263,
	-0.211599,
	0.159323,
	0.0807485,
	0.0309334,
	-0.144788,
	-0.138644,
	0.24442,
	0.114441,
	0.226045,
	0.113832,
	0.191036,
	0.0432656,
	0.453417,
	-0.088324,
	-0.347842,
	-0.109067,
	0.0188231,
	0.229704,
	0.0431964,
	-0.180163,
	0.297507,
	-0.0130825,
	0.168067,
	0.0404599,
	-0.810268,
	-0.273848,
	0.0778869,
	0.217263,
	-0.00432237,
	0.198204,
	0.34088,
	0.222158,
	0.194517,
	0.0176601,
	0.406072,
	0.312883,
	0.31524,
	0.20341,
	0.278723,
	0.296376,
	0.344645,
	0.303284,
	0.169449,
	0.071752,
	-0.132386,
	0.630018,
	0.0757443,
	-0.0773564,
	0.00146465,
	0.0341056,
	0.0524977,
	-0.0141751,
	-0.608126,
	-0.189314,
	0.0470284,
	0.0606958,
	0.254677,
	0.382964,
	0.380924,
	0.137824,
	0.292946,
	0.244347,
	0.401449,
	0.40153,
	0.123533,
	0.0286776,
	0.247859,
	0.429078,
	0.271049,
	-0.0269358,
	0.162799,
	-0.0858509,
	-0.340257,
	0.158553,
	-0.22692,
	0.0771183,
	0.111349,
	0.10507,
	-0.0712718,
	0.132381,
	-0.772332,
	-0.443409,
	-0.101598,
	-0.0465965,
	0.303123,
	0.452142,
	0.461499,
	0.234301,
	0.419462,
	0.629333,
	0.489154,
	0.0666081,
	0.182828,
	-0.238372,
	0.202055,
	0.318447,
	0.384839,
	0.0338747,
	-0.00065834,
	-0.0101323,
	-0.204295,
	-0.346113,
	0.0601655,
	0.16538,
	0.190843,
	-0.108119,
	-0.039555,
	0.258984,
	-0.635849,
	-0.527062,
	-0.447991,
	-0.0632187,
	0.27914,
	0.748436,
	0.50461,
	0.286678,
	0.345792,
	0.132212,
	-0.209152,
	-0.198506,
	-0.319209,
	-0.320601,
	-0.260875,
	0.0956805,
	0.302328,
	-0.173686,
	-0.0505202,
	-0.149009,
	-0.238253,
	-0.45974,
	0.0191716,
	0.158203,
	0.181886,
	0.0447955,
	-0.0930927,
	0.24877,
	0.401581,
	-0.0874531,
	-0.360963,
	-0.613482,
	-0.585786,
	0.371066,
	0.248694,
	-0.0319571,
	-0.183805,
	-0.229505,
	-0.540896,
	-0.462533,
	-0.252093,
	-0.260478,
	-0.0301068,
	0.337598,
	0.223968,
	-0.162101,
	0.025865,
	-0.197102,
	-0.0877799,
	-0.0814351,
	0.318852,
	0.090867,
	0.418154,
	0.0721151,
	0.0330418,
	0.33436,
	0.368833,
	-0.184125,
	-0.366179,
	-0.641117,
	-0.659589,
	-0.634545,
	-0.31907,
	-0.263725,
	-0.285303,
	-0.628361,
	-0.817648,
	-0.577164,
	-0.410838,
	-0.61582,
	-0.118459,
	0.173679,
	0.290989,
	-0.0479028,
	-0.248293,
	-0.0207118,
	-0.304978,
	-0.380487,
	0.150096,
	0.248332,
	0.0811318,
	0.155364,
	0.111671,
	0.397467,
	0.0755423,
	-0.0966312,
	-0.346182,
	-0.520243,
	-0.519021,
	-0.481883,
	0.0752955,
	-0.198171,
	-0.403795,
	-0.57396,
	-0.436078,
	-0.570341,
	-0.380567,
	-0.581896,
	-0.0342058,
	0.062717,
	-0.115514,
	-0.346442,
	-0.159511,
	-0.433706,
	-0.170591,
	0.187458,
	0.18143,
	0.0887543,
	0.310317,
	0.118555,
	0.179545,
	0.684761,
	0.521326,
	0.304264,
	0.0570521,
	0.0112706,
	-0.05525,
	0.22015,
	-0.0949469,
	0.0138535,
	0.167219,
	0.0792069,
	-0.0963171,
	-0.304066,
	-0.395625,
	-0.100925,
	0.182386,
	-0.0608203,
	-0.376605,
	-0.285834,
	-0.153135,
	-0.281777,
	0.00240531,
	0.13572,
	0.339595,
	0.358983,
	0.5549,
	-0.0231348,
	0.117583,
	0.384437,
	0.424363,
	0.0279266,
	0.0868141,
	0.173169,
	0.0595208,
	0.124591,
	-0.174813,
	0.0954168,
	-0.0353876,
	-0.11506,
	0.0976815,
	0.0387118,
	-0.172978,
	0.143772,
	0.300542,
	-0.0348995,
	-0.635544,
	-0.476398,
	-0.545581,
	-0.24035,
	0.492697,
	0.050651,
	0.377755,
	0.331042,
	-0.0488771,
	0.0704888,
	0.242984,
	-0.00021241,
	-0.242825,
	0.139142,
	0.112925,
	0.124378,
	0.0254278,
	0.0101856,
	0.227131,
	0.0313065,
	-0.0437089,
	-0.114866,
	0.0721194,
	-0.149727,
	0.029272,
	0.0465349,
	-0.0564373,
	-0.0906917,
	-0.204233,
	0.341434,
	0.14866,
	0.57599,
	0.62619,
	0.453971,
	0.269975,
	-0.0240158,
	0.170086,
	-0.0162709,
	0.0513697,
	0.0994274,
	0.272572,
	0.505331,
	0.409227,
	0.381403,
	0.205189,
	0.275806,
	-0.0170189,
	0.201202,
	-0.00592412,
	0.149849,
	0.0218401,
	0.0127037,
	0.224881,
	0.11004,
	0.00145553,
	0.463512,
	0.262947,
	0.454162,
	0.465555,
	0.0374598,
	0.339274,
	0.371042,
	0.122065,
	-0.08618,
	0.623139,
	0.196903,
	0.203312,
	0.196197,
	0.515977,
	0.656017,
	0.682607,
	0.391172,
	0.41935,
	0.377121,
	0.223871,
	0.460268,
	0.441021,
	0.393869,
	0.268173,
	0.408832,
	0.425275,
	0.470319,
	0.412811,
	0.413746,
	0.624954,
	0.530644,
	0.366944,
	0.326166,
	0.571294,
	0.315922,
	0.571235,
	0.629827,
	0.534764,
	0.585768,
	-0.0628728,
	0.335639,
	0.439527,
	0.351637,
	0.475375,
	0.360271,
	0.406603,
	0.142451,
	0.409702,
	0.316734,
	0.30281,
	0.403165,
	0.0622946,
	0.175144,
	0.292136,
	0.138868,
	0.0927894,
	0.195415,
	0.141982,
	0.307676,
	0.3443,
	-0.000209373,
	0.125425,
	0.274508,
	0.366468,
	-0.0638562,
	0.448892,
	0.122263,
	0.207761,
	-0.0618807,
	-0.346007,
	0.186667,
	0.37029,
	0.151706,
	-0.323737,
	-0.104255,
	-0.136181,
	0.293565,
	0.125572,
	0.0453032,
	0.112334,
	0.0972037,
	0.179386,
	-0.0309407,
	0.11224,
	0.411194,
	0.20095,
	0.144199,
	0.321543,
	-0.156018,
	0.318332,
	0.00295012,
	0.300229,
	0.208185,
	0.0467655,
	0.332417,
	-0.172991,
	-0.59999,
	-0.603299,
	-0.366774,
	-0.0550924,
	0.303102,
	-0.015384,
	-0.484994,
	-0.651545,
	-0.757896,
	-0.988238,
	-0.684779,
	-0.744537,
	0.0429007,
	0.320401,
	-0.285518,
	0.0422832,
	0.524364,
	0.580375,
	0.915144,
	0.147306,
	0.0378051,
	-0.126213,
	0.194691,
	0.510475,
	0.121289,
	0.106161,
	0.200696,
	0.173938,
	-0.188581,
	-0.0456151,
	-0.2064,
	5.54015e-05,
	-0.00153121,
	-0.21026,
	-0.695826,
	-0.729057,
	-0.437417,
	-0.265064,
	-0.154956,
	-0.0747081,
	0.152894,
	0.16914,
	-0.456277,
	0.0195597,
	0.201537,
	0.539123,
	0.154507,
	0.0457632,
	0.0961604,
	0.0602632,
	0.041237,
	-0.000624901,
	-0.173587,
	0.204073,
	0.334491,
	0.242184,
	-0.0415896,
	-0.395814,
	-0.586238,
	-0.139509,
	0.0338839,
	-0.170359,
	-0.415801,
	-0.569753,
	-0.495149,
	-0.39717,
	-0.402512,
	-0.271309,
	0.14762,
	0.393303,
	0.3169,
	0.257219,
	0.319011,
	0.281417,
	0.449333,
	0.123599,
	0.0939066,
	0.108311,
	0.0846649,
	-0.371581,
	0.0811611,
	-0.157908,
	-0.230717,
	-0.181468,
	0.209541,
	0.138486,
	-0.0202648,
	0.440822,
	0.201513,
	0.169743,
	0.207433,
	0.151316,
	-0.199705,
	-0.318619,
	0.112783,
	0.235469,
	0.20276,
	0.202046,
	0.556181,
	0.931913,
	0.673791,
	0.455553,
	0.243438,
	0.326728,
	-0.520233,
	0.0138796,
	0.0350107,
	-0.229767,
	0.606125,
	-0.415431,
	-0.615342,
	-0.0536732,
	0.369616,
	0.343345,
	0.184865,
	0.363315,
	0.13396,
	0.170056,
	0.0603984,
	-0.0981021,
	0.0449024,
	0.20543,
	0.00538639,
	0.105888,
	0.145204,
	0.324184,
	0.630068,
	0.628709,
	0.415587,
	0.418925,
	0.435072,
	0.0888271,
	-0.305141,
	-0.370605,
	0.25202,
	-0.630439,
	-0.142891,
	-0.53711,
	-0.425901,
	-0.10764,
	0.494634,
	0.349461,
	0.627722,
	0.366969,
	0.320698,
	0.0924734,
	-0.107191,
	-0.126992,
	0.0209967,
	0.207358,
	0.183662,
	-0.0428056,
	-0.187772,
	0.140582,
	0.481327,
	0.520224,
	0.36622,
	0.500557,
	0.451935,
	-0.0559654,
	-0.388137,
	-0.321842,
	0.183934,
	-0.6265,
	-0.0638716,
	-0.184773,
	-0.603326,
	-0.240254,
	0.269348,
	0.554498,
	0.543199,
	0.357014,
	0.369634,
	0.142096,
	0.330705,
	0.0400541,
	0.163888,
	0.29134,
	0.199059,
	0.492596,
	0.10224,
	0.0148473,
	0.336307,
	0.449247,
	0.508182,
	0.346864,
	0.24901,
	0.0431588,
	-0.416371,
	-0.227096,
	0.0135669,
	-0.288385,
	-0.0392392,
	0.182403,
	-0.303264,
	-0.360409,
	0.170343,
	0.558597,
	0.68969,
	0.334315,
	0.27655,
	0.0380021,
	0.041466,
	-0.126177,
	0.00777891,
	0.0842814,
	0.258662,
	0.274629,
	-0.0713916,
	0.289111,
	0.259989,
	0.307161,
	0.180452,
	0.404811,
	-0.107971,
	0.038439,
	-0.235873,
	-0.363084,
	0.29251,
	0.222311,
	-0.0363008,
	0.193482,
	-0.531851,
	-0.251856,
	0.425285,
	0.375512,
	0.542967,
	0.497424,
	0.12548,
	0.177624,
	0.159142,
	-0.234511,
	-0.0801942,
	0.0240948,
	0.02612,
	-0.323339,
	-0.344274,
	-0.472931,
	-0.220674,
	0.00340594,
	0.294271,
	-0.084548,
	-0.348925,
	0.040341,
	-0.387941,
	-0.0567261,
	0.259322,
	0.308287,
	-0.133821,
	-0.0255307,
	0.0439819,
	-0.080272,
	0.599709,
	0.527503,
	0.474483,
	0.187777,
	-0.0109176,
	0.128182,
	0.155651,
	-0.0356499,
	-0.154386,
	-0.159158,
	-0.236597,
	-0.524721,
	-0.612867,
	-0.801084,
	-0.447991,
	-0.271408,
	0.330038,
	-0.130342,
	-0.340436,
	0.00157768,
	-0.0765746,
	-0.163566,
	0.0207394,
	-0.0562889,
	0.0492194,
	0.0079,
	-0.370354,
	-0.318651,
	0.536599,
	0.284337,
	-0.0178573,
	0.233864,
	0.0413261,
	0.113245,
	0.182105,
	-0.151746,
	-0.110403,
	-0.284302,
	-0.21811,
	-0.368484,
	-0.457536,
	-0.216993,
	-0.459436,
	-0.0689479,
	-0.302167,
	-0.332901,
	-0.0714089,
	0.0417721,
	-0.256701,
	-0.119511,
	0.147372,
	0.25276,
	-0.00181436,
	0.0267029,
	-0.164856,
	-0.561766,
	0.510028,
	0.154624,
	0.0213498,
	0.15206,
	-0.165484,
	-0.0700935,
	0.111979,
	-0.0794214,
	-0.00331745,
	0.06668,
	-0.132238,
	-0.0952939,
	-0.11439,
	-0.161002,
	0.0180363,
	0.00867392,
	-0.235632,
	-0.872928,
	-0.365198,
	0.0868844,
	0.045188,
	0.0673721,
	0.141575,
	0.150861,
	-0.0931421,
	0.102311,
	-0.109874,
	-0.0583905,
	0.862539,
	-0.363941,
	-0.220023,
	-0.10606,
	0.0898217,
	0.0434183,
	0.278913,
	0.049682,
	0.38361,
	0.209276,
	0.305694,
	0.523255,
	0.513544,
	0.410666,
	0.257132,
	0.246724,
	-0.274613,
	0.435765,
	0.526524,
	-0.0427649,
	-0.192972,
	-0.243638,
	0.0596317,
	0.240891,
	0.125185,
	-0.0302045,
	0.147287,
	-0.178841,
	0.323482,
	-0.388502,
	-0.500974,
	0.137224,
	0.173633,
	-0.28587,
	-0.116347,
	0.0488062,
	0.431112,
	0.248828,
	0.524426,
	0.42921,
	0.33318,
	0.26427,
	0.360473,
	0.223992,
	0.231873,
	0.397471,
	0.26024,
	0.377082,
	-0.253243,
	-0.579226,
	0.0279397,
	-0.126423,
	0.0689709,
	0.0901952,
	0.124523,
	-0.354871,
	-0.393968,
	-0.688139,
	-0.588895,
	-0.0741536,
	-0.283475,
	-0.34992,
	-0.434268,
	0.119705,
	0.0508217,
	0.471739,
	0.305416,
	0.373823,
	0.417134,
	0.610942,
	0.301939,
	0.0410651,
	0.0765598,
	0.464234,
	0.174956,
	-0.0380718,
	-0.00366232,
	-0.346398,
	-0.385675,
	-0.171322,
	0.0657573,
	0.094718,
	0.00779018,
	-0.203459,
	-0.39018,
	-0.728168,
	-0.522229,
	-0.303064,
	-0.453108,
	-0.42897,
	-0.263034,
	-0.158414,
	0.306694,
	0.263485,
	0.122972,
	0.186993,
	0.383873,
	0.552045,
	0.342846,
	0.484874,
	0.167001,
	0.00613755,
	0.28662,
	0.328735,
	-0.00281993,
	-0.241792,
	-0.0355143,
	-0.173081,
	-0.0225278,
	0.157797,
	-0.0111051,
	-0.478491,
	-0.0353424,
	-0.482913,
	-0.688807,
	-0.388493,
	-0.290905,
	-0.124373,
	-0.211063,
	0.159238,
	0.0356865,
	0.27668,
	0.171537,
	0.340736,
	0.0221264,
	0.492503,
	0.292328,
	0.178844,
	0.515965,
	0.291395,
	0.403876,
	0.115815,
	0.060189,
	-0.344399,
	-0.833866,
	0.0379478,
	0.0713617,
	0.102431,
	-0.348712,
	-0.525865,
	-0.47441,
	-0.752516,
	-0.746733,
	-0.804661,
	-0.300698,
	-0.440512,
	-0.327324,
	-0.268569,
	-0.357514,
	0.0804512,
	0.177463,
	0.0289625,
	0.193066,
	0.412544,
	0.456413,
	0.187547,
	0.48152,
	0.125066,
	0.137782,
	0.17242,
	0.0150511,
	-0.418664,
	-0.522295,
	-0.278776,
	0.231643,
	0.151011,
	-0.475492,
	-0.61265,
	-0.258863,
	-0.323406,
	-0.236471,
	-0.230663,
	-0.485954,
	-0.420313,
	-0.250982,
	-0.526228,
	-0.638061,
	-0.108307,
	-0.277527,
	-0.0835291,
	0.32956,
	0.544806,
	0.477229,
	0.353441,
	0.104847,
	0.360397,
	-0.0476813,
	-0.0590448,
	-0.305307,
	-0.209348,
	-0.428055,
	-0.315134,
	0.266437,
	0.131246,
	-0.0679699,
	-0.197793,
	-0.0355718,
	-0.586686,
	-0.0291093,
	-0.515539,
	-0.298434,
	-0.60049,
	-0.300345,
	-0.156752,
	-0.104697,
	0.177403,
	-0.218529,
	0.143154,
	0.550164,
	0.397892,
	0.459724,
	0.274007,
	0.305739,
	0.113678,
	-0.0234442,
	0.188901,
	-0.087957,
	-0.346674,
	-0.248158,
	-0.052615,
	-0.097773,
	0.1487,
	-0.121182,
	-0.110616,
	0.12475,
	0.392321,
	-0.196139,
	-0.334374,
	-0.391135,
	-0.460269,
	-0.270742,
	0.228691,
	0.118955,
	0.10453,
	-0.0867534,
	0.0169862,
	0.73641,
	0.266718,
	0.35138,
	0.381978,
	0.41513,
	-0.157704,
	-0.151433,
	-0.0178149,
	0.0545889,
	0.226272,
	0.244798,
	-0.240287,
	-0.286412,
	0.107052,
	0.162398,
	-0.221794,
	0.100046,
	0.43314,
	-0.495957,
	-0.293,
	-0.23043,
	0.013337,
	-0.177267,
	-0.366947,
	-0.295878,
	-0.201338,
	-0.330569,
	0.145568,
	0.131762,
	0.0306806,
	0.0134602,
	0.196103,
	0.16889,
	-0.189234,
	-0.637352,
	-0.520356,
	-0.245133,
	0.148625,
	-0.0528801,
	-0.248158,
	-0.345127,
	0.191187,
	-0.0899108,
	0.403278,
	0.354238,
	0.537069,
	-0.245512,
	0.0812224,
	-0.283887,
	-0.229954,
	-0.116589,
	-0.338111,
	-0.172936,
	-0.101091,
	-0.0887645,
	0.00114907,
	-0.0151698,
	-0.0167186,
	0.0348508,
	-0.0443224,
	-0.408572,
	-0.478066,
	-0.501913,
	-0.375677,
	-0.124286,
	0.153348,
	0.0997035,
	0.276383,
	-0.120375,
	0.15989,
	0.12139,
	-0.00866382,
	0.122701,
	0.698038,
	-0.306476,
	-0.056555,
	0.0142482,
	0.0986663,
	0.0101767,
	0.0770571,
	0.0970744,
	-0.05312,
	-0.0606701,
	0.135363,
	0.0218737,
	0.138146,
	0.120862,
	-0.0651905,
	-0.269007,
	-0.145265,
	0.431532,
	0.506092,
	0.365957,
	0.214672,
	0.371546,
	0.0789306,
	0.0223678,
	-0.524787,
	-0.0884239,
	-0.170802,
	0.141414,
	0.284319,
	0.0428743,
	-0.199523,
	-0.232993,
	-0.355234,
	-0.216676,
	0.12007,
	0.173722,
	0.347014,
	0.278001,
	-0.044629,
	-0.125802,
	-0.20251,
	-0.211947,
	-0.424133,
	0.0728387,
	0.223271,
	0.418568,
	0.566239,
	0.288643,
	0.203256,
	-0.0782358,
	-0.42114,
	-0.5007,
	-0.572532,
	-0.0726861,
	0.133966,
	0.334097,
	-0.111389,
	-0.172337,
	-0.115252,
	-0.00728402,
	0.0569598,
	-0.302271,
	0.102224,
	0.198163,
	0.120001,
	0.278541,
	0.14313,
	0.0177268,
	-0.0782761,
	-0.0982731,
	-0.0849321,
	0.107134,
	0.0903363,
	0.15178,
	0.302586,
	0.166814,
	-0.0928348,
	0.0553728,
	-0.0755599,
	-0.330309,
	-0.588414,
	0.0377888,
	-0.00884574,
	0.00445867,
	0.104624,
	0.130816,
	0.371548,
	0.161492,
	-0.12449,
	-0.025278,
	0.233402,
	0.235106,
	0.108852,
	0.101317,
	-0.0286557,
	0.104915,
	-0.224044,
	-0.227926,
	-0.0315628,
	0.10532,
	0.00726292,
	-0.0116555,
	0.0622336,
	0.0691013,
	0.0111095,
	-0.324618,
	-0.347122,
	-0.340228,
	-0.265405,
	0.0658672,
	-0.184625,
	-0.183342,
	-0.178924,
	0.0297684,
	0.0115466,
	-0.21628,
	-0.677328,
	-0.143288,
	-0.287326,
	0.0338081,
	-0.00559573,
	-0.0957784,
	0.176049,
	-0.00821389,
	-0.0736897,
	-0.459907,
	-0.594239,
	-0.0991928,
	0.0343044,
	0.190909,
	0.30119,
	-0.0850872,
	0.336581,
	-0.184113,
	-0.0961781,
	0.195461,
	-0.145553,
	-0.243432,
	0.0581341,
	-0.0168247,
	-0.422389,
	-0.340886,
	-0.0310026,
	-0.254372,
	-0.846059,
	-0.447392,
	-0.0552458,
	-0.366072,
	-0.186323,
	-0.196965,
	-0.538671,
	-0.676921,
	-0.53579,
	-0.707578,
	-0.328519,
	0.353634,
	0.154877,
	-0.0178142,
	-0.0357708,
	-0.00337121,
	0.139549,
	0.251856,
	-0.131622,
	0.122279,
	-0.248477,
	0.316328,
	-0.0635262,
	-0.439096,
	0.0271572,
	0.34735,
	0.298658,
	0.38498,
	-0.047445,
	0.166878,
	0.286673,
	-0.0985505,
	-0.0544131,
	-0.310903,
	-0.110248,
	-0.27503,
	-0.178793,
	0.191486,
	0.0267829,
	0.246647,
	0.477826,
	0.221369,
	-0.108962,
	-0.333831,
	-0.0825906,
	0.193185,
	0.149683,
	0.0209057,
	-0.379528,
	-0.206456,
	-0.145979,
	-0.535652,
	-0.326336,
	0.00797953,
	0.309368,
	0.677927,
	0.61216,
	0.397091,
	0.451132,
	0.209464,
	-0.139973,
	-0.285954,
	-0.205845,
	-0.364559,
	-0.0635058,
	0.266261,
	0.0855829,
	0.371481,
	0.22878,
	0.219921,
	-0.0880088,
	0.038199,
	-0.139909,
	-0.624301,
	0.119836,
	-0.824431,
	-0.341342,
	-0.0254734,
	-0.225646,
	0.168553,
	-0.365142,
	0.390741,
	0.138437,
	0.733045,
	0.503051,
	0.41645,
	0.08685,
	0.042129,
	-0.158845,
	-0.0555694,
	-0.30248,
	0.0553217,
	-0.164877,
	-0.0352369,
	0.403912,
	0.204486,
	0.284821,
	0.323295,
	0.18948,
	-0.664707,
	-0.223015,
	-0.748312,
	-0.211917,
	-0.662752,
	-0.687798,
	-0.202982,
	-0.0820445,
	-0.139942,
	0.1638,
	0.512257,
	0.575255,
	0.520889,
	0.570118,
	0.19006,
	0.0458668,
	0.0686509,
	-0.102279,
	0.00636517,
	0.155954,
	-0.0038954,
	0.136401,
	0.345175,
	0.290029,
	0.314613,
	0.16534,
	0.18456,
	0.152011,
	0.362031,
	-0.134041,
	-0.443985,
	-0.277578,
	-0.26204,
	-0.363562,
	-0.350502,
	-0.107903,
	0.156444,
	0.301986,
	0.499229,
	0.394252,
	0.445988,
	0.389995,
	0.291903,
	0.263127,
	0.344577,
	0.206562,
	0.22428,
	0.340391,
	0.0233309,
	0.285523,
	0.266882,
	0.458476,
	0.738467,
	0.541395,
	0.297446,
	0.239326,
	0.411163,
	-0.258175,
	-0.162911,
	-0.349142,
	-0.0943669,
	0.213805,
	-0.346906,
	0.107703,
	-0.0522077,
	0.0552679,
	0.207998,
	0.334435,
	0.330585,
	0.272054,
	0.181757,
	0.400819,
	-0.186101,
	-0.161232,
	-0.100478,
	0.387081,
	0.393052,
	0.594686,
	0.510081,
	0.60238,
	0.678355,
	0.581488,
	0.344051,
	-0.113004,
	0.506553,
	0.362226,
	0.149375,
	-0.18965,
	-0.195023,
	0.4209,
	-0.0459145,
	-0.0991711,
	0.16412,
	0.114955,
	0.152345,
	0.10583,
	0.0596921,
	-0.0112935,
	0.188296,
	0.0400039,
	0.0420504,
	-0.0301227,
	0.24654,
	0.746215,
	0.592506,
	0.486351,
	0.605442,
	0.601645,
	0.737965,
	0.583051,
	0.572432,
	0.0457967,
	0.370706,
	0.593674,
	0.562641,
	-0.021285,
	-0.0825478,
	0.240699,
	-0.27479,
	-0.0154736,
	-0.621704,
	-0.0874937,
	0.0722006,
	-0.224481,
	-0.0920972,
	0.0147059,
	0.333825,
	0.199824,
	0.246423,
	0.302144,
	0.335703,
	0.532252,
	0.572527,
	0.574302,
	0.839948,
	0.922456,
	0.699421,
	0.397764,
	0.490693,
	-0.0962151,
	0.434079,
	0.103585,
	0.0766054,
	0.188436,
	0.0371883,
	0.409532,
	-0.211718,
	-0.124314,
	-0.561204,
	-0.0844449,
	-0.300393,
	-0.104735,
	-0.0935542,
	-0.170454,
	-0.00958031,
	-0.319077,
	-0.0242439,
	0.197262,
	0.166893,
	0.2174,
	0.326925,
	0.643064,
	0.77842,
	0.694159,
	0.770681,
	0.562586,
	0.413278,
	0.159086,
	0.288628,
	0.458905,
	0.0494498,
	0.613658,
	0.0635263,
	-0.102416,
	-0.0775301,
	0.0931063,
	-0.55624,
	-0.337621,
	-0.152197,
	-0.280345,
	-0.178746,
	0.0185627,
	0.0418541,
	-0.106359,
	0.136921,
	-0.0282617,
	-0.0595355,
	0.227419,
	0.181195,
	0.354521,
	0.536221,
	0.601812,
	0.609166,
	0.621314,
	0.550363,
	-0.0758771,
	0.602468,
	0.412378,
	0.182912,
	0.18398,
	-0.00191329,
	-0.161295,
	-0.254015,
	-0.111033,
	-0.251007,
	-0.339854,
	-0.133235,
	-0.216907,
	-0.0999083,
	-0.223976,
	0.130119,
	0.0438126,
	0.0596539,
	-0.301955,
	-0.212477,
	0.123332,
	0.00471625,
	0.201049,
	0.384573,
	0.587376,
	0.510965,
	0.849344,
	0.427238,
	0.025235,
	0.0154039,
	0.0819486,
	0.128683,
	0.0196161,
	0.103119,
	0.471555,
	-0.39507,
	0.077358,
	-0.516924,
	-0.401148,
	0.201136,
	-0.172091,
	-0.0240963,
	0.00181166,
	0.0809778,
	-0.0443516,
	0.130586,
	0.180072,
	-0.0341797,
	0.0141552,
	0.0191851,
	0.0279307,
	0.200475,
	0.582797,
	0.392495,
	0.358776,
	0.0117174,
	-0.431162,
	0.0779288,
	0.534303,
	-0.150807,
	0.139139,
	-0.108622,
	0.303608,
	-0.0590866,
	-0.00802044,
	-0.290823,
	-0.399467,
	0.393726,
	0.133585,
	-0.069695,
	0.00535201,
	0.0309945,
	-0.0941516,
	-0.196344,
	-0.100975,
	-0.132882,
	-0.160972,
	-0.152994,
	-0.0339815,
	0.0997758,
	0.0753829,
	0.13927,
	0.260194,
	-0.117408,
	-0.745205,
	-0.367386,
	-0.196679,
	-0.205333,
	-0.255643,
	0.00783358,
	-0.219416,
	0.0521138,
	0.172557,
	0.112232,
	-0.246921,
	0.161429,
	0.279722,
	0.0865236,
	0.248745,
	0.102921,
	-0.246519,
	-0.245756,
	-0.400319,
	-0.0517388,
	-0.242269,
	-0.0987258,
	-0.324583,
	-0.11581,
	0.244354,
	0.0950488,
	-0.0455088,
	-0.0441067,
	-0.400392,
	-0.488995,
	-0.347672,
	0.154099,
	-0.3478,
	0.0674294,
	0.159324,
	0.0203446,
	0.211385,
	-0.144601,
	-0.187552,
	0.201345,
	0.419685,
	0.372137,
	0.235816,
	0.19313,
	-0.11668,
	-0.425709,
	-0.291792,
	0.0524747,
	-0.0725197,
	-0.228552,
	-0.0628924,
	-0.237134,
	-0.0938967,
	-0.0561483,
	0.125483,
	-0.195183,
	-0.349796,
	-0.440354,
	-0.766413,
	-0.235412,
	-0.155891,
	0.978249,
	-0.055382,
	0.00933704,
	0.255179,
	-0.347745,
	0.102961,
	-0.0308452,
	0.553005,
	0.267933,
	0.490457,
	-0.00930616,
	0.126396,
	-0.446407,
	-0.242616,
	-0.0167397,
	-0.112367,
	-0.346903,
	-0.19419,
	-0.0141177,
	-0.361881,
	-0.188218,
	0.0896725,
	-0.246469,
	-0.0764003,
	-0.372547,
	-0.656294,
	-0.198448,
	-0.0839282,
	0.181205,
	-0.0324507,
	0.138493,
	0.0431633,
	0.115003,
	-0.24417,
	0.11761,
	0.324988,
	0.439156,
	0.193025,
	0.198243,
	0.0454845,
	-0.199775,
	-0.452019,
	-0.160044,
	-0.322997,
	-0.151229,
	-0.269961,
	-0.266383,
	-0.45377,
	-0.124326,
	-0.0710275,
	-0.0454825,
	-0.560948,
	-0.592959,
	-0.434945,
	-0.377117,
	-0.391436,
	-0.173445,
	0.0140647,
	0.0525279,
	-0.0863023,
	-0.016527,
	-0.0107502,
	0.161201,
	0.00313202,
	0.241743,
	0.154379,
	0.122685,
	-0.169712,
	-0.182352,
	-0.32629,
	-0.356498,
	-0.383696,
	-0.324906,
	0.276168,
	-0.203387,
	-0.147058,
	0.285857,
	-0.0105533,
	-0.328696,
	-0.357094,
	-0.406532,
	-0.380267,
	-0.522831,
	0.0410911,
	0.132181,
	0.0628913,
	0.107406,
	-0.166187,
	-0.0986521,
	-0.327912,
	0.0151296,
	0.256192,
	0.462783,
	0.402994,
	0.229745,
	-0.310104,
	-0.271679,
	-0.493815,
	-0.229738,
	-0.294821,
	-0.360327,
	0.0214805,
	0.249349,
	0.0647364,
	0.246186,
	0.295197,
	-0.198953,
	-0.185504,
	-0.410318,
	-0.202666,
	-0.146753,
	0.223862,
	0.22774,
	-0.279997,
	-0.0412695,
	-0.241005,
	0.121714,
	-0.0431988,
	-0.0321,
	0.345678,
	0.37805,
	0.347025,
	0.324698,
	-0.199025,
	0.0158625,
	-0.517806,
	-0.533413,
	-0.301664,
	-0.0908483,
	0.144225,
	0.0674852,
	0.195281,
	-0.27388,
	-0.176544,
	0.0112494,
	-0.168952,
	-0.457574,
	-0.431283,
	0.0314438,
	0.614899,
	0.496365,
	-0.485109,
	0.0469053,
	0.076856,
	0.107734,
	-0.025191,
	-0.173076,
	-0.0874063,
	-0.244009,
	-0.15175,
	-0.0100299,
	-0.270012,
	-0.301834,
	-0.24099,
	-0.289692,
	-0.167408,
	-0.449255,
	0.259062,
	0.307227,
	0.0775242,
	-0.286675,
	-0.527271,
	-0.422706,
	-0.387022,
	-0.311789,
	0.107478,
	0.22755,
	0.0153493,
	0.812939,
	0.100471,
	-0.210334,
	0.109541,
	-0.367468,
	-0.270788,
	-0.201612,
	-0.24812,
	-0.0350141,
	-0.396938,
	-0.114983,
	-0.138719,
	-0.0490342,
	-0.276697,
	-0.135409,
	-0.0877156,
	0.0887618,
	-0.220804,
	-0.259925,
	-0.360088,
	-0.120207,
	0.125849,
	-0.595883,
	-0.220322,
	0.114136,
	-0.178142,
	0.0533763,
	0.0666233,
	-0.128172,
	0.00232956,
	-0.0506896,
	-0.0273384,
	0.246391,
	0.12078,
	0.0511575,
	0.229858,
	0.0215883,
	-0.147769,
	0.179386,
	0.145245,
	0.00718287,
	0.256854,
	-0.151243,
	0.0677799,
	0.0866675,
	0.0160144,
	0.0453218,
	0.0246787,
	0.167356,
	0.146041,
	-0.0679275,
	-0.206176,
	-0.204367,
	0.276665,
	0.0109103,
	0.13179,
	-0.0253263,
	0.558279,
	0.420842,
	0.230726,
	0.493213,
	0.0720898,
	0.31589,
	0.0950745,
	0.23165,
	0.281336,
	0.18902,
	-0.196707,
	-0.293946,
	-0.143968,
	0.0776922,
	-0.15614,
	0.122624,
	0.442888,
	0.575738,
	0.132121,
	0.163303,
	0.262377,
	-0.0868952,
	-0.148119,
	0.185807,
	0.345005,
	0.143668,
	0.53156,
	0.506341,
	0.298081,
	0.120153,
	-0.0252801,
	0.18723,
	0.325282,
	0.139651,
	0.0577589,
	0.0448075,
	0.13022,
	0.19857,
	-0.205592,
	0.19258,
	-0.181584,
	-0.235202,
	0.0174849,
	-0.0635638,
	0.0727899,
	0.216671,
	-0.0517096,
	0.00339451,
	-0.0322526,
	-0.10105,
	-0.0956691,
	0.269546,
	0.242749,
	0.309437,
	0.213028,
	-0.492944,
	-0.0713296,
	0.0372495,
	0.440469,
	0.301757,
	0.0720064,
	-0.390883,
	0.0901064,
	0.0413684,
	0.206216,
	0.216641,
	0.029492,
	0.132207,
	-0.0149115,
	0.0488786,
	0.136431,
	0.139277,
	0.432761,
	0.0757436,
	0.255747,
	0.195216,
	0.04841,
	-0.0712252,
	-0.137989,
	0.24663,
	0.380585,
	0.464355,
	-0.0415633,
	-0.129396,
	0.0786504,
	-0.330942,
	0.240854,
	0.37345,
	0.229028,
	-0.013467,
	-0.0251025,
	0.153281,
	0.278616,
	0.112359,
	-0.201171,
	-0.202668,
	0.273496,
	0.233355,
	0.21053,
	0.148995,
	0.193495,
	0.280493,
	0.354592,
	-0.216835,
	-0.280027,
	-0.198201,
	-0.330241,
	0.0865684,
	-0.304687,
	-0.151291,
	-0.420572,
	-0.150414,
	0.0496083,
	0.214975,
	0.302422,
	0.491225,
	0.588744,
	0.541358,
	0.624548,
	0.257275,
	0.631259,
	0.298347,
	0.0197019,
	0.270513,
	0.586107,
	0.578896,
	0.741896,
	0.578326,
	0.757771,
	0.698683,
	0.1707,
	-0.0526805,
	-0.385061,
	-0.427007,
	-0.0404677,
	0.045722,
	0.190876,
	-0.185949,
	-0.629713,
	-0.336612,
	-0.0554036,
	-0.15733,
	0.0306618,
	0.186372,
	-0.0181984,
	-0.121999,
	-0.257238,
	0.549113,
	0.734882,
	0.30222,
	0.414047,
	0.40577,
	0.526969,
	0.484272,
	0.486937,
	0.283241,
	0.406004,
	0.584785,
	0.424272,
	0.239143,
	-0.36597,
	-0.273739,
	0.00237821,
	-0.183818,
	0.0496376,
	-0.122914,
	-0.401935,
	-0.204048,
	-0.0484516,
	0.199672,
	0.208939,
	0.424934,
	0.655794,
	0.68013,
	0.0808676,
	0.323247,
	0.55603,
	0.460541,
	0.264666,
	0.544172,
	0.412724,
	0.196254,
	0.0909143,
	0.141592,
	0.0880442,
	0.348703,
	0.413335,
	-0.0632385,
	0.00712274,
	-0.211405,
	-0.0393564,
	-0.0235522,
	0.0694896,
	0.0598017,
	-0.339946,
	-0.0469537,
	0.220861,
	0.154174,
	0.170468,
	0.0889965,
	0.154017,
	0.346062,
	0.0444696,
	0.256646,
	0.589386,
	0.454336,
	0.536411,
	0.482665,
	0.394712,
	0.128692,
	0.106586,
	-0.113711,
	0.169678,
	0.229692,
	0.152782,
	0.0731052,
	-0.217702,
	0.155526,
	-0.0645942,
	0.537294,
	0.173135,
	0.176136,
	0.181535,
	-0.0805861,
	0.552896,
	0.360743,
	0.494245,
	-0.222198,
	-0.033572,
	-0.159998,
	-0.319043,
	0.196212,
	0.43656,
	0.413253,
	0.348833,
	0.502258,
	0.213495,
	0.0751172,
	-0.0614372,
	0.0657482,
	0.00382276,
	0.113032,
	0.196911,
	0.0433667,
	0.0552708,
	-0.0113645,
	-0.350109,
	0.123706,
	0.525996,
	0.330988,
	0.0280261,
	0.0217305,
	0.187159,
	0.399408,
	0.426662,
	-0.17891,
	-0.38085,
	-0.246192,
	-0.525599,
	-0.0103406,
	0.44974,
	0.445192,
	0.429807,
	0.365607,
	0.450919,
	-0.0967641,
	-0.372894,
	-0.268695,
	-0.293862,
	-0.288552,
	-0.445828,
	-0.244055,
	-0.397637,
	0.0556888,
	-0.288672,
	0.0284391,
	0.376377,
	0.0778111,
	0.284725,
	0.120481,
	-0.139733,
	0.225112,
	0.267084,
	0.0468025,
	-0.359482,
	-0.210327,
	-0.346583,
	0.0271151,
	0.19159,
	0.210245,
	0.0951658,
	0.368189,
	0.504364,
	0.0742567,
	-0.303067,
	-0.731441,
	-0.42302,
	-0.587825,
	-0.665556,
	-0.405148,
	-0.430992,
	-0.111721,
	-0.113816,
	-0.17852,
	0.17741,
	-0.0297542,
	0.25095,
	0.256716,
	-0.125536,
	0.102126,
	0.221838,
	-0.229265,
	-0.326801,
	-0.218012,
	-0.525697,
	-0.0497137,
	-0.0147913,
	0.292575,
	0.363325,
	0.416235,
	0.482226,
	0.61412,
	-0.319287,
	-0.630345,
	-0.701049,
	-0.663018,
	-0.725379,
	-0.592715,
	-0.448937,
	-0.726313,
	-0.296526,
	0.039839,
	0.279499,
	-0.0684503,
	0.117682,
	-0.0916032,
	-0.204428,
	0.483741,
	0.203528,
	-0.32211,
	-0.317729,
	-0.536325,
	-0.223335,
	0.0548185,
	0.24198,
	0.279057,
	0.2931,
	0.432035,
	0.554542,
	0.48555,
	-0.0779446,
	-0.395096,
	-0.565484,
	-0.552633,
	-0.666526,
	-0.522239,
	-0.398549,
	-0.690166,
	-0.306944,
	0.414253,
	0.147641,
	0.267745,
	-0.0819675,
	-0.0552329,
	-0.268805,
	0.268801,
	0.292629,
	-0.336633,
	-0.539784,
	-0.14115,
	-0.203191,
	0.0186453,
	0.463523,
	0.31027,
	0.346389,
	0.362262,
	0.481652,
	0.5825,
	-0.0122646,
	-0.193949,
	-0.490258,
	-0.354044,
	-0.462023,
	-0.542868,
	-0.455926,
	-0.732502,
	-0.156415,
	0.25721,
	0.396499,
	0.132276,
	-0.305012,
	-0.0584828,
	0.0643318,
	0.264012,
	0.304292,
	-0.412737,
	-0.193749,
	-0.233021,
	-0.29759,
	0.0568219,
	0.245167,
	0.224046,
	0.455248,
	0.34305,
	0.386845,
	0.301088,
	0.105445,
	-0.0327777,
	-0.263643,
	-0.366546,
	-0.165053,
	-0.417139,
	-0.39306,
	-0.47535,
	-0.336628,
	-0.297365,
	0.015619,
	0.06888,
	-0.110387,
	-0.161206,
	-0.243341,
	0.330204,
	0.820539,
	-0.407824,
	-0.364075,
	0.000109451,
	-0.288213,
	0.071524,
	0.110001,
	0.225261,
	0.258734,
	0.213495,
	0.322964,
	0.203944,
	0.0743668,
	-0.104232,
	-0.194736,
	-0.335064,
	-0.477434,
	-0.312189,
	-0.567375,
	-0.402735,
	0.0494832,
	-0.223817,
	0.378769,
	-0.076059,
	-0.107491,
	-0.228805,
	-0.0285205,
	0.341868,
	0.413728,
	-0.759029,
	-0.405477,
	-0.188299,
	-0.186773,
	0.0364583,
	0.0115582,
	0.207259,
	-0.0509592,
	0.0907161,
	0.251056,
	-0.202645,
	-0.316475,
	-0.453037,
	-0.341728,
	-0.216835,
	-0.201437,
	-0.313363,
	-0.30141,
	0.0334934,
	0.137115,
	-0.238852,
	0.426126,
	0.185592,
	-0.102735,
	-0.121851,
	-0.0302402,
	0.00256886,
	0.283511,
	-0.0885554,
	-0.0950983,
	0.040078,
	-0.10557,
	0.247399,
	0.203141,
	0.295625,
	0.23076,
	-0.254988,
	-0.265266,
	-0.241528,
	-0.102184,
	-0.213803,
	0.0020622,
	0.0389763,
	0.121051,
	0.0579663,
	-0.0943563,
	-0.121283,
	0.0986976,
	0.322679,
	0.0621344,
	0.215819,
	0.189763,
	-0.0765683,
	-0.163963,
	-0.122378,
	-0.0709103,
	0.359712,
	0.0974601,
	0.0192842,
	-0.0147897,
	0.334185,
	0.293119,
	0.580771,
	0.45301,
	-0.0672405,
	-0.402088,
	-0.207448,
	-0.0474931,
	-0.291728,
	0.0365444,
	0.396536,
	0.385464,
	0.0473984,
	0.0309147,
	-0.187622,
	0.176102,
	0.27602,
	0.236357,
	0.264556,
	0.304411,
	0.0554334,
	-0.0613845,
	-0.188152,
	0.409197,
	0.2955,
	0.463974,
	0.329806,
	0.391153,
	0.499818,
	0.425149,
	0.355894,
	0.339271,
	-0.00973749,
	-0.212362,
	-0.115188,
	-0.399803,
	-0.108125,
	0.0259246,
	0.127946,
	0.13568,
	0.253282,
	0.330365,
	0.157803,
	0.0756583,
	0.470267,
	0.620187,
	0.463314,
	-0.00845771,
	-0.240886,
	0.0297019,
	-0.277774,
	0.666795,
	0.320692,
	0.462829,
	0.224388,
	0.516471,
	0.542228,
	0.284994,
	0.296689,
	0.371534,
	-0.146738,
	-0.0733316,
	0.171801,
	-0.112269,
	-0.16881,
	-0.084496,
	0.388608,
	0.411833,
	0.0836954,
	0.0939518,
	0.153762,
	0.183782,
	0.43438,
	0.573744,
	0.0954226,
	-0.0482432,
	-0.106156,
	-0.170766,
	0.13094,
	0.0660418,
	0.5573,
	0.478303,
	0.39528,
	0.0929796,
	0.187691,
	0.173205,
	0.278802,
	0.299067,
	0.0491819,
	-0.0637008,
	-0.183966,
	-0.193882,
	-0.231041,
	-0.111988,
	0.355501,
	0.309998,
	0.148113,
	0.397658,
	-0.0401169,
	0.369954,
	0.365193,
	0.603664,
	0.472953,
	0.0603178,
	-0.188908,
	-0.177928,
	-0.412374,
	-0.263119,
	-0.297487,
	0.128208,
	0.274287,
	0.473702,
	0.272355,
	0.226591,
	0.372712,
	0.227593,
	-0.37127,
	-0.505609,
	-0.308883,
	-0.189631,
	-0.117741,
	-0.0891334,
	-0.109764,
	0.344845,
	0.208619,
	0.0713598,
	0.230913,
	0.439468,
	-0.012318,
	0.744273,
	0.362258,
	-0.207394,
	-0.257161,
	-0.179209,
	-0.194984,
	-0.211794,
	0.0645051,
	0.45422,
	-0.178239,
	0.113869,
	0.223126,
	0.144506,
	-0.320053,
	-0.320159,
	-0.469005,
	-0.569163,
	-0.661826,
	-0.536953,
	-0.351015,
	-0.235226,
	-0.453452,
	0.195481,
	0.416784,
	0.25759,
	0.312244,
	0.18539,
	0.282383,
	0.594279,
	0.275401,
	-0.234545,
	-0.29261,
	-0.313116,
	0.12117,
	-0.394684,
	-0.322736,
	-0.171255,
	-0.384444,
	0.0442107,
	0.00882623,
	-0.0515986,
	-0.0661047,
	0.12722,
	0.0525061,
	-0.321885,
	-0.350905,
	-0.236209,
	-0.440102,
	-0.278856,
	-0.0185665,
	0.417852,
	0.446059,
	0.464369,
	0.263151,
	0.230181,
	0.238652,
	0.62228,
	0.19009,
	-0.27607,
	-0.308165,
	0.125388,
	0.229613,
	-0.00571936,
	0.298671,
	0.0202659,
	0.359589,
	0.201496,
	0.101599,
	0.0371668,
	0.188606,
	0.315051,
	0.441076,
	0.319759,
	0.206288,
	0.0153329,
	-0.114015,
	0.193265,
	0.376389,
	0.545337,
	0.765356,
	0.863702,
	0.841572,
	0.388672,
	0.462415,
	0.522385,
	0.299188,
	0.120062,
	-0.487596,
	0.160617,
	0.12175,
	-0.0909717,
	0.231825,
	-0.0403544,
	-0.159338,
	0.102308,
	0.166316,
	0.301536,
	0.295365,
	0.112818,
	0.33591,
	-0.411062,
	0.0383149,
	0.0633728,
	-0.0579132,
	0.299649,
	-0.190397,
	0.289723,
	0.476639,
	0.304231,
	0.317789,
	0.109674,
	0.213169,
	0.254645,
	0.0355953,
	0.15554,
	-0.20315,
	0.0232475,
	0.0269656,
	0.160804,
	-0.224353,
	-0.661144,
	-0.22568,
	-0.175423,
	-0.0151058,
	-0.0938909,
	0.0802394,
	-0.071514,
	-0.0605998,
	0.0468395,
	-0.000668685,
	-0.151775,
	0.029239,
	0.0563651,
	0.116007,
	-0.0276882,
	0.0388474,
	-0.12159,
	-0.161257,
	-0.158399,
	-0.225218,
	0.178891,
	0.182907,
	0.0625184,
	-0.164353,
	-0.878927,
	-0.386893,
	-0.303454,
	0.00434359,
	0.110943,
	-0.0781259,
	-0.175416,
	-0.122569,
	0.146974,
	-0.0547355,
	0.0491878,
	0.0719561,
	-0.211867,
	0.101757,
	0.447138,
	0.303143,
	-0.0232313,
	0.323298,
	0.359024,
	-0.249474,
	-0.16691,
	-0.221662,
	0.128372,
	0.0888862,
	-0.116466,
	-0.210907,
	0.165244,
	0.255614,
	-0.1887,
	-0.263028,
	0.103427,
	-0.205263,
	-0.124941,
	-0.143594,
	-0.233499,
	-0.248167,
	-0.0491361,
	0.0170847,
	0.0350209,
	-0.117326,
	0.130525,
	0.116872,
	0.0509491,
	0.120515,
	0.0151957,
	0.141668,
	0.208065,
	0.125375,
	-0.12267,
	0.0606738,
	-0.124636,
	0.261681,
	0.273157,
	-0.155906,
	-0.17743,
	-0.497866,
	-0.381096,
	-0.251424,
	-0.17507,
	-0.0319523,
	-0.0185329,
	-0.284302,
	-0.00932518,
	-0.0220377,
	-0.103985,
	-0.161979,
	0.0305316,
	-0.13119,
	-0.180763,
	-0.0475983,
	0.118764,
	-0.0732049,
	-0.0847767,
	-0.012475,
	0.00752943,
	-0.00895285,
	0.103208,
	-0.0299412,
	-0.0304983,
	-0.00582078,
	0.0960006,
	-0.223349,
	-0.383257,
	-0.440735,
	0.0593759,
	-0.124485,
	0.281199,
	0.213025,
	0.0637492,
	-0.0876305,
	-0.0971533,
	-0.146392,
	-0.451523,
	-0.28297,
	0.226311,
	0.326842,
	0.170484,
	0.291202,
	0.0256927,
	0.198528,
	0.0387894,
	0.218289,
	0.033246,
	0.264461,
	-0.0593689,
	-0.172101,
	-0.210087,
	0.205171,
	-0.155821,
	-0.26893,
	-0.573377,
	-0.642952,
	-0.493918,
	0.14264,
	0.327583,
	-0.0398881,
	-0.0847531,
	-0.620799,
	-0.654352,
	-0.270665,
	-0.232061,
	0.147382,
	0.104088,
	0.33445,
	0.477058,
	0.386484,
	0.459341,
	0.513505,
	0.433742,
	0.470303,
	0.317843,
	0.264829,
	0.045006,
	0.27879,
	0.112915,
	-0.121373,
	-0.312448,
	-0.617273,
	-0.338266,
	-0.411719,
	-0.326607,
	0.197172,
	0.489415,
	0.454952,
	-0.221954,
	0.0625111,
	0.0643574,
	-0.122435,
	-0.165272,
	-0.435653,
	-0.0925694,
	-0.15662,
	-0.25078,
	-0.358409,
	-0.0458464,
	0.260118,
	0.58256,
	0.436419,
	0.564202,
	0.262915,
	-0.258771,
	-0.326816,
	-0.0264412,
	0.0648949,
	0.144704,
	-0.385551,
	-0.160926,
	-0.287931,
	-0.272794,
	0.32515,
	0.163247,
	0.131881,
	0.135098,
	0.359497,
	0.385907,
	-0.0496387,
	-0.0463883,
	-0.278631,
	-0.146278,
	-0.120293,
	-0.164091,
	-0.219621,
	-0.0249989,
	0.352329,
	0.30231,
	0.394026,
	0.278981,
	0.222416,
	-0.284303,
	-0.190704,
	-0.0137451,
	-0.0382707,
	0.523198,
	-0.0878086,
	0.205872,
	-0.545219,
	-0.544567,
	0.0514397,
	0.143479,
	-0.654611,
	0.033383,
	0.0521719,
	0.075816,
	-0.291152,
	-0.109459,
	-0.537861,
	-0.171056,
	-0.176878,
	-0.223182,
	-0.0169806,
	-0.241162,
	0.0369483,
	0.278681,
	0.00598303,
	0.101514,
	0.0609571,
	-0.0381999,
	-0.542788,
	-0.0491532,
	0.275722,
	0.398516,
	0.2495,
	0.335862,
	-0.721422,
	0.298659,
	0.0395625,
	0.217755,
	-0.545845,
	0.0238711,
	-0.0340148,
	0.0495277,
	0.0513339,
	0.0425827,
	-0.0443147,
	-0.165684,
	-0.126933,
	-0.145757,
	-0.152423,
	-0.119249,
	0.237841,
	-0.190206,
	-0.225527,
	-0.349402,
	-0.19234,
	-0.381436,
	0.133729,
	0.300106,
	0.0567274,
	0.243536,
	0.111456,
	0.122329,
	-0.016778,
	0.371574,
	0.00996173,
	0.100212,
	-0.543663,
	-0.0626492,
	0.253531,
	0.423507,
	0.155433,
	0.157047,
	0.250103,
	-0.020863,
	-0.0850343,
	-0.188654,
	-0.173328,
	-0.159447,
	0.0225323,
	-0.254765,
	-0.399043,
	-0.3494,
	-0.460804,
	-0.448467,
	0.0083454,
	0.376195,
	0.223527,
	-0.478109,
	0.031723,
	-0.0667236,
	-0.144937,
	0.0339199,
	0.311061,
	-0.0431209,
	-0.414361,
	-0.0706135,
	0.0329444,
	0.183838,
	0.399481,
	0.571376,
	0.394748,
	0.0452589,
	0.0840196,
	0.027039,
	-0.24286,
	0.0101801,
	0.215871,
	-0.190596,
	-0.242722,
	-0.427724,
	-0.268384,
	-0.39815,
	-0.105214,
	0.310784,
	0.598306,
	-0.593475,
	-0.371187,
	0.0159332,
	-0.0869089,
	-0.314294,
	0.0619246,
	-0.112388,
	-0.638202,
	-0.0897132,
	-0.0799117,
	0.0882096,
	0.434972,
	0.630601,
	0.488721,
	0.581422,
	0.43001,
	0.409353,
	0.393336,
	0.59184,
	0.300482,
	-0.103793,
	-0.0426293,
	-0.138285,
	-0.364274,
	-0.155539,
	0.345604,
	0.470724,
	0.0677762,
	-0.45023,
	-0.49536,
	-0.513535,
	0.0244238,
	-0.352077,
	0.180895,
	-0.159215,
	0.327229,
	0.163553,
	-0.132399,
	0.191627,
	0.121026,
	0.37639,
	0.677806,
	0.574264,
	0.52146,
	0.258564,
	0.483279,
	0.668388,
	0.566418,
	0.283028,
	-0.0166131,
	-0.0649312,
	-0.380796,
	0.110557,
	0.353816,
	0.510497,
	-0.0795744,
	-0.401113,
	0.221593,
	-0.0834484,
	0.0860943,
	-0.718868,
	-0.15666,
	0.500391,
	0.500324,
	0.0159052,
	0.136928,
	0.250587,
	0.250007,
	0.103892,
	0.383584,
	0.676584,
	0.592921,
	0.428353,
	0.429677,
	0.55596,
	0.50541,
	0.253994,
	0.0398604,
	-0.256733,
	-0.130868,
	-0.0184267,
	0.63193,
	0.407674,
	-0.346075,
	-0.577512,
	0.20539,
	-0.282483,
	-0.188807,
	-0.607049,
	-0.0560152,
	0.216061,
	0.25597,
	-0.0274929,
	0.200947,
	0.183613,
	-0.126035,
	0.20232,
	0.107623,
	0.553472,
	0.427731,
	0.292254,
	0.470989,
	0.570661,
	0.531068,
	0.018094,
	0.0574151,
	-0.252757,
	-0.0827869,
	0.397557,
	0.361352,
	0.515702,
	-0.30219,
	-0.158452,
	0.153442,
	0.195918,
	-0.233227,
	-0.338081,
	-0.0464293,
	0.0124445,
	0.426935,
	0.216024,
	0.315564,
	0.347034,
	0.101331,
	0.181361,
	0.215183,
	0.315863,
	0.550602,
	0.200272,
	0.570914,
	0.524409,
	0.31613,
	0.465867,
	0.203963,
	-0.0341732,
	0.112172,
	0.811672,
	0.386721,
	0.571657,
	0.0545441,
	-0.314454,
	-0.0319032,
	0.0708414,
	0.0362056,
	-0.66351,
	0.0418457,
	-0.0196119,
	0.167431,
	0.920204,
	0.599966,
	0.417406,
	-0.0331389,
	-0.119022,
	0.0350207,
	0.136447,
	0.298062,
	0.162571,
	0.543896,
	0.430247,
	0.364802,
	0.295099,
	0.355304,
	0.017034,
	0.0873502,
	0.532415,
	0.0806853,
	0.324648,
	-0.426694,
	-0.24699,
	-0.143548,
	-0.128573,
	-0.103183,
	-0.509861,
	-0.287379,
	0.0145245,
	0.57126,
	0.884369,
	0.623537,
	0.685526,
	-0.188762,
	-0.169215,
	-0.211634,
	-0.0186387,
	-0.0517714,
	0.0697258,
	0.32837,
	0.326792,
	0.307362,
	-0.0276681,
	0.0212155,
	-0.206116,
	-0.210724,
	-0.546359,
	-0.407052,
	-0.260482,
	0.24816,
	0.0560906,
	0.313143,
	-0.0864794,
	-0.164188,
	-0.03961,
	-0.259402,
	0.087574,
	-0.168539,
	0.788969,
	0.634978,
	0.457536,
	0.0650453,
	-0.174406,
	-0.164809,
	0.0621924,
	-0.0224771,
	0.125368,
	0.417466,
	0.627386,
	0.33714,
	0.0110661,
	0.106954,
	-0.231044,
	-0.0404742,
	-0.152771,
	-0.0161008,
	0.0233575,
	0.093574,
	0.240392,
	0.471609,
	0.244277,
	-0.0289814,
	-0.135531,
	0.126212,
	0.102886,
	0.27177,
	0.740286,
	0.543913,
	0.277939,
	-0.0181911,
	-0.0548275,
	-0.0376897,
	-0.0386703,
	0.1173,
	0.0343463,
	0.329204,
	0.323037,
	0.224812,
	-0.038766,
	-0.0406417,
	-0.397019,
	-0.115184,
	-0.136631,
	0.0293024,
	0.183067,
	0.071567,
	0.182147,
	0.229748,
	0.514871,
	-0.134117,
	-0.0927174,
	0.12919,
	-0.230229,
	0.383165,
	0.559686,
	0.449062,
	-0.0129054,
	0.0425319,
	-0.237316,
	-0.124115,
	-0.233669,
	-0.211884,
	-0.250209,
	0.109643,
	0.30187,
	0.190854,
	-0.23684,
	-0.0973189,
	-0.413088,
	-0.138529,
	-0.107639,
	-0.0338206,
	0.290634,
	0.282526,
	0.356678,
	0.380801,
	0.293538,
	0.286671,
	-0.204976,
	-0.0132245,
	-0.148864,
	0.331128,
	0.216712,
	0.165229,
	0.199091,
	0.206996,
	0.19578,
	0.0993984,
	0.048021,
	-0.0257223,
	-0.169358,
	-0.280178,
	-0.459747,
	-0.535971,
	-0.579487,
	-0.42189,
	-0.760499,
	-0.335057,
	-0.389442,
	0.225095,
	0.0852389,
	0.561799,
	0.712619,
	0.312937,
	0.0864358,
	-0.454536,
	-0.217178,
	0.130292,
	0.262611,
	0.480464,
	0.425103,
	-0.0852838,
	0.270112,
	0.137608,
	0.104075,
	-0.167978,
	-0.515653,
	-0.521818,
	-0.320608,
	-0.59959,
	-0.629535,
	-0.826478,
	-0.696601,
	-0.385316,
	-0.526822,
	-0.501636,
	-0.353427,
	0.0635585,
	0.179225,
	0.594405,
	0.342016,
	0.4027,
	0.00776277,
	-0.17153,
	-0.663169,
	0.14573,
	0.257413,
	0.696096,
	0.864599,
	0.309427,
	0.250199,
	0.195013,
	-0.135752,
	-0.366993,
	-0.397359,
	-0.328295,
	-0.252332,
	-0.522038,
	-0.634417,
	-0.929486,
	-0.557731,
	-0.268023,
	-0.315925,
	-0.50856,
	-0.25496,
	0.118615,
	0.496754,
	0.546646,
	0.181531,
	0.114799,
	0.176965,
	-0.20381,
	-0.358884,
	0.0346852,
	0.195303,
	0.501786,
	0.607071,
	0.669656,
	0.55131,
	0.188434,
	0.381795,
	0.135107,
	-0.210367,
	0.135329,
	-0.227652,
	-0.198877,
	-0.662363,
	-0.81052,
	-0.246744,
	-0.378192,
	-0.132819,
	-0.134976,
	-0.200385,
	0.331813,
	0.684983,
	0.789081,
	-0.170397,
	-0.160953,
	-0.0655973,
	0.0653194,
	-0.715492,
	-0.113879,
	-0.0172313,
	0.289724,
	0.218454,
	0.0928612,
	0.141321,
	0.135765,
	0.273902,
	0.32047,
	0.28785,
	0.436801,
	0.0867356,
	0.143475,
	0.170903,
	-0.487952,
	-0.306428,
	-0.298624,
	-0.00222403,
	-0.35719,
	0.186102,
	0.261691,
	0.377159,
	0.0363214,
	-0.297383,
	-0.160998,
	-0.266917,
	0.363274,
	-0.886932,
	0.107097,
	0.170869,
	0.151637,
	0.100593,
	-0.221467,
	-0.0508711,
	-0.180455,
	0.539687,
	0.149323,
	0.302702,
	0.206457,
	0.380063,
	0.459781,
	-0.076749,
	0.144016,
	-0.143569,
	0.0888821,
	-0.465633,
	0.316289,
	0.428012,
	0.3604,
	0.252147,
	-0.167403,
	0.398336,
	-0.194574,
	-0.0427341,
	0.0387553,
	0.0618661,
	-0.183783,
	-0.16757,
	-0.416148,
	0.58486,
	-0.230798,
	-0.135762,
	-0.0764806,
	0.00972159,
	-0.0621292,
	-0.194192,
	-0.141151,
	-0.0172041,
	-0.0016631,
	0.034868,
	0.0859509,
	-0.114166,
	0.0339223,
	0.0489271,
	-0.0720009,
	0.0533207,
	-0.508603,
	-0.749284,
	-0.053635,
	-0.264978,
	0.120252,
	-0.0702711,
	0.11388,
	-0.247289,
	-0.413867,
	-0.435011,
	-0.487763,
	-0.701806,
	-0.314315,
	-0.329286,
	-0.370315,
	-0.0529154,
	0.30832,
	0.240039,
	0.393698,
	0.211029,
	-0.107167,
	-0.223319,
	0.0416629,
	0.310234,
	0.0186342,
	0.050138,
	-0.221423,
	-0.504323,
	-0.449487,
	-0.455353,
	-0.452715,
	-0.132442,
	0.149152,
	-0.382239,
	0.495825,
	0.154343,
	0.0371495,
	-0.246727,
	-0.280816,
	-0.34742,
	-0.562966,
	-0.489649,
	-0.443455,
	-0.255083,
	-0.1463,
	-0.375877,
	-0.228922,
	0.0321889,
	-0.159621,
	-0.283849,
	-0.166579,
	-0.281279,
	-0.37476,
	-0.615087,
	-0.431487,
	-0.519681,
	-0.670699,
	-0.46851,
	-0.570263,
	-0.370568,
	-0.0377184,
	0.00832851,
	0.185845,
	-0.196226,
	-0.111641,
	-0.380508,
	-0.1373,
	-0.184987,
	-0.328971,
	-0.327692,
	-0.40513,
	0.0735855,
	-0.0380621,
	-0.228979,
	-0.146743,
	-0.217755,
	-0.192183,
	-0.263394,
	-0.156188,
	-0.447551,
	-0.350031,
	-0.413671,
	-0.491424,
	-0.358063,
	-0.453384,
	-0.368735,
	-0.804457,
	-0.651931,
	-0.562838,
	-0.378017,
	-0.19547,
	0.18041,
	0.134543,
	-0.116593,
	0.0646752,
	0.180851,
	-0.127642,
	-0.123621,
	0.242502,
	0.516138,
	0.536361,
	-0.0502831,
	-0.0156271,
	-0.236095,
	-0.309715,
	-0.239487,
	-0.409356,
	-0.370159,
	-0.324484,
	-0.153513,
	0.108921,
	0.239741,
	0.230549,
	0.269232,
	-0.150923,
	0.119718,
	0.36782,
	-0.544659,
	-0.144402,
	0.529087,
	0.157074,
	0.144307,
	0.338192,
	-0.0226644,
	0.252073,
	0.624381,
	0.116952,
	0.364621,
	0.504931,
	0.152974,
	0.419456,
	0.450442,
	0.201967,
	-0.0520007,
	-0.278213,
	-0.212702,
	-0.175691,
	-0.165878,
	0.0517209,
	0.427683,
	0.196053,
	0.0223459,
	-0.14347,
	-0.0981261,
	0.103403,
	-0.379694,
	0.0282591,
	0.37014,
	-0.181619,
	0.416152,
	0.290026,
	0.0907108,
	0.176737,
	0.444339,
	0.177777,
	0.0798014,
	0.257531,
	0.381221,
	0.177857,
	-0.103915,
	-0.00491136,
	-0.212526,
	-0.237328,
	-0.00882483,
	0.0350651,
	0.198206,
	0.432761,
	0.560308,
	0.383371,
	0.102016,
	-0.148557,
	-0.110709,
	-0.0535678,
	-0.258995,
	0.111935,
	-0.17992,
	-0.107528,
	0.312773,
	-0.221634,
	-0.239137,
	-0.109955,
	0.175207,
	0.0480405,
	0.00191567,
	-0.159271,
	0.0189322,
	-0.0310851,
	0.142792,
	-0.182203,
	-0.514604,
	-0.557465,
	-0.475436,
	-0.527032,
	-0.217196,
	0.418822,
	0.577535,
	0.31275,
	-0.0174223,
	-0.0682133,
	0.128144,
	0.318989,
	0.00752544,
	0.238666,
	0.0521301,
	-0.170203,
	0.227046,
	-0.0929054,
	-0.053713,
	0.0739776,
	0.273467,
	-0.189347,
	-0.215224,
	-0.0862904,
	-0.361492,
	-0.183183,
	-0.0615124,
	-0.303648,
	-0.383896,
	-0.499285,
	-0.421679,
	-0.596855,
	-0.25976,
	0.351484,
	0.625369,
	0.0662028,
	-0.161524,
	-0.46211,
	0.598087,
	0.501904,
	0.22842,
	-0.112767,
	0.155101,
	-0.300887,
	0.148783,
	0.121271,
	0.233922,
	0.136731,
	-0.0637138,
	-0.0642724,
	-0.244176,
	-0.285173,
	-0.444409,
	-0.60945,
	-0.348302,
	-0.079833,
	-0.174212,
	-0.440183,
	-0.223465,
	-0.531069,
	-0.261685,
	0.0495347,
	0.604478,
	0.174161,
	-0.364984,
	0.227191,
	0.10362,
	0.310664,
	0.590958,
	0.322355,
	-0.0960735,
	-0.244651,
	-0.504925,
	0.308129,
	0.557187,
	0.188178,
	0.0744366,
	0.0132653,
	0.0960018,
	-0.0323231,
	-0.32729,
	-0.368015,
	-0.0586322,
	0.0262898,
	0.0602535,
	0.0102057,
	-0.18032,
	-0.0565446,
	-0.328435,
	0.330676,
	0.189001,
	-0.282333,
	-0.375982,
	0.612863,
	0.345646,
	0.200547,
	0.662979,
	-0.178267,
	-0.231446,
	-0.103331,
	-0.642476,
	0.144539,
	0.131357,
	0.144997,
	0.195888,
	-0.1776,
	-0.061475,
	-0.192694,
	-0.441565,
	-0.318292,
	-0.236069,
	0.319575,
	0.449054,
	0.0469582,
	0.131075,
	0.0647224,
	0.00206038,
	0.342106,
	0.488274,
	0.0438948,
	-0.308585,
	0.677063,
	-0.082605,
	0.13639,
	0.197212,
	-0.217256,
	-0.524943,
	-0.26727,
	-0.44154,
	0.0938328,
	-0.088477,
	0.206156,
	0.0482505,
	-0.138174,
	-0.0906987,
	-0.148541,
	-0.212706,
	-0.273908,
	-0.146498,
	-0.0120225,
	-0.193849,
	0.00484158,
	0.175215,
	0.262784,
	0.398092,
	0.305797,
	0.716044,
	0.0702929,
	-0.359353,
	0.487803,
	-0.0656358,
	-0.213857,
	-0.0998812,
	-0.042049,
	-0.101868,
	0.116725,
	-0.00954113,
	-0.453198,
	-0.269504,
	0.160861,
	0.222004,
	-0.0742859,
	0.194184,
	0.393609,
	-0.0715269,
	0.0761643,
	0.00903059,
	0.0894614,
	-0.352534,
	-0.0407078,
	0.171556,
	0.0736937,
	0.355263,
	0.454321,
	0.806546,
	-0.057217,
	-0.446186,
	-0.0145283,
	-0.249878,
	-0.357007,
	-0.170614,
	-0.00130613,
	-0.169,
	0.348266,
	-0.111827,
	-0.2438,
	-0.444391,
	0.0968873,
	0.309789,
	0.248126,
	0.216963,
	0.327273,
	0.154106,
	0.0484705,
	0.119692,
	0.0393641,
	-0.252772,
	-0.0239604,
	0.191667,
	0.404608,
	0.343189,
	0.425544,
	0.60237,
	0.121937,
	-0.342263,
	-0.443638,
	-0.563206,
	0.0250345,
	-0.144861,
	-0.119087,
	-0.195088,
	-0.291318,
	0.0599703,
	-0.312342,
	-0.47068,
	0.298969,
	0.253755,
	0.267275,
	0.449136,
	0.407776,
	0.448126,
	0.397171,
	0.0134359,
	-0.0511744,
	-0.143993,
	-0.0462253,
	0.501592,
	0.428209,
	0.310548,
	0.133424,
	0.434538,
	-0.0383586,
	-0.554649,
	-0.436463,
	-0.25275,
	0.0601809,
	-0.336745,
	-0.0786609,
	-0.322997,
	-0.114338,
	-0.140955,
	-0.314524,
	-0.123863,
	0.145646,
	0.174991,
	0.174955,
	0.302683,
	0.295973,
	0.352466,
	0.573003,
	0.201555,
	0.411057,
	0.4148,
	0.159978,
	0.584154,
	0.732148,
	0.443254,
	0.295865,
	-0.0122058,
	-0.191533,
	-0.293454,
	-0.0604213,
	-0.341622,
	-0.27297,
	-0.154519,
	-0.165953,
	-0.267634,
	-0.135439,
	-0.0307651,
	-0.412719,
	0.328272,
	0.0981457,
	0.0807976,
	-0.0123307,
	0.134149,
	0.241905,
	0.0440615,
	0.169987,
	-0.0828012,
	0.12624,
	0.275695,
	0.220944,
	0.416162,
	0.59532,
	0.490939,
	0.110458,
	-0.0191032,
	0.48111,
	0.505547,
	0.0324788,
	-0.353194,
	-0.104114,
	0.0297196,
	0.0571198,
	-0.116209,
	-0.0312903,
	0.288103,
	0.057302,
	0.00158508,
	0.207378,
	0.159949,
	0.0239292,
	0.0896904,
	0.0586842,
	-0.00834874,
	-0.0695026,
	0.109228,
	0.248521,
	0.374765,
	0.387552,
	0.288421,
	0.0810766,
	0.0652146,
	0.0396816,
	0.283262,
	-0.0683974,
	0.503661,
	0.942444,
	0.411618,
	0.235834,
	0.134218,
	-0.0998427,
	-0.0668839,
	-0.107092,
	-0.132065,
	0.0895852,
	0.0706627,
	0.20484,
	0.120688,
	-0.0289438,
	0.0522485,
	0.139348,
	0.067982,
	0.206774,
	0.262662,
	0.507635,
	0.535466,
	0.266345,
	0.0926437,
	0.279656,
	-0.0289619,
	0.478245,
	0.458468,
	0.21121,
	0.232874,
	0.301208,
	0.229712,
	0.512604,
	-0.15191,
	0.0536039,
	-0.0654233,
	-0.26021,
	-0.234922,
	-0.0487102,
	0.143378,
	0.0425959,
	0.048553,
	0.116022,
	0.158154,
	0.489962,
	0.357251,
	0.237754,
	0.565305,
	0.787455,
	0.480666,
	0.243768,
	0.175659,
	0.0650178,
	0.109285,
	-0.0934293,
	0.0113496,
	0.2462,
	0.330446,
	0.426396,
	0.349649,
	0.252305,
	-0.199281,
	-0.126786,
	-0.48011,
	-0.325409,
	-0.313981,
	-0.27468,
	-0.339059,
	0.137878,
	0.0681478,
	0.229626,
	0.258667,
	0.757751,
	0.446847,
	0.575966,
	0.616663,
	0.455104,
	0.415572,
	0.232201,
	0.3643,
	0.000349879,
	0.0967118,
	-0.141439,
	-0.105423,
	-0.218682,
	0.121333,
	0.294468,
	0.374207,
	0.47826,
	0.0768002,
	-0.0700576,
	-0.313849,
	-0.57313,
	-0.513283,
	-0.19078,
	0.438308,
	0.563824,
	0.62242,
	0.582556,
	0.485051,
	0.69054,
	0.712572,
	0.623568,
	0.584702,
	0.343612,
	0.297559,
	0.397587,
	0.198301,
	0.0191022,
	-0.153898,
	0.242312,
	0.108864,
	0.318269,
	0.370509,
	0.316668,
	0.680729,
	0.386455,
	-0.00773839,
	-0.241804,
	-0.251072,
	-0.179404,
	0.0513489,
	-0.0960963,
	0.120922,
	0.0794808,
	0.362617,
	0.424969,
	0.297841,
	0.650739,
	0.962253,
	0.943096,
	0.577525,
	0.628642,
	0.530991,
	0.145087,
	-0.101002,
	0.0718705,
	0.17539,
	0.517174,
	0.128969,
	0.328186,
	0.375247,
	0.514977,
	0.354267,
	0.0896392,
	-0.246931,
	-0.483641,
	-0.0649925,
	-0.145189,
	0.300358,
	0.150306,
	0.0473619,
	0.431527,
	0.277734,
	0.174354,
	0.37093,
	0.302055,
	0.403158,
	0.67545,
	0.784232,
	0.723291,
	0.464968,
	-0.0772323,
	-0.223332,
	-0.0300061,
	0.220301,
	0.133368,
	-0.00201254,
	0.0575309,
	0.251792,
	0.632926,
	0.219904,
	-0.101471,
	-0.260716,
	-0.243012,
	-0.697472,
	-0.5165,
	0.144306,
	0.478631,
	0.198551,
	0.265687,
	0.0422736,
	0.337072,
	0.218765,
	0.48832,
	-0.0506187,
	-0.294883,
	0.184796,
	0.153838,
	0.124737,
	-0.309624,
	0.118248,
	0.0408118,
	0.16535,
	0.198299,
	0.104863,
	0.0121231,
	0.0024256,
	0.152403,
	-0.155843,
	-0.276021,
	0.0720106,
	-0.531683,
	0.48512,
	0.095513,
	0.367387,
	0.256173,
	0.379519,
	0.262444,
	0.156435,
	0.360581,
	0.394894,
	0.310749,
	0.352374,
	0.321187,
	0.260273,
	0.388373,
	0.0903723,
	0.142436,
	-0.114826,
	-0.409488,
	0.0148317,
	0.0974799,
	-0.170525,
	-0.0207851,
	0.120282,
	-0.201089,
	-0.174842,
	-0.199004,
	-0.226857,
	-0.984104,
	0.420364,
	-0.251204,
	-0.111531,
	0.0322316,
	0.25611,
	0.172751,
	-0.137938,
	0.290687,
	-0.486586,
	0.0141785,
	0.3778,
	0.0824471,
	0.188387,
	0.202989,
	-0.0447814,
	0.00453137,
	-0.168892,
	0.620901,
	0.46778,
	0.307278,
	-0.0449944,
	0.171136,
	0.183485,
	-0.293917,
	-0.146117,
	-0.342355,
	-0.083654,
	-0.148909,
	0.0318824,
	-0.169324,
	-0.20599,
	-0.0781972,
	-0.181991,
	0.0757372,
	0.0132752,
	-0.0444298,
	-0.0215797,
	-0.0961119,
	-0.365954,
	-0.271409,
	-0.0954184,
	-0.0280758,
	0.0148551,
	0.0289972,
	-0.0692174,
	0.184844,
	0.109677,
	0.147476,
	0.221859,
	-0.0593324,
	0.056069,
	0.263765,
	-0.15524,
	0.285697,
	0.0399007,
	-0.138041,
	0.485118,
	-0.428086,
	-0.453249,
	-0.353877,
	-0.3061,
	-0.0750016,
	-0.00611412,
	0.034346,
	-0.0705598,
	0.190755,
	0.175059,
	0.00382932,
	0.0535341,
	-0.084723,
	0.419881,
	0.230529,
	0.277204,
	0.0844988,
	0.170751,
	-0.18166,
	-0.254363,
	-0.148397,
	-0.080178,
	-0.30728,
	-0.224645,
	-0.26151,
	-0.299197,
	-0.0849409,
	-0.0260742,
	-0.10071,
	-0.212296,
	0.0529517,
	0.00987349,
	0.222691,
	0.0346499,
	0.143461,
	0.132069,
	0.107665,
	-0.00235867,
	-0.17556,
	0.20231,
	0.107201,
	0.0810768,
	-0.190766,
	-0.129938,
	-0.265375,
	-0.277697,
	-0.0424806,
	-0.227856,
	-0.0179512,
	0.0286582,
	-0.230912,
	-0.223537,
	-0.25302,
	0.0221957,
	-0.39663,
	0.48079,
	0.315448,
	0.0179664,
	0.170846,
	-0.0643576,
	0.0737503,
	-0.0966263,
	-0.098987,
	-0.172459,
	0.102829,
	-0.174482,
	-0.149993,
	0.0114581,
	-0.00505085,
	-0.239783,
	-0.0819788,
	0.127768,
	-0.0939741,
	-0.210927,
	0.167287,
	-0.0661531,
	0.11013,
	0.0817272,
	0.358828,
	0.0126842,
	-0.373349,
	-0.344467,
	-0.485826,
	0.351886,
	0.239552,
	0.147868,
	0.125853,
	0.210678,
	-0.361472,
	-0.0418069,
	-0.121864,
	-0.271227,
	0.161717,
	-0.360459,
	0.185217,
	0.32265,
	0.310233,
	0.231585,
	0.345311,
	0.206434,
	-0.154182,
	-0.241337,
	-0.555436,
	0.168824,
	0.0554875,
	0.19923,
	0.00109816,
	-0.110707,
	-0.285905,
	-0.303286,
	-0.370349,
	0.0442242,
	0.386187,
	0.58527,
	0.18036,
	0.227446,
	0.195691,
	-0.0670771,
	-0.135832,
	0.231639,
	0.010182,
	0.290161,
	0.284175,
	0.616609,
	0.553267,
	0.41202,
	0.0561452,
	-0.032718,
	0.30234,
	0.253481,
	-0.363962,
	-1.02836,
	-1.15426,
	-0.0105323,
	0.130462,
	-0.0465736,
	-0.136068,
	-0.273307,
	-0.322041,
	-0.34403,
	0.33566,
	0.814888,
	0.364156,
	0.207564,
	0.0318369,
	-0.0399466,
	-0.158984,
	0.0261463,
	0.0769763,
	0.0775626,
	0.347581,
	0.276439,
	0.308404,
	-0.0814429,
	-0.0194374,
	-0.502573,
	-0.349677,
	-0.0777328,
	0.431186,
	0.329132,
	0.322827,
	-0.0425253,
	0.221911,
	0.0564941,
	-0.291911,
	-0.364693,
	-0.247379,
	-0.209961,
	0.422996,
	0.593061,
	0.621827,
	0.0944465,
	-0.0101856,
	-0.0464209,
	-0.0287091,
	0.0502712,
	0.269049,
	-0.0457701,
	0.37468,
	0.301138,
	0.412776,
	0.343529,
	0.337382,
	-0.0383555,
	-0.305712,
	-0.520656,
	-0.316281,
	0.436939,
	0.123636,
	0.0737683,
	0.0469601,
	0.0301119,
	-0.313648,
	-0.404512,
	-0.457301,
	-0.085931,
	0.028516,
	0.346016,
	0.0829361,
	0.122879,
	-0.0454143,
	-0.0446234,
	0.356152,
	0.313537,
	0.135752,
	0.244096,
	0.364476,
	0.555537,
	0.516181,
	0.117671,
	0.0535562,
	-0.185606,
	-0.00415754,
	-0.475214,
	-0.389909,
	0.095391,
	0.2345,
	-0.0692583,
	-0.329864,
	0.502938,
	-0.122909,
	-0.0523456,
	-0.613693,
	-0.591177,
	-0.496889,
	0.621522,
	0.27823,
	0.180367,
	-0.0160637,
	-0.0793341,
	0.404841,
	0.320766,
	0.120186,
	0.326518,
	0.33569,
	0.591799,
	0.382689,
	0.432021,
	0.112118,
	-0.217367,
	-0.177054,
	-0.392701,
	-0.51919,
	0.0960374,
	0.0848052,
	-0.364167,
	0.243503,
	0.614909,
	0.132614,
	-0.0705276,
	-0.306758,
	-0.322503,
	-0.114713,
	-0.033462,
	0.153891,
	0.139188,
	0.118514,
	0.110434,
	0.220877,
	-0.0921169,
	0.251684,
	0.285822,
	0.584101,
	0.433101,
	0.630074,
	0.29013,
	0.305599,
	0.0533628,
	-0.150955,
	-0.678432,
	-0.442694,
	0.331217,
	-0.104426,
	-0.539684,
	0.521758,
	0.804357,
	0.0648456,
	0.232018,
	-0.258965,
	0.0904083,
	-0.112867,
	-0.339127,
	0.51526,
	0.195097,
	-0.271281,
	0.111434,
	-0.224119,
	0.0786831,
	-0.0442244,
	0.338276,
	0.405232,
	0.430019,
	0.477779,
	0.281424,
	0.0120042,
	-0.23424,
	-0.311606,
	-0.541647,
	-0.522196,
	0.474515,
	-0.272707,
	-0.482877,
	0.282217,
	-0.0731919,
	-0.179636,
	-0.180223,
	0.068058,
	0.0283701,
	0.311255,
	-0.176997,
	0.318461,
	0.0777203,
	-0.100683,
	0.00128235,
	-0.0347799,
	0.0965539,
	0.236569,
	0.172593,
	0.439323,
	0.378715,
	0.172884,
	-0.227217,
	-0.256033,
	-0.038173,
	-0.143882,
	-0.424958,
	-0.386371,
	0.140009,
	-0.305261,
	-0.341243,
	0.178594,
	-0.379718,
	-0.292157,
	-0.432885,
	-0.0741077,
	-0.239061,
	0.465506,
	-0.0336173,
	0.0193784,
	-0.168022,
	0.00928358,
	-0.261071,
	-0.0330826,
	-0.0944525,
	0.0127588,
	-0.0164152,
	0.368121,
	0.250707,
	0.10082,
	-0.548155,
	-0.200734,
	-0.0745325,
	-0.129174,
	-0.181863,
	0.0340505,
	-0.0677007,
	-0.200347,
	-0.33293,
	0.0959226,
	0.0642866,
	-0.119924,
	3.05501e-05,
	-0.117647,
	-0.443615,
	0.0448726,
	0.332866,
	0.462703,
	-0.00313259,
	0.124268,
	0.0546962,
	-0.012843,
	-0.299084,
	-0.0952379,
	0.102349,
	0.224215,
	0.404389,
	0.222251,
	-0.356508,
	-0.385262,
	-0.0298417,
	-0.0868111,
	-0.305237,
	0.353857,
	0.128464,
	-0.109682,
	-0.38833,
	-0.0481416,
	-0.314844,
	-0.144613,
	-0.0869934,
	0.0506003,
	-0.385825,
	0.234167,
	0.044148,
	0.0877356,
	0.0932536,
	-0.157232,
	0.0240623,
	-0.0344692,
	-0.0279496,
	0.284562,
	0.295965,
	0.193583,
	0.0691838,
	-0.347184,
	-0.654311,
	-0.508116,
	-0.111829,
	-0.0873886,
	0.00214733,
	0.180011,
	0.358811,
	-0.0733244,
	-0.347892,
	-0.547299,
	-0.500401,
	-0.14268,
	0.0669582,
	-0.0842147,
	-0.430544,
	-0.19878,
	-0.239829,
	0.104874,
	-0.237276,
	-0.210445,
	-0.112605,
	-0.0307943,
	-0.0819567,
	0.0489954,
	0.0407254,
	0.208185,
	0.287415,
	-0.437987,
	-0.535298,
	-0.413516,
	0.112152,
	0.0993487,
	0.115951,
	-0.0836238,
	0.0839457,
	-0.055916,
	-0.418768,
	-0.296502,
	-0.0642259,
	-0.0270902,
	0.261175,
	-0.156773,
	-0.456687,
	-0.326674,
	0.169372,
	-0.196974,
	-0.801749,
	0.252072,
	-0.0434459,
	0.0238736,
	-0.0754799,
	0.131679,
	-0.0427632,
	0.104313,
	0.524798,
	-0.039172,
	-0.208889,
	-0.120369,
	0.213594,
	0.241784,
	-0.0985069,
	-0.143015,
	0.198912,
	0.368036,
	0.165064,
	0.0704126,
	-0.31809,
	-0.0900989,
	-0.00129815,
	-0.167838,
	-0.453123,
	-0.407543,
	0.372353,
	0.0241705,
	-0.175629,
	-0.197753,
	-0.116024,
	-0.00471252,
	0.0637938,
	0.12911,
	0.244034,
	0.0452769,
	0.566565,
	0.583535,
	0.127518,
	0.219908,
	0.0451652,
	-0.100556,
	-0.249096,
	-0.236648,
	-0.295498,
	0.0948755,
	0.15304,
	0.212345,
	-0.0362789,
	0.280389,
	-0.183751,
	-0.09317,
	-0.12362,
	-0.405192,
	-0.419776,
	-0.168008,
	-0.462017,
	-0.357721,
	-0.306744,
	0.0205921,
	-0.0181169,
	0.176242,
	0.3707,
	0.404898,
	0.549582,
	0.426928,
	0.183275,
	0.0751778,
	0.105183,
	0.0658973,
	-0.327221,
	-0.304814,
	-0.00963604,
	0.033635,
	0.200798,
	-0.295605,
	0.0672116,
	0.0180546,
	-0.199469,
	0.109381,
	0.0214058,
	-0.168268,
	-0.0466916,
	-0.594139,
	-0.473088,
	-0.532516,
	-0.0623725,
	0.229561,
	0.097168,
	0.301318,
	0.382333,
	0.46633,
	0.590901,
	0.661631,
	0.26471,
	0.0652049,
	0.132123,
	-0.522337,
	-0.39289,
	-0.267007,
	0.0590409,
	0.0164156,
	0.126825,
	-0.0665741,
	-0.259199,
	0.167381,
	-0.22409,
	-0.21752,
	0.121454,
	-0.0798011,
	-0.409881,
	0.0324746,
	-0.301365,
	-0.459795,
	-0.0546135,
	0.384801,
	0.165163,
	0.215995,
	0.162205,
	0.290645,
	0.192312,
	0.527,
	0.477287,
	0.34913,
	-0.294659,
	-0.283905,
	-0.505534,
	0.142713,
	0.386373,
	0.100718,
	0.361158,
	-0.11404,
	-0.581016,
	-0.618859,
	-0.4563,
	-0.165242,
	-0.0739531,
	0.166562,
	-0.134555,
	-0.00772595,
	0.418292,
	-0.0320402,
	0.122858,
	0.206821,
	0.377935,
	0.452595,
	0.357407,
	0.193264,
	0.191375,
	0.23795,
	0.393408,
	0.347506,
	-0.162581,
	-0.106242,
	-0.0525149,
	0.429966,
	0.422623,
	0.239942,
	0.407426,
	0.031802,
	-0.0938215,
	-0.147122,
	-0.4672,
	-0.246333,
	-0.231997,
	0.0597018,
	0.0949269,
	-0.0465534,
	0.0780888,
	-0.00246675,
	0.00543121,
	0.144037,
	0.507689,
	0.235578,
	0.135912,
	-0.104757,
	0.249625,
	0.39448,
	0.295775,
	0.443567,
	-0.237026,
	0.444144,
	0.713116,
	0.308533,
	0.141926,
	0.358647,
	0.235281,
	0.178857,
	0.219504,
	-0.0738321,
	-0.488321,
	-0.351263,
	-0.446539,
	0.249052,
	0.403508,
	0.111338,
	0.116613,
	0.0159132,
	-0.476875,
	-0.295577,
	0.0539289,
	-0.00688767,
	-0.304619,
	-0.29088,
	-0.347772,
	-0.272711,
	-0.161979,
	0.167889,
	0.0484421,
	0.241412,
	0.230667,
	0.118805,
	0.447381,
	0.123638,
	0.300406,
	0.063777,
	0.0623405,
	0.0178323,
	-0.20707,
	-0.504592,
	-0.264168,
	0.00782094,
	-0.002815,
	0.464116,
	0.612007,
	0.119255,
	-0.528352,
	-0.271073,
	0.0381847,
	0.265658,
	-0.154434,
	-0.471098,
	0.138408,
	-0.294406,
	-0.192253,
	0.206972,
	0.240068,
	0.0656196,
	0.366502,
	0.279606,
	0.524612,
	-0.210655,
	0.151615,
	0.178411,
	0.510748,
	0.165561,
	0.0668928,
	-0.348372,
	-0.289322,
	0.146488,
	0.493443,
	0.443217,
	0.160865,
	0.0911419,
	0.0575763,
	-0.172937,
	0.0471255,
	0.0151967,
	-0.0179474,
	-0.127949,
	0.196164,
	-0.0354638,
	0.00385012,
	0.640363,
	-0.0953692,
	0.0456255,
	0.453292,
	0.29099,
	0.412022,
	0.183273,
	0.144349,
	0.106621,
	0.185033,
	0.0442024,
	-0.326025,
	-0.319968,
	-0.402013,
	0.209864,
	0.330286,
	-0.00905349,
	0.418561,
	0.584178,
	-0.168317,
	-0.00620425,
	-0.128987,
	0.028241,
	-0.173765,
	-0.278953,
	-0.197815,
	-0.285442,
	-0.411996,
	-0.103304,
	0.244415,
	0.510247,
	0.391394,
	-0.0207087,
	-0.415402,
	-0.0597369,
	-0.320066,
	-0.39512,
	-0.0175339,
	0.0138908,
	-0.148962,
	-0.415044,
	0.122878,
	0.292029,
	0.191815,
	-0.0255765,
	0.276501,
	0.655875,
	-0.0245118,
	-0.0137976,
	0.0704161,
	-0.162576,
	0.0658109,
	0.00643965,
	0.0448308,
	0.0551134,
	0.0231449,
	-0.151093,
	-0.066349,
	0.0285025,
	-0.0121733,
	-0.369016,
	-0.349866,
	-0.453461,
	-0.334902,
	0.239903,
	-0.0406034,
	0.0943366,
	-0.153226,
	-0.0752149,
	0.509561,
	0.275306,
	0.161125,
	0.172361,
	0.396695,
	0.52793,
	0.609314,
	0.395999,
	0.446043,
	0.359993,
	0.280382,
	0.450685,
	0.091224,
	0.285418,
	0.210296,
	0.451682,
	0.440599,
	0.387838,
	0.294281,
	0.439959,
	0.403445,
	0.0928119,
	0.00920746,
	0.325047,
	0.36535,
	0.324967,
	0.4543,
	0.29252,
	0.260803,
	0.260719,
	0.0552567,
	0.432704,
	0.524264,
	0.40561,
	0.512053,
	0.62233,
	0.445182,
	0.468733,
	0.223244,
	0.447668,
	0.115072,
	0.0211682,
	0.209933,
	0.180135,
	-0.115763,
	0.262784,
	0.261184,
	-0.00383344,
	0.232867,
	-0.00145225,
	0.0489645,
	-0.0933684,
	0.0609305,
	0.0181765,
	0.220842,
	0.416706,
	0.465976,
	0.27143,
	0.580361,
	0.607152,
	0.434655,
	0.788651,
	0.667474,
	0.579965,
	0.637092,
	0.57894,
	0.634613,
	0.419543,
	0.377009,
	0.393079,
	0.261353,
	0.152262,
	-0.0204868,
	0.370379,
	0.22498,
	0.507574,
	0.279974,
	0.022484,
	0.193878,
	0.267566,
	-0.0998689,
	-0.0569788,
	-0.168829,
	0.557551,
	0.661603,
	0.298127,
	0.317016,
	0.233689,
	0.126099,
	0.107179,
	-0.0421076,
	-0.0141289,
	0.364947,
	0.279939,
	0.117392,
	-0.073745,
	-0.0188978,
	-0.0290741,
	0.202008,
	0.176049,
	0.222976,
	0.549757,
	0.413495,
	-0.0506483,
	-0.163781,
	0.0391715,
	-0.231067,
	0.302982,
	-0.0072962,
	-0.0898803,
	0.0675958,
	0.63779,
	-0.017163,
	0.384313,
	0.369984,
	-0.461045,
	-0.802633,
	-0.254548,
	0.293943,
	0.351386,
	0.520767,
	0.303108,
	-0.378801,
	-0.547427,
	-0.358833,
	-0.342483,
	-0.188497,
	0.678953,
	0.607719,
	0.539911,
	0.278613,
	0.00919208,
	-0.412656,
	-0.400566,
	-0.0029356,
	0.0130519,
	0.0838008,
	0.107276,
	-0.11892,
	0.412436,
	0.220516,
	0.0417599,
	0.344366,
	0.579462,
	-0.0375116,
	-0.395876,
	-0.20462,
	0.145158,
	0.289701,
	0.25379,
	0.073623,
	-0.286261,
	-0.154867,
	-0.419779,
	-0.370207,
	-0.0567203,
	-0.0302896,
	-0.0753553,
	0.30644,
	-0.420677,
	-0.374805,
	-0.138811,
	0.00597988,
	0.16622,
	0.0730141,
	0.0600426,
	0.0294819,
	0.255189,
	-0.00920898,
	0.391835,
	0.32416,
	0.259217,
	0.223197,
	-0.128579,
	0.122857,
	0.0765347,
	0.227795,
	0.188666,
	-0.00113985,
	-0.396227,
	-0.13713,
	-0.26764,
	-0.246016,
	-0.0872495,
	0.0947481,
	0.022687,
	0.103822,
	-0.298074,
	-0.494823,
	-0.173806,
	0.0616483,
	0.146625,
	0.179255,
	0.0894496,
	-0.397333,
	0.284337,
	-0.212045,
	0.186069,
	0.181405,
	0.0484822,
	-0.00538432,
	-0.118174,
	0.149725,
	0.201904,
	0.0283786,
	0.284427,
	0.102748,
	-0.197851,
	-0.158517,
	-0.458147,
	-0.185911,
	-0.0841909,
	-0.0633949,
	-0.0955757,
	0.0723639,
	-0.168619,
	-0.276986,
	-0.0262753,
	-0.0670933,
	0.250191,
	0.286929,
	0.290573,
	0.089284,
	0.206786,
	0.132219,
	0.0843669,
	0.0256702,
	0.00335122,
	0.146495,
	0.0614642,
	0.221994,
	0.431945,
	-0.159938,
	0.0560032,
	-0.225251,
	-0.472868,
	-0.136347,
	-0.110553,
	-0.33788,
	-0.0933842,
	-0.0521959,
	-0.146301,
	0.066415,
	-0.0820792,
	-0.143787,
	-0.203799,
	-0.148195,
	-0.0620753,
	0.39701,
	0.0277452,
	-0.0741787,
	-0.0984677,
	0.129833,
	0.121615,
	-0.00046254,
	-0.0660679,
	-0.108498,
	-0.16425,
	0.289412,
	0.265826,
	0.0885111,
	-0.153031,
	-0.358381,
	-0.424716,
	-0.049329,
	-0.199811,
	-0.199749,
	-0.270628,
	-0.238168,
	0.158967,
	-0.0968119,
	-0.451099,
	-0.62634,
	-0.0150421,
	-0.473985,
	-0.0931583,
	0.246555,
	0.042855,
	0.267224,
	0.231148,
	-0.0824296,
	0.0116161,
	-0.279301,
	0.14401,
	0.0865396,
	0.0979523,
	0.0241727,
	0.382078,
	0.00616472,
	-0.0331311,
	-0.100252,
	-0.195395,
	0.234199,
	0.0650961,
	-0.690747,
	-0.379106,
	-0.221587,
	-0.365858,
	-0.153563,
	0.0169067,
	-0.490737,
	-0.048516,
	-0.218861,
	0.176667,
	0.183112,
	0.221269,
	0.578428,
	0.169689,
	-0.124935,
	-0.193114,
	-0.0425926,
	0.128974,
	-0.0165093,
	-0.035251,
	-0.305537,
	0.00524359,
	0.0222158,
	0.0769115,
	0.198574,
	0.335902,
	0.218018,
	0.105234,
	-0.572708,
	-0.413016,
	-0.529841,
	-0.155039,
	-0.327841,
	0.111492,
	-0.32499,
	-0.544701,
	-0.356559,
	-0.00581655,
	0.275181,
	0.0467486,
	0.443915,
	-0.0347994,
	0.104682,
	-0.110411,
	-0.320304,
	0.52924,
	-0.20488,
	-0.0575653,
	-0.290352,
	0.110378,
	0.18527,
	0.266697,
	0.401736,
	0.478453,
	0.342334,
	0.232085,
	-0.055199,
	0.00936878,
	-0.301435,
	-0.0294615,
	0.0283858,
	0.21753,
	-0.146188,
	-0.685167,
	-0.256381,
	-0.302073,
	0.253838,
	0.190102,
	0.418411,
	-0.036215,
	-0.126279,
	0.0515428,
	0.581466,
	0.276181,
	-0.137735,
	-0.15386,
	-0.296711,
	0.111961,
	0.34117,
	0.416415,
	0.684598,
	0.384271,
	0.459056,
	0.338391,
	0.29527,
	0.516023,
	0.207205,
	0.352176,
	0.165954,
	0.171139,
	-0.273456,
	-0.604441,
	-0.380289,
	-0.205311,
	-0.021407,
	0.254882,
	-0.109139,
	-0.179287,
	0.0940813,
	-0.115214,
	-0.00106816,
	-0.460338,
	0.0984522,
	-0.0388544,
	-0.146565,
	0.136222,
	0.166414,
	0.297214,
	0.236562,
	0.196334,
	0.314079,
	0.428484,
	0.453554,
	0.520986,
	0.228178,
	0.338505,
	0.380799,
	0.0115067,
	-0.601874,
	-0.657712,
	-0.398503,
	-0.260603,
	0.00439012,
	0.117658,
	0.123967,
	-0.0956716,
	-0.298943,
	-0.0859308,
	-0.130004,
	-0.616031,
	-0.120503,
	-0.213323,
	0.0121329,
	0.186435,
	0.151222,
	0.300428,
	-0.205829,
	0.0475215,
	0.446743,
	0.170227,
	0.500729,
	0.641969,
	0.244745,
	0.207463,
	0.28684,
	-0.277736,
	-0.869697,
	-0.492818,
	-0.0418673,
	-0.0317704,
	0.219193,
	0.10358,
	0.267413,
	-0.0702727,
	-0.528702,
	-0.201318,
	0.086452,
	-0.814326,
	-0.272598,
	-0.0419709,
	0.166859,
	0.397528,
	-0.12166,
	0.0550743,
	-0.239195,
	-0.174545,
	0.0375062,
	-0.196975,
	0.38981,
	0.275082,
	0.467276,
	0.22596,
	0.341816,
	0.0317988,
	0.220966,
	0.082986,
	0.108049,
	-0.0615013,
	0.364336,
	0.157006,
	0.0388319,
	-0.150501,
	-0.232361,
	-0.107317,
	-0.0643207,
	-0.280816,
	-0.222913,
	-0.151023,
	0.15367,
	0.404236,
	0.184209,
	-0.0449236,
	-0.369167,
	-0.33002,
	0.033331,
	-0.316094,
	0.0681897,
	0.160609,
	0.273655,
	0.124083,
	0.259597,
	-0.284793,
	0.214293,
	0.0214726,
	0.20412,
	0.046394,
	0.0876344,
	0.302044,
	0.162459,
	-0.105478,
	-0.301955,
	-0.303373,
	-0.00718412,
	-0.710782,
	-0.655193,
	-0.0914845,
	-0.0627358,
	0.44232,
	0.273382,
	0.257033,
	-0.129283,
	-0.311608,
	-0.366272,
	-0.144008,
	0.0524426,
	0.153171,
	0.193402,
	0.070454,
	0.0630666,
	-0.050512,
	-0.00470566,
	0.101675,
	0.18774,
	0.614541,
	-0.10128,
	-0.01249,
	0.0211974,
	-0.0177171,
	-0.0996707,
	-0.345275,
	-0.299677,
	-0.145931,
	-0.748585,
	0.0589006,
	0.161244,
	-0.0371222,
	0.291316,
	0.419504,
	0.0668735,
	-0.0440073,
	-0.0979911,
	-0.485897,
	-0.289732,
	0.054526,
	0.270429,
	0.0160558,
	0.00466068,
	-0.00625337,
	0.0542304,
	0.114803,
	0.126608,
	0.44833,
	0.00389477,
	0.415045,
	-0.00352314,
	-0.00435157,
	-0.174687,
	-0.570057,
	-0.352213,
	-0.491957,
	-0.391983,
	-0.499075,
	-0.130731,
	0.190031,
	0.2265,
	0.299254,
	0.0568746,
	-0.0541355,
	-0.322792,
	-0.210457,
	-0.372674,
	-0.142365,
	-0.0495359,
	-0.283862,
	0.155216,
	-0.0574805,
	0.243214,
	0.105606,
	0.0868539,
	0.591585,
	0.00194133,
	0.407839,
	0.20993,
	-0.196263,
	-0.225121,
	-0.40167,
	-0.387256,
	-0.21318,
	-0.186537,
	-0.23483,
	-0.0939257,
	0.256311,
	0.558841,
	0.272902,
	0.200771,
	-0.163307,
	-0.442672,
	-0.334119,
	-0.348576,
	-0.240154,
	0.225582,
	0.065831,
	0.0696272,
	0.274968,
	0.0407187,
	-0.104573,
	0.268164,
	0.405889,
	-0.0377783,
	0.625564,
	0.215164,
	-0.20124,
	0.010749,
	-0.299952,
	-0.207588,
	-0.516023,
	0.0302554,
	-0.433605,
	-0.354509,
	-0.361934,
	-0.259752,
	0.00239071,
	-0.0812058,
	-0.209483,
	-0.549908,
	-0.525704,
	-0.204599,
	-0.371464,
	-0.0733929,
	-0.105593,
	-0.178983,
	-0.127892,
	0.140454,
	-0.164428,
	-0.0293048,
	0.133928,
	-0.0729026,
	0.404588,
	0.269624,
	-0.236767,
	-0.21337,
	-0.394763,
	-0.113179,
	-0.15288,
	0.323063,
	-0.52255,
	-0.489487,
	-0.738278,
	-0.728069,
	-0.563978,
	-0.273939,
	-0.165698,
	-0.268589,
	-0.344006,
	-0.508251,
	-0.336875,
	-0.201022,
	-0.400869,
	-0.370691,
	0.242824,
	0.358077,
	0.0932085,
	-0.312153,
	0.203182,
	-0.342394,
	0.5513,
	0.224716,
	-0.358114,
	-0.38183,
	-0.0297445,
	-0.200151,
	-0.117123,
	-0.408509,
	-0.0127514,
	-0.565965,
	-0.417844,
	-0.926602,
	-0.750028,
	-0.0426901,
	0.229218,
	-0.238197,
	-0.234501,
	-0.445514,
	-0.296759,
	-0.0409418,
	-0.449628,
	-0.100816,
	-0.108696,
	-0.158605,
	-0.13988,
	-0.211333,
	0.198988,
	0.150461,
	0.369934,
	-0.00363151,
	-0.457913,
	-0.227218,
	0.126468,
	0.200721,
	0.48101,
	0.133019,
	0.309384,
	-0.0955959,
	-0.0130969,
	-0.335798,
	-0.165791,
	-0.14164,
	0.0574655,
	0.0462326,
	-0.13071,
	0.0786119,
	0.244434,
	-0.0499355,
	0.0647805,
	0.0595665,
	0.167532,
	0.0799477,
	0.162215,
	-0.331055,
	-0.165399,
	-0.123844,
	0.389348,
	0.331009,
	-0.385808,
	0.30827,
	-0.0813457,
	0.280452,
	-0.0761074,
	-0.481165,
	0.316416,
	0.229925,
	0.103894,
	0.482681,
	0.0644475,
	-0.272965,
	0.0243853,
	0.232715,
	0.196894,
	-0.076178,
	-0.0972742,
	0.312607,
	0.186778,
	-0.129178,
	-0.327003,
	-0.4167,
	0.0606699,
	-0.566029,
	-0.361495,
	-0.051006,
	0.139126,
	0.337791,
	-0.285211,
	0.076315,
	-0.222893,
	0.35206,
	0.463004,
	0.283276,
	0.105911,
	-0.131924,
	-0.000957994,
	-0.0884731,
	-0.135968,
	-0.192876,
	-0.218927,
	0.0489507,
	0.106053,
	-0.0558068,
	-0.00542653,
	-0.00298354,
	-0.00977172,
	-0.0479244,
	-0.357472,
	-0.375736,
	-0.326862,
	-0.486379,
	-0.339837,
	-0.248603,
	0.0688828,
	0.0754965,
	-0.0878684,
	0.390476,
	0.265023,
	0.25068,
	0.275231,
	0.289393,
	0.306499,
	0.421529,
	0.26666,
	0.395925,
	0.380565,
	0.386906,
	0.469228,
	0.352663,
	-0.149071,
	0.0108258,
	-0.0127131,
	-0.144151,
	-0.148182,
	-0.0242365,
	0.080647,
	0.147088,
	-0.0832704,
	0.229115,
	-0.179221,
	0.0285474,
	-0.033225,
	-0.611907,
	-0.369503,
	0.651818,
	0.0515054,
	0.218623,
	0.0168775,
	0.150789,
	0.355489,
	0.171471,
	0.493239,
	0.387017,
	0.157373,
	0.225607,
	0.250873,
	-0.0317809,
	0.191421,
	0.256797,
	0.0872431,
	0.0134182,
	-0.00371433,
	-0.0303564,
	0.171438,
	0.158218,
	0.237836,
	0.00217346,
	-0.219114,
	-0.439517,
	-0.716885,
	-0.144497,
	0.354701,
	0.335958,
	-0.189378,
	-0.0216129,
	-0.308286,
	-0.303187,
	0.361033,
	-0.158486,
	0.165257,
	0.21398,
	0.229757,
	-0.105399,
	-0.0894727,
	-0.204363,
	0.0761876,
	-0.105664,
	-0.0299105,
	-0.178774,
	-0.118181,
	-0.00180704,
	0.279896,
	0.0920191,
	0.339842,
	0.159181,
	0.261289,
	-0.060272,
	-0.0781685,
	0.169648,
	0.421144,
	0.508098,
	-0.28137,
	-0.341252,
	-0.131127,
	0.0137118,
	0.29674,
	0.0714626,
	0.203312,
	0.47734,
	0.433352,
	0.154648,
	0.155101,
	0.14402,
	0.287607,
	0.201544,
	0.285554,
	0.141318,
	0.0816713,
	0.210298,
	-0.0706783,
	0.0164403,
	-0.0126681,
	0.307789,
	0.386283,
	-0.126232,
	0.462302,
	0.323228,
	0.311213,
	0.446489,
	-0.0335149,
	-0.327069,
	-0.138182,
	-0.0920187,
	0.211646,
	-0.298909,
	0.0586704,
	0.366277,
	0.415488,
	-0.244971,
	-0.162964,
	-0.128695,
	-0.0909948,
	0.028168,
	-0.0346342,
	-0.424596,
	0.0166116,
	0.121594,
	-0.353942,
	-0.345925,
	0.0891054,
	0.031088,
	0.0198375,
	0.0463344,
	0.284615,
	0.341537,
	0.472004,
	0.463085,
	-0.0425607,
	-0.228628,
	0.113774,
	0.0228175,
	0.00109845,
	-0.615969,
	-0.796163,
	-0.356796,
	0.0409303,
	0.0300676,
	0.327884,
	0.539394,
	0.534223,
	-0.0129362,
	-0.270716,
	-0.670518,
	-0.369789,
	-0.640996,
	-0.452569,
	-0.576686,
	0.397602,
	0.103113,
	0.0295244,
	-0.058539,
	0.614026,
	0.318216,
	0.366225,
	0.246458,
	0.0450058,
	0.0339966,
	0.211613,
	-0.0249258,
	-0.132552,
	-0.707245,
	-0.789092,
	-0.536523,
	-0.479134,
	-0.0311971,
	0.427443,
	0.431688,
	0.446478,
	0.268061,
	-0.128126,
	-0.351241,
	-0.412579,
	-0.322468,
	-0.35722,
	-0.243821,
	-0.0840849,
	-0.00263859,
	-0.0798141,
	-0.623327,
	0.383078,
	0.441904,
	0.593497,
	0.605402,
	0.156227,
	0.0593796,
	0.301245,
	0.178747,
	-0.179508,
	-0.727543,
	-0.571739,
	-0.356114,
	-0.461262,
	-0.100291,
	0.199536,
	0.34615,
	0.260038,
	0.261809,
	0.115289,
	-0.276369,
	-0.264605,
	-0.430749,
	-0.615636,
	-0.478789,
	-0.151418,
	-0.374644,
	0.196094,
	-0.831743,
	-0.0504652,
	0.13892,
	0.603639,
	0.478373,
	0.465456,
	-0.0661096,
	0.239838,
	-0.073382,
	-0.517021,
	-0.603456,
	-0.614219,
	-0.370659,
	-0.315414,
	0.155293,
	0.248598,
	0.492316,
	0.381912,
	0.399541,
	-0.0365207,
	-0.141668,
	-0.396302,
	-0.40468,
	-0.646739,
	-0.0577539,
	-0.199825,
	-0.462205,
	-0.0881464,
	-0.459841,
	-0.297004,
	0.296537,
	-0.0537849,
	0.445303,
	0.515694,
	0.23426,
	0.51776,
	-0.0597133,
	-0.528809,
	-0.581156,
	-0.253418,
	-0.209996,
	-0.247215,
	0.0270369,
	0.301453,
	0.569819,
	0.444749,
	0.513317,
	0.396983,
	-0.0962258,
	-0.103121,
	-0.318364,
	-0.121729,
	-0.0849388,
	-0.162803,
	-0.218861,
	-0.289931,
	-0.222402,
	0.0445009,
	0.0939206,
	0.178727,
	0.302525,
	0.267603,
	-0.38175,
	0.522755,
	0.049377,
	-0.522806,
	-0.349381,
	-0.306851,
	0.0390448,
	-0.312282,
	0.0492139,
	0.262741,
	0.432528,
	0.0945802,
	0.403081,
	0.347519,
	-0.128075,
	-0.187627,
	-0.182011,
	-0.144844,
	0.34152,
	-0.306638,
	-0.226709,
	-0.754799,
	-0.230716,
	0.114965,
	0.2906,
	0.260543,
	0.207102,
	0.0922493,
	-0.29409,
	0.190977,
	0.178043,
	-0.193484,
	-0.129429,
	0.115437,
	0.305203,
	-0.0727887,
	-0.112757,
	0.142941,
	0.0636938,
	-0.118959,
	-0.240418,
	-0.0990922,
	0.0841449,
	0.149272,
	0.0628654,
	0.0300727,
	0.296503,
	0.017886,
	-0.0951526,
	-0.139385,
	-0.0362465,
	-0.361801,
	0.280649,
	0.123674,
	0.248435,
	-0.241967,
	-0.0292802,
	0.0695839,
	-0.105962,
	0.187421,
	0.0384977,
	0.50998,
	0.366796,
	0.16493,
	-0.190747,
	0.105925,
	0.295483,
	0.0621778,
	-0.256948,
	-0.065128,
	0.358339,
	0.312885,
	-0.0555452,
	0.150689,
	0.0579589,
	-0.0334317,
	-0.252731,
	0.0734004,
	-0.283071,
	-0.407345,
	0.189515,
	0.159799,
	0.295633,
	0.298877,
	0.00772846,
	0.209146,
	-0.108628,
	0.25173,
	0.350919,
	0.472437,
	0.559966,
	0.326639,
	-0.113886,
	0.245164,
	0.141978,
	-0.0191327,
	-0.42764,
	0.0166613,
	0.0421783,
	0.156437,
	0.295814,
	0.154407,
	0.170272,
	0.0652286,
	-0.363703,
	0.392139,
	-0.143083,
	-0.296308,
	0.136589,
	0.121043,
	0.342838,
	0.402729,
	-0.0243603,
	0.235226,
	-0.0749661,
	0.234235,
	0.403645,
	0.532629,
	0.388741,
	0.132306,
	0.230196,
	0.233828,
	0.174124,
	-0.00548112,
	-0.328557,
	-0.428533,
	0.216306,
	0.315371,
	0.242942,
	0.0338611,
	0.165304,
	0.210209,
	-0.362208,
	0.544241,
	-0.0434394,
	-0.0554888,
	0.13276,
	0.144256,
	0.332141,
	0.252682,
	0.452371,
	0.145207,
	0.0317396,
	-0.0398601,
	0.170424,
	0.399138,
	0.348985,
	0.361708,
	0.0299494,
	0.138933,
	-0.072174,
	-0.297422,
	-0.371709,
	-0.5938,
	-0.208064,
	-0.28249,
	0.393265,
	-0.0267268,
	-0.036121,
	0.0468354,
	-0.219233,
	0.1197,
	-0.217028,
	-0.337491,
	0.206355,
	0.0537712,
	0.314846,
	0.605412,
	-0.0187789,
	0.153183,
	-0.105609,
	0.0747693,
	0.223108,
	0.244663,
	0.434368,
	0.398334,
	0.434637,
	0.208523,
	0.465424,
	-0.0991171,
	-0.217337,
	-0.156733,
	-0.400327,
	-0.16518,
	0.0666739,
	0.191118,
	-0.0700903,
	-0.280235,
	-0.640162,
	-0.0109916,
	-0.221459,
	-0.114442,
	0.150251,
	0.239218,
	0.520575,
	0.224818,
	0.36346,
	0.348456,
	-0.0856487,
	-0.123307,
	0.088584,
	0.368479,
	0.327418,
	0.411696,
	0.443497,
	0.475716,
	0.573807,
	0.199465,
	0.0205348,
	0.229635,
	0.229541,
	0.202544,
	0.432757,
	0.499419,
	0.165021,
	0.439422,
	0.00048316,
	-0.561443,
	-0.534848,
	-0.405028,
	0.483964,
	0.106521,
	0.133293,
	-0.0267422,
	0.103894,
	0.613418,
	-0.00974607,
	-0.17378,
	-0.136373,
	0.219144,
	0.104236,
	0.225928,
	0.0892688,
	0.536297,
	0.711759,
	0.481228,
	0.322267,
	0.249855,
	0.0057693,
	0.442508,
	0.310485,
	0.463454,
	0.233249,
	0.151652,
	-0.148229,
	-0.347359,
	-0.414067,
	-0.232514,
	0.304467,
	-0.10298,
	-0.00928033,
	0.0548284,
	-0.0114921,
	0.266446,
	0.0954657,
	-0.160126,
	-0.259373,
	0.279098,
	0.181393,
	0.294306,
	-0.0247142,
	0.306187,
	0.270547,
	0.404525,
	0.328923,
	0.0265431,
	0.153734,
	0.286709,
	0.626673,
	0.374749,
	0.28631,
	0.0101587,
	-0.00437721,
	-0.620486,
	-0.531729,
	-0.533247,
	0.0333509,
	0.0743149,
	0.0781973,
	0.0915505,
	-0.00524564,
	-0.076652,
	-0.467366,
	-0.0082283,
	0.0398015,
	-0.184304,
	0.230621,
	0.149268,
	0.0435291,
	0.337374,
	0.0514275,
	-0.222095,
	0.0555301,
	0.019612,
	0.0565272,
	0.372592,
	0.490357,
	0.314911,
	0.321647,
	-0.0280744,
	-0.244849,
	-0.454374,
	-0.563865,
	-0.389415,
	-0.0403146,
	0.0762791,
	0.174339,
	-0.0203418,
	0.413355,
	-0.305069,
	0.00353192,
	0.332731,
	0.158803,
	0.0118756,
	0.0426431,
	-0.032116,
	0.142383,
	-0.0751439,
	-0.246009,
	-0.346405,
	-0.281971,
	0.0518653,
	0.273056,
	0.493194,
	0.658371,
	0.538707,
	0.215389,
	-0.0956402,
	-0.327699,
	-0.484937,
	-0.531443,
	-0.498989,
	-0.10378,
	0.215699,
	0.222246,
	0.0699862,
	0.415899,
	0.124984,
	0.404416,
	0.216846,
	0.0406747,
	0.283052,
	0.255819,
	-0.245378,
	-0.182594,
	-0.149091,
	-0.367049,
	-0.438734,
	-0.39487,
	-0.161559,
	0.0538666,
	0.436546,
	0.405078,
	0.320668,
	0.242275,
	-0.0165507,
	-0.263084,
	-0.285955,
	-0.434763,
	-0.192406,
	-0.0677432,
	0.323709,
	0.627829,
	0.14584,
	0.281452,
	0.0438844,
	0.474808,
	0.267184,
	-0.0506428,
	0.143298,
	0.804952,
	0.106159,
	-0.380618,
	-0.592878,
	-0.595722,
	-0.624821,
	-0.433001,
	-0.365006,
	0.0611895,
	0.0690636,
	-0.122416,
	0.207422,
	0.00662484,
	-0.165967,
	-0.477858,
	-0.450885,
	-0.326194,
	-0.274157,
	0.0140684,
	0.21435,
	0.395771,
	0.0955564,
	0.386701,
	0.544259,
	0.622965,
	0.235038,
	-0.0587325,
	0.0118775,
	0.793843,
	0.718294,
	-0.160647,
	-0.31032,
	-0.220829,
	-0.280779,
	-0.502354,
	-0.278632,
	-0.174023,
	-0.214676,
	-0.495891,
	-0.309568,
	-0.337462,
	-0.482785,
	-0.0858987,
	-0.549883,
	-0.410689,
	0.401889,
	0.0470994,
	0.348265,
	0.452417,
	0.193645,
	0.320711,
	0.265038,
	0.462243,
	0.759121,
	-0.0379014,
	-0.162744,
	-0.00920906,
	-0.0075587,
	0.386884,
	0.646589,
	0.400643,
	0.290387,
	0.283632,
	-0.293539,
	-0.415038,
	-0.446748,
	0.00987899,
	-0.200272,
	-0.190046,
	-0.360891,
	0.173097,
	0.00114619,
	0.129371,
	0.371016,
	0.169893,
	0.014206,
	0.476871,
	0.262782,
	0.15282,
	-0.201577,
	0.323242,
	0.659168,
	0.370199,
	-0.0377276,
	0.0795815,
	-0.0854647,
	0.225017,
	0.116419,
	0.0322892,
	0.0643585,
	0.0660151,
	-0.0840846,
	0.487012,
	-0.247152,
	0.302682,
	-0.469639,
	-0.430591,
	-0.0567142,
	0.184145,
	0.253742,
	-0.278006,
	0.394693,
	-0.240631,
	0.410548,
	-0.050793,
	0.188097,
	0.205556,
	0.291617,
	0.0851995,
	0.425258,
	0.0521286,
	0.055363,
	0.0486511,
	0.119109,
	0.0400466,
	0.167291,
	-0.104577,
	0.188206,
	-0.0326381,
	-0.0924065,
	0.102905,
	-0.0143472,
	-0.0382615,
	0.390126,
	0.355414,
	0.311741,
	0.0971347,
	-0.0293032,
	-0.510863,
	-0.408081,
	-0.019522,
	0.00400804,
	0.55361,
	0.0458041,
	0.0150502,
	-0.220721,
	-0.0503277,
	0.110525,
	-0.0864534,
	0.024092,
	0.00561283,
	0.368737,
	0.19881,
	0.223442,
	0.0244088,
	-0.312768,
	-0.00870705,
	0.000704972,
	0.00595832,
	-0.263877,
	-0.301293,
	-0.140935,
	-0.279268,
	-0.305814,
	-0.435588,
	-0.475043,
	-0.0536983,
	-0.0434057,
	0.0523822,
	-0.0623549,
	0.283769,
	0.0184197,
	-0.0181137,
	-0.0902518,
	0.232036,
	0.176257,
	0.126481,
	-0.178768,
	-0.103194,
	0.160623,
	0.0700629,
	-0.050452,
	-0.0825942,
	-0.0684805,
	-0.183692,
	-0.142383,
	-0.00681968,
	0.0590413,
	-0.0873517,
	-0.0394433,
	0.2614,
	-0.10148,
	0.0467559,
	-0.173551,
	0.202191,
	-0.0559259,
	0.25854,
	-0.442914,
	0.402786,
	0.297862,
	-0.20703,
	-0.105095,
	0.122858,
	-0.483207,
	-0.205008,
	-0.339245,
	-0.0560499,
	0.397806,
	0.166971,
	-0.00513479,
	0.108468,
	0.309023,
	0.0622695,
	0.0954845,
	0.168429,
	0.0154332,
	0.0782925,
	0.090451,
	-0.0712659,
	0.0637778,
	-0.160819,
	-0.0275392,
	-0.0141732,
	-0.193041,
	-0.132899,
	-0.21304,
	0.344928,
	0.246192,
	0.216299,
	-0.162496,
	0.0521255,
	-0.092092,
	-0.0209668,
	0.059623,
	0.107508,
	0.461445,
	0.0852564,
	0.102035,
	0.0350236,
	-0.0936905,
	-0.0648576,
	0.137837,
	-0.00356104,
	-0.220683,
	-0.0526919,
	-0.14065,
	0.180566,
	0.336381,
	0.230304,
	-0.0508052,
	0.213088,
	-0.19797,
	-0.48999,
	0.0559111,
	0.228018,
	0.562339,
	0.522452,
	-0.199323,
	-0.179458,
	0.161798,
	-0.0352394,
	0.382319,
	0.545715,
	0.305666,
	-0.123122,
	-0.267997,
	-0.0630216,
	0.0640747,
	-0.316569,
	-0.304685,
	0.0669672,
	0.0622367,
	0.149272,
	0.164556,
	0.180697,
	0.419139,
	-0.0865605,
	-0.0858923,
	0.0413897,
	-0.209862,
	-0.608112,
	-0.203135,
	0.361691,
	0.415248,
	0.380047,
	-0.0215383,
	0.51791,
	0.595973,
	0.437225,
	0.266978,
	0.173456,
	-0.259846,
	-0.562381,
	-0.422401,
	-0.385486,
	-0.251311,
	0.110609,
	-0.226969,
	-0.0592781,
	-0.0419665,
	0.0503274,
	0.353251,
	0.0244221,
	0.418596,
	0.0459536,
	-0.0256013,
	0.0653163,
	-0.323052,
	-0.46082,
	-0.00983749,
	0.414389,
	0.277658,
	0.564947,
	0.437034,
	0.473529,
	0.117921,
	0.323856,
	0.367907,
	0.14149,
	0.192408,
	-0.395817,
	-0.121932,
	-0.19627,
	-0.321079,
	0.0906535,
	0.276246,
	0.369077,
	0.38866,
	0.345569,
	0.126349,
	0.373761,
	0.35097,
	-0.0253681,
	0.100352,
	-0.227939,
	-0.28317,
	-0.50727,
	-0.233841,
	0.061058,
	0.205384,
	0.614645,
	0.464875,
	0.508544,
	0.170139,
	0.357877,
	0.375611,
	0.164901,
	0.122866,
	-0.0467214,
	-0.000877337,
	0.141447,
	0.210019,
	0.130519,
	0.214976,
	0.239342,
	0.213311,
	0.446522,
	0.37304,
	0.398355,
	0.256997,
	0.144509,
	-0.631233,
	-0.0947145,
	-0.335242,
	-0.133431,
	-0.340412,
	-0.443139,
	0.488736,
	0.283427,
	0.571222,
	0.73897,
	0.203835,
	0.235143,
	0.146182,
	0.310951,
	0.0566115,
	0.0934338,
	-0.162785,
	0.200277,
	0.0740476,
	0.0269601,
	0.0191501,
	0.164811,
	0.421567,
	0.409469,
	0.718027,
	0.6158,
	0.641276,
	0.542749,
	-0.368249,
	-0.624992,
	-0.0876532,
	0.106126,
	-0.270059,
	-0.441339,
	0.0576098,
	-0.357994,
	0.273218,
	0.478309,
	0.405269,
	0.27184,
	0.418288,
	0.402468,
	0.0619316,
	0.0358669,
	-0.0410421,
	-0.11766,
	0.0629402,
	-0.217793,
	-0.110109,
	0.329411,
	0.531309,
	0.330193,
	0.18186,
	0.609565,
	0.970426,
	0.26085,
	-0.427279,
	-0.125236,
	-0.0451473,
	0.116051,
	-0.128385,
	-0.108843,
	-0.301529,
	-0.215636,
	0.18241,
	0.492175,
	0.41487,
	0.355161,
	0.515709,
	0.493343,
	0.148811,
	-0.0312347,
	-0.21851,
	0.0441332,
	0.114766,
	-0.0823802,
	-0.0936344,
	-0.00456686,
	0.103952,
	-0.00226516,
	-0.0875098,
	0.310175,
	0.859052,
	0.302562,
	-0.836211,
	-0.215149,
	-0.205504,
	-0.189627,
	0.0521072,
	-0.144534,
	-0.130625,
	0.00275707,
	0.0128974,
	0.0715192,
	0.278214,
	0.358609,
	0.46284,
	0.395059,
	0.388888,
	0.262115,
	0.104231,
	0.0512756,
	0.201596,
	-0.182537,
	-0.2426,
	-0.222351,
	-0.0260372,
	-0.262373,
	-0.418705,
	0.131631,
	0.0371146,
	0.392476,
	-0.291211,
	-0.462921,
	-0.17534,
	-0.210012,
	0.0745562,
	-0.251465,
	-0.118066,
	-0.0598753,
	0.0589635,
	0.134393,
	0.318819,
	0.102144,
	0.196143,
	0.478815,
	0.348319,
	0.277704,
	0.0550161,
	0.29672,
	0.426931,
	0.115973,
	-0.0948967,
	-0.276668,
	-0.0672365,
	-0.333853,
	-0.315097,
	-0.0402549,
	-0.110854,
	0.486013,
	-0.391065,
	-0.303172,
	0.18964,
	0.0516886,
	-0.0404499,
	0.0252116,
	0.304371,
	0.100933,
	-0.14013,
	0.16038,
	-0.0416872,
	0.122519,
	0.188323,
	0.415009,
	0.436443,
	0.245748,
	0.0593523,
	0.215231,
	0.207228,
	-0.0521214,
	-0.267274,
	-0.118401,
	-0.4767,
	-0.453879,
	-0.437415,
	-0.0718847,
	-0.113274,
	0.374533,
	0.20014,
	-0.414298,
	0.118311,
	-0.0379658,
	-0.0267511,
	0.0246875,
	0.104329,
	0.320353,
	0.0261924,
	-0.0630172,
	-0.134932,
	0.0489156,
	0.150866,
	0.394719,
	0.296029,
	0.185008,
	0.316515,
	0.359498,
	0.163654,
	-0.109581,
	-0.19742,
	-0.361675,
	-0.22176,
	-0.491468,
	-0.439928,
	-0.537436,
	-0.215554,
	0.347973,
	-0.174829,
	-0.312689,
	0.0763831,
	-0.184308,
	0.0315549,
	-0.00193815,
	-0.120485,
	0.400685,
	0.0120179,
	-0.297003,
	-0.0585253,
	-0.16653,
	-0.0584945,
	0.156788,
	0.278225,
	0.507717,
	0.523214,
	0.502362,
	0.312348,
	-0.0296019,
	-0.266686,
	-0.262965,
	-0.32873,
	-0.554864,
	-0.524544,
	-0.467978,
	-0.155613,
	0.349448,
	0.139348,
	-0.294655,
	0.0302395,
	-0.218871,
	0.0746538,
	0.0874236,
	0.0962987,
	0.199804,
	0.154876,
	-0.573323,
	-0.0793446,
	-0.241577,
	-0.0656988,
	0.277275,
	0.15089,
	0.275339,
	0.572251,
	0.2563,
	-0.161115,
	-0.361504,
	-0.322877,
	-0.580213,
	-0.470761,
	-0.494434,
	-0.593705,
	0.136841,
	0.435089,
	0.510301,
	0.183193,
	-0.270066,
	-0.0821811,
	-0.250348,
	-0.109687,
	0.0126873,
	0.289243,
	0.38984,
	-0.0751387,
	-0.412623,
	-0.198849,
	0.0314987,
	0.0336699,
	-0.0718052,
	0.0353277,
	0.0771291,
	-0.118928,
	0.221499,
	-0.0729383,
	-0.246154,
	-0.281858,
	-0.255717,
	0.0576127,
	-0.465835,
	-0.204958,
	0.00444655,
	0.27681,
	0.288116,
	0.43308,
	0.19747,
	0.0347074,
	0.128511,
	-0.0586396,
	-0.143443,
	0.0473681,
	-0.0370809,
	0.112973,
	-0.224586,
	-0.22427,
	0.0835564,
	0.028218,
	0.349231,
	-0.1223,
	0.0339699,
	-0.33204,
	-0.0543119,
	-0.162263,
	-0.139914,
	-0.217016,
	-0.124987,
	0.120649,
	0.117559,
	0.126693,
	0.0620164,
	0.0524471,
	0.444846,
	0.457802,
	0.527042,
	0.402689,
	-0.307278,
	-0.131376,
	-0.0185334,
	-0.0622815,
	0.0481002,
	0.0670554,
	0.0594912,
	-0.141775,
	0.127191,
	0.183782,
	0.200999,
	0.168629,
	-0.0462737,
	-0.184471,
	-0.193767,
	-0.102758,
	-0.223162,
	-0.289041,
	-0.099311,
	0.021629,
	0.524098,
	0.0223482,
	0.311342,
	0.467039,
	0.404579,
	0.411029,
	0.458925,
	0.426712,
	0.0406078,
	-0.042493,
	-0.168739,
	0.00620176,
	0.328421,
	0.216958,
	0.0207832,
	0.0693258,
	0.151426,
	0.417701,
	0.563989,
	0.257014,
	-0.0141911,
	-0.148542,
	-0.0582519,
	-0.0471228,
	-0.313236,
	-0.150578,
	-0.133645,
	-0.101317,
	0.31014,
	0.364728,
	0.544833,
	0.57996,
	0.68378,
	0.336051,
	0.357242,
	0.129436,
	0.0485956,
	0.0124213,
	-0.107883,
	-0.140025,
	-0.0317486,
	0.109373,
	-0.048966,
	-0.171686,
	0.111918,
	0.518624,
	0.651887,
	0.477505,
	0.145249,
	-0.180959,
	-0.4653,
	-0.292919,
	-0.43853,
	-0.27429,
	-0.193348,
	0.142221,
	0.413189,
	0.538148,
	0.443456,
	0.407837,
	0.555674,
	0.653697,
	0.516559,
	0.29554,
	0.162956,
	-0.245269,
	0.0145943,
	-0.136074,
	-0.230324,
	-0.309071,
	-0.284749,
	0.253484,
	0.390942,
	0.709107,
	0.466848,
	0.40317,
	0.243942,
	-0.192835,
	-0.146837,
	-0.0203279,
	-0.612907,
	-0.123579,
	0.158997,
	0.460627,
	0.525776,
	0.542538,
	0.312479,
	0.417648,
	0.375251,
	0.450845,
	0.304933,
	0.481615,
	-0.0894796,
	-0.145721,
	-0.25866,
	-0.0879208,
	0.035656,
	-0.368108,
	-0.378956,
	-0.207629,
	0.248412,
	0.371628,
	0.0787137,
	-0.158861,
	-0.513271,
	-0.254265,
	-0.313902,
	-0.0246474,
	-0.276549,
	0.00719803,
	0.297191,
	0.335987,
	0.570315,
	0.444503,
	0.294167,
	0.411647,
	0.697206,
	0.303051,
	0.0250449,
	-0.135145,
	-0.187133,
	-0.23815,
	-0.366527,
	-0.437239,
	-0.418975,
	-0.574168,
	-0.239077,
	-0.121047,
	0.0292187,
	0.137791,
	-0.00616543,
	0.305858,
	-0.204092,
	-0.0911576,
	-0.0311375,
	-0.11297,
	0.213327,
	0.211585,
	0.0333701,
	0.531828,
	0.619135,
	0.450441,
	0.492767,
	0.48651,
	0.458362,
	0.461193,
	-0.0364864,
	-0.160457,
	-0.21184,
	-0.388232,
	-0.0629117,
	-0.127277,
	0.0617363,
	-0.161378,
	-0.238803,
	-0.473586,
	-0.284182,
	-0.127942,
	-0.193195,
	-0.387924,
	-0.426362,
	-0.292604,
	-0.0705327,
	-0.269284,
	0.239742,
	0.225981,
	0.000818391,
	0.165654,
	0.254759,
	0.439504,
	0.337915,
	0.159189,
	-0.0557969,
	0.148351,
	-0.47702,
	-0.254917,
	-0.302813,
	-0.834959,
	0.362313,
	0.0915848,
	-0.034021,
	0.0835655,
	0.105433,
	-0.279297,
	0.360641,
	0.0193186,
	-0.399722,
	-0.249003,
	-0.301663,
	-0.310146,
	0.0887167,
	-0.2268,
	-0.290177,
	0.0517594,
	0.284086,
	-0.513403,
	0.0749096,
	-0.0508259,
	-0.324076,
	-0.0254405,
	0.0529142,
	-0.288554,
	-0.307856,
	-0.349752,
	-0.261301,
	0.062802,
	-0.0479968,
	0.200902,
	0.20509,
	0.0816992,
	0.46336,
	-0.260892,
	-0.0575003,
	0.00823601,
	0.106172,
	0.00861462,
	0.0520061,
	-0.0641218,
	0.089185,
	-0.0682671,
	0.159027,
	-0.153041,
	0.0826311,
	-0.0300376,
	0.002919,
	-0.158059,
	-0.154692,
	0.435447,
	-0.00517983,
	0.0347363,
	-0.474651,
	0.0330315,
	-0.130662,
	0.00580007,
	-0.466723,
	-0.0480912,
	-0.191429,
	-0.0399276,
	0.252971,
	0.0776793,
	0.0293413,
	-0.0568986,
	0.136472,
	0.2831,
	0.193549,
	0.346233,
	-0.05785,
	0.036906,
	0.0769179,
	0.0194496,
	-0.481182,
	-0.363823,
	-0.148698,
	-0.140998,
	0.127258,
	-0.105419,
	-0.121583,
	-0.0598088,
	-0.423311,
	-0.0179046,
	-0.419036,
	0.122342,
	0.328345,
	-0.0452606,
	0.243798,
	-0.170345,
	-0.126222,
	0.26204,
	0.0160515,
	0.114472,
	0.182568,
	0.201723,
	0.086196,
	0.196342,
	0.00356296,
	0.0382682,
	0.177733,
	-0.194242,
	-0.11612,
	-0.113408,
	-0.0480257,
	0.00294778,
	-0.114034,
	0.177278,
	-0.00727626,
	0.190154,
	0.00862139,
	-0.504271,
	-0.212421,
	0.490424,
	0.0545623,
	-0.113375,
	-0.045242,
	-0.103674,
	-0.165142,
	0.0292249,
	-0.0429682,
	0.126561,
	0.00217831,
	0.0518966,
	-0.121842,
	0.0149264,
	0.126991,
	0.0136928,
	-0.10839,
	0.103882,
	-0.269378,
	0.00420689,
	0.00426391,
	-0.00233239,
	-0.0693007,
	0.0616605,
	0.290526,
	0.361578,
	0.143485,
	-0.086237,
	-0.361053,
	0.184231,
	0.28634,
	-0.328599,
	-0.228882,
	-0.216502,
	-0.386377,
	0.286636,
	0.475352,
	0.186252,
	-0.62256,
	-0.0333989,
	0.262497,
	0.389887,
	0.487718,
	0.442895,
	0.293014,
	0.449166,
	0.453702,
	0.321631,
	0.221646,
	-0.196358,
	0.0539584,
	0.342413,
	0.409385,
	0.605957,
	-0.119861,
	-0.236967,
	-0.221792,
	-0.40365,
	-0.47499,
	-0.428609,
	-0.624731,
	-0.769554,
	-0.444745,
	-0.219604,
	-0.680261,
	-0.22167,
	-0.123146,
	0.15575,
	0.470814,
	0.43053,
	0.418867,
	0.374832,
	0.50239,
	0.501092,
	0.67054,
	0.122343,
	0.341278,
	0.0144924,
	-0.666801,
	-0.542655,
	0.046185,
	-0.00880151,
	-0.368686,
	-0.120535,
	0.0848198,
	-0.0796329,
	-0.532634,
	-0.214196,
	-0.260675,
	0.457121,
	0.0752007,
	0.115499,
	-0.557115,
	-0.409328,
	-0.417076,
	-0.39468,
	0.116147,
	0.231166,
	0.165868,
	0.127892,
	-0.202239,
	-0.0355286,
	0.0094726,
	0.290622,
	0.195343,
	-0.138696,
	-0.0512711,
	0.387394,
	-0.11269,
	-0.0020724,
	-0.0570354,
	-0.184662,
	-0.00712933,
	-0.0627757,
	-0.14055,
	0.065066,
	-0.0178343,
	0.232267,
	0.531663,
	0.533758,
	0.0169437,
	-0.507256,
	-0.325999,
	-0.577479,
	-0.101289,
	0.191886,
	0.333649,
	0.455891,
	0.104557,
	0.0185317,
	0.0367649,
	0.0592215,
	0.223471,
	0.0344307,
	0.131619,
	0.144066,
	-0.0357467,
	-0.119188,
	-0.247167,
	0.428241,
	0.115882,
	0.243478,
	-0.384343,
	-0.125444,
	0.101024,
	0.483502,
	0.628806,
	0.162193,
	-0.534498,
	-0.656746,
	-0.461277,
	-0.575381,
	-0.186764,
	0.0564524,
	0.174502,
	0.152206,
	-0.0581431,
	-0.236947,
	0.073819,
	-0.0778072,
	-0.125865,
	0.116864,
	0.167079,
	-0.00757738,
	-0.253621,
	0.107254,
	-0.682756,
	0.155391,
	0.193442,
	0.585665,
	0.629022,
	-0.18117,
	-0.085709,
	0.541787,
	0.337125,
	0.0815972,
	-0.506029,
	-0.497605,
	-0.241173,
	-0.30195,
	-0.0533522,
	0.0419375,
	0.123859,
	0.104897,
	0.329791,
	0.0710824,
	0.0199484,
	-0.288742,
	-0.285548,
	-0.330939,
	-0.0529711,
	0.159023,
	-0.142962,
	-0.351054,
	-0.380378,
	0.162656,
	-0.0872044,
	-0.0534579,
	0.41218,
	0.167477,
	0.319798,
	0.45068,
	0.23061,
	0.409549,
	-0.0062291,
	-0.0629165,
	-0.206546,
	-0.191673,
	-0.229197,
	0.0451552,
	0.0494886,
	0.315045,
	0.243598,
	0.147764,
	-0.240464,
	-0.275138,
	-0.390677,
	-0.198927,
	-0.237485,
	-0.0489992,
	-0.277343,
	-0.39745,
	-1.06021,
	0.0217454,
	-0.18295,
	-0.0463662,
	-0.0113538,
	0.411839,
	-0.59557,
	0.20773,
	0.0744579,
	0.437483,
	-0.000674114,
	-0.0918155,
	0.00950862,
	0.0726946,
	-0.157563,
	0.263467,
	-0.0049036,
	0.106423,
	0.197906,
	0.0669669,
	-0.0472024,
	-0.105724,
	-0.137341,
	-0.223045,
	0.083098,
	0.0248928,
	-0.157923,
	-0.730964,
	-0.7221,
	0.0153217,
	0.0390906,
	0.175448,
	-0.32847,
	0.0183634,
	-0.380451,
	0.00236323,
	0.221427,
	0.416318,
	0.35512,
	0.145419,
	0.0769722,
	0.150648,
	0.0869145,
	0.290821,
	0.0492522,
	0.252689,
	0.181102,
	-0.058879,
	0.233167,
	0.0284157,
	0.0215372,
	0.0757671,
	0.23938,
	-0.264771,
	-0.318875,
	-0.489578,
	-0.836602,
	-0.24186,
	-0.141453,
	0.219747,
	-0.224745,
	-0.127455,
	-0.624981,
	-0.354906,
	0.248191,
	0.351805,
	0.481409,
	0.377715,
	0.356656,
	0.107851,
	0.138169,
	0.433027,
	0.329533,
	0.191638,
	-0.105642,
	-0.0725978,
	-0.0252092,
	-0.117809,
	-0.0515089,
	0.16641,
	0.271721,
	-0.225785,
	-0.21937,
	-0.63107,
	-0.51974,
	0.0194792,
	-0.166093,
	0.00223973,
	-0.325172,
	-0.0929551,
	0.0672127,
	-0.0467135,
	0.168233,
	0.476484,
	0.71292,
	0.380765,
	0.440895,
	0.269362,
	0.507301,
	0.481994,
	0.196414,
	-0.0685501,
	-0.195229,
	-0.0211771,
	-0.267585,
	-0.388521,
	-0.123034,
	-0.147844,
	0.127707,
	-0.241509,
	-0.273684,
	-0.519412,
	-0.637682,
	-0.00115787,
	-0.0831132,
	0.049704,
	-0.325557,
	-0.0855472,
	-0.41463,
	0.0442281,
	-0.0776504,
	0.298066,
	0.51815,
	0.179227,
	0.487544,
	0.161632,
	0.522663,
	0.452864,
	0.549768,
	0.303745,
	-0.196924,
	-0.261155,
	-0.15841,
	-0.413137,
	-0.394293,
	-0.185469,
	-0.00638854,
	-0.343688,
	-0.33395,
	-0.0240508,
	-0.172816,
	0.00874746,
	0.0704264,
	-0.0482317,
	0.0622161,
	0.0336997,
	-0.14606,
	-0.223587,
	-0.0817538,
	0.0840673,
	0.384285,
	0.569292,
	0.297258,
	0.52209,
	0.614687,
	0.505272,
	0.563935,
	0.460206,
	0.200025,
	-0.347362,
	-0.0490422,
	-0.300372,
	-0.0652642,
	-0.430572,
	-0.323034,
	0.0417487,
	-0.144806,
	-0.312699,
	-0.433677,
	-0.176154,
	0.247631,
	0.0143024,
	-0.365806,
	0.406241,
	-0.178669,
	-0.250269,
	-0.445647,
	-0.162288,
	0.276111,
	0.404326,
	0.283203,
	0.427532,
	0.52007,
	0.393672,
	0.439398,
	0.590833,
	0.539541,
	0.299546,
	0.140105,
	-0.0308443,
	-0.34601,
	-0.349844,
	-0.419024,
	-0.259875,
	-0.268025,
	-0.146173,
	-0.794831,
	-0.050914,
	-0.0305212,
	-0.0310713,
	-0.273328,
	0.178041,
	-0.0465145,
	0.0590611,
	-0.213145,
	-0.11447,
	0.266374,
	0.305474,
	0.239798,
	0.372689,
	0.457361,
	0.4986,
	0.375985,
	0.431757,
	0.200469,
	0.260749,
	-0.0335419,
	-0.183725,
	-0.298392,
	-0.432879,
	-0.840032,
	-0.12609,
	0.307062,
	-0.227297,
	-0.493661,
	-0.321276,
	-0.0897128,
	-0.0383174,
	-0.00134605,
	0.11881,
	0.27536,
	-0.535731,
	-0.426542,
	-0.0624693,
	0.0725102,
	0.209833,
	0.106314,
	-0.0203535,
	0.249596,
	0.286207,
	0.242464,
	0.127654,
	0.254393,
	0.33549,
	0.255239,
	-0.0521652,
	-0.508846,
	-0.230161,
	-0.0386487,
	-0.141322,
	0.0283167,
	0.360789,
	-0.267777,
	-0.741086,
	0.218766,
	0.0329598,
	-0.0670097,
	0.368255,
	-0.125256,
	-0.0622286,
	-0.19397,
	-0.151271,
	0.0902505,
	0.124339,
	-0.13459,
	-0.0385296,
	0.0384483,
	0.204353,
	-0.143408,
	0.231447,
	0.377986,
	0.0786376,
	0.0707048,
	0.188058,
	-0.0294941,
	-0.513838,
	-0.205629,
	0.134793,
	0.20881,
	0.133189,
	-0.506924,
	-0.628226,
	0.113456,
	-0.143042,
	-0.145855,
	0.543372,
	0.0539827,
	0.547077,
	-6.95574e-06,
	-0.289067,
	-0.349232,
	-0.00819788,
	-0.127456,
	0.0459359,
	-0.33673,
	-0.237524,
	-0.253861,
	-0.016641,
	-0.00844182,
	0.0669926,
	0.0694731,
	0.273626,
	-0.172155,
	0.0204861,
	0.0711643,
	0.417413,
	0.18572,
	0.422328,
	-0.188029,
	-0.620446,
	0.546773,
	-0.328186,
	-0.00259364,
	0.344496,
	0.560697,
	0.330251,
	-0.121212,
	-0.297473,
	0.0603186,
	0.182757,
	-0.137464,
	-0.031305,
	-0.170437,
	-0.248832,
	-0.282239,
	-0.141913,
	0.227957,
	0.30536,
	0.380334,
	0.168532,
	-0.139079,
	-0.112388,
	0.0614714,
	0.354092,
	0.22002,
	0.313713,
	-0.0641409,
	-0.420341,
	0.0306973,
	-0.253553,
	-0.375069,
	0.518752,
	0.557077,
	0.484543,
	0.579842,
	-0.0409648,
	0.15134,
	0.166761,
	0.421258,
	-0.0431627,
	-0.395426,
	-0.5202,
	-0.201232,
	-0.466315,
	-0.102858,
	0.13116,
	-0.0987072,
	-0.333085,
	-0.471383,
	-0.313312,
	-0.00454149,
	0.438064,
	0.363906,
	0.225036,
	0.0265227,
	0.0712986,
	0.244841,
	-0.459553,
	-0.221543,
	0.412237,
	0.417915,
	0.228475,
	0.748051,
	0.253263,
	-0.0972319,
	0.073137,
	0.0463055,
	0.167006,
	-0.32042,
	-0.337951,
	-0.204807,
	-0.288804,
	-0.227908,
	-0.326228,
	-0.138677,
	-0.0619772,
	-0.220061,
	-0.240094,
	-0.0268901,
	0.104263,
	0.416367,
	0.509967,
	0.180387,
	0.127029,
	0.28507,
	-0.466956,
	-0.360922,
	0.343993,
	0.663543,
	0.358305,
	0.951134,
	0.632924,
	0.506568,
	-0.0827822,
	0.282899,
	0.303673,
	-0.0373112,
	-0.0748862,
	-0.20938,
	0.286088,
	-0.370133,
	-0.290177,
	-0.417006,
	-0.335268,
	-0.538674,
	-0.331054,
	-0.0740122,
	0.298753,
	0.442221,
	0.256044,
	0.445987,
	0.518964,
	0.217377,
	-0.371184,
	-0.59298,
	0.0903017,
	0.303746,
	0.234577,
	0.805477,
	0.508324,
	-0.0443638,
	0.244672,
	0.290486,
	0.107183,
	0.31402,
	0.507366,
	0.130076,
	0.189711,
	0.594464,
	0.0759898,
	-0.480357,
	-0.465783,
	-0.13511,
	-0.110091,
	0.348683,
	0.29755,
	0.273666,
	0.315733,
	0.420546,
	0.146279,
	-0.203806,
	-0.956707,
	-0.502671,
	0.356765,
	0.272878,
	0.302781,
	0.442114,
	0.420055,
	0.362292,
	-0.488053,
	-0.0245996,
	-0.172206,
	-0.0575748,
	0.384686,
	0.49568,
	0.476409,
	-0.000914616,
	-0.0718888,
	-0.0551093,
	-0.141333,
	-0.114888,
	-0.206124,
	-0.0155455,
	0.284982,
	0.539832,
	0.204629,
	0.217114,
	0.106429,
	-0.00457584,
	-0.192194,
	0.0603532,
	0.0822192,
