//SIDE: 28
float Network_weights[20384] = {
	-0.0186757,
	0.141653,
	0.0994033,
	0.0139873,
	0.161022,
	0.180283,
	0.224307,
	0.239241,
	0.335662,
	0.159773,
	0.0443403,
	0.0501126,
	-0.2133,
	-0.190503,
	0.00407661,
	0.305394,
	0.211514,
	0.199005,
	0.256736,
	0.322137,
	0.359132,
	0.426189,
	0.493429,
	0.411044,
	0.133858,
	0.315983,
	0.165042,
	-0.186754,
	-0.111697,
	0.322812,
	0.244775,
	0.206791,
	0.216256,
	0.142217,
	0.155897,
	0.175497,
	0.18626,
	0.0708041,
	0.0301177,
	0.161853,
	0.191582,
	0.157022,
	0.158256,
	0.1521,
	0.127279,
	0.154872,
	0.156347,
	0.0963791,
	0.175176,
	0.191238,
	0.182162,
	0.198379,
	0.0729966,
	0.0292333,
	0.115695,
	-0.100683,
	-0.274221,
	0.33083,
	0.334626,
	0.235651,
	0.22306,
	0.172857,
	0.123924,
	0.113633,
	0.104951,
	0.115798,
	0.111013,
	0.0943376,
	0.105044,
	0.0975171,
	0.102001,
	0.109243,
	0.0974418,
	0.0870558,
	0.0894476,
	0.0969967,
	0.106607,
	0.117773,
	0.121756,
	0.132758,
	0.0717765,
	0.0376286,
	-0.18047,
	-0.129466,
	-0.217884,
	0.254026,
	0.293406,
	0.159307,
	0.20731,
	0.083116,
	0.0610093,
	0.0557052,
	0.0516467,
	0.0749487,
	0.109903,
	0.118708,
	0.0639526,
	0.106087,
	0.10923,
	0.1118,
	0.115044,
	0.106568,
	0.103502,
	0.0599387,
	0.0545867,
	0.0543185,
	0.0707586,
	0.0773463,
	0.0144988,
	-0.0504008,
	-0.185649,
	-0.157963,
	-0.149187,
	0.256059,
	0.198846,
	0.129737,
	0.0996059,
	0.026389,
	-0.00723245,
	0.0333946,
	0.0251172,
	0.0556264,
	-0.0997419,
	-0.0849007,
	-0.00118415,
	-0.0483649,
	-0.127627,
	-0.0257101,
	0.0760701,
	0.120179,
	0.106612,
	0.0420333,
	-0.00349847,
	-0.00575955,
	-0.00196375,
	0.0167342,
	-0.0181645,
	-0.0347932,
	-0.198425,
	0.25134,
	-0.0811396,
	0.237184,
	0.156293,
	0.0829395,
	0.0577505,
	-0.0123315,
	0.0800255,
	0.210403,
	0.140437,
	-0.0723154,
	0.0418855,
	-0.144706,
	-0.0813576,
	-0.2587,
	-0.144464,
	0.0465323,
	0.060252,
	0.178868,
	0.168205,
	0.0933971,
	0.0180945,
	-0.00446918,
	0.00408009,
	0.079562,
	-0.0137188,
	-0.0136936,
	-0.206241,
	0.223153,
	-0.232982,
	-0.0610547,
	0.135934,
	0.0782864,
	0.0327025,
	0.0770322,
	0.306702,
	0.487101,
	0.40895,
	0.382025,
	0.285082,
	0.124093,
	0.0735167,
	0.190504,
	0.123025,
	0.322028,
	0.47081,
	0.438745,
	0.365404,
	0.206036,
	0.11025,
	0.0492799,
	0.0140645,
	-0.0236722,
	0.000303832,
	0.0914997,
	-0.150184,
	0.222698,
	-0.372084,
	0.100449,
	0.147159,
	0.121981,
	0.145873,
	0.157464,
	0.41293,
	0.657551,
	0.479062,
	0.305303,
	0.238727,
	-0.0933499,
	-0.0320754,
	0.0636294,
	0.118426,
	0.445727,
	0.44626,
	0.643466,
	0.455017,
	0.353334,
	0.172807,
	0.125321,
	0.0267519,
	0.0156561,
	0.12036,
	-0.0122641,
	-0.00515975,
	-0.0177718,
	-0.480185,
	-0.0576148,
	0.214271,
	0.124104,
	0.196034,
	0.272066,
	0.570378,
	0.614256,
	0.488395,
	0.377606,
	0.128497,
	-0.134357,
	-0.146995,
	-0.337309,
	-0.305385,
	0.00309552,
	0.0685882,
	0.477513,
	0.431234,
	0.303585,
	0.204203,
	0.116203,
	0.014987,
	-0.188474,
	-0.00726441,
	-0.0445712,
	-0.424146,
	-0.257294,
	-0.281559,
	0.00477393,
	0.136309,
	0.152527,
	0.170026,
	0.245944,
	0.622461,
	0.567605,
	0.35825,
	0.319747,
	0.106195,
	-0.41395,
	-0.888216,
	-0.670831,
	-0.186858,
	-0.0295274,
	0.159514,
	0.258139,
	0.429236,
	0.289498,
	0.185415,
	0.0497543,
	0.00973408,
	-0.215885,
	-0.0637028,
	-0.00894617,
	-0.266777,
	-0.418366,
	-0.281529,
	-0.141253,
	0.165793,
	0.157621,
	0.156505,
	0.312931,
	0.520098,
	0.440349,
	0.124947,
	0.214863,
	-0.104913,
	-0.513508,
	-0.645002,
	-0.575369,
	-0.278423,
	-0.248804,
	-0.00849972,
	0.108927,
	0.453308,
	0.259532,
	0.161699,
	0.0353941,
	0.0158362,
	-0.152461,
	-0.100625,
	-0.172944,
	-0.254322,
	-0.161593,
	-0.00565363,
	0.165617,
	0.206288,
	0.179137,
	0.168493,
	0.330069,
	0.35302,
	0.283762,
	0.081429,
	0.0402279,
	-0.0687378,
	-0.484001,
	-0.760453,
	-0.764503,
	-0.431637,
	-0.217856,
	-0.172564,
	-0.0472238,
	0.481799,
	0.265482,
	0.129865,
	0.0301429,
	0.0157426,
	-0.150368,
	-0.0597817,
	-0.156794,
	0.00732069,
	-0.0309546,
	0.179134,
	0.0786825,
	0.208611,
	0.206651,
	0.187373,
	0.328625,
	0.217155,
	0.226601,
	0.206189,
	0.00063597,
	-0.187662,
	-0.440808,
	-0.685879,
	-0.613891,
	-0.452144,
	-0.12876,
	-0.326403,
	-0.0321057,
	0.00492018,
	0.236898,
	0.0937074,
	0.0153667,
	0.0113705,
	-0.121198,
	-0.148892,
	-0.152821,
	0.0461094,
	-0.0407874,
	0.229037,
	0.148761,
	0.226641,
	0.112246,
	0.169555,
	0.0792414,
	0.147079,
	0.00417322,
	-0.329452,
	-0.660097,
	-0.619887,
	-0.543652,
	-0.720759,
	-1.00311,
	-0.551763,
	-0.343014,
	-0.367687,
	-0.127783,
	-0.218917,
	0.193462,
	0.0783584,
	0.0115594,
	0.00752995,
	-0.153361,
	-0.162548,
	-0.266074,
	-0.0641502,
	0.0185182,
	0.0056577,
	0.0436325,
	0.215049,
	0.115527,
	0.124623,
	0.0558288,
	0.0727869,
	-0.0603823,
	-0.326062,
	-0.682456,
	-0.704032,
	-0.505895,
	-1.22714,
	-0.965489,
	-0.711196,
	-0.348598,
	-0.375013,
	-0.381561,
	-0.311183,
	0.180111,
	0.0617596,
	0.0268342,
	0.0140772,
	0.00652944,
	-0.189118,
	-0.163723,
	-0.0258216,
	0.0660142,
	-0.234449,
	-0.297824,
	0.203469,
	0.172677,
	-0.0824758,
	-0.118325,
	-0.0474868,
	-0.136833,
	-0.520789,
	-0.718612,
	-0.596605,
	-0.596656,
	-0.642623,
	-0.813397,
	-0.422107,
	-0.277122,
	-0.547956,
	-0.580927,
	-0.371689,
	-0.268825,
	0.0582638,
	0.0718984,
	-0.0587143,
	-0.0310915,
	-0.132903,
	-0.241266,
	-0.0631689,
	0.00762087,
	-0.0277516,
	-0.146154,
	0.0108014,
	0.0896464,
	-0.141545,
	-0.186937,
	-0.213245,
	0.0811517,
	-0.300262,
	-0.59704,
	-0.404412,
	-0.355062,
	-0.370227,
	-0.659875,
	-0.440948,
	-0.421573,
	-0.465346,
	-0.627683,
	-0.369844,
	-0.425085,
	0.0914591,
	0.109956,
	0.123725,
	0.0855518,
	-0.0483606,
	-0.181775,
	-0.112349,
	-0.0694563,
	-0.0813011,
	0.0240019,
	-0.101463,
	-0.0982236,
	-0.331422,
	-0.270186,
	-0.109059,
	-0.0313412,
	-0.514879,
	-0.448395,
	-0.342562,
	-0.399053,
	-0.0806217,
	-0.476449,
	-0.512246,
	-0.641398,
	-0.545469,
	-0.544845,
	-0.227303,
	-0.33236,
	0.127287,
	0.282583,
	0.0893502,
	0.190078,
	-0.0110641,
	-0.195224,
	0.0376851,
	0.050581,
	0.0369384,
	0.0544382,
	-0.0651002,
	-0.105431,
	-0.344025,
	-0.365312,
	-0.220173,
	-0.177553,
	-0.0844164,
	-0.0254551,
	-0.148182,
	-0.186882,
	-0.209961,
	-0.278929,
	-0.368086,
	-0.5107,
	-0.355554,
	-0.541748,
	-0.389556,
	-0.253785,
	-0.205368,
	0.222304,
	0.168538,
	0.251781,
	-0.0446988,
	-0.170234,
	-0.0455698,
	0.083824,
	-0.0281557,
	0.113849,
	0.119807,
	-0.093077,
	-0.251667,
	-0.141108,
	-0.0599847,
	-0.209477,
	-0.111762,
	-0.00388565,
	0.0123728,
	-0.147476,
	-0.0363913,
	-0.033436,
	-0.127021,
	-0.169568,
	-0.40969,
	-0.356991,
	-0.570494,
	-0.445722,
	-0.169298,
	0.491606,
	0.379354,
	0.264493,
	-0.0468275,
	-0.0826315,
	-0.0492836,
	0.12404,
	0.0986328,
	0.0549557,
	0.0798101,
	0.217086,
	0.0534998,
	-0.141597,
	-0.231213,
	-0.34949,
	-0.13946,
	-0.0843378,
	-0.31091,
	-0.117896,
	0.29125,
	0.462948,
	0.0460516,
	0.101672,
	-0.0142787,
	-0.57018,
	-0.302203,
	-0.0995747,
	0.115386,
	0.153688,
	0.329504,
	0.285222,
	-0.204402,
	-0.117575,
	0.0946179,
	0.126318,
	0.12903,
	0.251768,
	0.208428,
	0.110539,
	0.0909206,
	-0.173698,
	-0.375539,
	-0.357233,
	-0.226582,
	-0.15608,
	-0.156587,
	0.0410606,
	0.279329,
	0.413394,
	0.0871248,
	-0.0301944,
	-0.1589,
	-0.0138243,
	-0.163416,
	-0.140289,
	0.195271,
	0.0695342,
	0.214075,
	0.24638,
	-0.0527068,
	0.190485,
	0.0933596,
	0.173636,
	0.100384,
	0.251128,
	0.252843,
	0.0653335,
	0.246672,
	-0.0288063,
	-0.307635,
	-0.439858,
	-0.387872,
	-0.162479,
	-0.241998,
	0.0384851,
	0.116598,
	0.255251,
	0.155495,
	-0.0327391,
	-0.0332306,
	-0.152074,
	-0.101907,
	-0.190778,
	0.0221788,
	-0.172262,
	-0.0465057,
	0.0507071,
	0.00486656,
	0.139347,
	0.183001,
	0.218998,
	0.175457,
	0.113322,
	0.255958,
	0.218831,
	0.385608,
	0.0961542,
	-0.0817464,
	-0.333396,
	-0.346104,
	-0.199114,
	-0.0367408,
	0.159934,
	0.167441,
	0.147935,
	0.166242,
	-0.0119745,
	-0.30413,
	-0.310269,
	-0.0767622,
	-0.185127,
	0.0460125,
	0.262118,
	-0.0653621,
	0.395347,
	-0.152385,
	0.196364,
	0.300733,
	0.210192,
	-0.168091,
	-0.222658,
	-0.100751,
	0.0953325,
	0.166369,
	0.109972,
	0.191537,
	-0.0105384,
	-0.206677,
	-0.127034,
	0.135111,
	0.182468,
	0.170691,
	0.148266,
	0.171804,
	0.0362659,
	0.016047,
	-0.0403747,
	0.165378,
	0.0053351,
	0.15493,
	0.193036,
	0.0257802,
	0.52318,
	-0.0728833,
	0.34509,
	0.232171,
	0.0585293,
	-0.38907,
	-0.279822,
	-0.151057,
	-0.384536,
	-0.156537,
	-0.293166,
	-0.375689,
	-0.145514,
	-0.338677,
	-0.14728,
	-0.269969,
	-0.27395,
	-0.245128,
	-0.271621,
	-0.110411,
	-0.0608673,
	-0.0915852,
	-0.00125482,
	0.109461,
	-0.149975,
	0.139775,
	0.120494,
	-0.145672,
	0.375489,
	-0.0859306,
	0.392044,
	0.293002,
	0.0488183,
	0.0237641,
	0.336332,
	0.374545,
	0.150359,
	0.247821,
	0.32151,
	0.177638,
	0.135984,
	-0.0404335,
	-0.0384903,
	-0.18321,
	-0.251416,
	-0.313248,
	-0.233354,
	-0.0790266,
	-0.132589,
	-0.0455188,
	0.0149563,
	-0.25465,
	-0.212391,
	-0.205322,
	-0.391896,
	-0.353623,
	-0.034695,
	-0.360975,
	-0.214819,
	-0.0341237,
	0.0188014,
	-0.0174091,
	0.0777116,
	0.15018,
	-0.237544,
	0.0941839,
	0.0443387,
	0.0438285,
	0.0195926,
	0.0132701,
	-0.0071431,
	-0.00208447,
	0.00908802,
	0.000795811,
	-0.00296414,
	-0.00973913,
	-0.0143315,
	-0.0130022,
	-0.00378499,
	0.00792138,
	-0.124631,
	-0.21505,
	-0.182388,
	0.0853899,
	-0.144678,
	-0.148728,
	-0.072674,
	-0.0211714,
	-0.0134833,
	-0.500537,
	-0.107696,
	0.289522,
	0.439691,
	0.394339,
	0.712483,
	0.505816,
	0.412501,
	0.292285,
	0.321521,
	0.159662,
	0.156391,
	0.173108,
	0.10218,
	0.0151422,
	0.05255,
	-0.0773579,
	0.0634079,
	0.0428649,
	0.137304,
	0.168882,
	0.270411,
	0.342525,
	0.508327,
	0.257801,
	-0.292467,
	-0.624394,
	-0.867468,
	-0.173115,
	-0.251281,
	-0.0112711,
	-0.0851545,
	0.0817964,
	0.336985,
	0.371608,
	0.352658,
	0.315382,
	0.302788,
	0.293081,
	0.294835,
	0.293197,
	0.288527,
	0.290214,
	0.28436,
	0.287752,
	0.292695,
	0.297726,
	0.290047,
	0.202636,
	0.20387,
	0.285759,
	0.181971,
	-0.0177725,
	-0.0463365,
	-0.377295,
	0.133855,
	0.136447,
	-0.138713,
	0.0461668,
	-0.304297,
	-0.171608,
	0.0933506,
	0.210463,
	0.214367,
	0.202427,
	0.197069,
	0.191552,
	0.183756,
	0.184203,
	0.184298,
	0.184802,
	0.183994,
	0.18411,
	0.183452,
	0.186912,
	0.187094,
	0.205334,
	0.217658,
	0.206394,
	0.24093,
	-0.0551874,
	0.122304,
	0.190465,
	0.347074,
	-0.0123211,
	-0.00547338,
	-0.03316,
	-0.329798,
	-0.17982,
	0.0464449,
	0.162769,
	0.155649,
	0.156665,
	0.162895,
	0.163673,
	0.168937,
	0.172644,
	0.160091,
	0.160152,
	0.160169,
	0.160521,
	0.160142,
	0.15702,
	0.155613,
	0.158432,
	0.16254,
	0.154946,
	0.105257,
	-0.108395,
	0.275602,
	0.266239,
	0.391461,
	-0.0397648,
	-0.282434,
	-0.192366,
	-0.394719,
	-0.25926,
	0.156539,
	0.154666,
	0.114971,
	0.000587564,
	0.0292264,
	0.0138466,
	-0.0338315,
	-0.246719,
	-0.219715,
	-0.103519,
	0.229559,
	0.226165,
	0.1013,
	0.101549,
	0.201574,
	0.158897,
	0.176181,
	0.172878,
	0.187208,
	0.0641614,
	0.189774,
	0.247406,
	0.213407,
	-0.0715023,
	-0.377162,
	-0.217426,
	-0.31091,
	-0.314968,
	0.177124,
	0.121412,
	-0.0189563,
	0.0361753,
	-0.0662648,
	-0.0429753,
	-0.11948,
	-0.0538374,
	-0.114872,
	-0.111396,
	-0.154942,
	-0.0471018,
	0.0343482,
	0.193082,
	0.092934,
	0.0934842,
	0.182892,
	0.176739,
	0.124141,
	0.0871152,
	0.263592,
	0.0843031,
	0.0962416,
	0.184808,
	-0.322864,
	-0.121409,
	-0.348459,
	-0.260361,
	0.0935381,
	-0.014202,
	-0.231289,
	-0.120237,
	-0.251988,
	-0.0521048,
	-0.324214,
	-0.337073,
	-0.355809,
	-0.248005,
	0.0014205,
	0.0433338,
	0.169222,
	0.229276,
	0.225122,
	0.0253781,
	0.257178,
	0.161904,
	0.0185818,
	0.101573,
	0.0328823,
	0.0540095,
	-0.0471188,
	0.270389,
	-0.357858,
	-0.127823,
	-0.226135,
	-0.119492,
	0.0874848,
	0.00733227,
	-0.284012,
	-0.116327,
	0.1673,
	0.489663,
	-0.125742,
	-0.10904,
	-0.166565,
	0.224444,
	0.0772888,
	0.137153,
	0.215991,
	0.308088,
	0.0975586,
	0.122576,
	0.184359,
	0.222708,
	0.113771,
	-0.023941,
	-0.0569991,
	-0.170027,
	-0.0598226,
	0.318213,
	-0.000338581,
	-0.0736988,
	-0.032858,
	-0.222864,
	-0.151297,
	-0.315877,
	-0.375427,
	-0.440236,
	-0.204845,
	-0.120304,
	-0.393079,
	-0.284691,
	-0.18957,
	0.25261,
	-0.146369,
	0.182082,
	0.2471,
	0.145645,
	-0.0728168,
	0.0208161,
	0.115741,
	0.19714,
	0.125912,
	-0.168272,
	-0.0521575,
	-0.156276,
	-0.153442,
	0.38321,
	0.0432014,
	-0.0565354,
	-0.0317688,
	-0.155133,
	-0.0410689,
	-0.264351,
	-0.361907,
	-0.589097,
	-0.272011,
	-0.265506,
	-0.567663,
	-0.119241,
	-0.108116,
	0.0124834,
	-0.303567,
	-0.462716,
	0.137402,
	0.382454,
	-0.122474,
	-0.0069003,
	0.256836,
	0.209846,
	0.169029,
	-0.212173,
	-0.0200432,
	-0.000433559,
	-0.105806,
	0.330914,
	0.48811,
	-0.112522,
	-0.148478,
	-0.178518,
	-0.10007,
	-0.0430669,
	0.0482066,
	0.00888832,
	-0.0891946,
	0.0293854,
	-0.196062,
	-0.2143,
	-0.68673,
	-0.517039,
	-0.507668,
	-0.596512,
	-0.146346,
	-0.0352583,
	0.0159183,
	-0.0693971,
	0.224415,
	0.284172,
	0.0465792,
	-0.257596,
	-0.0224178,
	0.0390062,
	0.00114978,
	-0.101408,
	0.216154,
	-0.312854,
	-0.236046,
	-0.1761,
	-0.031664,
	0.0678061,
	-0.0427348,
	-0.154529,
	-0.0828141,
	-0.0788677,
	-0.223337,
	-0.442184,
	-0.267462,
	-0.305245,
	-0.465885,
	-0.620944,
	-0.133126,
	-0.157156,
	0.062887,
	0.136438,
	0.214177,
	0.165723,
	0.110347,
	-0.126743,
	0.00233694,
	0.0415334,
	-0.0877368,
	-0.116887,
	0.0504711,
	-0.208962,
	-0.18021,
	-0.109424,
	0.0390657,
	0.0861845,
	-0.135566,
	-0.310222,
	-0.419955,
	-0.336647,
	-0.450153,
	-0.19003,
	-0.33193,
	-0.140916,
	-0.404843,
	-0.30214,
	-0.327993,
	-0.111318,
	0.0471671,
	0.0950716,
	0.190332,
	0.211626,
	0.0974495,
	-0.0743249,
	0.235659,
	0.0883198,
	0.190628,
	0.045505,
	-0.34095,
	-0.277507,
	-0.158088,
	-0.0722011,
	0.0354471,
	0.0111826,
	-0.158579,
	-0.0404421,
	-0.213172,
	-0.192401,
	-0.350678,
	-0.616091,
	-0.403912,
	-0.449972,
	-0.394396,
	-0.454965,
	-0.301911,
	-0.0550703,
	-0.106865,
	0.0423064,
	0.194109,
	0.207618,
	0.0704019,
	-0.105349,
	0.370354,
	0.0967286,
	0.139232,
	0.213462,
	-0.316444,
	-0.377794,
	-0.12381,
	-0.0734823,
	-0.0490375,
	0.00318551,
	-0.280446,
	-0.591193,
	-0.776696,
	-0.731325,
	-0.639836,
	-0.252837,
	-0.047008,
	-0.180471,
	-0.41231,
	-0.241093,
	-0.143606,
	0.00804645,
	-0.231761,
	-0.130775,
	0.0476454,
	0.269106,
	-0.127308,
	-0.142262,
	0.19274,
	0.216086,
	0.162749,
	0.232351,
	-0.168372,
	-0.175998,
	0.0881025,
	-0.0114247,
	-0.0301022,
	0.184677,
	0.167928,
	0.0452745,
	-0.248214,
	-0.243296,
	-0.409438,
	-0.200506,
	-0.116671,
	-0.0753457,
	-0.317262,
	-0.102898,
	-0.307618,
	0.0535598,
	-0.353393,
	-0.219902,
	0.152531,
	0.248974,
	0.0871055,
	0.0273629,
	0.258614,
	0.18647,
	0.236335,
	0.173849,
	0.16561,
	-0.0298191,
	0.0584908,
	-0.138433,
	-0.163008,
	0.175697,
	0.213162,
	0.131422,
	0.129265,
	0.456013,
	0.457806,
	0.563537,
	0.301104,
	0.171215,
	0.215413,
	-0.142304,
	-0.294131,
	-0.243359,
	-0.225936,
	-0.486275,
	-0.195218,
	-0.147138,
	0.157839,
	-0.0649539,
	0.167551,
	0.13867,
	0.252889,
	0.166416,
	0.299108,
	-0.0815423,
	-0.00418838,
	-0.0782541,
	-0.231693,
	0.180269,
	0.253943,
	0.268116,
	0.396925,
	0.396066,
	0.45074,
	-0.0234748,
	-0.0751592,
	-0.215031,
	-0.0523705,
	-0.332453,
	0.043026,
	-0.308209,
	-0.302464,
	-0.157914,
	0.141029,
	-0.110068,
	-0.320392,
	-0.261208,
	0.0241581,
	0.104814,
	0.178289,
	0.163118,
	0.216922,
	-0.029156,
	0.00162486,
	-0.036821,
	-0.185925,
	-0.0274375,
	-0.0164162,
	-0.464875,
	-0.33693,
	-0.347879,
	-0.240524,
	-0.360148,
	-0.469996,
	-0.451076,
	0.0479927,
	-0.0936334,
	-0.420569,
	-0.0750599,
	-0.146175,
	-0.0793422,
	-0.0326802,
	0.190886,
	-0.183605,
	0.0214452,
	0.15648,
	0.297004,
	0.17398,
	0.180932,
	0.24929,
	0.00137899,
	0.030138,
	-0.103885,
	-0.169756,
	-0.354065,
	-0.175864,
	-0.25051,
	-0.366106,
	-0.611242,
	-0.567941,
	-0.712408,
	-0.5794,
	-0.403247,
	-0.357409,
	0.207383,
	0.361937,
	0.523375,
	0.285149,
	0.303555,
	0.0538827,
	-0.131047,
	-0.0912417,
	-0.110405,
	-0.109157,
	0.365586,
	0.163354,
	0.173783,
	0.0187518,
	-0.0997144,
	-0.055035,
	-0.0762612,
	-0.0304066,
	-0.0883369,
	-0.285637,
	-0.207726,
	-0.388613,
	-0.462781,
	-0.491929,
	-0.461895,
	-0.517813,
	-0.588608,
	-0.377408,
	-0.40739,
	-0.00643924,
	0.220631,
	0.317896,
	0.214861,
	-0.118865,
	-0.293947,
	0.174823,
	0.00306166,
	-0.0859093,
	0.324334,
	0.162988,
	0.183034,
	0.148427,
	-0.181807,
	-0.137149,
	-0.0778024,
	-0.0967315,
	-0.129611,
	-0.190632,
	-0.485216,
	-0.69654,
	-0.602724,
	-0.649039,
	-0.64082,
	-0.374528,
	-0.174326,
	-0.0214192,
	-0.149845,
	0.0917819,
	0.294298,
	0.0953671,
	-0.229666,
	-0.520299,
	-0.540931,
	-0.188874,
	-0.436588,
	-0.274442,
	0.426913,
	0.314809,
	0.231101,
	-0.115013,
	-0.198334,
	-0.175084,
	0.248675,
	0.290708,
	0.0156839,
	0.011427,
	-0.0157574,
	-0.368622,
	-0.292202,
	-0.410545,
	-0.254398,
	-0.264307,
	-0.156653,
	0.0383402,
	-0.0838932,
	-0.215649,
	-0.116192,
	-0.210333,
	0.160287,
	-0.0883555,
	0.0845726,
	-0.024844,
	-0.154483,
	0.263489,
	0.329736,
	0.330304,
	0.333877,
	-0.0280049,
	-0.0899846,
	-0.398233,
	0.183914,
	0.271575,
	0.0950427,
	0.0624173,
	-0.0494362,
	-0.362933,
	-0.0106737,
	-0.0481466,
	0.192666,
	0.317881,
	0.293982,
	0.195014,
	0.282005,
	0.135623,
	-0.39632,
	-0.137872,
	0.00600728,
	-0.197275,
	0.0211299,
	0.142158,
	0.230451,
	0.595099,
	0.153847,
	0.314074,
	0.396014,
	0.0691655,
	0.124853,
	-0.591665,
	-0.0826233,
	0.0169371,
	-0.375793,
	-0.21522,
	-0.275966,
	-0.446377,
	-0.319294,
	0.0743007,
	0.187014,
	0.435934,
	0.460865,
	0.255028,
	0.0898817,
	0.165643,
	-0.107894,
	-0.0227048,
	-0.289905,
	-0.240681,
	0.0460691,
	-0.273784,
	0.390949,
	0.382673,
	0.0506135,
	0.278137,
	0.303975,
	0.0461445,
	0.27757,
	0.0512908,
	-0.0914309,
	0.00285831,
	0.0215132,
	-0.0453316,
	-0.0865657,
	-0.235493,
	-0.0449819,
	0.0173383,
	0.0991485,
	0.369051,
	0.161103,
	0.0411808,
	-0.116416,
	-0.235669,
	-0.193881,
	0.140345,
	-0.268285,
	-0.105755,
	-0.0221561,
	-0.1622,
	0.173256,
	0.101913,
	0.00659491,
	0.0852791,
	0.15798,
	-0.1708,
	0.057844,
	-0.11761,
	0.0157643,
	0.00980556,
	0.0813351,
	0.0423335,
	0.0385203,
	0.0353947,
	0.209814,
	0.17768,
	0.279523,
	0.163516,
	0.241618,
	0.306432,
	0.0826523,
	-0.113127,
	-0.0979468,
	-0.119711,
	-0.20324,
	0.150417,
	0.0300472,
	0.303519,
	0.333536,
	0.184926,
	0.105533,
	0.172791,
	0.119739,
	0.171294,
	0.125074,
	0.194549,
	0.0770415,
	0.149149,
	0.169624,
	0.153815,
	0.152483,
	0.152416,
	0.153476,
	0.152602,
	0.151552,
	0.152011,
	0.15133,
	0.151258,
	0.151753,
	0.151405,
	0.152452,
	0.161439,
	0.173861,
	0.232515,
	0.0545599,
	0.351869,
	0.32556,
	-0.00133941,
	0.175222,
	0.151333,
	-0.115274,
	-0.198676,
	-0.244853,
	-0.0698875,
	-0.202863,
	-0.21919,
	-0.334101,
	-0.24242,
	-0.0774589,
	0.0892045,
	0.0173255,
	-0.0870612,
	-0.123031,
	0.0155328,
	0.0496086,
	-0.172295,
	-0.104808,
	-0.114367,
	-0.21895,
	-0.0063851,
	-0.0345043,
	-0.0250432,
	0.149993,
	0.194964,
	-0.0989393,
	0.109527,
	-0.0185473,
	0.148821,
	-0.201725,
	-0.162529,
	-0.178181,
	-0.189492,
	-0.368323,
	-0.249829,
	-0.140882,
	-0.154793,
	-0.196572,
	-0.188876,
	-0.208089,
	-0.167248,
	-0.169465,
	-0.153107,
	-0.153406,
	-0.174973,
	-0.187644,
	-0.194779,
	-0.187416,
	-0.170421,
	-0.183967,
	-0.225217,
	-0.138695,
	-0.0851367,
	-0.151297,
	-0.072647,
	0.114279,
	0.284758,
	0.117812,
	-0.0637344,
	-0.165206,
	-0.0751031,
	-0.0205318,
	-0.0485678,
	-0.0270935,
	-0.0913282,
	-0.0276452,
	0.0587234,
	0.0079686,
	0.0571221,
	0.059046,
	0.0579329,
	0.0592934,
	0.0606827,
	0.0608109,
	0.0586573,
	0.0640939,
	0.0671875,
	-0.00677007,
	0.00176412,
	0.0348771,
	-0.0240909,
	0.0783533,
	0.0257288,
	0.00335724,
	-0.0881731,
	0.2362,
	0.106213,
	0.0756405,
	0.0983355,
	0.0742041,
	0.0480037,
	0.0251905,
	0.0245986,
	0.0264753,
	0.027647,
	0.0280355,
	0.0279163,
	0.0279188,
	0.0277651,
	0.0277836,
	0.0277897,
	0.0277816,
	0.0277768,
	0.0298467,
	0.0284679,
	0.0244801,
	0.00507323,
	-0.0372326,
	-0.0522231,
	-0.0287072,
	0.0600906,
	0.0666154,
	0.00385229,
	0.162604,
	0.114207,
	-0.027695,
	0.0684712,
	0.0332004,
	0.0560744,
	0.042359,
	0.0487671,
	0.0613017,
	0.0641731,
	0.06359,
	0.0713377,
	0.0726702,
	0.0708729,
	0.0612177,
	0.0341337,
	0.03309,
	0.0292309,
	0.026831,
	0.0237451,
	0.0231098,
	-0.0653773,
	-0.116048,
	-0.0479133,
	-0.0976013,
	0.0429258,
	-0.0501039,
	0.16344,
	0.158941,
	0.146713,
	-0.0324822,
	0.042661,
	0.04363,
	0.056147,
	0.0599808,
	0.112153,
	0.141373,
	0.186311,
	0.1289,
	0.0287952,
	0.0156423,
	-0.0119511,
	-0.0938569,
	-0.121723,
	-0.017733,
	0.0474782,
	0.0323853,
	0.0284414,
	0.0258089,
	-0.0615917,
	-0.0414281,
	-0.0128121,
	0.023025,
	0.135759,
	-0.0249298,
	0.200443,
	0.0818714,
	0.0635853,
	-0.0394884,
	0.0932858,
	0.128793,
	0.162031,
	0.183333,
	0.262653,
	0.214705,
	0.0856006,
	-0.0209285,
	-0.0914842,
	-0.218751,
	-0.121565,
	-0.211716,
	-0.148849,
	-0.130023,
	-0.0717589,
	-0.0222272,
	0.0473727,
	0.030464,
	-0.0894271,
	-0.0540596,
	-0.066713,
	0.0743222,
	0.0515848,
	0.0314158,
	0.151836,
	0.0857066,
	-0.0120072,
	-0.133531,
	0.0708029,
	0.135122,
	0.224187,
	0.215496,
	0.0661163,
	0.0227162,
	-0.156237,
	-0.183016,
	-0.287408,
	-0.0401428,
	-0.153953,
	-0.399953,
	-0.284334,
	-0.218156,
	-0.0437537,
	-0.0709711,
	-0.0104626,
	0.0354132,
	-0.0877673,
	-0.0825116,
	0.00626487,
	0.086326,
	0.187829,
	0.22998,
	0.182787,
	0.0155789,
	-0.0584135,
	-0.12573,
	0.013683,
	0.157171,
	0.227195,
	0.0203298,
	0.0358686,
	-0.200792,
	-0.0697269,
	-0.559092,
	-0.306304,
	-0.587253,
	-0.232523,
	-0.105847,
	-0.206442,
	-0.184657,
	-0.181952,
	-0.0790351,
	-0.0471572,
	0.0433638,
	-0.0580024,
	-0.0496668,
	-0.0199428,
	0.0572868,
	0.103773,
	0.251153,
	0.255559,
	0.128343,
	0.0189584,
	-0.0811644,
	0.00760111,
	0.0645371,
	-0.064498,
	-0.0446009,
	-0.232717,
	-0.255049,
	-0.170709,
	-0.0801187,
	-0.20258,
	-0.193951,
	-0.207152,
	-0.194566,
	-0.166564,
	-0.437089,
	-0.195191,
	-0.109882,
	-0.102847,
	-0.0528503,
	-0.0768937,
	-0.0899531,
	-0.139826,
	-0.0933381,
	0.062055,
	0.157603,
	0.248783,
	0.180324,
	0.0140454,
	-0.0878099,
	0.0306772,
	-0.0685851,
	-0.12469,
	-0.108253,
	-0.20829,
	-0.321128,
	-0.162624,
	-0.154867,
	-0.196906,
	-0.0812342,
	0.08099,
	-0.144802,
	-0.150013,
	-0.202096,
	-0.0930508,
	-0.121518,
	-0.0853411,
	0.0219687,
	-0.0778718,
	-0.111352,
	-0.128945,
	-0.0972872,
	-0.0350697,
	0.133327,
	0.252783,
	0.0955854,
	0.0972269,
	0.055146,
	-0.0766201,
	-0.130965,
	-0.120964,
	-0.074814,
	-0.0836829,
	-0.182783,
	0.120118,
	0.383231,
	0.197824,
	0.283603,
	0.101855,
	0.140151,
	0.102819,
	0.00479164,
	0.0136388,
	0.10949,
	0.136956,
	0.0224079,
	-0.0257817,
	-0.115266,
	-0.124653,
	-0.21441,
	-0.0954386,
	0.0783167,
	0.188027,
	0.0961902,
	0.0550789,
	-0.0448253,
	-0.104496,
	-0.157823,
	-0.209752,
	-0.117324,
	-0.125397,
	-0.118937,
	0.299266,
	0.439029,
	0.259443,
	0.450769,
	0.345254,
	0.361453,
	0.376094,
	0.267154,
	0.335376,
	0.371385,
	0.209427,
	0.169842,
	-0.027793,
	-0.121533,
	-0.0957969,
	-0.0763746,
	-0.201304,
	0.0682995,
	0.127138,
	0.062826,
	0.00743878,
	-0.0379022,
	-0.144967,
	-0.132471,
	-0.170354,
	-0.176374,
	-0.118012,
	-0.0287456,
	-0.0408243,
	0.371767,
	0.340674,
	0.492683,
	0.465075,
	0.426711,
	0.496577,
	0.508163,
	0.668899,
	0.734095,
	0.434572,
	0.173077,
	-0.0153915,
	-0.132748,
	-0.0860373,
	-0.0759211,
	-0.156802,
	0.0905545,
	0.0439871,
	0.123991,
	0.0252497,
	-0.0834815,
	-0.167652,
	-0.156436,
	-0.160654,
	-0.0906668,
	-0.0118578,
	0.0687336,
	0.116047,
	0.399778,
	0.418911,
	0.547868,
	0.515906,
	0.658643,
	0.701546,
	0.62715,
	0.690516,
	0.815481,
	0.454418,
	0.166694,
	0.0287674,
	-0.104163,
	-0.114047,
	-0.123405,
	-0.193684,
	0.0206424,
	0.0295464,
	0.117546,
	-0.0183419,
	-0.105101,
	-0.0698006,
	-0.136041,
	-0.144082,
	-0.00596683,
	0.00238487,
	-0.0504326,
	0.174971,
	0.286392,
	0.327512,
	0.566937,
	0.570767,
	0.649837,
	0.663352,
	0.716553,
	0.655775,
	0.598516,
	0.301437,
	0.161333,
	0.0021068,
	-0.0591736,
	-0.112496,
	-0.0342559,
	-0.0477444,
	-0.0146684,
	0.0328536,
	0.0433026,
	0.0102361,
	0.0299717,
	-0.0361509,
	-0.0858753,
	-0.0680309,
	0.00309212,
	-0.0144347,
	-0.173395,
	-0.1315,
	0.140044,
	-0.0494461,
	0.265155,
	0.245591,
	0.386713,
	0.233945,
	0.446376,
	0.365758,
	0.400377,
	0.175571,
	0.0678262,
	-0.0599323,
	0.0211513,
	-0.0330869,
	-0.0566989,
	-0.00553619,
	-0.0303209,
	0.0349951,
	0.0347054,
	0.0595025,
	-0.01031,
	-0.0237335,
	-0.00771469,
	-0.00625513,
	-0.00641869,
	-0.034818,
	0.0167163,
	-0.225144,
	-0.0762918,
	-0.0235328,
	-0.0513913,
	-0.153871,
	-0.0560077,
	-0.162266,
	0.0173242,
	0.143434,
	-0.129214,
	-0.301366,
	-0.0165194,
	-0.31476,
	-0.240699,
	-0.179771,
	-0.0452521,
	0.0321723,
	0.0194059,
	0.0316822,
	0.0327186,
	-0.000113253,
	0.0216785,
	-0.0488822,
	0.0335401,
	0.0328128,
	0.0863821,
	0.0350074,
	0.0849313,
	0.168578,
	-0.181182,
	-0.318091,
	-0.352384,
	-0.178387,
	-0.353426,
	-0.304948,
	-0.416858,
	-0.433981,
	-0.240105,
	-0.248732,
	-0.355146,
	-0.274691,
	-0.203044,
	-0.107227,
	-0.163485,
	0.0877406,
	0.0923447,
	0.0336906,
	0.0387416,
	0.00929595,
	-0.0775544,
	0.0585857,
	0.0614774,
	0.099916,
	0.00136678,
	0.24908,
	0.0274755,
	0.092919,
	-0.109709,
	-0.362551,
	-0.284415,
	-0.198341,
	0.0308406,
	-0.295053,
	-0.156327,
	0.14656,
	-0.155726,
	-0.273532,
	-0.23832,
	-0.343694,
	-0.38721,
	-0.160319,
	-0.0188108,
	0.112754,
	0.0449042,
	0.0696414,
	0.0293807,
	-0.00830136,
	0.0153823,
	-0.0451132,
	-0.0865143,
	-0.120339,
	-0.00448658,
	0.0385262,
	0.0287107,
	0.0314039,
	-0.150325,
	-0.27578,
	-0.28346,
	-0.115015,
	-0.120796,
	0.152804,
	0.122577,
	0.0917737,
	0.163432,
	-0.269621,
	-0.503639,
	-0.721667,
	-0.592771,
	-0.19846,
	-0.0451687,
	0.121581,
	-0.104181,
	0.0286483,
	0.030844,
	0.0759471,
	-0.00416735,
	0.0291189,
	-0.00585955,
	0.0469166,
	0.0136687,
	0.132119,
	0.0956044,
	-0.00149118,
	-0.132682,
	-0.103125,
	-0.0142577,
	-0.114352,
	-0.0535501,
	0.0298976,
	0.0697548,
	0.147394,
	0.0523804,
	-0.309696,
	-0.475679,
	-0.403609,
	-0.349931,
	-0.216859,
	-0.0519668,
	0.0517426,
	-0.0134274,
	0.0489373,
	0.0410574,
	0.0539003,
	-0.0221917,
	-0.0697542,
	0.0112995,
	0.0606679,
	-0.0613,
	0.0862263,
	0.0247397,
	0.0229911,
	0.0123846,
	-0.0321096,
	-0.105999,
	-0.0563298,
	0.170222,
	0.116697,
	0.0670163,
	-0.0740744,
	-0.291314,
	-0.141478,
	-0.402036,
	-0.446799,
	-0.267079,
	-0.233736,
	-0.00603249,
	-0.0254633,
	-0.0691392,
	0.0616039,
	0.0615053,
	0.0797279,
	0.0525551,
	0.0733282,
	-0.108933,
	-0.0960542,
	-0.106097,
	-0.0974375,
	-0.000518132,
	-0.0265846,
	0.0375797,
	0.0511817,
	0.0440541,
	0.0743588,
	0.0746734,
	0.119574,
	0.00340562,
	-0.165023,
	-0.00473084,
	0.140334,
	0.00176218,
	-0.290103,
	0.00839302,
	0.143853,
	0.0311124,
	-0.0450795,
	-0.00187759,
	-0.0354406,
	0.0882969,
	0.12139,
	0.0992235,
	0.0329372,
	-0.184305,
	-0.263292,
	-0.317054,
	-0.214572,
	-0.0836657,
	0.0619587,
	0.0506897,
	0.0466632,
	0.0425005,
	0.0619392,
	0.0194057,
	0.0307152,
	0.0235323,
	-0.112352,
	-0.00611806,
	-0.0427455,
	-0.137181,
	0.00499548,
	0.0468597,
	0.108729,
	0.347124,
	0.00578601,
	0.0137666,
	0.0413017,
	0.147244,
	0.0781376,
	-0.0644287,
	-0.196144,
	-0.533684,
	-0.347179,
	-0.415843,
	-0.134367,
	0.0499315,
	0.068873,
	0.123966,
	0.124953,
	0.124333,
	-0.0190688,
	0.0048034,
	0.0924566,
	0.0195985,
	0.101144,
	0.118512,
	0.170956,
	0.102487,
	0.131004,
	0.354325,
	0.269267,
	0.314565,
	0.222216,
	0.130561,
	-0.0536725,
	0.137044,
	0.0163468,
	-0.186109,
	-0.423209,
	-0.621632,
	-0.437735,
	-0.253462,
	-0.104727,
	-0.0367279,
	-0.0474992,
	-0.0405082,
	0.0108824,
	0.00971127,
	-0.0535248,
	-0.140304,
	-0.0861471,
	-0.00766839,
	-0.0298283,
	0.129109,
	0.158531,
	0.165285,
	0.105933,
	0.218742,
	0.239221,
	0.314434,
	0.152341,
	-0.0468608,
	-0.0441832,
	0.0246345,
	-0.106362,
	-0.215813,
	-0.44698,
	-0.487066,
	-0.266707,
	0.00930668,
	0.0240172,
	0.0227013,
	0.0228375,
	0.0232012,
	0.0231621,
	0.0225154,
	0.0227709,
	0.0224492,
	0.0224296,
	0.0225139,
	0.0225038,
	0.022956,
	0.0279287,
	0.0309284,
	-0.0260122,
	0.131226,
	0.136954,
	0.156846,
	0.0996413,
	0.00599467,
	0.0225172,
	0.252266,
	0.0897394,
	0.0993945,
	-0.163099,
	-0.317946,
	-0.350235,
	-0.552523,
	-0.52207,
	-0.451519,
	-0.177382,
	-0.0948208,
	-0.153476,
	-0.0303512,
	-0.148484,
	0.0660055,
	-0.219498,
	-0.135378,
	-0.560044,
	-0.459117,
	-0.428151,
	-0.372227,
	-0.125236,
	-0.207484,
	0.284045,
	0.315471,
	0.0790581,
	0.15887,
	0.149937,
	-0.354761,
	0.0389727,
	-0.182955,
	-0.450832,
	-0.136322,
	-0.355483,
	-0.212818,
	-0.227881,
	-0.1949,
	-0.180236,
	-0.130137,
	-0.0973091,
	-0.108939,
	-0.137988,
	-0.138296,
	-0.1251,
	-0.278398,
	-0.256504,
	-0.276219,
	-0.296044,
	-0.229618,
	-0.197654,
	-0.312631,
	-0.220116,
	0.226934,
	0.00626921,
	-0.418451,
	-0.531326,
	-0.273198,
	0.170186,
	-0.198051,
	-0.337975,
	-0.2514,
	-0.289955,
	-0.401595,
	-0.332064,
	-0.305726,
	-0.331393,
	-0.226776,
	-0.308717,
	-0.183631,
	-0.143015,
	-0.121316,
	-0.129311,
	-0.186769,
	-0.184347,
	-0.209803,
	-0.241665,
	-0.109229,
	-0.124485,
	-0.18045,
	-0.180913,
	-0.210253,
	-0.195611,
	-0.187621,
	-0.168495,
	-0.189678,
	0.068138,
	-0.0968848,
	-0.0127054,
	-0.0707331,
	-0.0471173,
	-0.0484518,
	0.0738807,
	0.0715678,
	0.0700644,
	0.0696998,
	0.0692471,
	0.0693241,
	0.0692612,
	0.0694113,
	0.0694231,
	0.0692843,
	0.0694002,
	0.0731479,
	0.0731824,
	0.0693303,
	0.0700663,
	0.0791422,
	0.0301973,
	-0.172354,
	-0.0531149,
	-0.221228,
	-0.360657,
	0.0359382,
	0.0833755,
	0.123022,
	0.118084,
	0.0720952,
	0.0696294,
	0.0685758,
	0.0805457,
	0.127466,
	0.128387,
	0.142778,
	0.181915,
	0.181476,
	0.180772,
	0.1591,
	0.0704482,
	0.0698913,
	0.0691443,
	0.069217,
	0.0680233,
	0.0679815,
	0.0698994,
	0.0795394,
	0.085764,
	0.140711,
	-0.0858587,
	-0.134642,
	-0.448259,
	0.140517,
	0.117152,
	0.26047,
	0.0978138,
	0.0723044,
	0.0722016,
	0.074195,
	-0.135694,
	-0.131173,
	-0.233262,
	-0.118168,
	-0.0475009,
	0.0317015,
	0.0718458,
	0.097906,
	0.156738,
	0.198761,
	0.118232,
	0.12076,
	0.0765858,
	0.0692628,
	0.0758279,
	0.0918698,
	0.0808189,
	0.160934,
	-0.0711835,
	-0.00601484,
	-0.332525,
	0.23295,
	0.282409,
	0.206411,
	0.102479,
	0.0792512,
	0.0825899,
	0.0705909,
	-0.324749,
	-0.504462,
	-0.540278,
	-0.362049,
	-0.237593,
	-0.130738,
	-0.137955,
	-0.0393203,
	-0.0730793,
	0.08841,
	0.212578,
	0.179058,
	0.105385,
	0.0741645,
	0.0774291,
	0.0798656,
	0.083389,
	0.116168,
	0.0288373,
	-0.0949072,
	-0.0897294,
	0.150878,
	0.18132,
	0.241192,
	0.109031,
	0.0847033,
	-0.0526634,
	-0.322211,
	-0.697189,
	-0.782408,
	-0.88584,
	-0.582188,
	-0.32418,
	-0.364128,
	-0.160248,
	-0.600517,
	-0.367732,
	-0.200097,
	0.00593882,
	0.139161,
	0.154608,
	0.0827829,
	0.0788896,
	0.0880658,
	0.0990191,
	0.177223,
	0.0250472,
	-0.1008,
	0.163848,
	-0.0154888,
	0.140904,
	0.247431,
	0.110438,
	0.0927081,
	-0.116276,
	-0.439572,
	-0.651932,
	-0.736107,
	-0.806965,
	-0.402736,
	-0.149104,
	-0.214977,
	-0.305995,
	-0.328482,
	-0.0645668,
	-0.195088,
	-0.228847,
	-0.188178,
	0.182771,
	0.1008,
	0.0785432,
	0.10357,
	0.103118,
	0.182601,
	0.0532974,
	-0.0292264,
	0.221557,
	-0.454043,
	0.149681,
	0.126164,
	0.123467,
	0.112093,
	-0.0908649,
	-0.305874,
	-0.481869,
	-0.708533,
	-0.0953002,
	-0.040974,
	0.04885,
	-0.208619,
	-0.166559,
	-0.198813,
	0.0215728,
	-0.0173393,
	-0.308658,
	-0.159543,
	-0.175344,
	0.0855496,
	0.0771565,
	0.0885281,
	0.0998247,
	0.196152,
	0.00190673,
	-0.154032,
	-0.0154666,
	-0.302744,
	0.0984042,
	0.176275,
	0.117164,
	0.116676,
	-0.085342,
	-0.104766,
	-0.259268,
	-0.0631808,
	0.362335,
	0.0351627,
	0.413631,
	0.1279,
	-0.201244,
	0.00570888,
	0.22314,
	0.00387731,
	-0.658434,
	-0.506933,
	-0.376215,
	0.0818246,
	0.0731956,
	0.0889839,
	0.0835078,
	0.228461,
	0.0608959,
	-0.118466,
	-0.173541,
	0.0917588,
	0.171474,
	0.170265,
	0.112956,
	0.124226,
	0.000980256,
	0.0557432,
	-0.0367721,
	0.289391,
	0.332491,
	0.226448,
	0.657601,
	0.450764,
	0.450731,
	0.185209,
	0.19182,
	-0.225692,
	-0.803137,
	-0.52608,
	-0.43152,
	0.0830753,
	0.0714557,
	0.0903892,
	0.00943885,
	0.245984,
	0.0451452,
	-0.329982,
	-0.297723,
	0.252359,
	0.322481,
	0.226459,
	0.108101,
	0.121759,
	0.0826086,
	0.272038,
	0.21599,
	0.211722,
	0.130062,
	-0.0758273,
	0.559021,
	0.405737,
	0.422316,
	0.383133,
	0.13806,
	-0.4887,
	-0.886475,
	-0.619439,
	-0.566018,
	-0.0405016,
	0.0740132,
	0.103526,
	0.138914,
	0.182415,
	0.0757596,
	-0.261439,
	-0.347165,
	0.144759,
	0.297625,
	0.107396,
	0.101384,
	0.127661,
	0.135842,
	0.388945,
	0.37677,
	0.154211,
	-0.0207128,
	-0.098073,
	0.492442,
	0.424356,
	0.445818,
	0.427302,
	0.304224,
	-0.430955,
	-1.02271,
	-0.746912,
	-0.6791,
	-0.0509964,
	0.0727529,
	0.102567,
	0.12236,
	0.215028,
	0.0995266,
	-0.0927003,
	-0.0206608,
	-0.0753853,
	0.211669,
	0.141418,
	0.0889812,
	0.125974,
	0.16698,
	0.409855,
	0.372423,
	0.154747,
	-0.0539283,
	-0.0820424,
	0.42815,
	0.431071,
	0.46468,
	0.425461,
	0.131184,
	-0.340626,
	-0.886977,
	-0.744187,
	-0.542266,
	-0.0498584,
	0.070365,
	0.0897825,
	0.126808,
	0.268227,
	0.31031,
	0.148359,
	0.0739446,
	-0.218511,
	0.094156,
	0.0280612,
	0.0873272,
	0.108323,
	0.170988,
	0.226518,
	0.162285,
	-0.0612275,
	0.00570992,
	-0.0214874,
	0.397224,
	0.476696,
	0.493548,
	0.42142,
	-0.0117205,
	-0.0827304,
	-0.774596,
	-0.6412,
	-0.300779,
	0.104506,
	0.0703244,
	0.10236,
	0.118443,
	0.238032,
	0.207415,
	0.178537,
	0.112983,
	0.0886248,
	0.110672,
	0.0298058,
	0.0843204,
	0.0931224,
	0.0844009,
	0.172096,
	-0.103444,
	0.0384344,
	0.138101,
	0.0972158,
	0.292128,
	0.135066,
	0.179455,
	-0.150489,
	0.0429895,
	-0.490898,
	-0.478455,
	-0.582217,
	-0.431316,
	-0.0526932,
	0.014305,
	0.207088,
	-0.090652,
	0.22022,
	0.228286,
	0.267877,
	0.124492,
	0.0847603,
	-0.0511601,
	0.0708561,
	0.0881701,
	0.088518,
	0.102857,
	0.0764937,
	-0.414377,
	-0.312782,
	0.163127,
	0.12658,
	0.288057,
	-0.0411679,
	0.0829494,
	-0.171683,
	0.0434179,
	0.301252,
	-0.235759,
	-0.448163,
	-0.223115,
	-0.102261,
	-0.080369,
	0.12447,
	0.213684,
	0.199283,
	0.206782,
	0.296273,
	0.100559,
	0.0863362,
	-0.0655708,
	0.16028,
	0.119455,
	0.083633,
	0.152697,
	-0.210959,
	-0.441308,
	-0.692565,
	-0.309206,
	0.157962,
	-0.0827394,
	-0.289018,
	-0.284432,
	0.0107522,
	0.0832201,
	0.204615,
	0.0759841,
	-0.106128,
	-0.161999,
	-0.325555,
	-0.298384,
	-0.174681,
	-0.307357,
	0.155569,
	0.278984,
	0.158601,
	0.0978471,
	0.0863355,
	-0.110193,
	0.0779396,
	0.127759,
	0.0814139,
	0.11368,
	-0.456371,
	-0.578619,
	-0.882207,
	-0.537162,
	0.127062,
	0.0770695,
	-0.103336,
	-0.0111648,
	-0.0587382,
	0.149901,
	0.156133,
	-0.0684367,
	0.373515,
	-0.0471128,
	-0.628521,
	-0.22863,
	-0.0815817,
	-0.091392,
	0.219157,
	0.298478,
	-0.118401,
	0.0785108,
	0.109549,
	-0.170911,
	0.0307537,
	0.289709,
	0.108597,
	0.112434,
	-0.373738,
	-0.711198,
	-0.733471,
	-0.769359,
	-0.131454,
	0.0789475,
	0.0389758,
	0.237303,
	0.251207,
	0.293037,
	0.425332,
	0.513331,
	0.339143,
	-0.213363,
	-0.613704,
	-0.369817,
	-0.0298163,
	0.126702,
	0.432025,
	0.288441,
	0.0926132,
	0.0646391,
	0.152957,
	-0.241207,
	-0.181382,
	0.101977,
	0.0182302,
	0.113258,
	0.0647878,
	-0.323491,
	-0.605161,
	-0.320694,
	-0.0474971,
	0.296747,
	0.213395,
	0.302875,
	0.328014,
	0.429214,
	0.470613,
	0.449432,
	-0.579598,
	-0.443801,
	-0.189307,
	0.0147285,
	0.0174832,
	0.216269,
	0.384155,
	0.35986,
	0.0945956,
	0.118558,
	0.176688,
	-0.146656,
	-0.209424,
	-0.102733,
	0.0588122,
	0.088825,
	0.0966744,
	-0.0729824,
	-0.142521,
	-0.0676321,
	-0.0384089,
	0.0551463,
	0.205588,
	0.304893,
	0.249577,
	0.320521,
	0.37629,
	0.0213951,
	-0.337706,
	-0.200319,
	-0.187024,
	0.203233,
	0.369079,
	0.550475,
	0.413252,
	0.335406,
	0.136886,
	0.102876,
	0.201798,
	0.0200279,
	-0.169341,
	-0.25303,
	-0.0732353,
	-0.055345,
	0.15911,
	0.12268,
	0.1392,
	0.186142,
	0.134247,
	0.155242,
	0.15407,
	0.156964,
	0.16777,
	0.156265,
	0.138693,
	-0.0854266,
	-0.255518,
	-0.273891,
	-0.698243,
	0.256961,
	0.445276,
	-0.0652489,
	0.289581,
	0.32771,
	-0.00665606,
	0.138235,
	0.184041,
	0.0455756,
	-0.203431,
	-0.208498,
	-0.224708,
	-0.258441,
	0.181678,
	0.140163,
	0.142403,
	0.0137988,
	0.129576,
	-0.160728,
	-0.168796,
	-0.112814,
	-0.108037,
	-0.0189365,
	-0.0308427,
	-0.0480929,
	-0.250767,
	-0.489084,
	-0.0982065,
	0.101269,
	0.392509,
	0.522995,
	0.285991,
	0.483047,
	-0.0791328,
	0.130515,
	0.208768,
	0.0599398,
	-0.396114,
	-0.584099,
	-0.250677,
	-0.273672,
	0.173334,
	0.0450243,
	-0.0111013,
	0.0281918,
	-0.0154258,
	-0.112005,
	-0.02307,
	-0.0509478,
	0.0959997,
	0.124606,
	0.109684,
	0.100448,
	-0.087443,
	-0.240236,
	-0.024532,
	0.108999,
	0.226974,
	0.301169,
	0.328215,
	-0.167748,
	-0.170721,
	0.0845974,
	0.18171,
	0.172379,
	-0.293107,
	-0.47074,
	-0.501812,
	-0.353062,
	0.00953443,
	0.119979,
	0.0533042,
	0.0836361,
	0.0263585,
	0.0194523,
	0.0249566,
	0.0616133,
	0.12661,
	0.0948709,
	0.0942012,
	0.0779448,
	0.124537,
	0.0512143,
	0.139453,
	0.0456194,
	0.0362553,
	0.115435,
	0.146214,
	0.101879,
	0.0977446,
	0.0770136,
	0.0733282,
	0.0993496,
	-0.196063,
	-0.633712,
	-0.594382,
	-0.0432383,
	0.0727548,
	0.0693439,
	0.0682256,
	0.0681653,
	0.0686678,
	0.0684892,
	0.0678875,
	0.0680093,
	0.0677137,
	0.0676103,
	0.0676652,
	0.067753,
	0.0679869,
	0.0696843,
	0.0733314,
	0.171816,
	0.22197,
	0.327495,
	0.222634,
	0.129676,
	0.168884,
	0.0686679,
	-0.276818,
	0.0474892,
	0.526108,
	-0.190767,
	-0.461852,
	-0.115471,
	-0.10999,
	-0.122824,
	-0.115433,
	-0.161257,
	-0.0628731,
	0.097967,
	-0.0378555,
	-0.0648572,
	-0.113624,
	-0.170457,
	-0.163056,
	-0.134579,
	-0.0907562,
	0.0188576,
	-0.007089,
	-0.0401123,
	-0.126278,
	-0.488937,
	0.0815946,
	0.182886,
	0.138698,
	-0.267736,
	-0.0749555,
	-0.497026,
	-0.241497,
	-0.117815,
	-0.127299,
	-0.130145,
	-0.200715,
	-0.227835,
	-0.19602,
	-0.14421,
	-0.0628531,
	-0.18855,
	-0.185532,
	-0.178751,
	-0.172628,
	-0.208353,
	-0.207719,
	-0.223562,
	-0.222939,
	-0.135426,
	-0.0935169,
	-0.152733,
	-0.0468139,
	-0.282978,
	0.0801893,
	0.258329,
	0.063755,
	-0.117595,
	0.195,
	0.172711,
	0.0627749,
	0.127692,
	0.0797615,
	7.66074e-05,
	-0.0588774,
	-0.0556354,
	-0.111272,
	-0.148544,
	-0.0978731,
	-0.180653,
	-0.196608,
	-0.189801,
	-0.198056,
	-0.235651,
	-0.217039,
	-0.216123,
	-0.206451,
	-0.207661,
	-0.181075,
	-0.211117,
	-0.23148,
	-0.425761,
	-0.349518,
	-0.0197712,
	0.304081,
	0.0664936,
	0.294423,
	0.145441,
	0.246198,
	0.207438,
	0.239906,
	0.122863,
	0.0900396,
	0.0892825,
	0.102371,
	-0.0171634,
	-0.174603,
	-0.2186,
	-0.199943,
	-0.179353,
	-0.179122,
	-0.179105,
	-0.186971,
	-0.179134,
	-0.0816718,
	0.0941787,
	0.141802,
	0.0241359,
	0.098199,
	-0.0361162,
	0.163586,
	0.0610574,
	0.195255,
	0.217468,
	0.168048,
	0.194838,
	0.286697,
	0.17805,
	0.16508,
	0.0959255,
	0.0971437,
	0.0482032,
	-0.0345796,
	-0.0922242,
	-0.192284,
	-0.474265,
	-0.416431,
	-0.438814,
	-0.470721,
	-0.560382,
	-0.569994,
	-0.457141,
	-0.389208,
	-0.161788,
	0.137889,
	0.026867,
	0.0641138,
	0.0054772,
	0.167339,
	0.394711,
	0.224295,
	0.0375225,
	0.0356399,
	0.0672791,
	0.299827,
	0.181325,
	0.186687,
	0.117484,
	0.0778444,
	-0.105563,
	-0.21127,
	-0.0552025,
	-0.319149,
	-0.599953,
	-0.510182,
	-0.468655,
	-0.284297,
	-0.228994,
	-0.304118,
	-0.258126,
	-0.21639,
	-0.165355,
	0.112897,
	0.0062315,
	0.110225,
	0.154355,
	0.295534,
	0.419085,
	0.50093,
	0.136695,
	-0.0721805,
	-0.26705,
	0.156029,
	0.10539,
	-0.0804483,
	-0.17386,
	-0.192646,
	-0.183349,
	-0.134006,
	-0.0473763,
	-0.350379,
	-0.474709,
	-0.434263,
	-0.362265,
	-0.184324,
	-0.147598,
	-0.0327499,
	-0.269703,
	-0.2882,
	-0.230365,
	0.160158,
	0.0483884,
	0.123361,
	0.127893,
	0.119744,
	0.344614,
	0.454887,
	0.476875,
	-0.296174,
	-0.220738,
	0.0913844,
	0.160603,
	-0.109738,
	-0.0654928,
	-0.0149015,
	0.0532484,
	-0.00768495,
	0.014772,
	-0.396433,
	-0.679243,
	-0.565223,
	-0.183743,
	-0.202719,
	-0.326553,
	-0.420535,
	-0.194674,
	-0.0132964,
	0.14591,
	0.257689,
	0.111771,
	0.124526,
	0.0578259,
	0.0930208,
	0.224795,
	0.1948,
	0.283761,
	-0.14837,
	-0.33103,
	0.0374416,
	0.203319,
	-0.149016,
	-0.0150442,
	0.20218,
	0.033243,
	0.0595163,
	-0.228115,
	-0.0195766,
	-0.578665,
	-0.202239,
	0.24204,
	0.136535,
	-0.0427724,
	0.104221,
	0.414813,
	0.576023,
	0.497897,
	0.312746,
	0.0353676,
	0.012179,
	0.0953428,
	0.209874,
	0.37555,
	0.0966246,
	0.0294226,
	-0.38012,
	-0.392125,
	-0.123412,
	0.178091,
	0.0147428,
	0.0183964,
	0.0911198,
	0.0781853,
	-0.0326239,
	-0.208152,
	0.0433869,
	-0.278128,
	-0.137921,
	0.193816,
	0.182079,
	0.19481,
	0.64035,
	0.604286,
	0.838179,
	0.568244,
	0.327325,
	0.0450339,
	0.0271043,
	0.00704833,
	0.202019,
	0.249009,
	0.0152539,
	-0.151435,
	-0.340521,
	-0.175645,
	-0.217695,
	0.209438,
	0.108245,
	0.0420974,
	0.0845709,
	-0.0271967,
	-0.00562909,
	0.0595136,
	0.319839,
	0.16771,
	0.301698,
	0.0880964,
	0.301573,
	0.520416,
	0.537291,
	0.450444,
	0.561802,
	0.50981,
	0.190802,
	-0.00185078,
	0.0645055,
	0.116094,
	-0.0737844,
	0.352605,
	-0.185177,
	-0.20108,
	0.199776,
	-0.184574,
	-0.198711,
	0.140092,
	0.00987403,
	0.070371,
	-0.0517539,
	-0.15179,
	-0.15958,
	-0.223488,
	-0.536972,
	-0.318617,
	0.0293316,
	0.185529,
	0.217373,
	0.479786,
	0.478173,
	0.532166,
	0.27258,
	0.392723,
	0.143592,
	-0.00754055,
	0.0775281,
	0.0681285,
	0.11955,
	0.404293,
	-0.00113133,
	-0.0862511,
	0.365263,
	-0.31227,
	0.138889,
	0.12854,
	-0.0954073,
	0.0746828,
	-0.00965,
	-0.205833,
	-0.520874,
	-0.576329,
	-0.556159,
	-0.138018,
	-0.210902,
	-0.0961446,
	-0.156113,
	0.137508,
	0.208245,
	0.307619,
	0.262841,
	0.373248,
	0.200037,
	0.00897714,
	-0.0284961,
	0.218539,
	0.0218589,
	0.486714,
	0.143784,
	0.0678796,
	0.337795,
	-0.107129,
	0.0417549,
	0.0900131,
	-0.0263745,
	0.0973036,
	0.0103759,
	-0.110228,
	-0.223439,
	-0.127225,
	-0.450698,
	-0.083611,
	-0.105829,
	-0.0745929,
	-0.203307,
	-0.257295,
	0.176526,
	0.30112,
	0.345534,
	0.350719,
	0.186397,
	0.0252894,
	0.0488205,
	-0.00131809,
	-0.0187174,
	0.460879,
	0.0861962,
	0.170287,
	0.105995,
	0.00666118,
	-0.0726281,
	0.1549,
	-0.0425434,
	0.111152,
	0.0259051,
	0.121335,
	0.210541,
	-0.210326,
	-0.758391,
	-0.603006,
	-0.166478,
	0.00223482,
	0.0352038,
	0.127817,
	0.444468,
	0.791608,
	0.51286,
	0.337975,
	0.198807,
	0.0172319,
	0.0681623,
	-0.0393912,
	0.0770369,
	0.261513,
	0.0583262,
	0.138386,
	0.288803,
	0.101993,
	-0.0778399,
	-0.0285492,
	0.0208244,
	0.130459,
	0.0420478,
	0.107274,
	0.104017,
	-0.290011,
	-0.0725194,
	-0.195981,
	-0.215941,
	-0.0935803,
	-0.0185811,
	0.306516,
	0.318845,
	0.671291,
	0.481813,
	0.385322,
	0.0275945,
	-0.200203,
	-0.144622,
	0.0571673,
	0.0104901,
	0.136137,
	-0.00177747,
	0.18176,
	0.292533,
	0.00907265,
	-0.0846365,
	0.0887251,
	-0.083415,
	0.154875,
	0.176212,
	0.137429,
	0.0936071,
	0.308196,
	-0.0866142,
	0.185586,
	0.113644,
	-0.0192929,
	-0.0791033,
	0.186964,
	0.2445,
	0.520171,
	0.396473,
	0.239573,
	0.103395,
	-0.186281,
	-0.466143,
	-0.170549,
	-0.0731664,
	-0.0670885,
	-0.134272,
	0.210977,
	0.279191,
	0.0391056,
	0.150938,
	0.101001,
	-0.122302,
	0.137943,
	0.0471596,
	-0.0262102,
	-0.09381,
	-0.124449,
	-0.00563106,
	0.150656,
	-0.0551328,
	0.00161778,
	-0.00364864,
	0.533281,
	0.671163,
	0.36761,
	0.103539,
	0.170997,
	0.420166,
	0.0434694,
	-0.258166,
	-0.0681603,
	-0.145151,
	-0.182249,
	-0.0728884,
	0.159379,
	0.151626,
	-0.0509631,
	0.0333472,
	-0.11268,
	-0.0924015,
	0.201095,
	0.0480118,
	-0.183545,
	-0.268159,
	-0.522981,
	-0.00629452,
	-0.0678897,
	-0.363524,
	-0.517408,
	-0.364311,
	0.336808,
	0.599348,
	0.389874,
	0.276298,
	0.298448,
	0.27318,
	-0.0300317,
	-0.180126,
	-0.246583,
	0.0863029,
	-0.355071,
	-0.232437,
	0.179338,
	0.129804,
	-0.0539998,
	-0.0981209,
	-0.133428,
	0.0579487,
	0.103895,
	0.336998,
	-0.0728,
	-0.275168,
	-0.526997,
	-0.402339,
	-0.120313,
	-0.652691,
	-0.422914,
	-0.112707,
	0.324064,
	0.16201,
	-0.0644988,
	0.0286197,
	0.114189,
	-0.23378,
	-0.0329834,
	-0.0614269,
	0.0225337,
	0.196989,
	-0.299897,
	-0.183649,
	0.00383937,
	0.131287,
	-0.0850866,
	-0.0424283,
	-0.0322663,
	0.00484949,
	0.309896,
	0.43135,
	0.368178,
	-0.0618698,
	-0.351353,
	-0.142091,
	-0.0778621,
	-0.405996,
	-0.306673,
	0.137592,
	0.331068,
	0.336069,
	0.165046,
	0.340965,
	0.450612,
	0.258489,
	0.197819,
	0.279353,
	-0.0161112,
	0.250062,
	-0.269868,
	-0.265344,
	0.133681,
	0.156505,
	-0.221866,
	-0.0841717,
	-0.268556,
	-0.150958,
	0.198946,
	0.365796,
	0.190106,
	-0.0999465,
	-0.353595,
	-0.129996,
	-0.153993,
	-0.19997,
	-0.312428,
	-0.134285,
	0.510952,
	0.4921,
	0.355719,
	0.456615,
	0.253192,
	0.224875,
	0.0969243,
	0.475211,
	0.142293,
	0.239063,
	0.0964797,
	-0.26306,
	-0.0871147,
	0.255167,
	-0.0708142,
	-0.0255377,
	-0.263223,
	-0.472686,
	-0.123707,
	0.224985,
	0.257443,
	0.0740523,
	-0.110459,
	-0.0304548,
	0.109913,
	0.0255864,
	0.101945,
	0.0404526,
	0.578385,
	0.506607,
	0.454498,
	0.68127,
	0.490386,
	0.100832,
	-0.0366911,
	0.227057,
	0.0308855,
	-0.145108,
	-0.0802347,
	-0.173991,
	-0.0260239,
	0.320054,
	-0.0632718,
	-0.0763861,
	-0.302683,
	-0.586288,
	-0.285555,
	0.119102,
	0.0636454,
	-0.0935844,
	0.16502,
	-0.0239585,
	-0.024379,
	-0.0662191,
	-0.133128,
	0.0423164,
	0.441992,
	0.435546,
	0.508898,
	0.525315,
	-0.0958693,
	-0.477012,
	-0.508762,
	-0.10482,
	-0.1324,
	-0.416221,
	-0.263588,
	0.0463552,
	0.456984,
	0.158621,
	-0.0870744,
	-0.038845,
	-0.0267476,
	-0.46168,
	-0.275081,
	-0.196807,
	-0.156852,
	0.0120852,
	0.0447348,
	-0.0502979,
	-0.229316,
	-0.363471,
	-0.324445,
	-0.365367,
	0.215422,
	0.0183226,
	0.127099,
	0.0173678,
	-0.245369,
	-0.604516,
	-0.614065,
	-0.551577,
	-0.495436,
	-0.628554,
	0.000511315,
	0.102216,
	0.43486,
	0.252347,
	0.12543,
	-0.0670648,
	-0.240594,
	0.0448058,
	-0.0141314,
	0.0562749,
	-0.115877,
	-0.114043,
	-0.0268912,
	-0.278863,
	-0.346069,
	-0.515002,
	-0.401767,
	-0.361605,
	-0.316383,
	-0.103497,
	-0.198483,
	-0.339975,
	-0.48822,
	-0.563076,
	-0.302937,
	-0.0636132,
	0.0564767,
	-0.426731,
	-0.124837,
	0.145503,
	0.374192,
	0.196329,
	-0.0453877,
	-0.0858715,
	-0.12548,
	0.0264611,
	0.0364371,
	-0.201809,
	-0.319791,
	-0.138057,
	-0.17012,
	-0.145973,
	-0.326884,
	-0.390709,
	0.0430938,
	-0.0796027,
	-0.0873003,
	-0.0772087,
	-0.0101734,
	0.0103026,
	0.0515497,
	-0.0913176,
	0.167136,
	0.278868,
	-0.0129531,
	-0.504302,
	-0.442632,
	0.179653,
	0.188544,
	0.0882074,
	0.112352,
	-0.107452,
	-0.025259,
	0.0969077,
	0.108123,
	0.106384,
	0.0939595,
	0.0886346,
	0.0850376,
	0.0858686,
	0.0856255,
	0.0839704,
	0.0841048,
	0.0835859,
	0.0833253,
	0.0834635,
	0.0853502,
	0.0914076,
	0.146503,
	0.203752,
	0.291853,
	-0.0754855,
	-0.340908,
	-0.152551,
	-0.155641,
	0.249992,
	0.0842868,
	-0.481892,
	-0.689453,
	-0.372923,
	0.077933,
	-0.242692,
	-0.667712,
	-0.568681,
	-0.199719,
	-0.260078,
	-0.425335,
	-0.240735,
	0.066263,
	0.190703,
	0.102947,
	0.0572682,
	0.141917,
	0.195736,
	0.0245125,
	-0.132773,
	-0.157375,
	-0.105446,
	0.0555702,
	0.412412,
	0.311283,
	0.161042,
	-0.16314,
	-0.378714,
	-0.400348,
	-0.216242,
	-0.218134,
	0.190915,
	0.123775,
	0.068618,
	0.00930222,
	-0.0538261,
	-0.129564,
	-0.165551,
	-0.18499,
	-0.271847,
	-0.149588,
	-0.139331,
	-0.095586,
	-0.0869806,
	-0.100991,
	-0.0955239,
	-0.157079,
	-0.13847,
	-0.21665,
	-0.0800765,
	0.0171889,
	0.202773,
	0.156057,
	0.0424944,
	0.0859433,
	-0.0643052,
	-0.178442,
	-0.271226,
	-0.353401,
	-0.0245431,
	-0.0778284,
	0.010817,
	0.0147284,
	0.0220166,
	0.0012443,
	-0.000996066,
	-0.0133469,
	-0.0160889,
	-0.00549653,
	-0.00692892,
	-0.00489258,
	-0.00900256,
	-0.00752389,
	-0.0264416,
	-0.0413802,
	-0.0422258,
	-0.0559026,
	-0.0366713,
	-0.133033,
	-0.0638911,
	0.134351,
	0.287517,
	0.152235,
	-0.0429162,
	-0.219798,
	-0.0188052,
	-0.0552585,
	0.121902,
	0.0750004,
	0.0381499,
	0.022341,
	0.0137539,
	0.019011,
	0.0242388,
	0.0216524,
	0.035596,
	0.0309925,
	0.034678,
	0.0320374,
	0.0342029,
	0.0342616,
	0.0322223,
	0.034169,
	-0.052759,
	-0.0801351,
	0.0433583,
	0.0377179,
	-0.0511413,
	-0.0876262,
	-0.303933,
	-0.108156,
	-0.405344,
	-0.428874,
	0.125258,
	-0.0138339,
	0.170189,
	0.0733348,
	-0.0213416,
	-0.024432,
	-0.0500128,
	-0.0220897,
	-0.0343209,
	-0.029844,
	0.0149026,
	0.0578545,
	0.0407391,
	0.0500439,
	0.0372872,
	0.024817,
	0.00193561,
	-0.0225089,
	-0.020265,
	-0.0436872,
	-0.00853657,
	0.0260587,
	0.00458477,
	-0.180059,
	-0.297816,
	-0.291368,
	-0.306873,
	-0.164688,
	0.236078,
	0.114737,
	0.174297,
	0.0115912,
	-0.00865925,
	-0.0198243,
	-0.0453905,
	-0.0124636,
	0.00632244,
	0.0918346,
	0.215239,
	0.202704,
	0.165735,
	0.172394,
	0.152651,
	0.0741709,
	0.0197438,
	-0.01843,
	-0.036166,
	-0.0450563,
	-0.0291192,
	-0.0160014,
	-0.0295515,
	-0.149045,
	0.0122915,
	-0.255162,
	-0.201731,
	0.129779,
	0.170557,
	-0.101216,
	0.0177302,
	0.0972833,
	0.0657957,
	0.0836995,
	0.109922,
	0.211517,
	0.133523,
	0.193624,
	0.330418,
	0.10444,
	0.0278056,
	-0.0550902,
	-0.143479,
	-0.219109,
	-0.345901,
	-0.0799674,
	-0.1464,
	-0.0047988,
	-0.0373113,
	-0.0613938,
	-0.0629169,
	-0.144521,
	-0.00586789,
	-0.155818,
	-0.321577,
	0.0408942,
	-0.115693,
	-0.0867971,
	0.0144988,
	0.146554,
	0.142924,
	0.259878,
	0.377904,
	0.351307,
	0.155272,
	0.0221182,
	0.0615554,
	-0.147991,
	-0.304987,
	-0.431024,
	-0.328381,
	-0.239929,
	-0.337681,
	-0.261997,
	-0.204183,
	-0.0820073,
	-0.0019533,
	0.0373403,
	0.0258991,
	0.00898346,
	-0.11237,
	-0.0725,
	-0.265739,
	0.125672,
	-0.427911,
	-0.11721,
	-0.104091,
	0.106986,
	0.217183,
	0.271839,
	0.26372,
	0.467052,
	0.0669981,
	-0.02036,
	-0.171439,
	-0.0384925,
	-0.47391,
	-0.151112,
	0.145755,
	0.0600198,
	-0.0433023,
	0.109297,
	-0.108876,
	-0.256457,
	-0.170333,
	0.0617469,
	0.069552,
	0.0164935,
	-0.0922395,
	-0.0536111,
	-0.177742,
	-0.0385764,
	-0.517604,
	-0.147588,
	0.0507351,
	0.137144,
	0.177907,
	0.202575,
	0.239673,
	0.262651,
	0.147526,
	0.21133,
	0.0323731,
	0.176862,
	-0.329875,
	-0.069938,
	-0.101135,
	-0.0600117,
	-0.120117,
	0.0108587,
	0.109485,
	0.175,
	0.104876,
	-0.174951,
	0.0680995,
	-0.0229112,
	-0.194602,
	0.0659789,
	-0.113257,
	-0.118657,
	-0.363384,
	-0.177252,
	-0.0895619,
	-0.12434,
	0.0993774,
	0.257037,
	0.0792004,
	0.112544,
	-0.0173898,
	-0.131252,
	-0.290715,
	-0.0786635,
	-0.323827,
	-0.0514027,
	0.313051,
	0.230677,
	0.382815,
	0.637722,
	0.603777,
	0.436279,
	0.0925935,
	-0.0387885,
	0.0121396,
	0.0888352,
	-0.0881573,
	0.0217217,
	-0.189136,
	-0.307266,
	-0.109844,
	-0.0812001,
	-0.188241,
	-0.120782,
	0.0761306,
	0.25829,
	-0.0125033,
	-0.0672843,
	0.0526209,
	0.0150276,
	-0.300055,
	-0.02321,
	0.0722418,
	0.325451,
	0.479298,
	0.368932,
	0.436433,
	0.638335,
	0.663011,
	0.416099,
	0.0880162,
	-0.025828,
	0.0905502,
	0.129183,
	0.0158296,
	-0.162535,
	-0.0768755,
	-0.382136,
	-0.473939,
	0.0869583,
	-0.262973,
	-0.0825754,
	0.0728816,
	0.203122,
	-0.0309257,
	-0.0655546,
	0.071132,
	0.0595611,
	0.104793,
	-0.186527,
	-0.259607,
	-0.0320828,
	0.149764,
	-0.0756534,
	0.129062,
	0.438478,
	0.503691,
	0.305523,
	0.0426289,
	0.125011,
	0.0414285,
	0.160232,
	0.0289366,
	0.0916173,
	0.0560654,
	-0.208332,
	-0.400844,
	-0.0709974,
	-0.210117,
	-0.187597,
	0.0589314,
	0.190725,
	-0.0689165,
	-0.150296,
	-0.330427,
	-0.412319,
	-0.50928,
	-0.909683,
	-0.709314,
	-0.561065,
	-0.33953,
	-0.415544,
	-0.0582643,
	-0.020801,
	0.145584,
	-0.0141028,
	0.0157249,
	-0.0971827,
	0.0616128,
	0.157321,
	0.0552227,
	0.0833785,
	0.192231,
	-0.124141,
	-0.491863,
	-0.0791778,
	-0.21477,
	-0.133816,
	0.0164187,
	0.172363,
	-0.00685209,
	-0.0356607,
	-0.0958977,
	-0.268114,
	-0.326843,
	-0.557583,
	-0.390536,
	-0.146073,
	-0.22928,
	-0.383201,
	-0.376108,
	-0.450535,
	-0.347754,
	-0.221876,
	-0.00877717,
	0.00337869,
	0.041072,
	0.0708724,
	0.0403559,
	0.128489,
	0.372498,
	0.00274827,
	0.0160589,
	0.00938933,
	-0.0814476,
	-0.221352,
	0.00162661,
	0.190473,
	0.0494917,
	0.0241767,
	0.200961,
	0.0488377,
	0.0193921,
	-0.167081,
	-0.318993,
	-0.164479,
	0.168174,
	-0.0100673,
	-0.0951385,
	-0.326389,
	-0.0379743,
	0.0679182,
	-0.00866619,
	0.00387038,
	0.0199207,
	-0.0136144,
	0.0480187,
	0.229236,
	0.275901,
	0.0216476,
	-0.0285501,
	-0.0743902,
	0.00903887,
	-0.163592,
	0.0369682,
	0.24586,
	0.104468,
	-0.0103225,
	0.170196,
	-0.0315334,
	-0.111856,
	-0.204535,
	-0.298657,
	0.123889,
	0.342162,
	0.364151,
	0.363296,
	0.312129,
	0.228566,
	0.109653,
	0.0248342,
	0.0247139,
	0.0196288,
	-0.0812999,
	0.122609,
	0.356972,
	0.360597,
	0.0230248,
	0.0289297,
	-0.0776504,
	-0.117881,
	-0.00545395,
	0.114424,
	0.272093,
	0.184461,
	-0.0270114,
	0.176633,
	0.147378,
	-0.0457711,
	-0.0725705,
	0.137698,
	0.369824,
	0.487346,
	0.366153,
	0.377108,
	0.168727,
	0.320669,
	0.150078,
	0.102645,
	0.0597617,
	0.0164226,
	-0.101648,
	0.13899,
	0.264318,
	-0.00811467,
	-0.0940222,
	-0.116511,
	-0.0120392,
	-0.126925,
	0.0661444,
	0.15023,
	0.28461,
	0.0420559,
	0.00848829,
	0.133246,
	0.210898,
	0.242397,
	0.204032,
	0.424433,
	0.599164,
	0.751841,
	0.464679,
	0.354632,
	0.332857,
	0.283858,
	0.073373,
	0.253421,
	0.349407,
	0.202188,
	0.12593,
	0.0215453,
	-0.0762179,
	-0.158914,
	-0.235547,
	0.0082606,
	0.0563523,
	-0.00444859,
	0.16484,
	0.158853,
	0.246236,
	0.0102836,
	-0.144792,
	0.0154213,
	0.0550201,
	0.460724,
	0.153373,
	0.472823,
	0.656086,
	0.653399,
	0.441293,
	0.254573,
	0.186205,
	0.0455064,
	0.419037,
	0.241131,
	0.314082,
	0.259158,
	0.214319,
	-0.171531,
	-0.0322537,
	-0.0462679,
	-0.155772,
	-0.00912223,
	-0.0566631,
	-0.0908393,
	0.0820261,
	0.181202,
	0.133941,
	-0.112361,
	-0.33834,
	0.0586812,
	0.400666,
	0.542573,
	0.481658,
	0.595195,
	0.688662,
	0.689716,
	0.155379,
	0.00341078,
	-0.318122,
	-0.249026,
	-0.40557,
	0.0347955,
	0.458137,
	0.397532,
	0.125839,
	0.041857,
	0.270225,
	0.086507,
	-0.190185,
	-0.0412794,
	-0.0617212,
	-0.123593,
	-0.175214,
	0.124981,
	0.12958,
	0.119197,
	-0.20109,
	0.0739909,
	0.363977,
	0.534875,
	0.315444,
	0.330702,
	0.57515,
	0.36888,
	-0.0358507,
	-0.564477,
	-0.756172,
	-0.802549,
	-0.64552,
	0.0711119,
	0.474241,
	0.285586,
	0.26104,
	0.00961653,
	0.142817,
	0.0902201,
	0.029424,
	-0.121615,
	-0.0607364,
	-0.128344,
	-0.00947751,
	0.0275572,
	0.0299344,
	0.0575893,
	-0.245661,
	-0.0370818,
	0.116904,
	0.134351,
	0.0193454,
	0.246912,
	-0.0714926,
	-0.131573,
	-0.35352,
	-0.47164,
	-0.746222,
	-1.03441,
	-0.636891,
	-0.0982944,
	0.526483,
	0.11949,
	0.267078,
	-0.021086,
	0.324258,
	0.119226,
	0.0559585,
	-0.19653,
	-0.0217815,
	-0.237031,
	-0.0502123,
	0.0921504,
	0.0647063,
	0.0460348,
	-0.102469,
	-0.108527,
	0.0828403,
	0.0843784,
	0.0789222,
	0.158747,
	0.0673241,
	0.000462158,
	-0.304252,
	-0.71256,
	-0.37002,
	-0.34904,
	-0.184822,
	0.0230777,
	0.336044,
	0.211007,
	0.217065,
	0.162143,
	0.222145,
	-0.102594,
	-0.210018,
	-0.119716,
	0.0846163,
	-0.234912,
	-0.112187,
	0.166175,
	0.145044,
	0.0603008,
	0.0104447,
	-0.0149846,
	-0.0147881,
	-0.0254578,
	0.00943966,
	0.0410611,
	-0.0899829,
	-0.178525,
	-0.0497671,
	-0.129515,
	-0.224426,
	-2.44509e-05,
	0.0229544,
	0.145482,
	0.303114,
	0.29554,
	0.353669,
	0.516024,
	0.304501,
	-0.0783501,
	0.086161,
	-0.163175,
	0.065886,
	-0.00718215,
	-0.0403117,
	0.147336,
	-0.00732413,
	-0.132508,
	-0.205155,
	-0.212718,
	-0.2892,
	-0.107919,
	-0.135286,
	-0.0610514,
	-0.108092,
	-0.209733,
	-0.214819,
	-0.193645,
	-0.0118886,
	-0.0727408,
	-0.0678376,
	-0.042113,
	0.1368,
	-0.0769613,
	-0.119054,
	0.0540248,
	0.127393,
	0.117321,
	0.144292,
	0.00643577,
	0.109078,
	-0.253167,
	-0.226365,
	-0.217379,
	-0.356266,
	-0.32444,
	-0.302693,
	-0.268851,
	-0.115522,
	-0.0578194,
	0.0333939,
	0.0778044,
	-0.0772118,
	-0.0469452,
	0.0407179,
	-0.186021,
	0.0390137,
	-0.10979,
	-0.102667,
	0.075167,
	0.144163,
	-0.173407,
	-0.260005,
	0.429089,
	0.369145,
	0.22957,
	-0.0222768,
	-0.0334393,
	0.0352343,
	-0.110032,
	-0.119949,
	-0.372342,
	-0.285434,
	-0.182518,
	-0.0846719,
	-0.109627,
	-0.055185,
	-0.0411761,
	-0.0424866,
	-0.0483161,
	-0.0441291,
	-0.0503891,
	-0.0511016,
	-0.0503123,
	-0.0460476,
	-0.0225141,
	0.0442086,
	0.188939,
	0.182233,
	0.367342,
	0.0678012,
	0.220524,
	0.0723713,
	-0.100559,
	-0.0431832,
	0.225294,
	-0.151972,
	-0.364788,
	0.0115953,
	0.31398,
	0.03492,
	-0.0731103,
	-0.102532,
	-0.196602,
	-0.174096,
	0.0200269,
	0.119306,
	0.155395,
	0.121737,
	-0.145703,
	-0.0628358,
	-0.20112,
	-0.328719,
	-0.0903214,
	-0.0560718,
	0.230182,
	0.227236,
	0.561435,
	0.327802,
	0.226462,
	-0.108731,
	-0.381877,
	-0.714041,
	0.134265,
	-0.0828483,
	-0.301335,
	0.137453,
	-0.23929,
	-0.186132,
	-0.378449,
	-0.272387,
	-0.223085,
	-0.0418072,
	-0.0423021,
	-0.0877554,
	0.0775985,
	-0.0024981,
	0.0496443,
	0.160635,
	0.0480644,
	0.0405453,
	0.000770193,
	0.0332561,
	0.144037,
	0.178525,
	0.347702,
	0.458016,
	0.134222,
	-0.0400631,
	-0.512134,
	-1.04769,
	0.219095,
	0.102001,
	-0.237715,
	0.114764,
	-0.0348141,
	0.123092,
	-0.0670501,
	-0.0894235,
	-0.135881,
	-0.147887,
	-0.0342429,
	-0.0708078,
	0.0226009,
	0.00888882,
	-0.0544116,
	-0.0245999,
	-0.0404255,
	-0.0902276,
	-0.0525112,
	-0.0376884,
	0.027569,
	0.0230233,
	-0.0698412,
	0.258928,
	0.177606,
	-0.0733653,
	-0.330193,
	-0.551396,
	0.264034,
	0.26593,
	-0.15329,
	-0.0145715,
	-0.1255,
	-0.16595,
	-0.214843,
	-0.215481,
	-0.206047,
	-0.166375,
	-0.176647,
	-0.156343,
	-0.188104,
	-0.190613,
	-0.196957,
	-0.195491,
	-0.188515,
	-0.197565,
	-0.19678,
	-0.200552,
	-0.203898,
	-0.209727,
	-0.160767,
	-0.0722351,
	-0.101896,
	-0.266122,
	-0.29322,
	-0.759957,
	0.0742375,
	0.154399,
	-0.180455,
	0.0423064,
	-0.0711091,
	-0.0455104,
	0.0423205,
	-0.024799,
	0.0928273,
	0.100124,
	0.113102,
	0.131523,
	0.110109,
	0.101163,
	0.0676751,
	0.0417222,
	0.0392327,
	0.0227586,
	0.0149794,
	0.0138699,
	0.0119538,
	0.0096602,
	0.143813,
	0.103393,
	0.17691,
	-0.175188,
	-0.0845797,
	-0.598879,
	0.230583,
	0.0525299,
	-0.154037,
	0.0935958,
	0.0246654,
	0.0555412,
	0.0846927,
	0.268678,
	0.188513,
	0.17493,
	-0.0382586,
	-0.140617,
	-0.119217,
	0.0491509,
	-0.03033,
	-0.157534,
	0.0791023,
	0.0582919,
	0.0573614,
	0.0251131,
	0.0179994,
	0.012366,
	0.0357508,
	0.0997429,
	-0.0774247,
	-0.269846,
	-0.0383949,
	-0.488311,
	0.265627,
	0.0347034,
	-0.163184,
	0.124998,
	0.0722598,
	0.126393,
	0.168104,
	0.283807,
	0.532116,
	0.312622,
	0.195454,
	0.185755,
	-0.0936705,
	-0.143396,
	0.102432,
	0.0952133,
	-0.257839,
	0.250845,
	0.16068,
	0.0518597,
	0.0327043,
	0.0328467,
	0.0517522,
	0.189556,
	-0.10228,
	-0.201813,
	-0.00574706,
	-0.434355,
	-0.0880251,
	0.170969,
	0.0575568,
	0.132784,
	0.0686411,
	0.131852,
	0.0563401,
	0.589211,
	0.558391,
	0.541022,
	0.0968298,
	0.288904,
	-0.227275,
	-0.052161,
	0.0529561,
	0.000224543,
	-0.0496511,
	-0.0839802,
	0.317801,
	0.175422,
	0.0838666,
	0.0794188,
	0.0773144,
	0.118371,
	-0.117381,
	-0.115651,
	-0.174631,
	-0.512588,
	-0.245884,
	0.0518095,
	-0.310499,
	0.129731,
	0.0692178,
	0.14923,
	0.211453,
	0.432997,
	0.647622,
	0.171527,
	0.486027,
	0.235628,
	0.555803,
	-0.175511,
	-0.228786,
	-0.257311,
	-0.010097,
	0.121347,
	0.131037,
	0.216455,
	0.10449,
	0.080229,
	0.0661508,
	0.289681,
	0.0258463,
	-0.128011,
	-0.0940639,
	-0.606628,
	-0.2064,
	0.0341933,
	-0.319485,
	0.150436,
	0.069934,
	0.0889287,
	0.179836,
	0.368425,
	0.616023,
	0.399788,
	0.169834,
	0.272861,
	0.270892,
	0.249159,
	-0.318902,
	-0.346778,
	0.128539,
	-0.191234,
	-0.18501,
	0.351482,
	0.145735,
	0.0578317,
	0.0801235,
	0.259026,
	0.126306,
	-0.0435553,
	-0.291317,
	-0.810452,
	-0.154527,
	-0.109337,
	-0.0143573,
	0.134595,
	0.0587183,
	-0.0276463,
	0.184892,
	0.309055,
	0.601031,
	0.0960558,
	0.165426,
	-0.0120595,
	0.0594405,
	0.141176,
	0.130312,
	0.0985496,
	0.0627274,
	0.0783135,
	-0.163742,
	-0.00480291,
	0.0496621,
	0.0667141,
	0.0490025,
	0.198653,
	0.260653,
	-0.0755379,
	-0.393383,
	-0.728959,
	-0.0407279,
	-0.0701733,
	-0.01072,
	0.145265,
	0.0782274,
	-0.0662397,
	-0.0497032,
	0.360025,
	0.192924,
	0.222462,
	0.0683865,
	-0.0451821,
	0.16622,
	0.290055,
	0.728701,
	0.369603,
	0.552658,
	0.539581,
	-0.00135509,
	0.0740476,
	-0.0323385,
	0.074466,
	0.0738339,
	0.164331,
	0.321581,
	0.33686,
	-0.128359,
	-0.336857,
	0.200062,
	-0.0824224,
	0.00482842,
	0.188193,
	0.102721,
	-0.0824178,
	-0.125236,
	0.0746599,
	0.182952,
	-0.0861544,
	0.174559,
	0.181181,
	0.428827,
	0.587747,
	0.574868,
	0.388284,
	0.582492,
	0.559929,
	0.581539,
	0.0494623,
	-0.151145,
	-0.0411112,
	0.0740441,
	0.191243,
	0.179514,
	0.366181,
	-0.249585,
	-0.0770486,
	-0.0825604,
	0.0820448,
	0.107448,
	0.19121,
	0.114368,
	-0.171658,
	-0.0904262,
	-0.0971765,
	-0.201934,
	0.276474,
	0.170753,
	0.0996606,
	0.200012,
	0.187085,
	0.101478,
	-0.0765521,
	0.398602,
	0.321379,
	0.3022,
	0.552144,
	0.0368234,
	0.056771,
	0.0609231,
	-0.011442,
	0.146646,
	0.210633,
	-0.195323,
	0.0989632,
	-0.0793405,
	0.267497,
	0.212885,
	0.113635,
	0.101975,
	-0.131135,
	-0.206735,
	-0.375416,
	-0.475652,
	0.0786471,
	0.120341,
	0.424945,
	0.0624025,
	-0.0164889,
	-0.314091,
	-0.193223,
	-0.124312,
	-0.0784385,
	-0.176756,
	0.11202,
	0.130288,
	0.0515098,
	0.0547206,
	0.164237,
	0.165943,
	0.303357,
	0.100053,
	0.125936,
	-0.206172,
	0.105246,
	0.156074,
	0.114169,
	0.061393,
	-0.0333524,
	-0.266841,
	-0.514405,
	-0.443631,
	-0.122773,
	0.133043,
	0.711275,
	0.0767031,
	-0.201146,
	-0.554264,
	-0.472338,
	-0.285402,
	-0.46608,
	-0.257409,
	-0.0758459,
	0.112309,
	0.0623304,
	0.0534942,
	0.294019,
	0.0821927,
	0.00879016,
	0.283891,
	-0.110239,
	0.0797111,
	-0.0937932,
	0.185243,
	0.100932,
	0.0702566,
	0.347166,
	-0.323345,
	-0.300528,
	-0.294997,
	0.184788,
	-0.0237747,
	0.557376,
	0.309022,
	-0.220403,
	-0.527619,
	-0.936519,
	-1.06514,
	-0.946534,
	-0.707957,
	-0.477761,
	-0.101449,
	-0.0126546,
	0.0966424,
	0.241038,
	0.00437213,
	-0.182121,
	0.102926,
	-0.18588,
	0.0873956,
	-0.0454359,
	0.149544,
	0.112013,
	0.0928475,
	0.281698,
	-0.198881,
	-0.444058,
	-0.079213,
	-0.213751,
	0.026708,
	-0.0960441,
	0.0663982,
	0.115631,
	-0.485828,
	-0.712633,
	-1.10272,
	-0.828956,
	-0.640782,
	-0.484968,
	-0.510083,
	-0.16628,
	-0.143775,
	0.068966,
	0.0792023,
	0.0816737,
	-0.136101,
	-0.00696375,
	0.0487861,
	-0.131438,
	-0.0040952,
	0.185722,
	0.0605861,
	0.210549,
	0.124914,
	0.0221163,
	-0.00911391,
	0.233304,
	0.218195,
	-0.0732933,
	-0.0308779,
	0.209162,
	-0.460616,
	-0.608741,
	-0.667866,
	-0.325705,
	-0.417279,
	-0.0372584,
	-0.204606,
	-0.393626,
	-0.112414,
	-0.299412,
	0.0921375,
	-0.0284831,
	-0.171598,
	0.0055228,
	-0.0923145,
	-0.195308,
	0.0611163,
	0.15872,
	0.0721399,
	0.16021,
	0.245389,
	0.180839,
	0.260863,
	0.458004,
	0.134139,
	-0.189016,
	-0.0841843,
	-0.176211,
	-0.0658069,
	-0.517758,
	-0.71188,
	-0.414901,
	-0.44442,
	-0.181188,
	0.216402,
	-0.284618,
	-0.122,
	-0.342146,
	-0.0685845,
	0.0590141,
	-0.328926,
	-0.00715444,
	0.116893,
	-0.0025042,
	-0.135213,
	0.190012,
	0.119728,
	0.122137,
	0.242094,
	0.339022,
	0.324912,
	0.0892561,
	0.193795,
	-0.391777,
	-0.480065,
	-0.155442,
	-0.187592,
	-0.0752755,
	-0.6186,
	-0.546128,
	-0.870571,
	-0.19769,
	0.373574,
	-0.224817,
	0.649301,
	-0.0483181,
	-0.222609,
	-0.0865675,
	0.0891429,
	0.14639,
	0.155858,
	0.116362,
	0.022751,
	0.295661,
	0.127239,
	0.126789,
	0.162685,
	0.225148,
	0.165684,
	0.268121,
	0.0865435,
	0.0317192,
	-0.341723,
	-0.187084,
	-0.184135,
	-0.239737,
	-0.400016,
	-0.716602,
	-0.330608,
	0.079887,
	-0.154768,
	-0.253626,
	0.0799502,
	-0.684849,
	0.0134197,
	0.0550952,
	0.00897176,
	-0.063188,
	0.224202,
	0.209152,
	0.149555,
	0.185895,
	0.145648,
	0.13727,
	0.16997,
	0.170566,
	0.226301,
	0.192185,
	-0.0923545,
	-0.103484,
	0.0206322,
	-0.184935,
	-0.444912,
	-0.334334,
	-0.350686,
	0.0562523,
	-0.0218298,
	0.0875664,
	0.345323,
	-0.451241,
	0.151185,
	-0.168701,
	0.348072,
	0.15591,
	0.039518,
	-0.036452,
	0.361336,
	0.182556,
	0.136828,
	0.295913,
	0.177234,
	0.14849,
	0.147349,
	0.17494,
	0.104943,
	-0.0376309,
	-0.149231,
	-0.252353,
	-0.2409,
	-0.215509,
	-0.183904,
	-0.0987445,
	0.0363371,
	0.0442748,
	0.139449,
	0.25524,
	0.43909,
	-0.158999,
	-0.131556,
	-0.54775,
	0.225361,
	0.0347803,
	0.21579,
	0.253211,
	0.163407,
	0.0791651,
	0.36252,
	0.531157,
	0.253809,
	0.212534,
	0.233334,
	0.16696,
	0.182107,
	0.132708,
	-0.0189326,
	-0.237171,
	-0.146235,
	-0.16152,
	-0.0493856,
	0.0198698,
	0.0870316,
	-0.0174385,
	-0.164588,
	0.125451,
	0.20907,
	-0.152891,
	0.0742329,
	-0.0793337,
	0.291442,
	-0.143688,
	0.159762,
	0.107092,
	0.097458,
	0.0721307,
	-0.0286022,
	0.10476,
	0.439941,
	0.283928,
	0.0463623,
	-0.109932,
	-0.0916832,
	0.0446098,
	-0.0739591,
	-0.0564248,
	-0.0471806,
	-0.0542897,
	0.0222894,
	0.0199663,
	-0.0470658,
	-0.00956846,
	0.0199696,
	-0.2914,
	-0.0648563,
	-0.593278,
	-0.0288455,
	-0.269232,
	-0.00018664,
	0.0032152,
	-0.371404,
	0.16918,
	0.0514513,
	0.172307,
	0.134892,
	0.174966,
	0.297275,
	0.149403,
	-0.0462706,
	-0.259608,
	-0.162679,
	-0.0729028,
	0.065867,
	0.0177935,
	-0.0223797,
	-0.11448,
	-0.0381242,
	-0.0334418,
	0.0842218,
	0.0480522,
	-0.0727715,
	-0.220113,
	-0.382024,
	-0.534766,
	-0.276745,
	-0.0754204,
	-0.0686641,
	0.03435,
	-0.0921476,
	0.106767,
	0.0211736,
	-0.134722,
	-0.20544,
	0.270776,
	0.38699,
	0.257276,
	0.0783708,
	0.0280183,
	0.0165287,
	0.0189895,
	0.0253022,
	0.0196606,
	0.0128124,
	0.00976007,
	0.00593599,
	0.0038011,
	0.0071461,
	0.020506,
	0.0223633,
	-0.0281242,
	-0.148123,
	-0.0762393,
	0.00293349,
	0.12612,
	0.0187222,
	0.415496,
	0.0101192,
	0.00536282,
	0.170712,
	0.576382,
	0.417654,
	0.0386642,
	-0.616862,
	-0.724173,
	-0.527312,
	-0.546804,
	-0.317818,
	-0.0449202,
	0.136685,
	0.105194,
	0.0793112,
	0.153109,
	0.163936,
	0.155705,
	0.0405863,
	-0.0212053,
	-0.0976008,
	-0.0714705,
	-0.0854719,
	-0.152334,
	-0.279563,
	-0.371364,
	-0.482268,
	-0.477809,
	-0.147388,
	0.126006,
	0.0808774,
	0.212379,
	0.193497,
	0.0815392,
	-0.153645,
	-0.119173,
	-0.0103812,
	-0.0466444,
	-0.0445805,
	-0.0726251,
	-0.0807889,
	-0.0793478,
	-0.0775261,
	-0.0703738,
	-0.0573724,
	-0.080058,
	-0.0535494,
	-0.0552635,
	-0.0564443,
	-0.0232224,
	-0.0165104,
	-0.00797617,
	0.0309183,
	-0.0557351,
	-0.360196,
	-0.197759,
	0.00339321,
	0.121389,
	-0.268007,
	0.0776905,
	0.350033,
	0.21873,
	-0.14624,
	-0.0916182,
	-0.0516104,
	-0.0541777,
	-0.0657651,
	-0.0668472,
	-0.0809541,
	-0.0779618,
	-0.0737217,
	-0.084843,
	-0.0548942,
	-0.0298973,
	-0.0561906,
	-0.03715,
	-0.058998,
	-0.0557691,
	-0.0542993,
	-0.0118966,
	-0.0324854,
	0.0960622,
	-0.118296,
	-0.0566517,
	0.0836135,
	0.164003,
	-0.389358,
	-0.225151,
	0.111927,
	0.180239,
	0.0056398,
	0.0541424,
	0.0386163,
	0.00954347,
	0.0164945,
	0.0130138,
	0.00108196,
	-0.00364462,
	-0.0034986,
	-0.00441266,
	-0.00236537,
	-0.00216542,
	-0.00412773,
	-0.00245034,
	0.00149366,
	0.00193539,
	-0.00354447,
	0.0015959,
	0.00544148,
	-0.0200914,
	-0.150486,
	0.127611,
	0.19112,
	0.235927,
	-0.415862,
	-0.206264,
	-0.0636107,
	0.0782656,
	-0.00204888,
	-0.0114908,
	-0.132591,
	-0.168215,
	-0.186557,
	-0.0919055,
	0.0433555,
	0.0483749,
	0.0398226,
	0.034516,
	0.0344545,
	-0.0416688,
	-0.0429706,
	-0.0780125,
	-0.0629394,
	-0.0121032,
	-0.0152351,
	-0.0181084,
	-0.0161673,
	0.030151,
	-0.199327,
	0.077312,
	0.177757,
	0.195282,
	-0.717607,
	-0.386563,
	-0.0588664,
	0.0645896,
	0.00142044,
	0.0675384,
	-0.202588,
	-0.110157,
	-0.0785697,
	-0.0310528,
	0.155631,
	0.28412,
	0.275699,
	0.206701,
	0.00800511,
	-0.069265,
	-0.253662,
	-0.105884,
	-0.167226,
	0.00294238,
	0.00679699,
	-0.00736354,
	-0.0189048,
	-0.120847,
	-0.0459562,
	0.169956,
	0.20944,
	0.189666,
	-0.58364,
	-0.414025,
	-0.083141,
	0.0598989,
	0.0336984,
	0.143478,
	-0.364709,
	-0.158812,
	-0.0257546,
	-0.0175503,
	0.210388,
	0.514597,
	0.492986,
	0.50948,
	0.203093,
	0.0135438,
	-0.264271,
	-0.410442,
	-0.387644,
	-0.0166301,
	0.0282884,
	0.0022041,
	-0.0114743,
	0.015322,
	-0.331744,
	0.121884,
	0.189661,
	0.178798,
	-0.44628,
	-0.38517,
	-0.0824892,
	0.071483,
	0.0375353,
	0.0990347,
	-0.338058,
	-0.229272,
	0.255195,
	0.158232,
	0.252939,
	0.487042,
	0.567841,
	0.595824,
	0.22322,
	-0.132019,
	-0.239212,
	-0.242638,
	-0.324866,
	0.0843606,
	0.0567057,
	0.0161893,
	-0.00886879,
	-0.222376,
	-0.395324,
	-0.0340459,
	0.223984,
	0.127526,
	-0.368722,
	-0.140738,
	-0.0561594,
	0.0659828,
	0.030524,
	0.0737993,
	-0.252057,
	-0.11521,
	0.199219,
	0.140709,
	0.229509,
	0.457809,
	0.473516,
	0.580631,
	0.118584,
	-0.020644,
	-0.0356547,
	-0.112995,
	-0.305965,
	0.128868,
	0.0657836,
	0.0171596,
	-0.00304043,
	-0.126681,
	-0.468937,
	-0.0721352,
	0.248831,
	0.126524,
	-0.18005,
	-0.0925817,
	-0.0626427,
	0.0675881,
	0.0333984,
	0.0892403,
	-0.215262,
	-0.250861,
	-0.0440363,
	0.116353,
	0.261569,
	0.540301,
	0.563909,
	0.583928,
	0.216101,
	0.114477,
	-0.201415,
	-0.269754,
	-0.27914,
	0.105568,
	0.0479633,
	0.0144785,
	-0.00700102,
	-0.438464,
	-0.329482,
	-0.174323,
	0.142708,
	0.0466176,
	0.02362,
	-0.115377,
	-0.0337027,
	0.0577179,
	0.0153005,
	0.0952399,
	-0.183842,
	-0.204261,
	-0.162061,
	-0.147585,
	0.105171,
	0.345259,
	0.324161,
	0.351472,
	-0.0266198,
	-0.0354949,
	-0.115325,
	-0.204014,
	-0.269248,
	0.102614,
	0.0320408,
	-0.00145642,
	-0.00767988,
	-0.147919,
	-0.204968,
	-0.0835469,
	0.160192,
	0.0387369,
	0.0543469,
	-0.0205416,
	-0.00101653,
	0.0639639,
	0.0352237,
	0.0895231,
	-0.189719,
	-0.334542,
	-0.454934,
	-0.321293,
	-0.184209,
	-0.102883,
	-0.163702,
	-0.164964,
	-0.386303,
	-0.40779,
	-0.226964,
	-0.208618,
	-0.301248,
	0.0961958,
	0.019652,
	-0.00534005,
	-0.00520234,
	-0.0425105,
	-0.226098,
	0.0725386,
	0.160149,
	0.0523968,
	-0.147221,
	-0.19845,
	-0.0454013,
	0.100205,
	0.0418595,
	0.0607226,
	-0.162562,
	-0.299107,
	-0.433753,
	-0.330682,
	-0.139687,
	-0.050542,
	-0.124018,
	-0.275071,
	-0.473352,
	-0.55307,
	-0.594802,
	-0.226876,
	-0.277127,
	0.0807082,
	0.0137763,
	-0.0136739,
	0.0005686,
	0.104438,
	0.0103055,
	-0.00238358,
	0.113116,
	0.0594782,
	-0.090671,
	-0.231338,
	-0.0690294,
	0.0817032,
	0.0447391,
	0.0515448,
	-0.208537,
	-0.311191,
	-0.569354,
	-0.730993,
	-0.470886,
	-0.221248,
	-0.284976,
	-0.212141,
	-0.425919,
	-0.516916,
	-0.364955,
	-0.207087,
	-0.19026,
	0.064443,
	0.00569801,
	-0.013694,
	-0.00661,
	0.0766378,
	0.0583604,
	-0.105809,
	0.00449691,
	0.0114695,
	-0.0867217,
	-0.182764,
	-0.0455563,
	0.0494113,
	0.0297012,
	0.0365123,
	-0.219875,
	-0.336335,
	-0.291961,
	-0.435419,
	-0.370225,
	-0.0448693,
	0.243743,
	0.0710803,
	-0.290454,
	-0.580744,
	-0.303659,
	-0.251945,
	-0.19746,
	0.0709074,
	-0.000334125,
	-0.0162437,
	-0.00516608,
	0.0755804,
	0.162525,
	-0.175701,
	-0.0942656,
	-0.0149122,
	-0.0691293,
	-0.145814,
	-0.117587,
	0.0467811,
	0.0292317,
	0.029439,
	-0.235316,
	-0.205451,
	0.0870483,
	-0.00372162,
	0.0482389,
	0.222504,
	0.344294,
	0.436978,
	-0.139438,
	-0.41439,
	-0.227956,
	-0.283394,
	-0.202524,
	0.074998,
	-0.0081963,
	-0.0200269,
	-0.00293618,
	0.112103,
	0.259035,
	0.0999723,
	0.0386178,
	-0.0047312,
	-0.0348969,
	-0.386728,
	-0.115963,
	0.035477,
	0.0296654,
	-0.00467593,
	-0.232367,
	-0.168618,
	0.000819743,
	-0.026413,
	0.0525777,
	0.241966,
	0.434124,
	0.54067,
	0.0848595,
	-0.242336,
	-0.0811902,
	-0.299899,
	-0.145704,
	0.0109495,
	-0.121158,
	-0.00899319,
	-0.0875397,
	0.0896572,
	0.230024,
	-0.0627159,
	0.0154171,
	-0.00447859,
	0.0149038,
	-0.0374285,
	-0.121925,
	0.0354091,
	0.0237044,
	-0.0130781,
	-0.290872,
	-0.249256,
	0.0446028,
	0.0222658,
	0.342879,
	0.494449,
	0.61814,
	0.680891,
	0.379136,
	0.112265,
	0.0203233,
	-0.108377,
	0.0100285,
	0.0621811,
	-0.101196,
	-0.0269026,
	-0.255197,
	-0.0713272,
	0.171115,
	-0.143722,
	-0.0715916,
	-0.00686916,
	0.0216863,
	-0.0066122,
	-0.127566,
	0.0314868,
	-0.00236687,
	-0.0638221,
	-0.243929,
	-0.154981,
	0.0812824,
	0.0832082,
	0.420405,
	0.581526,
	0.563709,
	0.619074,
	0.507669,
	0.0645911,
	-0.00342286,
	0.00184433,
	-0.0950325,
	-0.101653,
	-0.148939,
	-0.101613,
	-0.327771,
	-0.0713783,
	0.129657,
	0.0756343,
	0.0881029,
	-0.00779605,
	0.0300453,
	0.137546,
	-0.104238,
	0.0224799,
	0.0213621,
	-0.118078,
	-0.145648,
	-0.0237513,
	0.218104,
	0.189265,
	0.325647,
	0.493649,
	0.430793,
	0.441365,
	0.366402,
	0.157234,
	0.188108,
	-0.0664517,
	-0.394731,
	-0.235017,
	-0.417165,
	-0.29681,
	-0.230792,
	-0.00215128,
	0.266913,
	0.101629,
	0.129549,
	-0.00782595,
	0.0580286,
	0.289741,
	0.0683131,
	0.0534657,
	0.00955148,
	-0.0809662,
	-0.0762395,
	-0.0724073,
	0.0703565,
	0.259207,
	0.404582,
	0.458605,
	0.429345,
	0.303501,
	0.337845,
	0.202165,
	0.236896,
	-0.0664843,
	-0.27494,
	-0.390964,
	-0.412383,
	-0.438245,
	-0.0985018,
	-0.0205706,
	0.0898877,
	0.0347616,
	0.13359,
	-0.00688766,
	-0.0582962,
	0.169155,
	0.0630495,
	0.0438015,
	0.0205776,
	0.0473273,
	-0.0090999,
	-0.192483,
	-0.105349,
	0.120474,
	0.353054,
	0.423936,
	0.413568,
	0.403465,
	0.292875,
	0.189846,
	0.13911,
	-0.122211,
	-0.334179,
	-0.388834,
	-0.469281,
	-0.448021,
	-0.214431,
	-0.152861,
	0.148805,
	0.0661314,
	0.143806,
	0.0152888,
	-0.240948,
	0.103184,
	0.00848292,
	0.0605658,
	0.026085,
	0.0378332,
	0.0340311,
	-0.0877671,
	-0.153142,
	-0.05816,
	0.200997,
	0.248355,
	0.235677,
	0.250945,
	0.248666,
	0.185445,
	-0.0288558,
	-0.270572,
	-0.169672,
	-0.184257,
	-0.375861,
	0.0469553,
	-0.300485,
	0.0640466,
	0.186811,
	-0.00328377,
	0.185011,
	0.0467315,
	-0.334774,
	-0.0696058,
	-0.0981366,
	-0.0146333,
	0.0639561,
	0.0458864,
	0.0286194,
	0.0645003,
	0.0465094,
	0.0541768,
	0.0217443,
	0.0707356,
	0.0818249,
	0.0766352,
	0.0509355,
	0.0492096,
	0.100342,
	0.0765907,
	-0.0125435,
	-0.197598,
	-0.00979201,
	0.102566,
	-0.0426334,
	0.0247001,
	0.293788,
	0.120796,
	0.243712,
	0.041726,
	-0.23989,
	0.0214888,
	0.0564483,
	0.0619174,
	0.206396,
	0.122924,
	0.0575178,
	0.0570874,
	0.0377491,
	0.0695432,
	0.048381,
	0.0440381,
	0.0193175,
	0.0109773,
	0.00440988,
	0.0072146,
	0.0251284,
	0.0538313,
	0.197616,
	0.0095265,
	0.150108,
	0.233143,
	0.231262,
	-0.0410812,
	0.181918,
	0.0763074,
	0.200912,
	-0.0341709,
	-0.166485,
	0.022425,
	0.11552,
	0.061057,
	0.275307,
	0.228928,
	0.134049,
	0.142135,
	0.161356,
	0.1211,
	0.130783,
	0.135841,
	-0.0326456,
	0.0200083,
	-0.0593835,
	0.0484665,
	0.0854763,
	0.0801473,
	0.118282,
	0.224265,
	0.368418,
	0.214001,
	0.174704,
	0.0920225,
	0.282086,
	0.0470657,
	0.045976,
	-0.176217,
	-0.0913586,
	0.134493,
	0.112407,
	0.124527,
	0.074061,
	0.204031,
	0.125536,
	0.0750308,
	0.0187801,
	0.0411629,
	0.0837904,
	0.113869,
	0.0550858,
	0.049357,
	0.0235171,
	-0.00595591,
	0.054403,
	0.037521,
	0.0527666,
	0.0726262,
	0.13539,
	0.0514974,
	0.236014,
	0.34781,
	0.378807,
	0.16272,
	-0.0491657,
	-0.0600604,
	-0.0132629,
	0.184013,
	0.136995,
	0.109608,
	0.0661897,
	0.0252785,
	0.0139639,
	-0.0121904,
	-0.0157098,
	-0.0132403,
	-0.013452,
	-0.0140923,
	-0.0179041,
	-0.0159047,
	-0.0208572,
	-0.0227532,
	-0.020462,
	-0.0211851,
	-0.0100051,
	-0.000735645,
	0.0193932,
	0.0507824,
	0.0531354,
	0.235606,
	0.231643,
	0.139556,
	0.0301843,
	-0.0225258,
	-0.150978,
	0.106282,
	-0.16063,
	-0.623842,
	-0.10404,
	-0.64244,
	-0.927906,
	-0.487498,
	-0.323638,
	-0.122195,
	0.0689857,
	-0.21392,
	-0.124893,
	-0.0208304,
	-0.124649,
	0.139659,
	-0.182618,
	-0.0269722,
	-0.081494,
	0.126132,
	0.0457096,
	0.14891,
	-0.0891147,
	-0.119495,
	-0.389839,
	-0.308082,
	-0.582585,
	-0.591051,
	0.13346,
	0.300974,
	0.0756345,
	0.00172466,
	0.0660184,
	-0.121848,
	-0.0320702,
	0.108587,
	-0.0129341,
	-0.021559,
	-0.0896628,
	-0.0543735,
	0.0731451,
	-0.0568876,
	-0.101225,
	0.0074317,
	-0.00549357,
	-0.0328653,
	-0.0668714,
	0.00877514,
	0.0509369,
	0.103503,
	0.199872,
	0.313643,
	0.238356,
	0.187487,
	-0.292507,
	-0.368151,
	-0.542903,
	-0.198389,
	-0.0770913,
	-0.172142,
	0.00787021,
	-0.0680318,
	-0.157164,
	-0.131753,
	-0.155456,
	-0.158187,
	-0.129849,
	-0.153181,
	-0.0609297,
	-0.0261959,
	-0.017372,
	0.0208004,
	0.0345459,
	0.0525223,
	0.0307241,
	0.0360623,
	0.051062,
	0.0952628,
	0.0626705,
	0.204441,
	0.214117,
	0.508195,
	0.144551,
	-0.113953,
	-0.802977,
	-0.3967,
	-0.149047,
	-0.156143,
	0.000830926,
	-0.0245219,
	-0.123342,
	-0.126472,
	-0.121378,
	-0.117201,
	-0.0973522,
	-0.104674,
	-0.0926259,
	-0.0974584,
	-0.0967042,
	-0.0960337,
	-0.0950309,
	-0.0971432,
	-0.0874157,
	-0.114732,
	-0.114601,
	-0.0783625,
	-0.0901628,
	0.118623,
	0.230286,
	0.386727,
	0.0347206,
	-0.266063,
	0.161094,
	-0.019589,
	0.0251686,
	-0.196933,
	-0.117791,
	-0.107567,
	-0.173867,
	-0.166402,
	-0.147171,
	-0.113518,
	-0.0582855,
	-0.0226943,
	0.0111869,
	0.0154307,
	-0.011583,
	-0.0489241,
	-0.0517461,
	-0.0741553,
	-0.0803779,
	-0.118591,
	-0.162061,
	-0.110333,
	-0.169987,
	0.0154272,
	0.148658,
	0.184881,
	-0.00497328,
	-0.0626693,
	-0.265315,
	-0.149107,
	-0.233627,
	-0.252583,
	-0.143502,
	-0.192314,
	-0.171436,
	-0.145733,
	-0.0994938,
	0.0168147,
	0.119518,
	0.104165,
	0.136247,
	0.0576482,
	0.0522937,
	0.00212723,
	-0.0246759,
	-0.0621232,
	-0.0737795,
	-0.0937617,
	-0.161063,
	-0.150112,
	-0.348579,
	-0.279376,
	-0.0442337,
	0.123083,
	0.1071,
	-0.0937944,
	-0.357204,
	-0.252766,
	-0.15529,
	-0.261032,
	-0.215145,
	-0.322448,
	-0.12792,
	-0.0585796,
	0.0825801,
	0.141512,
	0.142169,
	0.123213,
	0.0251504,
	-0.0264226,
	0.188683,
	0.168432,
	0.170852,
	0.0895309,
	-0.0792437,
	-0.0880751,
	-0.187559,
	-0.109157,
	-0.205608,
	-0.349917,
	-0.143181,
	-0.342037,
	-0.261396,
	-0.335899,
	-0.171872,
	-0.162549,
	-0.0554448,
	-0.208978,
	-0.131458,
	-0.149882,
	-0.026221,
	0.122587,
	0.343913,
	0.232369,
	0.0928089,
	0.352701,
	0.364686,
	0.306105,
	0.344923,
	0.472809,
	0.443917,
	0.348555,
	0.0924626,
	-0.090103,
	-0.181231,
	-0.144454,
	-0.155607,
	-0.0689598,
	0.0227069,
	-0.119824,
	0.0267228,
	-0.132386,
	-0.0113068,
	-0.102685,
	-0.108201,
	-0.173322,
	-0.083543,
	-0.0609826,
	0.291404,
	0.414014,
	0.513875,
	0.422182,
	0.355633,
	0.371427,
	0.171762,
	0.0974074,
	0.185006,
	0.488178,
	0.346305,
	0.438323,
	0.355955,
	0.195957,
	0.00198512,
	-0.0826341,
	-0.401046,
	-0.454782,
	-0.189517,
	-0.231772,
	-0.30572,
	-0.475283,
	-0.162921,
	-0.161906,
	-0.0210385,
	-0.162602,
	-0.0920343,
	-0.0355228,
	0.248592,
	0.367971,
	0.429289,
	0.324231,
	0.402798,
	0.245653,
	0.328481,
	0.310895,
	0.535079,
	0.447148,
	0.551759,
	0.644147,
	0.617392,
	0.297715,
	0.0605633,
	-0.0455424,
	-0.0997637,
	-0.121857,
	0.0848327,
	-0.158848,
	-0.197417,
	0.0103082,
	-0.343374,
	-0.0845144,
	-0.130599,
	-0.102077,
	-0.0167143,
	-0.0647999,
	0.203541,
	0.240298,
	0.267044,
	0.308321,
	0.127412,
	0.125156,
	0.158189,
	0.265357,
	0.326175,
	0.263405,
	0.284895,
	0.50566,
	0.61933,
	0.368576,
	0.160653,
	-0.0590823,
	-0.0891456,
	-0.120324,
	0.249795,
	-0.0632824,
	-0.145313,
	0.0502576,
	-0.41759,
	-0.272706,
	-0.208972,
	-0.0870429,
	-0.160551,
	-0.191669,
	0.163288,
	0.221762,
	0.216881,
	0.216457,
	-0.00716562,
	0.167087,
	-0.0866652,
	0.284598,
	0.0873175,
	-0.0352381,
	-0.0538219,
	0.102704,
	0.414867,
	0.358736,
	0.19876,
	0.0117234,
	-0.0306357,
	-0.12787,
	-0.185999,
	0.041183,
	-0.0991461,
	0.0186283,
	-0.659093,
	-0.339639,
	-0.162088,
	-0.271396,
	-0.126424,
	-0.141194,
	0.135778,
	0.229623,
	0.265913,
	0.269274,
	0.000526502,
	0.123625,
	0.139379,
	0.0828316,
	0.0845142,
	-0.20567,
	-0.0585829,
	0.0971435,
	0.233509,
	0.235955,
	0.198504,
	0.101746,
	-0.00882404,
	-0.0759103,
	0.209549,
	-0.0946082,
	0.00208259,
	0.0727367,
	-0.658702,
	-0.189238,
	-0.4233,
	-0.449153,
	-0.131319,
	-0.200782,
	0.180099,
	0.243691,
	0.375577,
	0.442269,
	0.199051,
	0.0849059,
	0.288742,
	0.0789707,
	0.0490447,
	-0.135916,
	0.00838218,
	0.100026,
	0.212894,
	0.107415,
	0.0465085,
	0.150794,
	0.0551697,
	0.0248191,
	0.108033,
	-0.0472669,
	0.0288157,
	-0.0700007,
	-0.0824213,
	-0.270003,
	-0.00333612,
	-0.0881539,
	-0.124158,
	-0.229621,
	0.178115,
	0.286646,
	0.459183,
	0.405274,
	0.200258,
	0.110832,
	0.0857432,
	-0.0145527,
	0.140484,
	-0.0149482,
	0.00810323,
	0.161725,
	0.23574,
	0.0796229,
	0.0202477,
	0.0467913,
	-0.176395,
	-0.00710332,
	-0.600806,
	-0.0605998,
	0.00652559,
	-0.109699,
	-0.127208,
	0.115533,
	-0.10826,
	0.0549511,
	-0.102762,
	-0.180982,
	0.175315,
	0.260322,
	0.290162,
	0.247533,
	0.10832,
	-0.13873,
	-0.0558586,
	-0.2155,
	0.191077,
	0.013045,
	0.117613,
	0.258179,
	0.229041,
	0.0635596,
	0.0157245,
	0.0493715,
	-0.0269669,
	-0.119426,
	-0.299419,
	-0.143287,
	-0.186951,
	-0.0767094,
	0.06132,
	-0.00889446,
	-0.290048,
	-0.35706,
	-0.118151,
	-0.150479,
	0.196107,
	0.281,
	0.241755,
	0.190123,
	0.0487792,
	-0.179521,
	-0.169792,
	-0.218138,
	-0.02273,
	0.0663862,
	0.195853,
	0.289047,
	0.406753,
	0.271299,
	0.193884,
	0.218075,
	0.0450301,
	0.0811571,
	-0.308884,
	-0.268133,
	-0.0579759,
	-0.0532639,
	0.0608489,
	-0.0702482,
	-0.013681,
	-0.116681,
	-0.0218992,
	-0.12979,
	0.228295,
	0.312913,
	0.279191,
	0.228425,
	0.157302,
	-0.10109,
	-0.0103222,
	-0.00859529,
	0.135924,
	0.273988,
	0.200531,
	0.509328,
	0.499353,
	0.406626,
	0.354193,
	0.254308,
	0.211276,
	0.0550717,
	-0.37345,
	-0.306613,
	-0.200506,
	-0.0282865,
	0.191589,
	0.240708,
	0.0938956,
	0.138518,
	0.0956916,
	-0.0226576,
	0.37575,
	0.486918,
	0.446962,
	0.325227,
	0.127764,
	0.014753,
	0.059534,
	0.0964084,
	0.0135956,
	0.410593,
	0.193297,
	0.180293,
	0.415081,
	0.468665,
	0.554422,
	0.464108,
	0.186026,
	0.213655,
	-0.210258,
	-0.0543978,
	-0.104195,
	-0.0804354,
	0.0488238,
	0.157906,
	0.169375,
	0.150791,
	-0.131262,
	-0.252763,
	0.241426,
	0.563324,
	0.642857,
	0.420298,
	0.124371,
	-0.126367,
	-0.19493,
	0.0221224,
	-0.302844,
	0.119802,
	-0.0540698,
	0.158695,
	0.532737,
	0.673787,
	0.725576,
	0.607189,
	0.34599,
	0.269601,
	-0.213526,
	0.0133571,
	-0.00573207,
	-0.0339822,
	-0.0695006,
	0.0716891,
	0.13518,
	0.0630007,
	0.029375,
	-0.0877304,
	0.216266,
	0.505184,
	0.711959,
	0.555565,
	0.183575,
	0.145965,
	-0.121994,
	-0.0287501,
	-0.0652273,
	-0.43598,
	0.0727196,
	0.0299137,
	0.491721,
	0.618348,
	0.626678,
	0.567331,
	0.513975,
	0.494637,
	-0.116401,
	0.0659481,
	-0.0579783,
	0.0143643,
	0.0118311,
	-0.0435535,
	-0.0281242,
	0.0859898,
	-0.0296546,
	-0.0284129,
	0.0625685,
	0.329876,
	0.436173,
	0.487643,
	0.107359,
	0.0213655,
	-0.0309879,
	0.0302874,
	-0.308821,
	-0.949233,
	-0.191139,
	-0.287763,
	0.392818,
	0.473544,
	0.492158,
	0.625314,
	0.438506,
	0.543065,
	0.0293367,
	0.0220011,
	0.0193756,
	-0.0821639,
	-0.0237937,
	0.0758046,
	-0.107375,
	-0.0715127,
	-0.096645,
	-0.0882591,
	-0.0747151,
	0.0182358,
	0.0686653,
	0.116412,
	-0.0050858,
	-0.0917517,
	-0.163608,
	0.0618705,
	-0.00205181,
	-0.478678,
	-0.0434181,
	-0.152418,
	0.206802,
	0.43992,
	0.39576,
	0.550222,
	0.53577,
	0.312078,
	-0.368024,
	-0.240239,
	-0.070957,
	0.0236268,
	-0.0078203,
	0.0941039,
	-0.196883,
	-0.0777287,
	-0.0111713,
	0.0182272,
	0.02602,
	0.0360324,
	0.0175745,
	-0.070031,
	-0.0799103,
	-0.107009,
	-0.158169,
	-0.13703,
	-0.444707,
	-0.410297,
	0.100103,
	-0.211736,
	0.193772,
	0.386266,
	0.292405,
	0.281542,
	0.219253,
	-0.0669225,
	-0.382489,
	-0.221962,
	-0.229087,
	-0.157866,
	0.0339625,
	-0.0553446,
	-0.160644,
	-0.0999587,
	0.0421219,
	0.0386883,
	0.146752,
	0.126345,
	-0.0279796,
	-0.0490314,
	0.0154877,
	-0.0243444,
	-0.00356958,
	-0.0287432,
	0.0994732,
	-0.302155,
	-0.134684,
	-0.0143075,
	0.151497,
	0.0306465,
	-0.00762503,
	-0.144243,
	-0.304309,
	-0.80091,
	-0.610837,
	-0.659413,
	-0.183393,
	-0.184433,
	0.0798899,
	-0.0664278,
	-0.184461,
	-0.468006,
	-0.329272,
	0.0224812,
	0.094035,
	0.0612578,
	-0.000693051,
	-0.194074,
	-0.302221,
	-0.389016,
	-0.350096,
	-0.0583752,
	0.00481082,
	-0.329685,
	-0.146599,
	-0.0907756,
	-0.0191571,
	0.143523,
	0.151331,
	0.410763,
	0.22427,
	-0.229783,
	-0.153328,
	-0.270585,
	0.00296009,
	-0.113139,
	-0.14041,
	-0.172845,
	-0.256616,
	-0.377556,
	-0.227593,
	-0.00775584,
	0.0698205,
	0.0127791,
	-0.0841024,
	-0.246623,
	-0.247351,
	-0.13156,
	-0.132942,
	-0.094018,
	0.00500683,
	-0.120839,
	-0.104427,
	-0.296366,
	-0.124174,
	-0.0136766,
	0.0461221,
	0.165303,
	0.235838,
	-0.0611278,
	-0.213106,
	-0.0712095,
	-0.00177741,
	0.0845276,
	-0.143951,
	0.0143361,
	-0.00126367,
	-0.297985,
	-0.256783,
	-0.12059,
	-0.182968,
	-0.131471,
	-0.165514,
	-0.165945,
	-0.164543,
	-0.168408,
	-0.142552,
	-0.170976,
	-0.174707,
	-0.17551,
	-0.174272,
	-0.174743,
	-0.164254,
	-0.0831951,
	-0.0657304,
	-0.00644442,
	0.0706312,
	0.0157393,
	0.0209374,
	0.08856,
	-0.0272854,
	-0.0546572,
	-0.0971973,
	-0.240607,
	-0.407519,
	-0.33721,
	-0.504167,
	-0.181313,
	0.167665,
	0.100561,
	0.206729,
	0.151531,
	0.0860256,
	0.121908,
	0.116497,
	0.194882,
	0.0526078,
	-0.0531709,
	-0.00802923,
	-0.110269,
	-0.192719,
	-0.201722,
	-0.165645,
	-0.262061,
	-0.312542,
	0.221249,
	0.35376,
	0.543415,
	0.608641,
	0.122508,
	0.0203023,
	-0.108971,
	-0.243368,
	-0.15174,
	-0.130526,
	-0.0228896,
	-0.124278,
	-0.0177308,
	0.0442162,
	0.0156644,
	0.0140034,
	-0.00102937,
	-0.022527,
	-0.0471599,
	-0.0364937,
	-0.0160794,
	-0.0509929,
	-0.0590395,
	-0.0712045,
	-0.0723725,
	-0.0603984,
	-0.046059,
	-0.0864542,
	0.153683,
	0.273417,
	0.251997,
	0.228539,
	-0.122409,
	-0.211084,
	-0.346117,
	-0.29611,
	-0.211063,
	-0.161922,
	-0.107953,
	0.00735435,
	0.130103,
	0.117622,
	0.136784,
	0.104591,
	0.138295,
	0.131996,
	0.0838365,
	0.142821,
	0.131101,
	0.125676,
	0.096562,
	0.127925,
	0.12371,
	0.130447,
	0.152535,
	0.153497,
	0.154925,
	0.123832,
	-0.0858238,
	-0.21233,
	-0.309035,
	-0.266972,
	-0.13759,
	-0.222101,
	-0.265275,
	-0.150585,
	-0.0995238,
	0.102521,
	0.0996168,
	0.0987547,
	0.0929979,
	0.0913951,
	0.0890447,
	0.0897655,
	0.0894175,
	0.0907362,
	0.090927,
	0.089722,
	0.0906228,
	0.0962066,
	0.0962682,
	0.089834,
	0.101104,
	0.106507,
	0.123659,
	0.0216207,
	-0.156381,
	-0.213849,
	-0.371448,
	-0.163417,
	-0.120972,
	-0.0787315,
	-0.293692,
	-0.178224,
	-0.108922,
	0.0758084,
	0.0834095,
	0.078555,
	0.0996962,
	0.109019,
	0.11147,
	0.0799237,
	0.0771196,
	0.0767799,
	0.0513043,
	0.0752329,
	0.072601,
	0.0871522,
	0.0957549,
	0.0957046,
	0.0878576,
	0.0924072,
	0.113913,
	-0.0146134,
	-0.218707,
	-0.347093,
	-0.678489,
	-0.28534,
	0.0263601,
	-0.00884943,
	-0.250976,
	-0.176737,
	-0.0869988,
	0.0813365,
	0.113076,
	0.120467,
	0.151223,
	0.185459,
	0.170507,
	0.161817,
	-0.0174481,
	-0.115108,
	-0.0353948,
	0.0163131,
	0.0793757,
	0.108995,
	0.108888,
	0.108647,
	0.0986128,
	0.0662319,
	0.091936,
	-0.0312011,
	-0.185032,
	-0.308541,
	-0.689301,
	-0.348641,
	0.0959464,
	0.0120663,
	-0.238627,
	-0.144942,
	-0.0690281,
	0.103198,
	0.212257,
	0.275003,
	0.280241,
	0.346892,
	0.358491,
	0.282381,
	0.124364,
	-0.0722931,
	0.0663462,
	0.0935806,
	0.121501,
	-0.0521997,
	0.0209852,
	0.1005,
	0.12764,
	-0.0701495,
	0.0923037,
	-0.0547775,
	-0.0578065,
	-0.267132,
	-0.569263,
	-0.334023,
	0.0315179,
	-0.0846204,
	-0.208425,
	-0.167916,
	-0.0251402,
	0.172868,
	0.359858,
	0.409865,
	0.381757,
	0.396227,
	0.494272,
	0.192083,
	0.181236,
	0.148112,
	0.0793442,
	0.0390203,
	0.0693044,
	0.0175249,
	-0.00614918,
	0.102101,
	0.147861,
	-0.11056,
	0.126494,
	-0.216256,
	-0.146512,
	-0.401279,
	-0.477874,
	-0.404558,
	0.105455,
	-0.0881486,
	-0.21293,
	-0.140271,
	0.0562447,
	0.209848,
	0.429074,
	0.427408,
	0.365537,
	0.411598,
	0.36326,
	0.410124,
	0.320171,
	0.0387407,
	-0.0671359,
	0.166849,
	0.158652,
	0.0846069,
	0.000770631,
	0.107894,
	0.13406,
	0.102361,
	0.144226,
	-0.389062,
	-0.168968,
	-0.237557,
	-0.298069,
	-0.281085,
	0.0680677,
	-0.0616736,
	-0.169513,
	-0.114845,
	0.0751778,
	0.222742,
	0.40693,
	0.416086,
	0.352534,
	0.471642,
	0.432412,
	0.405388,
	0.265362,
	-0.140003,
	-0.0249499,
	0.18884,
	0.175401,
	0.0829867,
	0.00604674,
	0.116229,
	0.11187,
	0.105531,
	0.0807561,
	-0.318667,
	-0.176491,
	-0.34231,
	-0.406789,
	-0.191922,
	0.101427,
	-0.0156764,
	-0.174273,
	-0.0919024,
	0.0834185,
	0.207864,
	0.374978,
	0.420283,
	0.38811,
	0.469458,
	0.461105,
	0.427963,
	0.219201,
	-0.0584373,
	-0.037611,
	0.139401,
	0.100595,
	-0.0522376,
	-0.00231621,
	0.10877,
	0.0956004,
	0.105405,
	0.08584,
	-0.196731,
	-0.234785,
	-0.228794,
	-0.155788,
	-0.153291,
	0.00558041,
	-0.12723,
	-0.145133,
	-0.0472509,
	0.160638,
	0.196266,
	0.368027,
	0.420735,
	0.4091,
	0.492995,
	0.427335,
	0.415465,
	0.237324,
	-0.0547371,
	0.0507218,
	0.12929,
	-0.0178888,
	-0.0724162,
	-0.0164336,
	0.116761,
	0.0926924,
	0.0623518,
	-0.0553203,
	-0.276292,
	-0.210242,
	-0.280819,
	-0.198097,
	-0.313871,
	-0.00704251,
	-0.0418516,
	-0.0694744,
	-0.0638458,
	0.102675,
	0.188548,
	0.364878,
	0.423191,
	0.418673,
	0.455577,
	0.359104,
	0.338781,
	0.175433,
	-0.00327395,
	0.115407,
	0.323267,
	0.19304,
	-0.0214639,
	-0.0134477,
	0.113728,
	0.115309,
	-0.0870631,
	0.0672333,
	-0.224465,
	-0.231616,
	-0.288501,
	-0.226751,
	-0.322152,
	-0.0337326,
	0.0437568,
	0.0109139,
	-0.0165546,
	0.109741,
	0.189123,
	0.367443,
	0.405946,
	0.360678,
	0.427295,
	0.378215,
	0.298994,
	0.128633,
	-0.173722,
	0.0455899,
	0.325499,
	0.204916,
	0.111728,
	0.0021307,
	0.0980389,
	0.100346,
	-0.138315,
	0.061505,
	-0.184697,
	-0.322387,
	-0.225771,
	-0.223897,
	-0.456014,
	-0.0377772,
	-0.0944871,
	-0.09586,
	-0.00262426,
	0.180438,
	0.207149,
	0.395419,
	0.412877,
	0.363566,
	0.391943,
	0.410461,
	0.305982,
	-0.0299394,
	-0.211128,
	-0.0298358,
	0.0816313,
	0.159344,
	0.13826,
	0.0648718,
	0.113478,
	0.0905762,
	0.119247,
	-0.042124,
	-0.241281,
	-0.242328,
	-0.307699,
	-0.331889,
	-0.466652,
	-0.0504888,
	-0.0617003,
	-0.165236,
	-0.0474277,
	0.106073,
	0.235717,
	0.420361,
	0.414881,
	0.341894,
	0.411133,
	0.505655,
	0.25572,
	-0.0206363,
	-0.316449,
	-0.0700198,
	0.0855601,
	0.016023,
	0.105624,
	0.107963,
	0.115014,
	0.0901176,
	0.107159,
	0.100135,
	-0.0767282,
	-0.201668,
	-0.323529,
	-0.287049,
	-0.568054,
	0.0462084,
	-0.0324316,
	0.00052981,
	0.115188,
	0.0961305,
	0.256134,
	0.411236,
	0.216517,
	0.222904,
	0.339237,
	0.264981,
	0.228794,
	-0.0755853,
	-0.26999,
	-0.0469749,
	0.155774,
	-0.0948839,
	0.0114774,
	0.110993,
	0.169412,
	0.120334,
	0.0995425,
	0.103978,
	0.108185,
	-0.278658,
	-0.302436,
	-0.167211,
	-0.526651,
	-0.0724084,
	-0.0979578,
	-0.0409361,
	0.221766,
	0.177744,
	0.24367,
	0.137739,
	0.128684,
	0.0462079,
	-0.10509,
	-0.309516,
	-0.436737,
	-0.440003,
	-0.140873,
	-0.00855122,
	-0.0855182,
	-0.325722,
	-0.289707,
	-0.0250155,
	-0.0342253,
	0.126627,
	0.0949335,
	0.111945,
	0.0920509,
	-0.138277,
	-0.120046,
	-0.432569,
	-0.570703,
	-0.0864571,
	-0.148239,
	-0.0532838,
	0.114933,
	0.158926,
	-0.0902922,
	0.0218009,
	-0.155259,
	-0.136573,
	-0.260497,
	-0.447352,
	-0.474489,
	-0.235375,
	-0.0132052,
	-0.600773,
	-0.318203,
	0.0464415,
	-0.270376,
	-0.127739,
	-0.278923,
	-0.0925077,
	0.0251336,
	0.151849,
	0.208221,
	0.00103964,
	-0.202649,
	-0.277859,
	-0.450649,
	0.0065334,
	-0.121169,
	-0.0538254,
	0.162052,
	0.152101,
	0.130955,
	-0.0780465,
	-0.330699,
	-0.307886,
	-0.167931,
	-0.0787155,
	0.158625,
	0.229252,
	-0.200681,
	-0.356398,
	-0.0531062,
	-0.287804,
	-0.246016,
	-0.392263,
	-0.145273,
	0.0179249,
	0.0268737,
	0.138548,
	0.190021,
	0.0115093,
	-0.1806,
	-0.374739,
	-0.456275,
	-0.0730358,
	-0.123168,
	-0.0583054,
	0.017533,
	0.10097,
	0.122166,
	0.0744389,
	-0.302405,
	-0.345442,
	-0.268578,
	0.019501,
	0.0928176,
	0.193297,
	0.179845,
	-0.168875,
	-0.429643,
	-0.37962,
	-0.135779,
	-0.431458,
	-0.179925,
	-0.0302181,
	0.0951141,
	0.253099,
	0.306534,
	-0.0631696,
	-0.193587,
	-0.36456,
	-0.531889,
	-0.1806,
	-0.147046,
	-0.170901,
	-0.00508136,
	0.122154,
	0.0961224,
	0.190118,
	0.0462824,
	0.0582828,
	0.0823179,
	-0.0440545,
	0.00862357,
	0.234111,
	0.14181,
	-0.245513,
	-0.492977,
	-0.681281,
	-0.549436,
	-0.28254,
	0.0910286,
	0.19607,
	0.224735,
	0.27886,
	0.347833,
	-0.0114031,
	-0.133438,
	-0.408237,
	-0.522567,
	-0.127358,
	-0.149102,
	-0.0566378,
	0.00364704,
	0.127981,
	0.0895454,
	0.118196,
	0.186414,
	0.173566,
	0.205545,
	0.126499,
	0.145848,
	0.229975,
	-0.0476314,
	-0.0617295,
	-0.213118,
	-0.350795,
	0.134172,
	-0.138858,
	-0.0934605,
	0.143619,
	0.236166,
	0.401802,
	0.244152,
	-0.0813364,
	-0.131739,
	-0.613482,
	-0.714764,
	-0.318629,
	-0.123048,
	-0.032741,
	-0.0325491,
	0.123521,
	0.0862288,
	0.107363,
	0.146216,
	0.149033,
	0.15405,
	0.147677,
	0.149513,
	0.13913,
	0.13315,
	-0.317755,
	-0.341164,
	-0.112123,
	0.264856,
	0.155876,
	0.353462,
	0.341252,
	0.345332,
	0.347314,
	0.134553,
	-0.0905491,
	-0.106793,
	-0.470697,
	-0.764602,
	-0.37154,
	-0.0734513,
	-0.0288606,
	0.11885,
	0.136506,
	0.0871984,
	0.0862187,
	0.115959,
	0.113505,
	0.0794361,
	0.0933315,
	0.091633,
	0.0910652,
	0.0980995,
	-0.080447,
	-0.137338,
	-0.01104,
	0.0127194,
	0.163337,
	0.348724,
	0.375869,
	0.389048,
	0.437066,
	0.228783,
	0.104374,
	-0.0315779,
	-0.312082,
	-0.610293,
	-0.3078,
	-0.0412329,
	0.118833,
	0.176281,
	0.0546936,
	0.0916002,
	0.0924789,
	0.0959431,
	0.0918762,
	0.109027,
	0.180349,
	0.206229,
	0.130284,
	0.0974993,
	0.113837,
	0.0369211,
	-0.0265351,
	0.0541987,
	0.224697,
	0.162144,
	0.203076,
	-0.0432932,
	0.0947609,
	0.163738,
	0.0263036,
	-0.120727,
	-0.372673,
	-0.264066,
	0.0033469,
	0.14206,
	0.125105,
	0.0818518,
	0.0363367,
	-0.0379173,
	-0.00366028,
	-0.0381785,
	0.00947358,
	-0.0656137,
	-0.14863,
	-0.169724,
	-0.238472,
	-0.383197,
	-0.30959,
	-0.155051,
	-0.261969,
	-0.23101,
	-0.138187,
	-0.108345,
	-0.136157,
	-0.399428,
	-0.10806,
	-0.272693,
	-0.0496949,
	-0.343048,
	-0.446258,
	-0.0414184,
	0.0187419,
	0.159879,
	0.17961,
	-0.00391575,
	-0.0611062,
	-0.0942402,
	-0.0668206,
	-0.0765471,
	-0.09271,
	-0.111536,
	-0.069555,
	-0.104889,
	-0.0203167,
	0.0190183,
	0.0722424,
	0.0603594,
	0.025695,
	-0.0577884,
	-0.203789,
	-0.16842,
	-0.196248,
	-0.190801,
	-0.0997424,
	-0.22235,
	0.169286,
	0.0913904,
	-0.123993,
	0.201421,
	0.1285,
	0.0882279,
	0.0240695,
	-0.072075,
	-0.239942,
	-0.460397,
	-0.0892252,
	-0.355242,
	-0.357744,
	-0.31753,
	-0.193344,
	-0.122571,
	0.134776,
	-0.140893,
	-0.468827,
	-0.055398,
	0.112824,
	-0.126368,
	-0.131395,
	-0.30084,
	-0.152319,
	-0.381668,
	-0.191693,
	-0.657334,
	-0.0895416,
	-0.292602,
	-0.161351,
	-0.0533248,
	-0.40355,
	-0.0430606,
	0.13269,
	-0.289556,
	-0.0207508,
	-0.0546779,
	-0.0790636,
	-0.132153,
	-0.101895,
	-0.0539425,
	-0.0854237,
	-0.0762737,
	-0.130497,
	-0.121748,
	-0.0866842,
	-0.117308,
	-0.116084,
	-0.0973837,
	-0.0938844,
	-0.0564107,
	-0.0644812,
	-0.193189,
	-0.0309085,
	-0.284376,
	-0.0104578,
	-0.196478,
	-0.0570047,
	0.204465,
	0.0409007,
	-0.0448747,
	-0.134101,
	-0.0804514,
	-0.00427278,
	-0.0171318,
	-0.0083039,
	-0.0162419,
	-0.0923934,
	0.00923299,
	0.0581827,
	0.0778745,
	0.0782992,
	0.00887933,
	0.0810728,
	0.0841975,
	0.0817231,
	0.046851,
	0.0932431,
	0.104347,
	0.064894,
	0.0477005,
	0.0684375,
	-0.0745491,
	-0.0197656,
	0.0369745,
	0.211815,
	-0.117317,
	-0.183169,
	-0.451091,
	-0.0166101,
	-0.159386,
	0.00896418,
	-0.0168485,
	-0.0157937,
	-0.00596471,
	0.0181669,
	0.0137873,
	0.00896504,
	0.00971436,
	0.00815392,
	0.00885123,
	0.009569,
	0.009485,
	0.00824712,
	0.00480496,
	0.00383862,
	-0.0147628,
	-0.0107514,
	0.0202097,
	0.0442295,
	-0.0720572,
	0.0396568,
	0.0535507,
	0.249333,
	0.053624,
	-0.15731,
	-0.173518,
	-0.248202,
	-0.19632,
	0.00191519,
	-0.00683799,
	0.00426137,
	-0.091879,
	-0.0350175,
	0.0703482,
	0.0675928,
	0.0608465,
	0.0536307,
	-0.0223961,
	-0.140992,
	-0.141753,
	0.00999706,
	-0.0162716,
	-0.0189219,
	-0.0183109,
	-0.0106202,
	-0.00544255,
	0.0213305,
	-0.0370853,
	0.0400878,
	-0.102224,
	0.184442,
	0.194532,
	-0.0698479,
	-0.089339,
	-0.169446,
	-0.140884,
	0.0158628,
	0.0712815,
	0.0494017,
	0.0770139,
	0.133666,
	0.272234,
	0.259454,
	0.190765,
	0.145851,
	-0.0839062,
	-0.130046,
	-0.123079,
	0.0447774,
	0.0125891,
	-0.0166044,
	-0.016038,
	-0.0118883,
	-0.00416346,
	-0.0334846,
	-0.116304,
	-0.0271845,
	0.0690237,
	0.157711,
	0.135296,
	0.0850992,
	-0.21593,
	0.0790732,
	-0.063855,
	0.089173,
	0.259784,
	0.295883,
	0.165072,
	0.079097,
	0.397605,
	0.431321,
	0.411546,
	0.0392846,
	0.0124942,
	-0.279357,
	-0.166764,
	-0.137306,
	0.0691418,
	0.00143702,
	-0.00662727,
	-0.0118908,
	-0.0279761,
	-0.0673395,
	-0.151886,
	-0.0693031,
	-0.0472958,
	-0.0845471,
	0.148493,
	0.0302661,
	-0.123482,
	-0.0937676,
	-0.428787,
	-0.112765,
	0.0536764,
	0.121826,
	0.262224,
	0.0967502,
	0.0566968,
	0.263232,
	-0.00305616,
	-0.0785267,
	-0.316354,
	0.186639,
	-0.165671,
	-0.510534,
	-0.38467,
	-0.225555,
	0.0562767,
	0.0284077,
	0.00594846,
	-0.131778,
	-0.192004,
	-0.232001,
	0.0489246,
	0.0178095,
	0.128196,
	0.0290393,
	-0.134711,
	-0.197838,
	-0.308141,
	-0.0178084,
	0.0669625,
	-0.0927713,
	0.0548681,
	0.21703,
	0.3925,
	0.239583,
	0.248801,
	-0.132344,
	-0.0988484,
	-0.0850819,
	-0.17563,
	-0.272759,
	-0.0614835,
	0.0447028,
	0.127878,
	0.0815341,
	0.0110324,
	0.0703325,
	-0.0654348,
	-0.00453582,
	0.0861279,
	-0.0604468,
	0.112815,
	0.0227474,
	-0.0316226,
	-0.0947301,
	-0.165009,
	-0.0281845,
	-0.116375,
	-0.263955,
	-0.16008,
	0.00518768,
	0.321201,
	0.252867,
	0.0391142,
	-0.27296,
	0.176422,
	-0.0190399,
	0.0788622,
	-0.0792457,
	0.159371,
	0.336967,
	0.146152,
	0.0704919,
	0.019674,
	0.176749,
	0.19889,
	0.124103,
	0.0749582,
	-0.057542,
	0.115852,
	0.0620642,
	-0.00766732,
	0.0235635,
	-0.214578,
	-0.0207683,
	-0.17208,
	-0.401382,
	-0.249447,
	0.0143884,
	-0.284841,
	-0.164375,
	-0.628567,
	-0.279028,
	-0.172552,
	0.229336,
	0.125735,
	0.175526,
	0.577838,
	0.411187,
	0.209312,
	0.0287087,
	0.0540313,
	0.028258,
	0.179161,
	0.179208,
	0.212276,
	0.0102442,
	0.129008,
	-0.119334,
	-0.102904,
	0.0286295,
	-0.241852,
	0.0183082,
	-0.185387,
	-0.435561,
	-0.286291,
	-0.64708,
	-0.810563,
	-0.970767,
	-0.642429,
	-0.472735,
	-0.234225,
	0.147788,
	0.290787,
	0.549479,
	0.543386,
	0.422494,
	0.228489,
	0.0655053,
	0.0346568,
	0.182314,
	0.042891,
	0.0702002,
	0.166333,
	0.0840275,
	0.142199,
	0.00523947,
	-0.0122033,
	-0.10727,
	-0.198484,
	0.0491141,
	-0.18841,
	-0.386227,
	-0.533822,
	-0.627781,
	-1.24368,
	-0.74801,
	-0.865179,
	-0.751734,
	-0.347542,
	0.347386,
	0.657278,
	0.544575,
	0.50496,
	0.394091,
	0.163809,
	0.0709074,
	0.0269509,
	0.0833742,
	0.0302758,
	0.101203,
	0.0573791,
	-0.0536468,
	0.0817273,
	0.195022,
	0.0334464,
	0.12428,
	-0.129647,
	0.0139528,
	-0.153099,
	-0.336592,
	-0.794575,
	-0.934468,
	-1.08239,
	-0.767944,
	-0.907255,
	-0.928571,
	-0.213466,
	0.355349,
	0.501341,
	0.547997,
	0.435708,
	0.23941,
	0.123528,
	0.0728819,
	0.016129,
	0.130693,
	0.29059,
	0.0747654,
	0.0576681,
	-0.0183336,
	0.104361,
	0.184657,
	0.141538,
	0.104676,
	0.047526,
	-0.0209858,
	-0.161996,
	-0.37217,
	-0.803911,
	-0.94581,
	-0.946413,
	-0.899214,
	-0.37571,
	-0.685267,
	-0.159307,
	0.0981618,
	0.303835,
	0.481829,
	0.375725,
	0.200508,
	0.0912776,
	0.0661623,
	0.0492831,
	0.123775,
	0.322949,
	0.0959881,
	0.0102298,
	-0.0264938,
	0.0762789,
	0.105019,
	0.108392,
	0.0469672,
	-0.0622015,
	0.0491699,
	-0.156226,
	-0.36318,
	-0.750089,
	-0.474689,
	-0.684293,
	-0.479999,
	-0.835949,
	-0.246242,
	-0.365016,
	-0.109996,
	0.0723461,
	0.248458,
	0.362138,
	0.204295,
	0.124073,
	0.0869534,
	0.0776623,
	0.192234,
	0.28155,
	-0.0273582,
	-0.052468,
	-0.00349118,
	0.0116504,
	0.111521,
	0.0102508,
	0.000303059,
	-0.144344,
	0.0926085,
	-0.105839,
	-0.347259,
	-0.281589,
	-0.245455,
	0.167552,
	-0.27853,
	-0.252879,
	-0.149433,
	-0.120257,
	-0.126454,
	-0.231684,
	0.0158204,
	0.359897,
	0.277235,
	0.0155659,
	-0.0547763,
	-0.0806152,
	0.153658,
	0.183563,
	0.0258729,
	0.00431662,
	0.00205419,
	0.00879652,
	0.0843672,
	0.0220361,
	0.0405424,
	0.0903807,
	0.0573841,
	-0.0935181,
	-0.125725,
	0.0580876,
	0.17593,
	0.129351,
	0.0937025,
	-0.0979977,
	-0.156035,
	0.0576587,
	-0.292915,
	-0.342737,
	-0.32203,
	0.210609,
	0.3592,
	0.00565931,
	-0.0924222,
	-0.0975632,
	0.0287614,
	0.110633,
	-0.0384523,
	-0.0666273,
	-0.00567667,
	-0.00858846,
	0.0747707,
	0.0968594,
	0.0709403,
	0.0396664,
	0.111267,
	-0.0609794,
	-0.0479656,
	0.177748,
	0.120586,
	0.13716,
	0.367982,
	0.0721845,
	0.161697,
	-0.249634,
	0.12069,
	-0.475646,
	-0.381741,
	-0.0194059,
	0.0784862,
	-0.281686,
	-0.405505,
	-0.346066,
	-0.12702,
	0.27514,
	0.004824,
	0.00161392,
	-0.00744691,
	0.00372393,
	0.124132,
	0.113978,
	0.118408,
	0.0953933,
	0.0998333,
	0.0365038,
	0.13418,
	0.157791,
	-0.071045,
	-0.124812,
	0.271854,
	0.424257,
	0.308926,
	0.263351,
	0.242296,
	-0.109926,
	-0.153521,
	-0.449923,
	-0.459086,
	-0.255556,
	-0.0862565,
	-0.50504,
	-0.523463,
	-0.0786806,
	-0.162991,
	0.162093,
	-0.00590675,
	-0.00993662,
	0.144805,
	0.169087,
	0.148575,
	0.082922,
	0.19703,
	0.00691298,
	0.0525773,
	-0.0327815,
	-0.206332,
	-0.186721,
	0.194476,
	0.337688,
	0.474473,
	0.432484,
	0.199121,
	0.321719,
	0.0697237,
	-0.388233,
	-0.613107,
	-0.739247,
	-0.267436,
	-0.688753,
	-0.475563,
	-0.034043,
	0.210923,
	0.12853,
	0.00359219,
	-0.00289972,
	0.14676,
	0.0865912,
	0.156496,
	-0.0890713,
	0.039402,
	-0.209927,
	-0.154397,
	-0.117904,
	0.0563587,
	-0.180485,
	0.138523,
	0.283058,
	0.402415,
	0.242932,
	0.304763,
	0.141336,
	0.0828173,
	-0.290547,
	-0.524361,
	-0.622726,
	-0.389091,
	-0.609149,
	-0.607768,
	-0.25241,
	-0.197119,
	0.0935221,
	-0.127276,
	0.0539704,
	0.0735727,
	0.0316462,
	0.111789,
	0.000487892,
	0.0987026,
	0.0574041,
	0.082513,
	-0.111558,
	-0.122431,
	-0.0135373,
	0.17535,
	0.185244,
