//SIDE: 28
float Network_weights1[25088] = {
	-0.0727765,
	1.22788,
	0.999555,
	-0.676588,
	0.851862,
	-0.345034,
	0.0180255,
	0.388784,
	-0.382004,
	-0.229941,
	0.374978,
	1.16194,
	0.475329,
	0.714698,
	0.614911,
	1.17983,
	0.548587,
	1.01155,
	1.19387,
	-0.504831,
	1.05877,
	-0.313206,
	-0.492562,
	0.764595,
	0.138347,
	-0.110108,
	-0.434514,
	0.134219,
	-0.95109,
	0.598409,
	0.425575,
	-0.0456068,
	-0.333046,
	-0.515392,
	0.313863,
	0.0170407,
	-0.53342,
	0.155763,
	0.146914,
	-0.157094,
	-1.43938,
	-0.358606,
	-0.759023,
	-0.580236,
	-0.606959,
	-0.430153,
	0.0436942,
	0.0195658,
	0.497555,
	-0.999306,
	-0.898891,
	-0.177155,
	0.516735,
	0.593167,
	-0.0318904,
	-0.064582,
	0.307698,
	1.5403,
	0.639287,
	0.0789513,
	1.10984,
	0.658187,
	0.528825,
	-0.408764,
	-0.154765,
	0.647519,
	0.123266,
	-0.349593,
	-1.60069,
	-1.15433,
	-0.859215,
	-0.901308,
	-0.645206,
	-1.2139,
	-1.47112,
	0.246739,
	-0.649595,
	-0.0486792,
	0.267379,
	0.160684,
	0.625472,
	-0.096648,
	-0.22796,
	-0.449631,
	1.56862,
	0.405116,
	-0.571825,
	0.0589667,
	-0.24897,
	0.297008,
	0.629269,
	1.208,
	-0.580498,
	-0.288321,
	0.551662,
	0.0460833,
	-1.45596,
	-1.07263,
	-1.93133,
	-0.885803,
	-0.043791,
	-0.665845,
	-0.916016,
	-1.6834,
	-0.574349,
	-0.250656,
	0.724397,
	-0.105667,
	1.19942,
	0.560718,
	-0.244786,
	1.37339,
	1.57603,
	1.90784,
	0.896161,
	0.270812,
	0.122141,
	-0.367968,
	0.0961832,
	-1.5111,
	-0.789594,
	-0.386003,
	0.096902,
	0.389996,
	-1.05193,
	0.209981,
	-1.89121,
	-1.38853,
	0.438363,
	0.286445,
	-0.577502,
	-0.406443,
	-0.267481,
	-0.639431,
	-1.51501,
	-0.19947,
	0.430113,
	1.74172,
	-0.481822,
	0.161473,
	1.36997,
	0.452409,
	1.15217,
	0.389176,
	-0.458329,
	-0.901243,
	0.047525,
	-0.504001,
	-0.0298156,
	-1.09489,
	-0.945396,
	-1.07003,
	-1.29457,
	-1.07874,
	-0.78004,
	-0.578079,
	-0.241718,
	-0.0837103,
	-1.47083,
	-1.04841,
	-0.600965,
	-0.755432,
	-1.32557,
	-0.698274,
	-0.142557,
	0.559248,
	-1.0074,
	1.21356,
	1.16116,
	-0.169857,
	0.892951,
	0.976626,
	0.0396077,
	-0.847183,
	-0.437319,
	-0.728795,
	-0.697274,
	-0.821553,
	-0.746898,
	-1.5653,
	-2.40027,
	-1.20961,
	-0.954096,
	-0.724008,
	-0.139591,
	-0.631796,
	-0.0370771,
	-1.91237,
	-2.35709,
	-1.50299,
	0.258981,
	0.476605,
	-0.28888,
	0.534842,
	1.16627,
	-0.913851,
	0.870807,
	-0.155363,
	0.822984,
	0.899998,
	0.274077,
	0.501983,
	0.26653,
	0.238697,
	-0.653134,
	-0.242382,
	-1.97509,
	-1.85598,
	-1.26548,
	-0.911066,
	-0.305091,
	0.59442,
	1.21014,
	0.830154,
	-0.104479,
	-1.82842,
	-1.50066,
	-2.20252,
	-0.398219,
	0.733766,
	0.547892,
	0.11437,
	0.0674179,
	-0.0339811,
	0.599693,
	0.612921,
	-0.170069,
	0.769969,
	-0.643742,
	-0.224433,
	0.487456,
	0.345031,
	-0.60721,
	-1.34196,
	-2.40931,
	-1.72075,
	-0.795585,
	-0.144039,
	0.644785,
	1.10108,
	1.2164,
	0.907128,
	0.182564,
	-0.0783831,
	0.0869856,
	-0.429178,
	-0.41667,
	0.613592,
	1.28918,
	1.66689,
	0.263533,
	0.601758,
	0.197642,
	-0.577067,
	0.109859,
	0.493049,
	0.169292,
	-0.0520222,
	0.659697,
	-0.846901,
	-0.849563,
	-1.329,
	-1.06257,
	-0.839077,
	-0.487301,
	0.0284466,
	-0.0297017,
	0.873149,
	0.931,
	0.801938,
	0.0729699,
	0.0353817,
	-1.36966,
	-1.40172,
	-0.680662,
	0.560154,
	1.21009,
	1.20595,
	1.4635,
	0.79468,
	-0.221285,
	0.719918,
	0.41861,
	1.20735,
	0.23525,
	0.532851,
	-0.0618856,
	-0.704641,
	-1.18189,
	-1.92256,
	-1.19686,
	-0.028756,
	0.0925998,
	-0.0802369,
	-0.388349,
	0.336005,
	1.24386,
	0.933233,
	0.324261,
	-0.734183,
	-0.734131,
	-1.90537,
	-1.42571,
	0.674338,
	1.87887,
	1.36073,
	0.954826,
	2.32979,
	-0.211364,
	0.205855,
	0.34881,
	1.47683,
	1.05593,
	0.223357,
	-1.02181,
	-1.71165,
	-1.3018,
	-1.56787,
	-0.0627667,
	-0.232897,
	-0.552945,
	-0.672375,
	-0.8184,
	0.176078,
	1.12642,
	1.11525,
	0.605942,
	0.41805,
	-0.194854,
	-0.283264,
	-1.02367,
	0.932291,
	2.00883,
	0.297308,
	0.638771,
	1.64,
	0.10373,
	-0.759048,
	-0.118776,
	0.606987,
	-0.837874,
	-0.761182,
	-1.72537,
	-1.64126,
	-1.27033,
	-0.935207,
	0.480386,
	-0.431918,
	-1.17965,
	-0.460881,
	-0.516052,
	-0.709842,
	0.520328,
	1.34918,
	0.675991,
	1.05037,
	-0.0268776,
	-0.0995891,
	0.523738,
	-0.809299,
	0.338332,
	1.20541,
	0.927632,
	2.48743,
	-0.268901,
	0.0862916,
	-0.973036,
	0.0978064,
	-0.337786,
	-0.947179,
	-2.09629,
	-0.439916,
	-1.13393,
	-1.11392,
	0.421067,
	0.361339,
	-0.771621,
	0.467442,
	0.237558,
	0.240455,
	0.600107,
	1.31931,
	1.46644,
	1.25757,
	-0.742658,
	0.293776,
	-0.609112,
	0.323624,
	-0.603497,
	1.67073,
	0.719869,
	1.42448,
	0.737503,
	-0.256129,
	-0.814366,
	-0.349737,
	0.0357624,
	-0.761679,
	-1.42012,
	-0.30194,
	-0.49962,
	-0.975507,
	0.419177,
	0.717803,
	-0.281711,
	0.737022,
	1.19456,
	0.53884,
	0.274839,
	1.61947,
	1.79758,
	1.53255,
	-0.0972948,
	-0.723736,
	-1.48239,
	-0.0498971,
	0.120669,
	0.99817,
	0.529003,
	1.19398,
	0.161014,
	-0.6693,
	-0.637515,
	-1.34446,
	-0.456571,
	-0.740173,
	-0.460742,
	-0.0149631,
	-0.89269,
	-1.08583,
	0.194249,
	1.05485,
	-0.0400313,
	0.549674,
	0.837148,
	0.485248,
	-0.186405,
	1.00748,
	1.96089,
	1.04845,
	0.356274,
	-0.810778,
	-1.25778,
	-0.38921,
	-0.126703,
	0.613645,
	0.347325,
	0.183816,
	0.668538,
	-0.134821,
	-1.45354,
	-1.19674,
	-1.19632,
	-0.857333,
	-0.86203,
	-0.541282,
	-1.42325,
	-1.79824,
	-0.0932442,
	0.885112,
	0.954515,
	1.09508,
	0.857511,
	0.913148,
	-0.307254,
	0.791739,
	1.28355,
	0.417944,
	-0.141046,
	-0.465353,
	-0.294453,
	0.0771652,
	0.83369,
	1.14928,
	-0.73797,
	0.0998848,
	1.03735,
	0.931446,
	0.239312,
	-0.502633,
	-1.03987,
	-0.654189,
	-0.283751,
	-1.07818,
	-0.133692,
	-0.565625,
	-0.099361,
	1.18881,
	1.44149,
	1.41555,
	1.12146,
	0.485909,
	0.042252,
	-0.366232,
	-0.569573,
	0.975617,
	0.78343,
	0.314915,
	-0.689953,
	-0.475241,
	0.533117,
	0.0308314,
	-0.0518473,
	-0.628192,
	0.280494,
	-0.781499,
	-0.44251,
	-0.313857,
	-0.529557,
	-1.23677,
	-0.592467,
	0.0490311,
	-0.333132,
	0.873005,
	0.990149,
	1.46043,
	1.48352,
	1.24892,
	0.440106,
	0.0947963,
	-0.4352,
	-1.22106,
	-1.01649,
	0.314705,
	0.117771,
	0.103858,
	0.30494,
	-0.744928,
	-0.0347471,
	-1.22071,
	-0.617111,
	-1.47457,
	0.754475,
	0.04839,
	0.241538,
	-1.61325,
	0.276985,
	-0.394361,
	0.12775,
	-0.0236769,
	0.75071,
	1.63714,
	1.47812,
	1.65132,
	1.92739,
	0.91184,
	0.279757,
	-0.275063,
	-0.921724,
	-1.28323,
	-0.684908,
	0.466951,
	0.0117018,
	-0.08827,
	-0.203669,
	0.0903197,
	-0.703394,
	-0.884179,
	0.279226,
	-1.35351,
	-0.690969,
	-0.224246,
	-0.178588,
	-1.50019,
	-0.667477,
	0.0632406,
	0.989921,
	1.98535,
	1.15871,
	1.52928,
	2.0321,
	1.55309,
	1.00064,
	0.753128,
	-0.521898,
	-1.4613,
	-0.841773,
	-0.608316,
	-0.297929,
	-0.280611,
	0.277717,
	0.193591,
	-0.34234,
	0.373545,
	-1.15744,
	-0.85186,
	-0.578154,
	-0.524724,
	-0.238009,
	-0.902578,
	-1.0253,
	0.167424,
	1.10571,
	0.608345,
	1.77644,
	2.11116,
	2.12154,
	1.84979,
	2.08829,
	0.330407,
	-0.108396,
	-0.510057,
	-1.95869,
	-1.6352,
	-1.17782,
	-0.933224,
	0.354543,
	0.314074,
	-0.0500907,
	1.69652,
	0.199784,
	-0.935184,
	-1.81543,
	-1.79223,
	-1.30129,
	-0.445832,
	-0.806515,
	1.46668,
	0.383198,
	-0.565883,
	1.33211,
	1.15806,
	0.47309,
	1.90984,
	1.23637,
	1.62445,
	0.99752,
	-0.00871092,
	-0.36246,
	-0.775284,
	-2.32685,
	-0.926329,
	-0.579761,
	0.143787,
	0.767078,
	0.443086,
	0.855516,
	1.10612,
	0.373318,
	-0.206036,
	-0.130245,
	-1.61083,
	-1.20887,
	-0.270371,
	-0.990132,
	0.0566136,
	0.497173,
	1.22492,
	0.447011,
	0.855661,
	2.24965,
	1.19777,
	1.3491,
	0.685422,
	-0.491885,
	-0.665882,
	-0.852127,
	-0.933526,
	-2.14386,
	-1.30165,
	-0.919213,
	0.598653,
	0.495104,
	0.666492,
	0.686447,
	0.566534,
	-0.595574,
	-0.555147,
	-1.58585,
	-0.996301,
	-1.17476,
	-1.16532,
	-1.57682,
	-0.564191,
	0.557691,
	0.689078,
	1.03341,
	0.940105,
	1.24752,
	1.43198,
	1.09583,
	-0.5177,
	-0.853561,
	-0.579256,
	-0.877544,
	-1.2908,
	-0.574876,
	-1.28787,
	-0.554986,
	0.917092,
	0.582099,
	0.326999,
	0.705852,
	0.488575,
	-0.120631,
	-0.634008,
	-1.7325,
	-1.23939,
	-0.34552,
	-0.0810431,
	0.0867501,
	1.06365,
	-0.314241,
	0.624101,
	0.164383,
	1.77629,
	1.46711,
	0.939432,
	0.258071,
	1.11792,
	0.670955,
	-1.04374,
	-0.229028,
	-0.477522,
	-0.486355,
	-0.037741,
	-0.33289,
	1.31994,
	0.520304,
	0.416494,
	0.571782,
	0.576131,
	0.3041,
	-0.65406,
	-0.940214,
	-0.647079,
	-0.204386,
	-0.58447,
	-0.338306,
	-0.318264,
	0.558085,
	0.874097,
	1.00211,
	1.17615,
	0.151074,
	0.0171126,
	-0.191408,
	0.387067,
	1.09249,
	0.19477,
	-1.34161,
	-0.275012,
	0.33663,
	1.31637,
	0.890296,
	0.671478,
	0.14715,
	-0.0544787,
	-0.313678,
	-1.10666,
	-0.59473,
	-1.99952,
	-1.43652,
	-1.56658,
	-0.350293,
	-0.37798,
	-0.0438644,
	0.0187073,
	0.00805833,
	0.926359,
	1.59991,
	0.750825,
	0.571608,
	-0.306846,
	1.41631,
	0.658089,
	0.654196,
	1.24222,
	1.37181,
	1.4832,
	0.544937,
	0.859962,
	0.956338,
	0.417471,
	0.14909,
	0.21249,
	-0.250296,
	-0.588126,
	-0.903621,
	-1.77795,
	-1.40311,
	-0.0178984,
	-1.6277,
	-1.34588,
	-0.642353,
	-0.0973883,
	0.751173,
	0.125859,
	0.620368,
	0.421424,
	0.147705,
	0.936544,
	0.683754,
	0.0513747,
	0.889949,
	0.509215,
	0.0488135,
	1.14205,
	0.779583,
	1.27449,
	0.941782,
	0.540205,
	0.415288,
	0.395723,
	0.290119,
	0.622225,
	0.539288,
	0.815085,
	1.03042,
	0.621795,
	-0.0561136,
	1.05744,
	0.222762,
	0.527602,
	0.304508,
	1.10226,
	0.604546,
	-0.0830652,
	-0.26469,
	0.500464,
	0.230229,
	0.145386,
	0.7549,
	0.371044,
	0.925288,
	-0.501836,
	-0.36607,
	1.07067,
	-0.620493,
	0.556787,
	-0.0618667,
	0.450912,
	-0.122282,
	0.74616,
	1.22661,
	1.39185,
	1.01059,
	-0.104639,
	-0.239685,
	-0.662173,
	1.33857,
	0.467283,
	0.892862,
	0.543511,
	-0.19395,
	0.0532864,
	-0.216508,
	-0.36994,
	-0.602669,
	-0.376114,
	-1.03706,
	-1.27488,
	-0.698258,
	-0.93373,
	-1.6037,
	-0.914975,
	-0.951793,
	-0.00934944,
	0.171401,
	0.590964,
	0.537067,
	-0.647816,
	0.747332,
	1.45519,
	0.967356,
	0.792149,
	0.0791305,
	0.817217,
	-1.20287,
	-0.520672,
	0.30545,
	-0.603075,
	-1.91647,
	-0.426211,
	-1.29604,
	-0.884614,
	-2.03109,
	-0.94414,
	-1.53659,
	-2.44029,
	-1.38501,
	-1.74056,
	-1.14089,
	-1.00217,
	-2.03392,
	-0.591684,
	-0.718096,
	0.258503,
	-0.0982527,
	0.186493,
	0.148782,
	-0.818395,
	1.2407,
	0.0913179,
	1.06775,
	-0.0868868,
	-0.414497,
	-0.399494,
	-0.630642,
	-1.42701,
	-1.98999,
	-0.803393,
	-1.36465,
	-0.948093,
	-1.62218,
	-1.47439,
	-2.11122,
	-2.28271,
	-2.51562,
	-1.96904,
	-1.65405,
	-1.48678,
	-0.764858,
	-1.63648,
	-1.98508,
	0.0135673,
	-0.091424,
	-0.816802,
	-0.447424,
	-0.360699,
	0.562259,
	-0.198591,
	-0.370815,
	0.444159,
	-0.868999,
	-0.442659,
	-1.27402,
	-0.750165,
	-0.715244,
	-1.19678,
	-0.868229,
	-0.974501,
	-1.41218,
	-0.986359,
	-1.33178,
	-1.58369,
	-1.70033,
	-0.955427,
	-0.361723,
	-0.987234,
	-2.10099,
	-0.68235,
	-0.648796,
	-0.652365,
	-0.537118,
	-0.0666124,
	-1.07355,
	-0.756989,
	0.342017,
	0.201068,
	-0.341315,
	-0.751842,
	-0.789528,
	-0.302386,
	-0.830242,
	-0.375405,
	-0.504955,
	-0.702525,
	0.200262,
	-0.905114,
	0.180199,
	0.0239591,
	-0.107176,
	-0.16267,
	0.127939,
	0.129745,
	0.477821,
	0.625303,
	-0.158532,
	-0.506248,
	-0.58335,
	-0.903387,
	-0.594658,
	-0.249107,
	-0.0114152,
	0.420922,
	-0.466785,
	0.526909,
	0.307443,
	0.065025,
	-0.656334,
	0.379565,
	0.700953,
	-0.409955,
	0.0279011,
	0.144946,
	0.156554,
	0.749915,
	1.11243,
	1.49513,
	1.03659,
	1.07075,
	0.669812,
	0.637807,
	0.229951,
	0.861627,
	0.783233,
	1.70826,
	0.431359,
	0.592242,
	0.701177,
	-0.610942,
	-0.600065,
	-0.702547,
	-0.439495,
	0.678795,
	0.33225,
	1.11614,
	0.0535405,
	0.542982,
	0.0862215,
	0.354882,
	0.748464,
	0.316648,
	0.200927,
	0.414824,
	1.0164,
	1.5557,
	2.17931,
	1.73718,
	1.47643,
	1.32375,
	0.804228,
	0.875399,
	0.893243,
	1.6996,
	1.31424,
	0.947685,
	0.74472,
	0.386889,
	-0.0459399,
	0.0480104,
	-0.680242,
	0.584074,
	1.53063,
	-0.23895,
	0.213981,
	1.16052,
	-0.486424,
	0.645912,
	0.481644,
	-0.344201,
	-0.581443,
	-0.099261,
	0.707668,
	0.58312,
	1.3948,
	0.811158,
	0.785161,
	1.5486,
	1.07701,
	0.580534,
	0.864211,
	1.39496,
	0.931045,
	0.100636,
	-0.191669,
	0.60686,
	-0.151914,
	0.134663,
	-0.163236,
	-0.422156,
	-0.0109804,
	0.128061,
	-0.338851,
	1.29229,
	0.501406,
	-0.0351628,
	-0.0966855,
	0.0116425,
	-1.1126,
	0.0968231,
	-0.672479,
	-0.539641,
	-0.901303,
	-0.409312,
	-1.0632,
	-0.301561,
	0.509368,
	0.179489,
	-0.647048,
	-0.386177,
	0.193819,
	0.0484967,
	0.101914,
	0.822499,
	0.140529,
	0.967786,
	0.45456,
	-0.705889,
	0.22279,
	0.256899,
	0.183144,
	0.624176,
	0.265355,
	-0.40879,
	-0.444258,
	0.0255578,
	-1.16724,
	-0.692095,
	-0.923803,
	-1.04193,
	-1.78354,
	-1.47593,
	-1.7627,
	-1.93116,
	-1.37001,
	-1.0896,
	-1.51513,
	-1.06568,
	-0.717969,
	-0.249315,
	-0.925862,
	-0.927544,
	-0.692528,
	0.595992,
	-0.515906,
	0.461253,
	0.0826388,
	-0.382507,
	0.521968,
	0.303747,
	0.331999,
	-0.385766,
	-1.4112,
	0.127826,
	-1.04467,
	-0.605454,
	-1.59642,
	-1.60545,
	-2.01909,
	-1.88549,
	-2.4084,
	-2.35752,
	-1.50883,
	-2.09698,
	-2.24914,
	-1.42792,
	-1.5299,
	-1.25275,
	-1.05923,
	-0.781418,
	-0.478989,
	-0.0553129,
	0.162796,
	-0.0393254,
	0.562872,
	0.101998,
	1.48421,
	0.134761,
	-0.209422,
	-0.887944,
	-0.258434,
	-1.26419,
	-1.41591,
	-0.605424,
	-1.3725,
	-1.23489,
	-1.73378,
	-1.56056,
	-2.04015,
	-2.32622,
	-1.91492,
	-1.96998,
	-2.19673,
	-0.369723,
	-0.290984,
	-1.84324,
	-0.287466,
	-1.03659,
	-0.664236,
	-1.15641,
	0.00706509,
	0.536262,
	-1.12792,
	0.396148,
	0.586916,
	0.234608,
	-0.620896,
	0.72785,
	0.847007,
	0.796238,
	-0.147597,
	0.461287,
	-0.35806,
	-0.439671,
	-0.464535,
	-0.365542,
	-0.583297,
	-0.521739,
	-0.996873,
	-1.27963,
	-1.15057,
	-0.1953,
	0.472226,
	0.137931,
	-0.0207326,
	-0.348897,
	-0.0357623,
	0.130411,
	0.0749021,
	-0.325954,
	-1.16846,
	-0.440069,
	1.52373,
	0.548636,
	0.0254043,
	0.465823,
	1.14867,
	0.622606,
	0.749144,
	0.916248,
	0.769443,
	0.850697,
	0.651413,
	0.0780794,
	0.649619,
	1.08931,
	1.23125,
	-0.0148768,
	-0.264951,
	0.454602,
	0.223832,
	0.870872,
	0.501119,
	-0.828671,
	-1.07775,
	-0.451684,
	0.0123836,
	0.0426678,
	-0.275618,
	0.666417,
	0.246439,
	-0.171689,
	-0.306239,
	0.252275,
	0.65583,
	1.10352,
	1.38381,
	1.46681,
	1.24893,
	1.16343,
	1.30979,
	1.63746,
	1.97789,
	1.34681,
	1.00096,
	1.23703,
	1.29815,
	0.488209,
	0.676254,
	0.560429,
	-0.200416,
	-0.878227,
	0.213737,
	0.170794,
	0.111264,
	-0.370396,
	-0.0827774,
	-0.201226,
	0.250663,
	-0.582811,
	0.3982,
	0.868347,
	0.898731,
	1.80654,
	2.06723,
	2.49831,
	1.25658,
	2.02102,
	1.57724,
	1.82793,
	1.84262,
	1.76896,
	1.76724,
	1.91443,
	1.96647,
	1.82737,
	1.03417,
	0.702026,
	0.541233,
	-0.0140271,
	-0.3542,
	0.673861,
	0.0300289,
	0.69572,
	-0.594557,
	-0.608701,
	0.831347,
	0.855183,
	0.0657135,
	0.148057,
	0.540008,
	0.663313,
	1.74567,
	1.49613,
	1.32624,
	1.28618,
	1.11935,
	1.44953,
	1.67583,
	2.28624,
	1.88445,
	2.10588,
	1.90628,
	1.35445,
	1.71324,
	1.0577,
	1.71421,
	-0.178817,
	-0.0139805,
	0.0115243,
	0.0897171,
	-0.364912,
	-0.63467,
	0.59348,
	0.694184,
	1.18911,
	0.543742,
	0.558122,
	0.664807,
	-0.131113,
	0.20902,
	0.844362,
	0.190465,
	1.19715,
	0.42634,
	0.772339,
	0.847771,
	1.10337,
	0.81929,
	1.626,
	0.843601,
	1.22787,
	0.995438,
	0.650639,
	1.2004,
	0.515581,
	0.33524,
	0.828003,
	0.420025,
	0.356104,
	-0.138334,
	-0.093566,
	0.452221,
	-0.579527,
	-0.05095,
	0.0274521,
	0.178647,
	-0.227243,
	-0.668797,
	-0.222831,
	-1.53731,
	-0.852074,
	-1.13145,
	-0.409245,
	-0.69302,
	-1.20525,
	-0.282248,
	-1.15767,
	-0.930632,
	0.280385,
	0.014539,
	0.00727806,
	0.592867,
	-0.161622,
	0.0735383,
	0.709688,
	0.174911,
	0.156156,
	-0.144819,
	-0.231342,
	-0.453956,
	-0.384001,
	0.440812,
	-0.717588,
	-0.90822,
	-0.597579,
	-0.888742,
	-0.891764,
	-1.34972,
	-1.1447,
	-1.73607,
	-2.1121,
	-2.83422,
	-2.0905,
	-1.0182,
	-1.59615,
	-1.89483,
	-1.73262,
	-2.1026,
	0.0501521,
	-0.784672,
	-1.32766,
	-0.00123121,
	-0.109802,
	0.578463,
	0.17942,
	0.162485,
	0.400873,
	-0.651611,
	0.509743,
	0.562891,
	-0.364882,
	-0.167328,
	-1.34052,
	-1.22293,
	-2.0625,
	-0.686279,
	-0.630338,
	-2.38419,
	-2.1416,
	-3.08012,
	-2.7878,
	-2.9014,
	-2.27762,
	-1.58829,
	-1.80547,
	-1.25536,
	-0.789432,
	-0.199167,
	-0.537314,
	-0.249056,
	-0.145779,
	0.241367,
	-0.417987,
	-0.341757,
	0.565635,
	1.26465,
	-0.144877,
	0.569663,
	-0.0888709,
	0.0925961,
	0.378016,
	-1.02764,
	-1.03891,
	-1.59965,
	-1.18823,
	-1.76627,
	-2.77214,
	-2.35654,
	-1.74459,
	-0.722372,
	-1.24175,
	-1.15609,
	-0.720322,
	-0.6415,
	-0.306818,
	-0.201472,
	-0.711617,
	-0.999641,
	-1.06219,
	0.502325,
	-0.105107,
	-0.842571,
	-0.0231103,
	-0.142796,
	0.5106,
	1.51409,
	-0.0235771,
	-1.00971,
	0.348449,
	-0.373232,
	-0.299473,
	-0.293325,
	-0.845459,
	-0.750523,
	-1.01841,
	-0.660314,
	-1.14826,
	-0.965326,
	-1.34298,
	0.387964,
	0.324658,
	0.336783,
	0.518182,
	-0.446577,
	-0.36435,
	-0.664133,
	0.0261241,
	0.524456,
	0.35103,
	-0.21924,
	1.11535,
	-0.291238,
	0.876638,
	1.14961,
	0.737084,
	1.15055,
	0.883381,
	0.510218,
	0.484025,
	0.783692,
	1.41916,
	0.661441,
	1.29572,
	-0.266022,
	0.990126,
	0.152926,
	-0.203481,
	0.985584,
	0.792992,
	0.645008,
	0.356574,
	0.418903,
	-0.535242,
	-0.649207,
	0.238492,
	0.563136,
	0.863977,
	-0.151968,
	0.151658,
	0.620874,
	-0.565511,
	-0.123815,
	0.190535,
	0.753887,
	0.893736,
	-0.0536605,
	1.65861,
	1.37396,
	0.49002,
	1.22909,
	1.48399,
	1.56098,
	1.27633,
	1.53076,
	0.248801,
	1.48215,
	0.530969,
	0.208019,
	-0.321864,
	-0.541601,
	0.584549,
	-0.405233,
	-0.663061,
	-0.266541,
	0.211294,
	0.0528462,
	-0.981817,
	0.288081,
	0.433311,
	0.577108,
	0.178659,
	0.140877,
	0.197275,
	0.431706,
	1.53478,
	0.235145,
	0.337082,
	0.370135,
	0.269987,
	0.916253,
	0.405832,
	0.951031,
	-0.14824,
	0.619085,
	0.665638,
	0.410452,
	0.966756,
	0.192235,
	-0.347855,
	-0.0739195,
	0.641535,
	-0.268637,
	-0.595587,
	-0.163187,
	-1.23694,
	0.707346,
	0.905665,
	0.730355,
	-0.20693,
	-0.838195,
	0.366105,
	-0.76127,
	-0.481321,
	0.3148,
	-1.36541,
	-0.981859,
	-0.421658,
	0.328336,
	-0.512893,
	-0.027457,
	0.304271,
	0.458081,
	-0.142062,
	0.233226,
	0.576099,
	-0.170124,
	0.103088,
	1.12287,
	1.28597,
	-0.130252,
	-0.239464,
	-0.517051,
	0.875904,
	-0.113095,
	-0.173886,
	-0.232393,
	-0.612924,
	-0.576817,
	-0.0400291,
	-1.93323,
	-0.381674,
	-0.882695,
	-0.525124,
	0.31598,
	0.199589,
	0.0516388,
	0.825666,
	0.601812,
	0.735632,
	1.49777,
	0.429181,
	-0.33979,
	-0.114495,
	-1.31013,
	-1.06899,
	-1.03579,
	-0.643953,
	-0.637918,
	-0.169772,
	-0.79605,
	0.460599,
	0.485962,
	-0.0162208,
	0.622,
	-0.714863,
	-0.976824,
	0.147093,
	-0.900845,
	-1.15361,
	-0.0291776,
	-0.337343,
	0.419347,
	0.260241,
	-1.24809,
	-0.382521,
	0.404752,
	-0.99903,
	1.39094,
	-0.00411509,
	-0.11508,
	0.644963,
	0.225027,
	-0.597892,
	-0.115173,
	-0.0743086,
	-1.51471,
	-0.23768,
	-0.821908,
	-1.20315,
	-0.039861,
	-0.450636,
	-0.565111,
	-1.18675,
	-0.10101,
	0.0297937,
	0.0478467,
	-0.280843,
	-0.313624,
	-0.0529516,
	-0.493606,
	-0.911131,
	-0.130911,
	-0.623589,
	0.159674,
	-1.71695,
	-0.0532594,
	0.0596475,
	0.0332029,
	1.54448,
	1.7,
	1.10739,
	0.688549,
	0.186918,
	-0.027037,
	0.308852,
	-0.701677,
	-1.02773,
	1.18431,
	0.210368,
	-0.0201548,
	-1.01629,
	-0.359729,
	-0.495144,
	0.475558,
	-1.89438,
	-0.983221,
	-0.0832128,
	-1.10477,
	-0.415961,
	-0.55153,
	-0.75419,
	-0.855383,
	-1.14215,
	-1.66361,
	-0.233286,
	-0.546583,
	0.0716362,
	0.511004,
	0.436226,
	0.758677,
	0.188411,
	1.31187,
	0.524171,
	-0.512829,
	0.0345666,
	1.09776,
	0.0280146,
	0.647013,
	0.238806,
	-0.318951,
	0.380458,
	0.100941,
	-0.308533,
	-1.27299,
	0.020567,
	-0.192329,
	-0.0408379,
	-1.19851,
	-0.942257,
	-0.361029,
	-0.753977,
	-0.980713,
	0.0142729,
	0.503198,
	-0.15185,
	-0.566768,
	0.814681,
	-0.407545,
	-0.199781,
	0.610768,
	0.565359,
	-1.19057,
	-0.664079,
	0.733069,
	0.0385464,
	-0.225145,
	1.115,
	0.915758,
	2.21574,
	-0.25099,
	-0.771917,
	-0.316557,
	-0.686214,
	-1.09845,
	-0.717733,
	-1.64075,
	-0.972558,
	-2.48337,
	-2.70883,
	-2.59943,
	-2.09719,
	-0.606421,
	-1.32747,
	0.165724,
	0.4828,
	-0.209713,
	0.344659,
	0.199918,
	0.575003,
	0.180078,
	0.00646415,
	-0.437968,
	1.05058,
	-0.83874,
	-0.871753,
	0.972129,
	-0.0611717,
	-1.37834,
	-2.15317,
	-1.47093,
	-2.46674,
	-2.09458,
	-2.06732,
	-2.22688,
	-1.79482,
	-2.93745,
	-2.29981,
	-1.85242,
	-1.79811,
	-1.04229,
	-1.47452,
	-2.34933,
	-0.847344,
	-0.236778,
	0.326342,
	0.113664,
	-0.221166,
	-0.378561,
	-1.52832,
	-0.0954186,
	-0.176571,
	0.465985,
	-0.0836813,
	0.415081,
	-0.679699,
	-0.911188,
	-0.981286,
	-1.72191,
	-0.544165,
	-1.22003,
	0.029905,
	-0.773431,
	-0.656796,
	-1.67716,
	-1.45614,
	-1.62304,
	-0.369461,
	-0.957306,
	-2.08719,
	-2.28358,
	-0.970272,
	-0.570772,
	0.195709,
	0.297288,
	-0.410016,
	-1.48594,
	-0.606959,
	0.177942,
	-0.602851,
	-0.0371751,
	0.520479,
	-0.3223,
	0.683479,
	1.16768,
	0.845733,
	0.556444,
	0.302248,
	-0.365255,
	0.0317792,
	0.364569,
	0.353759,
	0.0199473,
	-0.314885,
	-0.613443,
	0.158037,
	1.07818,
	-0.368311,
	-0.642152,
	-1.45712,
	-1.4605,
	-0.490074,
	0.299594,
	0.0227934,
	-0.203395,
	-0.348619,
	-0.0740792,
	-0.603374,
	-0.151736,
	0.253854,
	-0.614982,
	1.30406,
	0.976082,
	0.959365,
	0.962437,
	1.22724,
	0.883155,
	1.35116,
	1.0078,
	0.295817,
	0.299465,
	0.4641,
	0.689078,
	0.531099,
	0.934308,
	0.214533,
	-0.474785,
	-0.589424,
	-0.0811306,
	-0.160208,
	-0.628102,
	-1.06083,
	-0.54921,
	0.887488,
	0.986906,
	-0.838344,
	0.243725,
	0.479341,
	1.23436,
	1.06984,
	0.470024,
	0.70456,
	1.55693,
	1.53412,
	0.930882,
	0.876982,
	1.38737,
	0.744668,
	0.758762,
	1.18499,
	1.0124,
	0.986757,
	1.49942,
	1.65204,
	1.11353,
	1.20765,
	2.50648,
	0.631985,
	-0.463726,
	-0.0826426,
	0.75486,
	0.513527,
	0.421165,
	-0.92315,
	0.255305,
	0.610249,
	0.500398,
	1.63473,
	1.55821,
	1.72738,
	2.6926,
	1.68357,
	2.07101,
	2.17735,
	2.20323,
	1.76411,
	1.99465,
	2.21119,
	2.04591,
	1.06104,
	0.782359,
	2.00133,
	1.82099,
	1.26703,
	1.33709,
	0.885299,
	0.83532,
	0.192357,
	1.11013,
	-0.423547,
	-0.344794,
	-0.528075,
	-0.324444,
	-0.761254,
	-0.524149,
	0.620164,
	1.24447,
	1.3269,
	1.40715,
	1.84327,
	1.74423,
	2.0093,
	2.05931,
	2.52127,
	2.18303,
	2.30897,
	2.02796,
	1.79352,
	1.83394,
	1.69563,
	1.64153,
	2.02776,
	1.27245,
	1.2699,
	1.61261,
	1.42673,
	1.38865,
	0.430692,
	-0.0337179,
	-0.493668,
	-1.32902,
	-0.0293058,
	-1.10612,
	0.0940376,
	-0.796423,
	0.275178,
	-0.177956,
	-0.0590246,
	0.607026,
	1.35151,
	0.798048,
	1.4096,
	1.67379,
	1.19186,
	1.4881,
	1.58231,
	1.7521,
	0.936025,
	0.703826,
	1.5579,
	0.688092,
	0.608346,
	0.515928,
	1.494,
	-0.243174,
	-0.225431,
	0.700391,
	-0.332166,
	-1.73814,
	-0.591564,
	-1.30658,
	-1.02251,
	-1.67258,
	-1.15784,
	-1.63189,
	-1.20888,
	-0.220961,
	0.136918,
	0.139121,
	0.394228,
	0.905689,
	-0.365129,
	-0.0209915,
	-0.390136,
	0.57169,
	0.592662,
	-0.58915,
	-0.293032,
	0.524003,
	-0.0308807,
	0.24525,
	-0.26091,
	-0.108488,
	-0.460156,
	0.326639,
	-0.254955,
	-1.09298,
	-1.17665,
	-0.812584,
	-1.2614,
	-0.923197,
	-0.525686,
	-1.28092,
	-1.66031,
	-1.26785,
	-1.33667,
	-0.632003,
	0.169795,
	-0.216538,
	-0.487893,
	-0.958312,
	-0.961158,
	-0.610111,
	-0.536408,
	-1.01139,
	-0.6014,
	-1.06278,
	-0.47204,
	-0.462769,
	-0.845014,
	-1.49082,
	-1.40203,
	-0.652768,
	0.167838,
	-1.18177,
	-0.974404,
	-1.04198,
	-1.49405,
	-1.77304,
	-0.549147,
	-0.779528,
	-1.27146,
	-2.00078,
	-1.78379,
	-1.42092,
	-1.59722,
	-1.37805,
	-1.14091,
	-1.32868,
	-1.32554,
	-1.38701,
	-0.640019,
	-0.7944,
	-0.0450761,
	-0.629524,
	-0.990533,
	-0.720234,
	-1.13065,
	-1.15489,
	-1.09081,
	-0.191629,
	0.727983,
	0.262387,
	-1.173,
	-0.577599,
	-0.697075,
	-1.02055,
	-1.0664,
	-0.668064,
	-1.56729,
	-1.36321,
	-1.74203,
	-1.46168,
	-2.44559,
	-2.52674,
	-1.37946,
	-1.87679,
	-1.82606,
	-0.844414,
	-1.53244,
	-1.80777,
	-2.34015,
	-2.26836,
	-1.60017,
	-1.21288,
	-2.05398,
	-1.67777,
	0.0569945,
	0.206449,
	1.66023,
	0.717356,
	-0.552037,
	-0.396218,
	-0.491732,
	-1.96012,
	-1.14931,
	-1.11069,
	-1.90294,
	-1.49177,
	-1.45812,
	-1.11549,
	-2.10163,
	-2.03001,
	-1.61686,
	-2.11687,
	-1.84322,
	-1.69797,
	-1.6766,
	-2.13927,
	-2.29941,
	-1.06783,
	-2.50554,
	-2.31952,
	-1.53889,
	-0.619468,
	-0.871019,
	0.155447,
	0.334654,
	0.029042,
	0.449916,
	0.532944,
	-0.401018,
	-0.689051,
	-0.195859,
	-0.786605,
	-1.04304,
	-1.33296,
	-1.37357,
	-1.33815,
	-1.54748,
	-1.21034,
	-0.924894,
	-1.0994,
	-0.0261884,
	-1.11339,
	-0.589918,
	-0.787143,
	-1.37773,
	-2.18808,
	-1.32587,
	-1.41416,
	-0.204571,
	-0.980899,
	-1.06746,
	0.485441,
	0.17759,
	-0.0720928,
	0.780892,
	0.278671,
	0.541385,
	0.276556,
	-0.0744712,
	-0.193598,
	-0.157559,
	0.211451,
	-0.364677,
	-0.29845,
	-0.519007,
	-0.298065,
	0.0593674,
	-0.448197,
	-0.426784,
	0.2364,
	-0.309713,
	-0.181973,
	0.240593,
	0.0681989,
	-0.606338,
	-0.158768,
	-0.288357,
	0.248383,
	0.858411,
	-1.01092,
	0.527788,
	-0.135841,
	1.96103,
	1.05485,
	0.518789,
	0.986401,
	0.61063,
	0.633339,
	0.135519,
	-0.0584715,
	0.195015,
	0.200382,
	0.318174,
	0.108473,
	0.735762,
	0.101975,
	0.71782,
	0.681252,
	0.840425,
	0.459039,
	-0.261968,
	0.402082,
	-0.684047,
	-0.504555,
	0.0488291,
	0.251848,
	0.929245,
	-0.537953,
	-0.0818228,
	0.392271,
	0.318778,
	1.47661,
	1.46886,
	1.60482,
	0.684393,
	0.927191,
	0.282151,
	-0.117785,
	0.642779,
	0.822861,
	0.962841,
	0.640622,
	0.248046,
	0.931623,
	0.916587,
	0.394782,
	0.220557,
	0.697663,
	0.709086,
	0.250665,
	0.495621,
	0.627763,
	0.646735,
	-0.38308,
	0.226157,
	0.754594,
	-0.727133,
	0.495071,
	-0.149319,
	0.668485,
	1.40275,
	1.23642,
	0.981441,
	1.23521,
	1.15363,
	1.72275,
	1.11093,
	1.36428,
	1.75895,
	1.86278,
	1.01354,
	1.01554,
	1.09471,
	0.971823,
	1.03986,
	0.533783,
	1.15115,
	0.248701,
	0.755601,
	-0.341667,
	0.689266,
	0.456266,
	0.0927514,
	-0.338485,
	-0.722009,
	-1.28736,
	-1.23013,
	-0.760323,
	0.0441529,
	0.532799,
	0.162728,
	0.598737,
	1.3427,
	1.1397,
	1.97388,
	1.32735,
	1.12416,
	1.37292,
	1.64237,
	0.999623,
	1.198,
	0.330685,
	0.539375,
	0.77825,
	1.43126,
	1.15831,
	0.396163,
	0.850676,
	1.80695,
	0.477629,
	0.295433,
	-0.386405,
	-1.54186,
	-0.224663,
	-0.680713,
	-1.08577,
	-1.04828,
	-1.01556,
	-0.0109159,
	-0.212494,
	0.479816,
	1.92909,
	1.72074,
	0.214823,
	0.971499,
	1.37642,
	1.3111,
	0.0727029,
	1.14505,
	1.42926,
	0.845711,
	0.773433,
	1.04436,
	1.36592,
	0.502414,
	0.247733,
	0.360501,
	0.849605,
	0.799812,
	-0.556587,
	0.0698251,
	-0.895742,
	-0.855602,
	0.628356,
	0.478338,
	-0.635724,
	-0.228341,
	-0.376838,
	0.533356,
	-0.026622,
	1.07633,
	1.3303,
	1.22884,
	1.6957,
	1.0584,
	0.634175,
	1.285,
	1.19514,
	0.630496,
	0.601816,
	0.481791,
	-0.129564,
	1.06073,
	0.251947,
	0.362156,
	0.751265,
	1.01574,
	-0.689117,
	-2.32186,
	-0.306642,
	-0.750964,
	0.819327,
	0.503516,
	0.263725,
	0.416186,
	0.0083789,
	-0.968721,
	-0.201165,
	-0.175737,
	-0.19933,
	-0.721413,
	-1.62861,
	0.172635,
	-0.604215,
	-0.839888,
	0.0158434,
	0.394504,
	-0.622539,
	-0.329657,
	-0.644138,
	0.248929,
	-0.61962,
	-1.38952,
	1.29937,
	1.00593,
	-0.933882,
	-0.96038,
	-0.985222,
	-0.415908,
	0.324233,
	0.314564,
	1.14626,
	-0.424804,
	-0.498994,
	-0.435207,
	0.0419403,
	0.0660952,
	0.572937,
	-0.0515249,
	-0.0144375,
	-0.925804,
	0.007189,
	0.340987,
	1.18517,
	1.1503,
	1.19262,
	0.380966,
	-0.984283,
	-0.622092,
	-0.447677,
	0.132952,
	0.946044,
	0.809719,
	0.193405,
	-0.938238,
	0.189858,
	0.479717,
	0.833522,
	0.473637,
	-0.151456,
	-0.753467,
	-0.964649,
	-0.19502,
	0.749164,
	0.896294,
	1.20319,
	-0.803524,
	-1.61986,
	-1.36768,
	-1.30391,
	-0.717229,
	1.18737,
	0.561107,
	0.45556,
	0.476204,
	-0.772598,
	-1.12598,
	-1.55874,
	0.263109,
	1.26142,
	0.874752,
	-1.31575,
	-0.165881,
	0.65287,
	1.65353,
	0.934223,
	0.270543,
	-0.384718,
	-1.21874,
	0.0957677,
	0.729286,
	0.813971,
	1.85332,
	0.239786,
	-0.452175,
	-1.61,
	-2.71739,
	-1.88812,
	-1.7497,
	-0.254169,
	-0.192591,
	0.230256,
	0.0591893,
	0.321434,
	-0.312707,
	-0.0549417,
	-0.761844,
	0.355933,
	0.161618,
	-0.133642,
	2.06461,
	1.05202,
	1.34923,
	0.689987,
	0.0364745,
	0.331623,
	-1.10994,
	-0.923362,
	0.225609,
	1.10404,
	1.45249,
	1.00479,
	0.392898,
	-1.20208,
	-0.949633,
	-1.7208,
	-0.380637,
	0.408542,
	0.148759,
	0.702966,
	0.922209,
	-0.171984,
	0.729694,
	0.8948,
	1.01041,
	0.251777,
	0.217301,
	-1.40607,
	0.0401051,
	0.855145,
	-0.272277,
	-0.368399,
	-0.619528,
	-1.46089,
	-1.77811,
	-0.358035,
	0.429496,
	0.822683,
	0.775815,
	0.400158,
	0.226093,
	-1.62692,
	-1.75064,
	-1.03321,
	-0.306521,
	0.0229455,
	0.488928,
	0.766349,
	-1.17546,
	-1.07753,
	-1.03108,
	-1.08764,
	-0.544208,
	0.766521,
	0.0253086,
	-0.568215,
	1.76805,
	1.2052,
	0.42666,
	0.372075,
	-0.262429,
	-1.215,
	-0.339908,
	-0.441986,
	0.845974,
	1.7328,
	1.42008,
	0.462509,
	0.248119,
	-1.29808,
	-1.9479,
	-1.44512,
	-0.889769,
	-0.140848,
	1.19425,
	0.785798,
	-0.553556,
	-0.905864,
	0.588187,
	-0.230912,
	-0.282746,
	0.123074,
	1.28054,
	0.633315,
	1.03895,
	1.86909,
	1.28992,
	0.0352579,
	-0.977881,
	0.0802636,
	-0.707775,
	0.396115,
	1.15785,
	1.4027,
	1.22113,
	1.01451,
	0.315183,
	-0.875894,
	-1.79102,
	-0.982433,
	-0.351035,
	0.230514,
	1.04631,
	0.586907,
	0.275046,
	0.180396,
	0.0261285,
	-1.12801,
	0.418074,
	1.29264,
	1.10383,
	0.696076,
	-0.534713,
	0.51842,
	0.835141,
	-0.764182,
	-1.05383,
	-0.558419,
	-0.567078,
	0.135984,
	1.27095,
	1.35644,
	1.05511,
	0.376837,
	-0.265565,
	-1.38329,
	-2.42573,
	-1.00966,
	-0.13751,
	0.539966,
	1.2852,
	0.438668,
	-0.228214,
	0.201893,
	-0.264357,
	0.513681,
	0.26134,
	0.736283,
	0.998091,
	0.283635,
	-0.452004,
	-0.774369,
	-0.491575,
	-0.668399,
	-0.520608,
	-1.12979,
	-1.11731,
	0.318305,
	1.09371,
	1.26791,
	0.683936,
	-0.326896,
	-1.54762,
	-2.19018,
	-2.39546,
	-0.375127,
	0.185203,
	0.57597,
	1.774,
	1.8266,
	0.843865,
	-0.302139,
	0.31931,
	0.514707,
	0.00161127,
	0.813923,
	0.910314,
	0.506939,
	-0.478893,
	-1.23215,
	-0.354321,
	-0.584073,
	-2.39888,
	-1.92801,
	-0.437504,
	-0.254036,
	0.511582,
	0.6555,
	0.897706,
	0.791562,
	-0.61001,
	-1.49109,
	-1.80711,
	-0.338894,
	0.490061,
	1.25334,
	1.38108,
	1.18985,
	-0.57871,
	-0.339355,
	0.579091,
	-0.0774479,
	-1.30607,
	-0.234878,
	-0.288138,
	0.118778,
	0.272244,
	-0.884361,
	0.176432,
	-1.05431,
	-1.29288,
	-1.23716,
	0.622775,
	0.736059,
	0.764129,
	0.755756,
	-0.173849,
	0.0824336,
	-1.0781,
	-1.07179,
	-1.06639,
	-0.390025,
	0.743576,
	1.72936,
	0.983015,
	0.342087,
	-0.46285,
	-1.02814,
	-0.940178,
	-0.599279,
	-1.49844,
	0.480966,
	0.936743,
	0.658599,
	-0.887656,
	-0.937791,
	-0.607771,
	-1.13438,
	-1.80386,
	0.323177,
	-0.467329,
	0.793109,
	0.803355,
	0.409746,
	-0.482794,
	-0.127783,
	-0.684005,
	-1.06785,
	-1.95011,
	-0.784764,
	0.931091,
	0.850758,
	1.33908,
	0.497931,
	-0.635733,
	-1.62765,
	-1.46347,
	-0.934187,
	-0.860415,
	0.648204,
	1.29992,
	0.0576525,
	-0.938241,
	-0.583855,
	-0.665659,
	0.340674,
	-0.71056,
	0.030406,
	-0.0861448,
	0.597978,
	0.784083,
	0.167917,
	-0.272342,
	-1.11569,
	-1.45279,
	-1.51744,
	-1.42668,
	-0.324855,
	1.2753,
	1.15889,
	1.087,
	0.985061,
	-0.581658,
	-1.93712,
	-1.88387,
	-1.12611,
	-1.06681,
	-0.49038,
	1.23917,
	-0.948573,
	-0.817925,
	-0.403991,
	-0.045321,
	1.04166,
	-0.558446,
	-0.2184,
	-0.361459,
	0.00469446,
	0.220638,
	-0.318331,
	-1.36377,
	-1.50501,
	-0.856954,
	-1.18262,
	-0.928383,
	0.509239,
	1.6876,
	1.80623,
	1.13753,
	1.33742,
	-1.58157,
	-1.76166,
	-1.59989,
	-0.166589,
	-0.789322,
	0.0813836,
	0.124623,
	-1.3229,
	-0.248109,
	-0.939081,
	-0.248083,
	-0.185851,
	-0.804983,
	-0.255557,
	-1.35345,
	-0.486185,
	-0.144044,
	-0.249568,
	-0.717018,
	-1.88403,
	-1.01242,
	-1.39305,
	0.916961,
	1.57887,
	1.62608,
	2.10678,
	1.21727,
	0.510714,
	-2.15214,
	-1.17947,
	-2.13723,
	0.113774,
	-0.222916,
	-0.279713,
	1.54895,
	0.128095,
	-0.0877615,
	-0.820074,
	0.0299281,
	-0.49243,
	-1.28551,
	-1.36881,
	0.134518,
	0.142384,
	0.0360252,
	0.106893,
	-1.14494,
	-1.97075,
	-0.837114,
	-0.85745,
	-0.302369,
	1.33433,
	1.64295,
	1.32658,
	1.54094,
	0.0296656,
	-3.23389,
	-2.45204,
	-2.06622,
	-0.21282,
	-0.187752,
	1.06764,
	1.60458,
	-0.431599,
	-0.0361778,
	1.42048,
	0.535909,
	0.303556,
	-0.386708,
	-1.76416,
	0.00418053,
	0.306607,
	0.509267,
	-0.242687,
	-0.709577,
	-1.27597,
	-1.14552,
	-1.29771,
	0.124024,
	1.28287,
	1.99473,
	1.216,
	1.05878,
	-0.396354,
	-1.51904,
	-1.79858,
	-0.760859,
	-0.347735,
	0.885464,
	1.00247,
	0.820971,
	-0.509689,
	0.859803,
	-0.181165,
	0.0732382,
	0.0923586,
	0.51403,
	0.126511,
	0.759083,
	-0.0873185,
	-0.0635532,
	-0.367769,
	-1.41544,
	-1.48913,
	-0.725415,
	-1.04682,
	-0.318398,
	1.30655,
	1.6404,
	0.832656,
	0.172803,
	-1.43396,
	-2.25067,
	-2.02366,
	-1.02999,
	0.40077,
	-0.370347,
	1.12998,
	1.94593,
	-0.657312,
	0.672272,
	-0.426412,
	-0.0498195,
	-0.868083,
	1.09185,
	-0.314949,
	0.0336492,
	-0.286265,
	0.188481,
	0.348403,
	-1.52864,
	-2.50684,
	-1.02405,
	-0.511788,
	0.770082,
	1.49122,
	1.35741,
	0.874309,
	0.194161,
	-0.955274,
	-2.45142,
	-2.32124,
	-1.05471,
	0.279762,
	0.471121,
	1.47124,
	1.12287,
	-0.31361,
	-0.146358,
	0.0411212,
	-0.891638,
	0.0861989,
	1.50174,
	-0.347164,
	-0.19671,
	0.0672018,
	-0.35327,
	-0.557466,
	-0.343277,
	-1.86376,
	-0.901695,
	-0.425133,
	1.00159,
	1.04175,
	1.05879,
	1.01183,
	0.618337,
	-0.856733,
	-1.56573,
	-1.17458,
	-0.962078,
	-0.28773,
	0.0156076,
	0.589982,
	0.0563921,
	-0.0517724,
	-0.565225,
	-0.517906,
	-0.567558,
	0.149552,
	1.53413,
	-0.485436,
	0.814614,
	0.10601,
	-0.383447,
	0.288578,
	0.49243,
	0.299135,
	-1.24576,
	-0.201819,
	0.425412,
	1.12573,
	0.187641,
	0.374207,
	-0.147294,
	-1.11106,
	-1.46671,
	-1.13108,
	-0.572629,
	0.183758,
	0.104495,
	0.0607362,
	0.584337,
	-0.179872,
	-0.0631755,
	-1.63083,
	-1.31896,
	-0.179177,
	0.51774,
	-0.248227,
	-0.526649,
	0.77605,
	0.963489,
	0.28648,
	-0.162553,
	-0.28522,
	-0.582074,
	-0.37953,
	0.0453311,
	-0.393452,
	-0.331669,
	-0.977699,
	-1.07821,
	-0.986122,
	-1.58607,
	-1.56669,
	0.222238,
	0.991148,
	1.39005,
	0.302458,
	1.04604,
	-0.656107,
	0.562789,
	0.0405567,
	-0.734303,
	-0.0595122,
	0.232482,
	-0.573847,
	-1.04471,
	0.430575,
	0.566568,
	-0.0150498,
	0.37265,
	-0.821618,
	-0.180051,
	0.408427,
	0.642529,
	0.092982,
	0.935496,
	-0.507251,
	0.00334556,
	-0.8544,
	-1.15216,
	-0.870697,
	0.268593,
	0.861368,
	0.774387,
	0.956394,
	0.482811,
	-1.62336,
	-1.17472,
	-1.14789,
	-0.633389,
	-0.889757,
	-0.500816,
	-0.947688,
	-2.04192,
	-0.0790626,
	-0.33913,
	-0.542586,
	-0.471303,
	-1.37869,
	-0.646585,
	0.257754,
	1.09321,
	0.251812,
	0.637754,
	0.394153,
	0.00113703,
	-0.376063,
	-0.482367,
	-0.614209,
	0.668058,
	1.2281,
	0.775128,
	-0.608489,
	0.98595,
	-0.647727,
	-0.632371,
	-1.54877,
	-0.468361,
	0.257309,
	0.0901243,
	-0.82282,
	-0.0469156,
	-1.01097,
	-0.657917,
	0.389045,
	-0.855236,
	0.0520592,
	-0.567976,
	0.218131,
	1.1886,
	1.08987,
	0.106446,
	-0.630466,
	-1.41572,
	-0.0793987,
	-0.157587,
	0.0549602,
	-0.357096,
	1.2509,
	0.316421,
	-0.308153,
	0.148232,
	0.114036,
	0.600322,
	-0.961293,
	-0.207532,
	0.470069,
	0.803538,
	1.17595,
	0.667305,
	-0.00230157,
	-0.317275,
	-0.371174,
	0.0150421,
	0.194936,
	-0.616307,
	-0.595466,
	1.72173,
	1.76336,
	-0.522781,
	-0.103497,
	-1.08632,
	-0.614677,
	-0.397447,
	0.814022,
	0.668117,
	-0.192542,
	-0.526581,
	-0.259506,
	0.125656,
	-0.291024,
	-1.02072,
	-0.646701,
	0.2299,
	0.706123,
	0.538883,
	-0.839478,
	-0.892888,
	-1.52226,
	-0.292205,
	-0.316041,
	0.134227,
	-0.606456,
	-1.04958,
	0.0475577,
	-0.337805,
	-1.80771,
	0.0465115,
	-0.722096,
	-0.315848,
	-0.803917,
	-0.555076,
	1.05184,
	0.709295,
	0.367066,
	0.636632,
	0.737603,
	0.510621,
	-1.587,
	-0.929436,
	-1.26004,
	-1.54566,
	-1.30399,
	-1.17395,
	-0.31992,
	0.174238,
	0.141201,
	0.328554,
	-0.477112,
	0.24194,
	-0.0186447,
	-0.179592,
	-0.210864,
	-0.383097,
	-0.204385,
	0.193102,
	0.589083,
	-0.118491,
	0.0800475,
	0.287509,
	0.467059,
	0.449387,
	0.526981,
	-0.6074,
	-0.220201,
	-0.390039,
	-1.22141,
	-0.411734,
	-1.64072,
	-0.715303,
	-0.106254,
	-0.242922,
	0.603502,
	-0.598726,
	0.516592,
	-0.276026,
	-0.483811,
	-0.805632,
	0.174222,
	0.15368,
	-0.0935293,
	0.11369,
	0.282334,
	0.718481,
	-0.143964,
	0.0863537,
	-0.633616,
	-0.577249,
	0.0928713,
	0.0350963,
	1.00787,
	-0.356867,
	-1.17361,
	-0.739552,
	-0.70453,
	-0.155558,
	0.0305201,
	-0.368744,
	-0.312232,
	1.18159,
	-0.0930638,
	0.207262,
	0.396806,
	-0.110926,
	-0.367343,
	-0.287503,
	-0.603954,
	-0.779696,
	-0.664127,
	-0.870765,
	0.488487,
	-0.237826,
	0.154375,
	-0.468693,
	-0.153583,
	-0.465383,
	0.346475,
	0.403716,
	-0.0301616,
	0.00400786,
	-1.18161,
	-1.73158,
	-0.694488,
	-0.662202,
	-1.24053,
	-0.476112,
	0.302172,
	-0.0668257,
	-1.44118,
	-0.83739,
	-0.61289,
	-0.328702,
	-1.39596,
	-1.50615,
	-0.967498,
	-1.48809,
	-0.356562,
	-0.7545,
	-0.528848,
	-0.438152,
	0.0597992,
	0.0727998,
	-0.267817,
	-0.888537,
	0.356102,
	0.607052,
	0.45252,
	0.424087,
	-0.0497393,
	-1.20228,
	1.26404,
	0.710767,
	-0.991776,
	0.204697,
	0.358821,
	0.277627,
	-0.218335,
	-0.728754,
	-0.398587,
	0.207893,
	-0.625358,
	-0.429967,
	-1.35268,
	-0.856059,
	-0.391824,
	0.938531,
	-0.890839,
	1.2372,
	0.106121,
	-0.218584,
	-0.385142,
	-0.237611,
	-0.5788,
	0.121375,
	0.509671,
	0.367695,
	0.853989,
	-0.0716458,
	0.641225,
	0.67288,
	0.498921,
	-0.369107,
	-0.408386,
	-0.410416,
	-0.459369,
	-1.29854,
	-0.918127,
	-2.24509,
	-1.06456,
	-2.17953,
	-2.17553,
	-2.29926,
	-0.761261,
	-1.4283,
	-0.604342,
	-0.51298,
	-0.174669,
	0.794214,
	-0.553806,
	0.48792,
	0.720397,
	1.20722,
	-0.0196695,
	0.557127,
	0.0635182,
	-0.61282,
	1.17905,
	-0.0482599,
	-1.62615,
	-1.67035,
	-1.44909,
	-2.81787,
	-3.01899,
	-1.89374,
	-2.22345,
	-2.80754,
	-1.0359,
	-3.19307,
	-2.33847,
	-2.23289,
	-1.78561,
	-2.26171,
	-1.53221,
	-1.9772,
	-1.49085,
	-0.527501,
	0.901638,
	0.0493849,
	0.247052,
	0.754216,
	-1.54242,
	-0.976818,
	-0.0183476,
	0.0950643,
	-0.285085,
	-0.612615,
	-0.82729,
	-1.42806,
	-0.734712,
	-0.707698,
	-0.77448,
	0.711593,
	0.48595,
	0.419048,
	-0.043141,
	0.0767623,
	0.0719426,
	-0.720263,
	-0.172817,
	-0.133157,
	-0.65245,
	-0.701446,
	-2.05457,
	-0.50856,
	-1.64995,
	0.0300213,
	0.811941,
	0.610783,
	0.590945,
	0.220062,
	-0.0920893,
	0.462352,
	0.0168306,
	-0.516308,
	-0.217837,
	-0.0586892,
	0.537043,
	0.809984,
	1.25393,
	1.75484,
	1.13521,
	1.53451,
	1.33681,
	1.22997,
	1.0759,
	0.985725,
	0.557227,
	-0.174208,
	-0.788408,
	-1.42243,
	-1.71591,
	-0.584965,
	-1.3228,
	-1.09942,
	-0.386308,
	0.0934589,
	-0.190914,
	-0.30666,
	0.14507,
	0.733968,
	-0.125346,
	-0.206325,
	0.065,
	0.881317,
	1.96883,
	1.31996,
	2.32844,
	1.20396,
	1.66359,
	1.48815,
	1.27219,
	1.24279,
	1.66231,
	1.21138,
	1.00808,
	0.452896,
	0.305206,
	0.111519,
	-0.608904,
	-0.218522,
	-1.7041,
	-1.3978,
	0.592869,
	0.232196,
	0.494565,
	0.209193,
	0.704039,
	0.866994,
	-0.0616181,
	-0.607047,
	0.193443,
	0.711477,
	0.871881,
	1.2585,
	1.04528,
	1.15671,
	0.98983,
	1.66533,
	1.30396,
	1.23669,
	0.635994,
	0.769484,
	1.03185,
	0.868239,
	1.51672,
	0.868582,
	0.369346,
	-0.470117,
	0.0344774,
	-0.910707,
	0.229318,
	0.174963,
	-0.427442,
	-0.303244,
	0.836975,
	-0.627349,
	-0.0724524,
	0.0612969,
	0.349372,
	1.01121,
	0.263894,
	0.89348,
	0.625574,
	0.773046,
	1.15375,
	1.6751,
	1.12326,
	1.46906,
	1.45824,
	1.096,
	0.995245,
	1.20429,
	0.630483,
	0.420992,
	1.37023,
	0.958189,
	-0.384882,
	-1.46025,
	0.0999455,
	-0.175626,
	-0.930696,
	0.727289,
	1.2287,
	0.0385898,
	-0.742458,
	-0.894115,
	0.0880136,
	0.196482,
	0.670888,
	0.388265,
	-0.0326312,
	-0.104948,
	0.488927,
	0.788768,
	0.722934,
	0.954113,
	0.904562,
	0.0871028,
	0.535723,
	0.76269,
	0.920295,
	0.564145,
	0.252705,
	-0.0354927,
	0.827484,
	-0.0727225,
	-0.377327,
	-1.6903,
	-0.85206,
	-0.362391,
	1.26295,
	-0.379708,
	-1.3901,
	-0.035797,
	0.780632,
	-0.268421,
	-0.120676,
	-0.132422,
	-0.390238,
	-0.828599,
	-0.109592,
	-0.174086,
	-0.344841,
	-0.473297,
	-0.196579,
	-0.653743,
	-0.585349,
	-0.460733,
	-0.323378,
	-0.326227,
	-0.3271,
	0.353065,
	-0.594032,
	0.541378,
	0.116098,
	-0.145766,
	-0.416306,
	0.567711,
	0.275314,
	-1.43123,
	0.346346,
	-0.0646989,
	-0.787244,
	-1.53949,
	-1.05433,
	-1.40051,
	-1.91449,
	-1.32848,
	-1.3776,
	-1.63389,
	-1.17432,
	-0.480349,
	-1.16145,
	-1.09133,
	-1.48759,
	-1.70752,
	-0.914238,
	-1.685,
	-0.284708,
	-0.166368,
	-1.17678,
	-0.936858,
	-1.03428,
	-0.124709,
	-0.387386,
	-0.516504,
	-0.508485,
	-0.890889,
	0.534218,
	-1.19284,
	-2.22611,
	-0.796712,
	-0.637093,
	-1.69743,
	-2.41188,
	-2.01269,
	-1.63806,
	-1.89024,
	-1.65335,
	-1.12389,
	-1.19098,
	-1.46578,
	-1.17428,
	-1.73042,
	-0.650732,
	-1.24475,
	-1.16943,
	-0.795533,
	-1.17282,
	-1.55546,
	0.455117,
	-0.418302,
	-0.968174,
	0.414308,
	-0.169352,
	0.100853,
	-0.377163,
	-0.361928,
	-0.881648,
	-1.00682,
	-1.27929,
	-1.85997,
	-1.51132,
	-2.33457,
	-1.99544,
	-1.98608,
	-1.57832,
	-1.45449,
	-1.40497,
	-1.46454,
	-2.1258,
	-1.54467,
	-0.125609,
	-0.524904,
	-0.200315,
	-0.0352132,
	-0.872042,
	-0.411533,
	0.0731619,
	-0.0559096,
	-0.156165,
	-0.013707,
	0.864849,
	0.542717,
	-1.38606,
	0.489399,
	-0.799298,
	-0.870057,
	-1.72108,
	-2.26371,
	-2.71192,
	-2.78378,
	-2.40548,
	-2.52611,
	-1.77404,
	-1.6809,
	-1.33417,
	-1.65614,
	-1.29036,
	-1.69882,
	-0.600079,
	-0.650472,
	-0.596949,
	-0.419951,
	-0.867644,
	-0.792964,
	-0.276896,
	-0.179053,
	0.810372,
	-0.0891028,
	0.166202,
	0.597229,
	-0.9417,
	-0.000906094,
	-0.885144,
	-0.470082,
	-0.747347,
	-0.901705,
	-0.936138,
	-1.69436,
	-1.686,
	-2.47437,
	-1.8601,
	-1.66832,
	-1.00735,
	-1.13292,
	-1.24252,
	-1.09278,
	-1.00602,
	-0.882895,
	0.138307,
	-0.508571,
	-0.283756,
	-0.683394,
	-0.899905,
	0.457945,
	0.357867,
	0.73463,
	0.247218,
	-0.210015,
	-0.773169,
	0.175531,
	0.6635,
	0.180448,
	0.124785,
	0.00784725,
	-0.228329,
	0.166208,
	0.201495,
	-0.037399,
	0.212292,
	0.0474779,
	-0.43462,
	-0.679632,
	-0.0995613,
	-1.20359,
	-0.796659,
	-0.670396,
	-0.629162,
	-0.727456,
	-0.809391,
	-0.0022664,
	0.274922,
	-0.0279017,
	0.59274,
	0.175142,
	-0.569218,
	-0.351711,
	-0.44914,
	0.416554,
	0.268324,
	0.397974,
	1.03859,
	0.583146,
	0.786431,
	1.34328,
	2.0446,
	2.42134,
	2.42878,
	1.65679,
	1.4446,
	1.29585,
	1.11896,
	0.200354,
	-0.385185,
	0.221721,
	-0.111152,
	0.968385,
	0.629942,
	-0.570248,
	0.841265,
	0.225941,
	0.777966,
	-0.364679,
	-0.231071,
	-0.491056,
	-0.288325,
	0.368889,
	0.506474,
	0.304427,
	0.753168,
	1.21063,
	1.35745,
	2.49207,
	2.26994,
	2.35739,
	3.08621,
	1.93268,
	2.39396,
	1.66687,
	1.31602,
	0.221164,
	0.0674238,
	0.351422,
	0.620088,
	0.892784,
	0.762229,
	0.836637,
	0.62079,
	0.473532,
	1.2855,
	0.605884,
	-0.158133,
	0.0700449,
	-0.346677,
	1.27953,
	0.348804,
	0.191485,
	-0.25967,
	-0.576911,
	1.82966,
	2.16269,
	2.22812,
	2.11726,
	2.17261,
	1.99317,
	2.28458,
	1.59587,
	1.06231,
	0.576634,
	0.252496,
	0.824826,
	-0.079796,
	0.398874,
	0.703866,
	0.513666,
	1.19227,
	0.529634,
	0.254539,
	-0.230785,
	0.208312,
	-1.08921,
	-0.709864,
	-0.254531,
	0.897226,
	0.8161,
	0.602061,
	1.26981,
	1.0775,
	1.59369,
	1.72616,
	1.77972,
	1.10603,
	1.49616,
	2.03009,
	1.2932,
	0.782622,
	0.255088,
	0.873657,
	0.73936,
	0.980406,
	0.577942,
	0.582181,
	0.553585,
	0.261582,
	0.599415,
	0.102256,
	-0.658791,
	-0.336482,
	0.671591,
	-0.432953,
	0.757274,
	0.401257,
	0.380663,
	-0.764862,
	0.640089,
	0.405607,
	0.573584,
	0.832477,
	0.502771,
	0.48305,
	0.215387,
	1.46025,
	1.74038,
	1.63229,
	0.59266,
	1.20653,
	1.17921,
	1.16143,
	0.750647,
	0.408521,
	1.01062,
	0.697376,
	-0.272487,
	-0.208753,
	-0.155991,
	0.217402,
	0.740667,
	-0.291578,
	0.379055,
	-1.15758,
	-0.25926,
	-0.716007,
	-0.368395,
	-0.326627,
	-0.0727826,
	-1.0213,
	-0.301312,
	-1.21218,
	-0.226607,
	0.488844,
	0.0542726,
	0.642376,
	0.320776,
	0.482691,
	0.593646,
	0.502487,
	0.431645,
	-0.0752321,
	0.652926,
	0.581322,
	0.448686,
	0.105898,
	-0.0150308,
	0.535903,
	1.19056,
	0.397256,
	0.289438,
	0.14634,
	-0.0197881,
	-0.377429,
	0.0127952,
	-1.16496,
	0.267198,
	-0.589451,
	-1.19292,
	-0.953201,
	-0.183967,
	0.483067,
	0.766826,
	0.433924,
	0.509148,
	-0.12481,
	0.576937,
	-0.116472,
	0.126978,
	0.206645,
	0.614606,
	0.259904,
	0.257446,
	0.493617,
	0.165141,
	0.00822863,
	0.531255,
	0.104658,
	0.214896,
	0.684418,
	0.232322,
	0.388936,
	0.144478,
	-0.545105,
	-0.238982,
	-1.00446,
	-0.159965,
	-0.289202,
	0.0562671,
	-0.197388,
	-0.142223,
	1.49468,
	0.940474,
	0.575885,
	0.640148,
	0.373833,
	1.05716,
	0.254001,
	1.22069,
	0.735217,
	0.412901,
	1.19802,
	0.5198,
	-0.206288,
	0.816515,
	0.779967,
	0.920331,
	0.518894,
	-0.0375173,
	0.730433,
	-0.0965252,
	0.0945211,
	-0.164631,
	-0.024279,
	-0.221781,
	-0.54722,
	-0.16154,
	-0.127529,
	-1.03902,
	-1.04787,
	-1.06777,
	-0.764801,
	0.41838,
	0.726115,
	-0.0683444,
	-0.221664,
	-0.1583,
	0.189261,
	-0.0945735,
	1.06135,
	1.05085,
	0.42463,
	0.0324471,
	0.288085,
	0.574337,
	0.30623,
	0.0843088,
	0.0833429,
	0.0416678,
	0.273587,
	0.611782,
	-0.458244,
	-1.05112,
	-1.5479,
	-1.28303,
	-0.853703,
	-0.758091,
	-0.035327,
	0.397521,
	0.0122713,
	0.189457,
	-0.588098,
	-0.220542,
	-0.422319,
	-1.38236,
	-0.124701,
	-0.661585,
	-0.339583,
	0.236004,
	-0.0181237,
	1.03654,
	0.156529,
	-0.183265,
	0.983208,
	-0.617734,
	1.28716,
	0.412838,
	-0.559959,
	0.350571,
	-1.57603,
	-1.26742,
	-2.18061,
	-1.31373,
	0.333321,
	-0.185365,
	-0.197833,
	-0.317072,
	0.424138,
	0.795597,
	0.563055,
	0.501429,
	0.463956,
	0.150481,
	1.00563,
	0.437942,
	0.0577871,
	-0.473419,
	0.260287,
	-0.132036,
	-0.277075,
	-0.550444,
	1.32098,
	0.797822,
	0.204156,
	0.233032,
	-0.827955,
	-0.510096,
	-1.33922,
	-2.58786,
	-1.92208,
	-0.73571,
	-0.689331,
	-0.462043,
	-0.783484,
	0.567319,
	0.808343,
	0.733528,
	0.956129,
	0.561625,
	-0.162919,
	-0.464106,
	1.65583,
	0.794717,
	0.265656,
	-0.101279,
	0.359782,
	0.0186707,
	-0.815459,
	0.0088995,
	0.0257969,
	1.45237,
	1.04483,
	-0.539815,
	-1.49616,
	-0.752458,
	-1.43118,
	-1.34282,
	-1.85314,
	-0.402005,
	-0.366771,
	-0.451202,
	0.0926699,
	0.309652,
	0.39196,
	1.20875,
	0.472365,
	-0.378183,
	0.0795901,
	0.109229,
	-1.08186,
	0.24525,
	0.135067,
	-0.378331,
	0.65956,
	0.0696272,
	-0.196076,
	-1.05943,
	0.0713242,
	0.0644293,
	0.328408,
	-0.648205,
	-2.09248,
	-1.85701,
	-2.06702,
	-1.73717,
	-1.75268,
	-0.524849,
	-0.0707085,
	-0.937925,
	0.276327,
	-0.216743,
	0.378199,
	1.29169,
	0.565562,
	0.489412,
	-0.276421,
	-0.453357,
	-1.38269,
	0.920483,
	-0.5961,
	0.670299,
	0.452205,
	0.596707,
	-0.0248539,
	0.960345,
	0.280563,
	1.4418,
	1.52594,
	0.965903,
	-0.896048,
	-1.44754,
	-4.20817,
	-1.54088,
	-0.91664,
	0.614679,
	1.21909,
	0.66904,
	0.613723,
	0.0421034,
	0.78101,
	0.986132,
	0.140552,
	-0.281526,
	-0.0682346,
	-0.958506,
	-0.852104,
	-1.16431,
	-0.0178189,
	0.603456,
	0.591981,
	0.774989,
	-0.929504,
	-0.0904263,
	0.0169535,
	-0.184834,
	-0.15642,
	0.406424,
	-0.346477,
	-1.85123,
	-2.37835,
	-0.912254,
	-0.5065,
	0.836927,
	1.23042,
	0.892588,
	0.626525,
	0.56404,
	-0.224819,
	-0.309631,
	-0.0649776,
	0.160027,
	0.443596,
	0.729012,
	-0.0458872,
	0.722385,
	-0.853397,
	0.0743272,
	0.154013,
	-0.493085,
	-1.13312,
	0.16859,
	0.707748,
	0.280476,
	0.700542,
	-0.891732,
	-1.77568,
	-1.69088,
	-1.17304,
	-0.610685,
	0.29042,
	0.273945,
	0.343039,
	0.113403,
	-0.115269,
	0.860984,
	0.751133,
	0.91572,
	0.918433,
	0.255771,
	0.201129,
	1.22812,
	0.605227,
	-0.4462,
	-0.0144206,
	0.208186,
	0.386193,
	0.380485,
	1.01213,
	0.401773,
	-0.154527,
	-0.785311,
	-0.125323,
	-0.54255,
	-0.370107,
	-0.795393,
	0.151118,
	0.0517681,
	-0.623797,
	0.0890759,
	-0.562064,
	-0.842072,
	-0.924021,
	0.290973,
	0.721661,
	1.20815,
	1.54155,
	0.861206,
	0.764413,
	0.505413,
	0.530988,
	0.417546,
	-0.327682,
	0.306586,
	0.0498958,
	-0.526478,
	-0.18366,
	-0.0928208,
	-0.767106,
	-1.29738,
	-0.812968,
	0.248998,
	1.04601,
	0.828407,
	0.575703,
	0.230268,
	-0.187635,
	-0.702343,
	-1.04002,
	-2.06391,
	-1.02854,
	0.062405,
	0.944148,
	1.49098,
	1.09529,
	1.00718,
	0.729228,
	1.16155,
	0.191777,
	0.617688,
	0.337518,
	0.597838,
	0.601228,
	0.225098,
	0.498261,
	0.15159,
	0.0672448,
	-1.83543,
	-0.934461,
	-0.807747,
	0.397592,
	0.706184,
	0.0565034,
	-0.213367,
	-0.745999,
	-0.626636,
	-0.409847,
	-1.26468,
	-1.30776,
	-0.361057,
	0.512319,
	1.07983,
	0.666874,
	1.15202,
	0.856271,
	0.892338,
	0.438387,
	0.397339,
	1.06792,
	0.102364,
	-0.153408,
	0.756001,
	0.707503,
	-0.642203,
	0.732645,
	-0.403973,
	-1.64151,
	-0.636992,
	0.841491,
	1.15499,
	-0.535901,
	-0.340588,
	-0.591067,
	-0.283216,
	-0.272288,
	-0.107296,
	-0.437292,
	-1.18177,
	-0.0978543,
	0.674314,
	0.662055,
	0.987354,
	0.3842,
	0.304627,
	0.74988,
	0.318433,
	0.526915,
	0.53787,
	-0.125049,
	0.215349,
	-0.0791651,
	0.379347,
	0.536619,
	-0.0510148,
	-0.0451809,
	0.480413,
	0.863923,
	0.171338,
	-0.488612,
	-0.912442,
	-0.455852,
	-0.514103,
	0.0292112,
	-0.186816,
	-0.415514,
	0.254702,
	0.414187,
	0.811705,
	1.32384,
	1.74209,
	0.994743,
	1.62152,
	1.18267,
	0.356837,
	0.565122,
	0.163681,
	-0.75404,
	0.743643,
	0.0997005,
	0.399807,
	0.678297,
	-0.343834,
	0.0579769,
	0.150565,
	0.557233,
	-0.0667453,
	-1.22621,
	-1.72626,
	-1.45802,
	-1.42156,
	-0.684578,
	-0.598145,
	0.0535854,
	0.098895,
	0.687627,
	0.86168,
	0.459874,
	0.581617,
	1.51688,
	1.01684,
	0.52775,
	1.05643,
	0.443374,
	0.590969,
	-0.756711,
	0.614289,
	-0.222777,
	-0.13384,
	1.6306,
	1.73787,
	1.20892,
	-0.643354,
	0.0192559,
	0.140708,
	-1.29388,
	-1.20357,
	-1.07034,
	-2.03303,
	-1.78294,
	-1.02413,
	-0.657375,
	-0.211088,
	0.041873,
	0.189285,
	-0.154097,
	0.793501,
	0.674033,
	1.64726,
	1.30484,
	1.6073,
	0.691475,
	-0.511638,
	0.0583486,
	-0.284025,
	-0.303002,
	0.595303,
	1.58015,
	2.20515,
	0.752448,
	-0.56608,
	-0.456448,
	-0.216172,
	-1.02295,
	-0.666014,
	-0.740857,
	-0.790569,
	-1.40643,
	-0.292448,
	-1.19198,
	0.442183,
	0.0999012,
	0.0586779,
	0.705082,
	0.688056,
	0.224017,
	0.799742,
	1.38576,
	0.595802,
	0.864276,
	0.230107,
	0.112243,
	-0.492249,
	-2.1877,
	0.240377,
	0.80368,
	1.44866,
	-0.32508,
	0.701611,
	-0.120512,
	-1.05799,
	-1.20006,
	-0.733381,
	0.983072,
	0.396176,
	-0.487092,
	-0.66558,
	-1.22152,
	0.870401,
	0.376562,
	-1.09629,
	-0.0334673,
	0.856002,
	0.319751,
	0.816292,
	1.80658,
	0.889404,
	0.886911,
	0.385762,
	0.858449,
	0.903272,
	-0.093685,
	-1.05132,
	1.24048,
	1.42194,
	-0.23289,
	-0.0197679,
	-0.831195,
	-1.43974,
	-1.53095,
	-0.395501,
	0.448348,
	0.00786731,
	0.190464,
	-0.0178528,
	-0.14285,
	0.517094,
	-0.418911,
	-1.01237,
	0.243998,
	0.295108,
	0.851871,
	1.29349,
	1.24361,
	0.917136,
	1.47196,
	1.37189,
	0.684939,
	-0.3714,
	0.347379,
	-0.435024,
	0.795994,
	1.12065,
	1.28562,
	-0.523844,
	0.28063,
	-1.38252,
	-1.83096,
	-1.92835,
	-0.555107,
	-0.242415,
	0.748191,
	0.553686,
	0.506204,
	-0.10173,
	-0.689445,
	-1.11236,
	-0.0712169,
	0.229169,
	0.449959,
	1.2135,
	1.20144,
	1.12217,
	1.19943,
	0.92659,
	0.378814,
	-1.01648,
	0.278145,
	-0.0898116,
	1.20181,
	0.887612,
	1.20392,
	0.248474,
	0.14145,
	-1.46964,
	-1.9677,
	-1.45335,
	-0.969778,
	-0.373108,
	0.449988,
	0.885823,
	-0.270414,
	-0.875622,
	-0.79334,
	-0.940162,
	-0.279117,
	-0.0205934,
	1.23601,
	1.10044,
	0.0182668,
	1.31989,
	0.828895,
	1.62671,
	-0.0180824,
	0.161782,
	-0.0590478,
	2.05246,
	0.963378,
	1.07642,
	1.07583,
	-0.505378,
	0.739452,
	0.171673,
	-2.11865,
	-0.862933,
	-0.447128,
	-0.898444,
	0.171395,
	0.0491847,
	-1.011,
	-1.15326,
	-0.595332,
	-0.419656,
	0.913211,
	0.712482,
	0.199991,
	0.146825,
	1.60228,
	2.10546,
	1.43565,
	1.24323,
	0.712641,
	-0.183729,
	-0.286052,
	0.257909,
	1.1929,
	1.02141,
	1.1952,
	0.414163,
	-0.134019,
	-0.115817,
	-0.604574,
	-0.744471,
	-0.569813,
	0.933482,
	-0.32237,
	-0.411857,
	-0.745888,
	-0.0257375,
	0.779829,
	0.361395,
	-0.324973,
	0.836641,
	0.306048,
	1.22383,
	1.21067,
	1.32309,
	1.46032,
	0.089347,
	0.310652,
	-0.282373,
	-1.0456,
	0.333989,
	0.897959,
	1.09243,
	-0.175955,
	-0.329273,
	0.556867,
	-0.820484,
	-1.72469,
	-0.194052,
	-1.07485,
	-0.51713,
	0.292006,
	-1.08024,
	-0.273126,
	-0.333032,
	-0.145532,
	0.278844,
	0.200291,
	0.586564,
	0.848573,
	0.536741,
	1.28229,
	2.73498,
	0.724611,
	1.02425,
	0.551803,
	-0.226218,
	0.484546,
	-0.266447,
	-0.627222,
	-0.0689709,
	0.875632,
	-0.282153,
	0.739897,
	1.06069,
	-0.440563,
	0.146729,
	0.280869,
	-0.925037,
	-0.211234,
	-1.10386,
	-0.564268,
	0.0204581,
	-0.191395,
	0.343671,
	1.04687,
	0.48807,
	0.223371,
	0.887273,
	1.59123,
	1.77998,
	0.478502,
	-0.115589,
	-0.129137,
	-0.66028,
	-0.0999536,
	0.0734023,
	-0.0499751,
	1.08994,
	0.173495,
	1.31618,
	1.15671,
	0.934675,
	-0.516504,
	-0.209633,
	0.740843,
	0.0538056,
	-0.692811,
	-1.23649,
	-1.64777,
	-0.862985,
	-0.645079,
	-0.20203,
	0.772258,
	1.47324,
	0.735442,
	1.18165,
	0.69913,
	1.06621,
	0.357595,
	0.0194413,
	-0.329998,
	-0.765994,
	-2.8344,
	-1.33275,
	-0.357293,
	0.242848,
	0.715514,
	0.0188472,
	0.0624543,
	-0.552367,
	-0.418243,
	-0.150566,
	-0.386198,
	0.651074,
	-0.0136272,
	-0.396959,
	-0.596488,
	-1.44546,
	-0.753983,
	-0.00606712,
	0.180996,
	0.0570874,
	0.451075,
	0.0538212,
	-0.30035,
	0.0921893,
	0.404368,
	-0.24424,
	-0.522549,
	-0.558059,
	-1.66297,
	-1.7151,
	-2.37861,
	-0.0494027,
	1.24364,
	-0.24806,
	0.994614,
	-0.7162,
	0.406068,
	0.780703,
	-1.16619,
	0.799858,
	0.0223526,
	-2.22541,
	-1.22699,
	-0.651938,
	-1.28926,
	-0.825092,
	-0.00818467,
	-0.483423,
	0.413908,
	-0.499333,
	-0.193595,
	0.612209,
	0.0129969,
	-0.616619,
	-0.414072,
	-1.13321,
	0.228299,
	-0.361486,
	0.46465,
	-0.53818,
	0.112477,
	-0.696926,
	0.204839,
	-1.11688,
	-0.397466,
	-1.54732,
	-0.352287,
	-0.738106,
	-0.390608,
	0.514927,
	-0.772282,
	-0.72864,
	-0.624202,
	0.10754,
	0.111672,
	0.94092,
	0.658687,
	-0.573181,
	0.0661764,
	0.0469612,
	-0.495028,
	-0.48274,
	0.179833,
	0.0308039,
	-0.245288,
	0.454001,
	0.228311,
	0.102385,
	-0.828846,
	-0.995195,
	-0.13036,
	-0.996012,
	-0.0286366,
	-0.321116,
	-0.79336,
	-0.247163,
	-0.105734,
	-0.22809,
	0.00476367,
	0.0153068,
	0.507564,
	-0.0188635,
	-0.54441,
	-0.215149,
	-0.695062,
	-0.799383,
	-0.32446,
	-1.72661,
	-0.585444,
	-0.236591,
	-0.280834,
	0.628562,
	-0.111963,
	-0.340196,
	0.203206,
	0.0374878,
	0.111529,
	-0.474575,
	-0.482284,
	0.516756,
	0.825606,
	0.353354,
	-0.647614,
	-0.514558,
	0.424111,
	0.895201,
	-0.146034,
	-0.100869,
	0.344777,
	0.819588,
	0.521407,
	-0.188237,
	-0.700831,
	-1.00854,
	-0.830836,
	-0.416928,
	0.472466,
	-1.23171,
	-0.830559,
	-1.05083,
	-0.831629,
	-0.0271211,
	-0.425094,
	0.797106,
	0.233116,
	-0.0348822,
	-0.203581,
	0.28072,
	-0.0360426,
	-0.251107,
	-0.86979,
	-0.298511,
	0.050202,
	0.633068,
	0.504588,
	0.433408,
	-0.170625,
	-0.0549725,
	-0.378283,
	-0.344615,
	-0.143186,
	-0.52515,
	0.137861,
	0.432608,
	-0.0632176,
	-0.813906,
	-0.0779748,
	-1.10837,
	0.0546292,
	-0.295463,
	-1.71451,
	0.524816,
	0.384376,
	0.0813551,
	0.423734,
	0.638521,
	0.187644,
	0.410019,
	-0.20494,
	-0.463508,
	0.217637,
	0.0594912,
	-0.41246,
	-1.0556,
	0.278472,
	-0.276648,
	-0.427451,
	-0.308462,
	-0.653488,
	0.285006,
	0.205183,
	0.108812,
	-0.214869,
	-1.06849,
	0.259578,
	-0.377171,
	0.557445,
	-0.290908,
	0.231709,
	0.195093,
	0.177092,
	0.272283,
	0.286558,
	0.259599,
	0.990626,
	0.141579,
	-0.0839836,
	-0.271048,
	-0.989274,
	-0.550981,
	-0.00985467,
	0.408439,
	0.340223,
	-0.304304,
	-0.45008,
	-0.275191,
	-0.139815,
	-0.027275,
	0.0335184,
	-0.57176,
	-0.0973523,
	0.0405024,
	-0.40635,
	-1.14833,
	0.91854,
	0.438512,
	0.692011,
	0.783119,
	0.0518482,
	0.553013,
	0.737981,
	1.30719,
	0.338768,
	0.159535,
	0.17586,
	0.222798,
	-0.306921,
	0.0864527,
	0.823689,
	1.24604,
	0.765826,
	0.266945,
	-0.209453,
	0.425439,
	-0.9171,
	0.181181,
	-0.258659,
	0.41489,
	0.108168,
	0.499733,
	-0.476479,
	-0.35744,
	-0.239685,
	0.6156,
	0.763326,
	0.696026,
	-0.63184,
	0.0251043,
	0.0782723,
	0.957779,
	-0.130105,
	-0.0468437,
	-0.791972,
	-0.958105,
	-0.455194,
	-0.0214786,
	0.530527,
	1.03241,
	0.332606,
	0.920682,
	0.299166,
	1.09259,
	0.995093,
	2.20076,
	-0.0016139,
	0.33413,
	0.334455,
	-0.233614,
	0.374089,
	-0.0901909,
	-1.01444,
	0.913078,
	-0.0094506,
	-0.17201,
	0.0518356,
	0.693918,
	0.338648,
	0.284828,
	-0.198188,
	-0.158635,
	0.636335,
	-0.190419,
	0.241984,
	0.241948,
	0.676522,
	0.691767,
	0.446636,
	0.394685,
	-0.202833,
	0.51017,
	1.01975,
	1.4726,
	-0.156848,
	0.166249,
	0.627413,
	-0.135324,
	-0.173804,
	-0.316184,
	-0.0500782,
	0.974371,
	-0.366654,
	0.327561,
	-0.0560626,
	-0.122795,
	1.04842,
	0.642394,
	0.467821,
	0.617329,
	0.0851827,
	-0.0965735,
	0.896522,
	1.14463,
	1.11774,
	1.14835,
	1.15779,
	1.04449,
	1.3218,
	1.09437,
	0.114976,
	0.128937,
	0.44614,
	0.892293,
	1.40378,
	-0.13848,
	-1.16544,
	-1.333,
	1.04846,
	1.06905,
	0.253433,
	0.579492,
	0.489906,
	-0.0370089,
	0.702903,
	-0.423258,
	-0.0467213,
	-0.0418173,
	0.0333228,
	-0.548671,
	0.728596,
	0.812758,
	0.926944,
	0.674152,
	0.81203,
	1.11442,
	1.1552,
	1.09233,
	1.90977,
	0.818759,
	-0.0020499,
	0.3874,
	0.375186,
	0.381964,
	-0.270069,
	-0.166805,
	0.916124,
	0.975581,
	0.315639,
	0.435329,
	0.049426,
	0.611917,
	0.770336,
	-0.335594,
	-0.134083,
	0.0958785,
	0.149297,
	0.21328,
	0.624374,
	0.390518,
	0.13217,
	0.844478,
	0.844065,
	0.377038,
	0.0469589,
	0.632997,
	0.747454,
	0.77637,
	-0.385487,
	0.300488,
	0.486543,
	0.250828,
	0.688509,
	0.150348,
	0.0252704,
	0.754482,
	1.27198,
	0.790751,
	0.441093,
	0.344481,
	0.966143,
	0.179365,
	-0.651057,
	0.612236,
	0.17126,
	-0.370885,
	0.175759,
	0.246438,
	0.0776508,
	0.342339,
	1.32728,
	0.943486,
	1.3678,
	1.58792,
	1.62732,
	1.05917,
	-0.0298743,
	0.710784,
	0.909464,
	-0.411717,
	-0.681377,
	-0.512478,
	0.556286,
	0.360536,
	0.232231,
	0.266383,
	-0.0141504,
	0.111384,
	0.618295,
	-0.20013,
	-0.484824,
	0.325407,
	-0.0643704,
	-0.458956,
	0.315432,
	0.354542,
	0.670745,
	0.612255,
	0.809847,
	-0.0330041,
	1.25912,
	1.97608,
	1.01789,
	1.37378,
	0.734869,
	1.01137,
	0.973569,
	0.345992,
	-0.464677,
	-0.388006,
	0.206935,
	0.114719,
	0.790895,
	0.911378,
	-0.341124,
	0.212404,
	0.135886,
	-0.0467542,
	-0.335348,
	0.909881,
	0.465184,
	0.491723,
	0.819561,
	0.505149,
	0.249242,
	0.350162,
	0.0996699,
	0.163501,
	0.714969,
	1.75578,
	1.75568,
	1.90366,
	0.547202,
	0.595176,
	0.0148319,
	-0.0686796,
	0.821504,
	-0.317962,
	-0.121973,
	0.644161,
	0.741107,
	0.377969,
	0.144271,
	0.222007,
	-0.235825,
	-0.0393893,
	-0.140926,
	1.33338,
	0.569763,
	1.18364,
	1.34939,
	0.186447,
	0.565565,
	-0.0448513,
	-0.0674911,
	0.267265,
	1.05975,
	1.87168,
	1.35207,
	0.508709,
	-0.0782958,
	0.260393,
	-0.0816016,
	-0.0573951,
	1.43553,
	-0.225988,
	0.673868,
	0.766125,
	0.322848,
	0.479483,
	0.0986645,
	-0.470435,
	-0.414361,
	-0.0737591,
	0.564179,
	0.790443,
	0.164745,
	0.115176,
	0.531743,
	0.374358,
	-0.286815,
	-0.0998031,
	0.0119212,
	-0.0952252,
	1.19569,
	0.731835,
	0.639041,
	-0.0787196,
	0.743755,
	-0.408434,
	-0.534758,
	-0.322066,
	0.868615,
	1.00386,
	-0.645048,
	0.18942,
	-0.321223,
	-0.153859,
	-1.02654,
	-0.410417,
	0.0799216,
	0.251338,
	0.529296,
	0.436816,
	0.0152704,
	0.089279,
	-0.190219,
	-0.0878866,
	-0.0145241,
	-0.118298,
	-0.0646071,
	-0.198549,
	0.218464,
	0.955599,
	0.406023,
	0.00779741,
	-0.543922,
	-0.882802,
	0.233491,
	0.0946324,
	1.02515,
	1.05574,
	0.516701,
	0.352738,
	-0.184402,
	-0.483247,
	0.0495955,
	0.463326,
	-0.0540406,
	0.0375992,
	0.672997,
	1.01011,
	0.748388,
	0.19857,
	-0.256359,
	0.10036,
	0.646179,
	0.146112,
	0.866449,
	0.789908,
	0.248095,
	-0.257476,
	0.113615,
	0.502524,
	-0.189087,
	-1.26023,
	-0.38044,
	0.0740494,
	1.18926,
	1.85507,
	-0.11356,
	0.296363,
	0.63474,
	-1.09309,
	-0.690412,
	-0.25727,
	0.0744213,
	0.395809,
	0.373134,
	0.824564,
	0.610531,
	0.368512,
	0.47765,
	0.37268,
	0.634068,
	0.986056,
	0.997579,
	0.5932,
	0.387426,
	-0.0979159,
	-0.384115,
	0.614924,
	-0.327309,
	-1.25387,
	-0.42028,
	-0.119226,
	0.621412,
	0.943378,
	0.676641,
	0.803772,
	0.640535,
	0.187891,
	-0.00425561,
	-0.219458,
	0.433658,
	0.482472,
	0.536451,
	1.11732,
	1.04756,
	0.688414,
	0.987756,
	0.996229,
	1.12227,
	1.3515,
	0.998396,
	0.448603,
	-0.0629053,
	0.0935063,
	0.534634,
	0.40464,
	0.0759699,
	-0.371064,
	-0.0241256,
	0.995139,
	1.04889,
	1.05955,
	-0.145227,
	-0.099626,
	-0.0791654,
	0.280661,
	0.380227,
	0.394024,
	-0.137695,
	0.336529,
	0.0964272,
	0.693306,
	0.277067,
	0.219377,
	0.246251,
	0.868212,
	0.880845,
	0.511182,
	0.484225,
	-0.552753,
	-0.315551,
	-0.535023,
	0.219734,
	0.56694,
	-0.443194,
	-1.05326,
	-0.63042,
	-0.0423614,
	0.375698,
	0.799047,
	0.789563,
	-0.23474,
	0.0841306,
	-0.137399,
	0.0558483,
	0.630208,
	0.535927,
	0.20235,
	0.677993,
	0.545679,
	0.931525,
	-0.0814553,
	0.0921197,
	1.07684,
	0.257351,
	-0.0110099,
	-0.203285,
	-0.149147,
	0.273512,
	-0.00138124,
	0.0358692,
	0.250027,
	-0.376378,
	-0.311988,
	-0.2507,
	-0.217961,
	0.171205,
	-0.145866,
	0.345819,
	-0.472113,
	-0.329617,
	-0.600679,
	-0.403676,
	0.516156,
	-0.0211364,
	0.241347,
	0.336454,
	0.948243,
	0.605301,
	0.514152,
	0.377976,
	0.141963,
	0.19415,
	-0.0975608,
	-1.09598,
	-0.329856,
	-0.609809,
	0.049521,
	0.347851,
	-0.140456,
	0.70169,
	-1.24151,
	-0.261192,
	0.27064,
	0.0481209,
	-0.207147,
	0.640219,
	0.468866,
	0.0175856,
	-0.535038,
	-0.808785,
	-0.201455,
	-0.038271,
	1.05093,
	1.19408,
	1.36,
	0.0632382,
	0.949431,
	0.441459,
	-0.0887052,
	-0.00597894,
	0.371855,
	-1.21083,
	-0.273416,
	0.0302834,
	0.472077,
	0.341037,
	0.158186,
	-0.314459,
	-0.453711,
	-1.05483,
	-0.185795,
	1.62048,
	0.68203,
	0.0164763,
	0.139838,
	0.293849,
	0.475294,
	-0.267748,
	0.380813,
	0.680944,
	1.41428,
	0.993235,
	0.813985,
	0.457144,
	1.14604,
	0.709956,
	0.102481,
	-0.019315,
	-0.146936,
	0.194153,
	-0.0880837,
	0.0407683,
	0.401069,
	-0.154013,
	-1.00678,
	-1.15149,
	-0.680723,
	-0.451196,
	0.0304218,
	1.22627,
	1.05256,
	-0.406054,
	0.932319,
	-0.594843,
	0.212725,
	0.15038,
	0.318316,
	-0.0722898,
	0.000560171,
	0.901452,
	1.15857,
	1.05814,
	0.722054,
	0.205946,
	-0.417343,
	-0.0853745,
	-0.844249,
	0.479333,
	-0.21822,
	-0.275962,
	0.413154,
	-0.221292,
	-0.834819,
	-0.776306,
	-0.541946,
	-0.570176,
	0.116503,
	0.086805,
	0.0750288,
	-0.112757,
	-1.81447,
	-0.0771771,
	0.42079,
	-0.261728,
	0.0389546,
	-0.757891,
	-0.118886,
	-0.30738,
	-0.976966,
	-0.553839,
	-0.666765,
	-1.97064,
	-1.13892,
	-0.985663,
	0.0308316,
	-0.722994,
	-0.594493,
	-0.871604,
	0.035204,
	-0.711094,
	-1.11857,
	-0.999832,
	0.0526447,
	0.0782436,
	0.568935,
	1.4437,
	-1.45618,
	1.07142,
	0.051139,
	0.435141,
	-0.0390237,
	0.169065,
	1.35644,
	0.898522,
	0.294336,
	0.437011,
	-1.09447,
	0.152766,
	-0.437101,
	-0.403259,
	-0.639237,
	-1.17014,
	0.551664,
	0.238255,
	0.65188,
	0.275723,
	1.0868,
	0.271903,
	-0.0160191,
	0.634937,
	1.04808,
	0.790808,
	0.354758,
	0.013142,
	0.26032,
	0.735474,
	-0.000266705,
	0.291591,
	-0.000742359,
	0.29889,
	0.142445,
	1.01808,
	0.846506,
	0.197148,
	-0.678518,
	-0.835827,
	0.0508834,
	0.244193,
	0.36625,
	0.256524,
	0.7909,
	0.473576,
	-0.314601,
	-0.410018,
	-0.15366,
	0.0969752,
	0.60319,
	0.568297,
	0.588576,
	1.08571,
	0.262319,
	-0.423161,
	0.594614,
	0.101943,
	0.700514,
	0.464235,
	1.11554,
	-0.617916,
	-0.259726,
	-0.057235,
	-0.27758,
	0.0503463,
	-0.676653,
	0.00902116,
	-0.143928,
	-0.272093,
	-0.764213,
	-0.786596,
	0.269878,
	-0.475685,
	0.557873,
	0.602717,
	-0.753965,
	-0.212024,
	0.842943,
	0.0654392,
	0.191774,
	0.705442,
	0.26471,
	0.0886147,
	-0.526975,
	1.30747,
	0.967819,
	-0.383314,
	0.652796,
	0.260021,
	0.118673,
	0.129402,
	-1.03865,
	-0.927001,
	-0.118008,
	0.372284,
	0.0674886,
	0.313544,
	-0.712181,
	0.247903,
	0.563772,
	0.311156,
	0.37038,
	0.398626,
	-0.125061,
	0.230124,
	-0.0189566,
	-0.0508923,
	-0.26912,
	-0.0176847,
	0.513598,
	0.445948,
	0.0269964,
	-0.346393,
	-1.71402,
	-0.141563,
	0.612682,
	0.265604,
	0.803245,
	-0.192362,
	-1.37691,
	-1.12528,
	-0.0855674,
	0.0905804,
	0.31893,
	-0.637677,
	0.0853271,
	0.780431,
	0.658516,
	0.202573,
	-0.0416339,
	-0.811663,
	-0.474831,
	-0.768544,
	0.734828,
	-0.538,
	0.24612,
	0.502015,
	0.287422,
	-0.821355,
	-0.248663,
	-0.736494,
	-1.55747,
	-0.977205,
	0.758376,
	-0.130411,
	-0.767931,
	-0.16166,
	-0.334181,
	0.0561131,
	0.964723,
	1.09388,
	1.24763,
	0.963403,
	0.877028,
	0.199678,
	0.608024,
	-0.325255,
	-0.145547,
	0.0695263,
	-0.431453,
	-0.296431,
	-1.0842,
	-0.260517,
	-0.32498,
	0.0815041,
	1.29645,
	0.596935,
	-1.6216,
	-1.19572,
	-0.708634,
	-0.355828,
	0.185482,
	-0.146742,
	-0.349763,
	-0.491232,
	-0.711112,
	-0.378377,
	0.197688,
	1.37905,
	1.54241,
	1.29657,
	1.40797,
	0.687762,
	0.0129435,
	0.0349879,
	0.198906,
	0.676972,
	-0.0804776,
	-0.0359604,
	0.869252,
	-0.456656,
	0.120836,
	0.0141663,
	0.814189,
	0.107165,
	0.0293999,
	-0.858327,
	-0.278485,
	0.0739537,
	-0.309928,
	-1.11713,
	-0.836995,
	-0.752095,
	-0.702893,
	-0.222731,
	0.646331,
	0.742113,
	1.52515,
	1.33191,
	2.25374,
	1.53003,
	1.39424,
	0.998691,
	0.435739,
	0.817419,
	0.906861,
	0.323189,
	0.721267,
	0.805942,
	0.473554,
	0.166352,
	-0.0361852,
	1.09157,
	-0.0339438,
	-1.57846,
	-1.02213,
	-0.367298,
	-0.0516175,
	-0.687271,
	0.453666,
	-0.218595,
	0.126893,
	0.588432,
	0.372444,
	1.3907,
	1.63868,
	1.53063,
	1.86218,
	2.06693,
	1.43315,
	0.320783,
	0.0706276,
	0.565647,
	0.624923,
	-0.0712101,
	1.49699,
	-0.32381,
	-0.466425,
	-0.731735,
	-0.245192,
	0.432134,
	0.39682,
	-1.11711,
	0.250535,
	-0.182683,
	0.185042,
	0.284344,
	0.535726,
	0.731584,
	0.547017,
	1.07675,
	0.872669,
	1.35665,
	1.62541,
	1.62395,
	1.15791,
	0.883641,
	0.508495,
	0.304317,
	0.0860178,
	0.606025,
	1.32725,
	-0.0833685,
	0.686446,
	0.801776,
	0.58781,
	0.206925,
	-0.0273577,
	0.470932,
	-0.926286,
	-0.0949182,
	-0.479881,
	-0.111275,
	0.429693,
	0.38813,
	0.0518673,
	0.593138,
	0.894546,
	1.54703,
	1.26713,
	0.973307,
	1.3492,
	1.37051,
	0.642396,
	0.500475,
	0.0253714,
	0.172096,
	0.0432299,
	0.108158,
	0.11381,
	-0.239042,
	-0.426152,
	1.23513,
	0.656229,
	0.289397,
	0.531237,
	0.248189,
	0.359063,
	-0.42685,
	-1.48345,
	-0.58119,
	-0.00885976,
	-0.244395,
	0.380413,
	0.349034,
	1.12455,
	1.32353,
	0.861924,
	1.02125,
	0.977552,
	0.440491,
	0.203556,
	0.491724,
	0.742695,
	0.949279,
	0.0302602,
	0.706206,
	0.440642,
	-0.161567,
	0.205871,
	-0.397401,
	-0.0633404,
	0.152388,
	0.62474,
	-0.370691,
	0.869303,
	-0.917119,
	-1.30109,
	-0.582249,
	-1.59742,
	-0.59676,
	0.197201,
	0.145661,
	1.06663,
	0.610221,
	0.98476,
	1.02655,
	1.42821,
	-0.00347792,
	-0.859347,
	-0.505451,
	-0.174346,
	0.218335,
	0.295543,
	0.0659186,
	0.0982714,
	-0.146219,
	-0.860784,
	-0.0448249,
	-0.477902,
	-0.535046,
	0.0360424,
	0.0507944,
	-0.15216,
	-1.00507,
	-0.358788,
	-1.25395,
	-1.05425,
	0.450867,
	-0.28429,
	0.11885,
	0.336116,
	0.183105,
	0.387026,
	1.20949,
	0.379002,
	0.308439,
	0.417284,
	0.00366888,
	-0.24992,
	-0.368961,
	0.500837,
	0.320612,
	-0.477443,
	-1.57915,
	-0.878404,
	-1.30138,
	-0.709599,
	-0.775229,
	-1.19068,
	-0.430265,
	-0.880854,
	-0.138586,
	-1.01964,
	-1.08814,
	-0.141125,
	0.53478,
	0.872838,
	0.266805,
	0.825249,
	1.07214,
	0.593392,
	0.138394,
	-0.338108,
	0.0708459,
	0.499135,
	-0.309489,
	-0.989971,
	-0.54648,
	0.103284,
	-0.331447,
	-0.708743,
	-0.782176,
	0.173894,
	-0.258989,
	-1.11052,
	-0.429087,
	-1.28484,
	-0.113633,
	-0.877055,
	0.366474,
	-0.214918,
	0.810758,
	-0.0041468,
	1.4736,
	1.53081,
	0.504087,
	0.803544,
	0.593553,
	0.273196,
	0.191456,
	-0.40791,
	-0.638606,
	0.0355584,
	-0.558821,
	-0.89847,
	-0.445649,
	-0.77293,
	-0.893744,
	-1.30844,
	-0.840083,
	-0.259829,
	-0.812704,
	-0.652349,
	-0.0170823,
	-0.487259,
	-0.0327367,
	-0.0436426,
	0.227693,
	0.0170418,
	1.58925,
	1.63711,
	1.88436,
	1.61516,
	0.638025,
	0.720749,
	0.43355,
	0.795415,
	-0.187536,
	0.541169,
	0.0536652,
	-0.593693,
	-1.01737,
	-1.12953,
	-1.09766,
	-1.31091,
	-1.61631,
	-1.54861,
	-1.49081,
	-0.37466,
	0.31298,
	-0.73887,
	-0.226037,
	0.605903,
	-0.12927,
	-0.350584,
	0.253806,
	0.44335,
	0.797853,
	0.686007,
	1.19839,
	1.09024,
	1.33094,
	0.70556,
	0.775575,
	1.13127,
	0.0462255,
	-0.410875,
	-0.797347,
	-1.01206,
	-1.47547,
	-1.93467,
	-1.08208,
	-0.976502,
	-0.602011,
	-0.470988,
	-0.576513,
	-0.35024,
	-0.916273,
	-1.2696,
	-1.14173,
	0.118262,
	-1.10218,
	-1.38288,
	0.150063,
	-0.891723,
	1.09413,
	0.0270687,
	0.936324,
	1.43831,
	1.80967,
	1.3799,
	1.09529,
	0.21423,
	-0.13805,
	-0.872844,
	-1.95453,
	-1.59883,
	-1.95845,
	-2.22279,
	-0.997832,
	-0.7897,
	-0.179433,
	0.266636,
	-0.0379022,
	0.700683,
	0.234943,
	-0.770283,
	-0.810112,
	0.535627,
	-0.798521,
	0.854674,
	1.26976,
	-0.157625,
	1.63492,
	1.60794,
	1.95454,
	1.68527,
	1.14519,
	0.756989,
	0.857086,
	0.341156,
	-0.563104,
	-1.54733,
	-2.02798,
	-1.97896,
	-2.16446,
	-2.00821,
	-1.80222,
	-0.700095,
	-0.292694,
	0.2386,
	-0.346617,
	0.258491,
	-0.217579,
	-0.512262,
	-1.43977,
	-0.424518,
	-0.623342,
	0.551333,
	-0.0247891,
	0.674251,
	0.785416,
	1.94652,
	1.31682,
	1.18305,
	1.23937,
	0.994395,
	0.361109,
	0.442054,
	-1.01252,
	-1.9129,
	-1.92256,
	-2.41419,
	-2.42119,
	-1.43873,
	-1.06034,
	-1.16584,
	-0.545537,
	-0.214459,
	-0.518021,
	-0.376835,
	-0.0429237,
	-0.143943,
	-1.62959,
	-0.924636,
	2.3246,
	0.274895,
	-0.0485485,
	0.790373,
	1.58184,
	1.17208,
	1.0481,
	0.605081,
	0.0844368,
	-0.215173,
	-0.24013,
	-0.84096,
	-1.71096,
	-2.02404,
	-2.7909,
	-2.48996,
	-1.13419,
	-0.772962,
	-0.406526,
	-1.05747,
	-0.0651062,
	0.723758,
	0.305011,
	0.144472,
	-0.423149,
	-1.2073,
	0.240096,
	0.296243,
	0.483548,
	1.70956,
	0.839343,
	1.78293,
	1.16478,
	0.58733,
	1.38758,
	0.0227639,
	-0.826322,
	-0.982592,
	-1.51988,
	-0.466441,
	-0.251578,
	-0.926589,
	-2.17073,
	-2.16766,
	-1.83544,
	-0.846411,
	-0.70773,
	-0.170182,
	-0.187125,
	-0.432114,
	-0.503134,
	-0.220841,
	-0.0110861,
	-0.268515,
	0.0604089,
	1.26035,
	0.444619,
	1.15552,
	-0.246694,
	1.24994,
	-0.1114,
	1.57199,
	0.741118,
	0.0293764,
	0.461035,
	-1.42232,
	-1.76512,
	-2.06481,
	-2.97047,
	-1.72457,
	-3.35369,
	-0.92938,
	-0.898932,
	0.104198,
	-0.423865,
	-0.167717,
	-0.926466,
	-0.116996,
	0.116286,
	-1.48033,
	0.0642086,
	-0.190742,
	0.159571,
	0.0661741,
	0.478739,
	0.922877,
	0.548086,
	0.199787,
	1.27089,
	1.00668,
	1.23213,
	-0.389977,
	-0.712145,
	-1.22812,
	-1.56831,
	-2.2717,
	-0.997522,
	-1.45083,
	-0.574959,
	-0.924589,
	-0.702412,
	-0.213347,
	0.212683,
	0.453675,
	-0.635916,
	0.233053,
	1.20452,
	0.377733,
	0.246348,
	0.120679,
	0.864526,
	-0.15144,
	-0.78651,
	1.36437,
	-0.26853,
	0.126724,
	0.853244,
	1.4589,
	0.173989,
	0.186527,
	-1.94553,
	-0.906584,
	-0.380072,
	-2.41131,
	-0.362903,
	-1.41829,
	0.406751,
	0.762472,
	0.097917,
	-0.0959469,
	0.47905,
	0.584341,
	0.384503,
	0.559414,
	0.0161393,
	-0.460453,
	-0.238433,
	1.2571,
	0.593879,
	0.657811,
	0.438856,
	1.43001,
	0.358039,
	-0.223118,
	0.431969,
	-0.0762747,
	0.572271,
	0.999034,
	-0.394809,
	-0.367142,
	-0.826409,
	0.0805204,
	-0.542789,
	0.0969291,
	0.237223,
	0.753342,
	-0.459436,
	0.400616,
	0.295399,
	0.871726,
	1.26656,
	0.21969,
	1.11927,
	0.722934,
	-0.334255,
	-0.34942,
	-0.442039,
	0.407431,
	0.82287,
	0.553989,
	0.0968858,
	0.633792,
	1.17749,
	1.32165,
	1.01067,
	1.57743,
	1.37312,
	1.13672,
	-0.957642,
	0.513834,
	0.635294,
	0.675456,
	1.54044,
	0.488306,
	-0.102297,
	0.519336,
	0.822861,
	1.25444,
	0.441582,
	0.361893,
	-0.846476,
	-0.167621,
	-0.236326,
	-1.0258,
	-0.208547,
	0.7342,
	-0.790678,
	0.33558,
	0.659398,
	-0.722928,
	0.0455995,
	0.139216,
	0.0540323,
	-0.175175,
	0.413124,
	1.4331,
	0.247485,
	0.673323,
	0.866459,
	1.39682,
	1.29881,
	0.994928,
	0.671726,
	0.754565,
	1.44689,
	1.44114,
	1.03759,
	-0.170297,
	-0.212435,
	-0.259126,
	-1.12431,
	1.43278,
	-0.359663,
	-0.521985,
	-0.995465,
	-0.73705,
	-0.237154,
	-0.761983,
	-0.180752,
	0.38204,
	-0.258643,
	-0.0831451,
	1.07479,
	0.370522,
	0.203135,
	-0.126018,
	0.143472,
	0.200198,
	0.291866,
	-0.0260521,
	-0.0366714,
	-0.534727,
	-0.429301,
	0.0663418,
	0.371079,
	-0.0962298,
	1.51213,
	0.579818,
	-0.941172,
	-0.0276432,
	-0.430961,
	-0.440329,
	-1.42236,
	0.455781,
	1.18999,
	0.0717759,
	0.990717,
	0.968337,
	-0.444967,
	-1.02304,
	0.742569,
	1.27501,
	-0.395367,
	1.02991,
	0.39538,
	-0.418529,
	0.73023,
	0.539402,
	0.456533,
	1.38836,
	-0.043965,
	-0.0601024,
	-0.391742,
	-1.43642,
	-0.642873,
	-1.99604,
	-0.0898489,
	0.857504,
	0.583993,
	0.50443,
	1.8239,
	0.337344,
	1.18575,
	2.2846,
	0.814071,
	0.466342,
	0.96108,
	0.455168,
	1.36571,
	1.59441,
	0.525493,
	0.428695,
	0.475029,
	1.14111,
	0.0656283,
	0.394355,
	0.756326,
	1.07161,
	0.0264787,
	0.0767446,
	-0.0266797,
	-1.57738,
	-1.34424,
	-0.249109,
	0.295835,
	-0.461561,
	-0.809356,
	0.316559,
	-0.225404,
	0.157096,
	0.0899204,
	-0.326856,
	1.19787,
	0.766489,
	0.238382,
	-1.09995,
	-0.161555,
	1.03788,
	0.81948,
	1.2817,
	1.5611,
	0.961228,
	-0.326756,
	-0.0535966,
	-0.963462,
	0.5183,
	0.0227048,
	0.130416,
	-0.534032,
	-0.370895,
	0.330693,
	-0.101422,
	-1.12942,
	0.694747,
	0.170144,
	0.696862,
	0.0574481,
	1.11513,
	-0.669574,
	-0.395622,
	-0.364162,
	-0.00769178,
	-0.0211672,
	0.148626,
	0.125572,
	0.961538,
	0.195639,
	-0.576152,
	-0.197091,
	0.0789533,
	0.235084,
	0.0280196,
	-0.825588,
	1.4318,
	0.647222,
	-0.141319,
	0.914579,
	-0.557569,
	0.3861,
	-1.24452,
	-0.0684129,
	-0.422212,
	-0.795085,
	0.304552,
	0.0571994,
	1.50355,
	-1.19801,
	0.0428351,
	-0.341561,
	-0.5545,
	0.240684,
	1.3629,
	-0.00707815,
	-0.30589,
	0.121379,
	-1.22373,
	-1.48345,
	-1.29493,
	-0.896247,
	0.893574,
	0.568262,
	0.580249,
	-0.176191,
	0.79738,
	-0.561329,
	-0.67623,
	-0.467207,
	0.0536188,
	0.8046,
	-0.125928,
	-0.557746,
	1.09584,
	1.34919,
	0.876783,
	-0.371609,
	-0.642345,
	0.202143,
	0.987368,
	-0.508111,
	-0.79915,
	-0.99081,
	-0.097892,
	-0.186085,
	-0.314332,
	-0.300374,
	0.27708,
	-0.297648,
	0.289222,
	0.391623,
	0.22901,
	-0.447628,
	-1.24245,
	-1.18452,
	0.804965,
	1.65555,
	-0.323026,
	-1.16454,
	0.94762,
	0.744919,
	0.996092,
	0.638259,
	0.317401,
	0.495711,
	-0.773592,
	-0.952345,
	-1.17337,
	-0.0537923,
	-0.232692,
	0.685039,
	0.409963,
	-0.614152,
	-0.188918,
	-0.372918,
	-0.519653,
	-0.215694,
	0.986571,
	0.657846,
	0.499014,
	0.629334,
	-0.420957,
	-1.27815,
	-1.41577,
	0.589945,
	0.784511,
	-1.27166,
	0.812331,
	-0.572726,
	0.642592,
	-0.173883,
	0.643618,
	-0.735892,
	-0.1454,
	-1.50292,
	0.071631,
	-0.712907,
	-0.694394,
	-0.645699,
	0.0708784,
	-0.577411,
	-0.844875,
	-1.53347,
	-1.6623,
	-0.54575,
	0.562023,
	0.00899893,
	0.0302197,
	-0.222756,
	-0.518761,
	-1.43415,
	-1.05148,
	1.2841,
	0.610121,
	0.710673,
	0.551898,
	-0.59257,
	1.04982,
	0.364111,
	-0.336025,
	0.640219,
	0.768857,
	-0.674007,
	-0.761523,
	-0.507546,
	-0.268915,
	-0.168905,
	-0.594055,
	-0.916923,
	-1.07033,
	-1.5422,
	-1.28735,
	-0.0146919,
	0.182589,
	0.143511,
	0.91617,
	0.188229,
	0.486775,
	-1.03962,
	-1.3711,
	-0.970449,
	-0.653684,
	0.758677,
	0.317899,
	0.0459747,
	0.289087,
	-0.747052,
	1.29092,
	0.0360088,
	1.48259,
	0.275693,
	-0.310701,
	-0.850412,
	-1.17062,
	-0.226519,
	-0.43902,
	-0.0452851,
	-1.42905,
	-1.52984,
	-1.1338,
	-0.8621,
	-0.246152,
	-0.0268849,
	0.773024,
	-0.330444,
	-0.154094,
	-0.905528,
	-0.430513,
	-0.681373,
	0.0225286,
	-1.01382,
	0.825443,
	-0.764287,
	-0.303962,
	0.656279,
	1.00914,
	0.714309,
	0.43313,
	-0.67226,
	-1.1871,
	-1.58185,
	-0.722985,
	-1.36169,
	-0.830028,
	-0.707938,
	-1.15288,
	-1.2246,
	-0.91222,
	-1.01679,
	-0.86208,
	-0.420806,
	-0.15828,
	0.17559,
	-0.0576364,
	-0.372139,
	0.187791,
	-0.410679,
	0.520397,
	0.26601,
	1.49456,
	-0.527582,
	0.171923,
	0.147198,
	0.580576,
	0.864762,
	0.768579,
	-0.452758,
	-0.559752,
	-2.43956,
	-2.17835,
	-1.54919,
	-1.37659,
	-1.06383,
	-1.73903,
	-1.80608,
	-1.53059,
	-1.08002,
	-1.36299,
	-0.984206,
	-1.05177,
	-1.05701,
	-0.55018,
	-0.953128,
	-0.053612,
	-0.24335,
	0.627415,
	0.933718,
	-1.18126,
	-1.11232,
	1.09642,
	0.435048,
	1.13073,
	0.794394,
	-0.636537,
	0.0117794,
	-0.844733,
	-2.33412,
	-1.75619,
	-1.51532,
	-1.05141,
	-0.640761,
	-0.645256,
	-1.99827,
	-1.58164,
	-0.707237,
	-1.69749,
	-1.25147,
	-1.76911,
	-2.2635,
	-2.02266,
	-1.6582,
	-0.425105,
	1.09539,
	-0.356649,
	0.0739685,
	-0.546713,
	-1.63016,
	0.409354,
	-0.012378,
	-0.0436734,
	0.620891,
	1.44223,
	0.675297,
	0.172768,
	-0.668885,
	-0.0171521,
	-0.0529775,
	-0.235084,
	0.19531,
	0.541697,
	-0.741014,
	-1.22071,
	-0.65144,
	-1.38759,
	-0.878165,
	-2.89646,
	-2.9301,
	-1.8855,
	-1.83957,
	-1.79098,
	-0.826957,
	-0.313709,
	0.105175,
	-0.420911,
	-1.61216,
	-0.0820119,
	0.592167,
	0.497868,
	-0.311694,
	0.156614,
	-0.376721,
	-0.0443685,
	-0.00721612,
	0.544145,
	0.721102,
	0.464866,
	0.65991,
	0.406898,
	0.184617,
	-0.244275,
	-0.360171,
	-0.448749,
	-0.21859,
	-1.61255,
	-2.36511,
	-2.34948,
	-2.39398,
	-2.14834,
	-2.18532,
	-0.95347,
	-0.557891,
	-1.39101,
	-0.274457,
	0.0451056,
	-0.632287,
	-0.909657,
	1.39067,
	0.53192,
	0.41965,
	0.254773,
	-0.177054,
	0.693519,
	0.0578363,
	0.562387,
	0.364732,
	0.414256,
	0.635506,
	0.722847,
	-0.0615429,
	-0.563972,
	-0.894432,
	-0.750799,
	-0.314542,
	-0.820125,
	-1.40122,
	-2.45972,
	-0.867298,
	-1.79438,
	-1.28917,
	-0.812405,
	-1.544,
	0.397202,
	0.553021,
	0.391244,
	-0.722926,
	-0.38254,
	0.629593,
	1.03701,
	0.750445,
	1.31242,
	0.248203,
	0.603535,
	-0.0427534,
	0.499123,
	0.429739,
	0.339656,
	-0.365247,
	-0.665625,
	-0.354796,
	0.222329,
	0.0419939,
	0.0664653,
	-0.358667,
	-1.0761,
	-0.376958,
	-0.671455,
	-2.2796,
	-1.62003,
	-0.774413,
	-0.570099,
	-0.401113,
	0.518823,
	-0.527186,
	0.111096,
	1.33113,
	0.612153,
	0.459114,
	1.62697,
	1.21013,
	0.794106,
	1.00783,
	1.69151,
	0.837014,
	0.460506,
	0.126037,
	0.105174,
	0.39598,
	0.107077,
	-0.238397,
	0.0143807,
	-0.179286,
	-1.61445,
	-1.88507,
	-2.06888,
	-2.18797,
	-0.106241,
	-0.291793,
	0.398789,
	-0.472262,
	-0.115395,
	-0.315704,
	0.175868,
	1.70611,
	-0.0953205,
	-0.254863,
	1.00421,
	1.16231,
	1.06804,
	1.5277,
	2.02622,
	1.44935,
	1.00137,
	0.694569,
	0.0975289,
	0.300985,
	0.913167,
	0.205562,
	0.510844,
	0.16204,
	-0.458113,
	-1.68338,
	-0.958314,
	-1.35712,
	-2.40972,
	-0.733817,
	-0.37914,
	-0.81202,
	-0.126071,
	0.280862,
	0.208139,
	0.148526,
	-0.272275,
	0.244495,
	0.0552569,
	1.40143,
	0.805222,
	1.43956,
	0.394801,
	1.61279,
	1.69163,
	1.43009,
	0.428454,
	0.732981,
	0.798742,
	1.01343,
	1.23407,
	0.275086,
	0.292298,
	0.223437,
	0.255599,
	-0.805387,
	-0.547634,
	-0.557919,
	-1.05029,
	0.38179,
	0.953796,
	0.216082,
	0.775459,
	0.354516,
	-1.09032,
	-0.180971,
	0.73271,
	0.949871,
	0.616852,
	0.412074,
	0.756198,
	1.10211,
	1.71165,
	0.837831,
	0.847876,
	0.990662,
	0.585363,
	0.742187,
	1.52108,
	0.580161,
	0.336829,
	-0.36326,
	0.155852,
	-0.648223,
	0.499535,
	0.146132,
	1.1703,
	-0.0183412,
	0.834757,
	-0.0331891,
	-0.356267,
	0.0041321,
	-0.302493,
	0.569595,
	-0.176734,
	0.366143,
	0.378762,
	0.947224,
	1.40123,
	1.09523,
	1.16597,
	0.758985,
	1.5867,
	0.908897,
	0.752508,
	0.615697,
	1.00912,
	0.114531,
	0.960111,
	0.830363,
	0.873692,
	0.394327,
	0.67954,
	0.496882,
	1.1976,
	0.765661,
	-0.191221,
	-0.599003,
	-1.24489,
	0.589609,
	0.308256,
	0.789731,
	0.434587,
	-0.0583814,
	-0.121067,
	0.273581,
	0.269798,
	0.770821,
	1.03163,
	1.00685,
	1.4156,
	0.673825,
	0.885548,
	0.654503,
	1.21978,
	1.25887,
	1.56607,
	1.061,
	1.2246,
	0.783403,
	0.0102532,
	0.523938,
	-0.351031,
	-0.527594,
	0.0923392,
	-1.30915,
	0.617242,
	0.135983,
	-1.10215,
	-0.276188,
	-0.49926,
	0.660794,
	0.396082,
	0.41842,
	0.410987,
	0.476807,
	1.46182,
	0.986039,
	1.9956,
	1.70475,
	0.517042,
	0.903795,
	2.02722,
	2.10901,
	1.23416,
	1.56185,
	1.02769,
	1.08287,
	1.35712,
	-0.439034,
	-0.137697,
	-0.472187,
	0.574148,
	-0.795997,
	-1.39089,
	-1.12626,
	-0.512314,
	-0.839883,
	0.547466,
	0.00903031,
	-0.016257,
	-0.851269,
	0.219642,
	0.639249,
	1.14326,
	1.53509,
	1.98888,
	1.40342,
	1.33302,
	1.63349,
	1.60731,
	1.82664,
	2.75464,
	1.94635,
	1.43393,
	0.958369,
	0.456681,
	0.586754,
	0.951092,
	-0.196171,
	-0.33394,
	0.807954,
	0.00799981,
	-0.342723,
	0.468922,
	0.0912378,
	1.02627,
	0.333487,
	-0.0970569,
	0.417813,
	0.17013,
	0.535676,
	0.492302,
	1.17493,
	1.20185,
	1.26154,
	1.14668,
	2.36015,
	1.60078,
	1.03374,
	0.500623,
	1.43173,
	1.71693,
	1.15656,
	0.726027,
	-0.989917,
	-0.0534623,
	-0.518183,
	-0.366291,
	1.97711,
	1.70924,
	0.316329,
	-0.725136,
	-0.537143,
	-0.987676,
	-0.445911,
	0.767536,
	0.186537,
	0.476744,
	0.632145,
	0.54998,
	-0.911261,
	-1.44818,
	-0.261001,
	-0.283124,
	-0.523805,
	0.794953,
	0.848353,
	0.352256,
	0.071664,
	0.47766,
	-0.549248,
	-0.638877,
	-1.08324,
	-0.0825074,
	-0.589465,
	-0.974337,
	1.0748,
	0.735765,
	0.519164,
	-0.730928,
	-0.901541,
	-0.0375553,
	0.150214,
	0.0273574,
	-0.403671,
	0.340611,
	-0.641319,
	-0.354023,
	-0.939049,
	-0.380614,
	0.451768,
	0.688021,
	0.741033,
	0.715766,
	0.677785,
	1.00235,
	1.34773,
	1.38501,
	1.33742,
	-0.33484,
	-0.362461,
	-0.469803,
	0.653355,
	0.674648,
	-0.0734723,
	0.486909,
	-0.122121,
	0.12059,
	-0.240703,
	-0.356348,
	-0.213987,
	-0.809045,
	-1.17175,
	-1.00094,
	-1.56315,
	-1.8578,
	-0.226434,
	1.1383,
	1.78854,
	1.47244,
	1.77769,
	0.0647188,
	0.508149,
	0.9866,
	0.789564,
	-1.31487,
	-0.662555,
	-0.516595,
	1.92669,
	2.13572,
	-0.251385,
	0.370736,
	0.177387,
	0.0281452,
	-0.0801658,
	-0.807834,
	0.373681,
	0.074646,
	0.434257,
	-0.767535,
	-0.863787,
	-1.35452,
	-1.53184,
	-1.36072,
	-0.205869,
	1.75074,
	1.95405,
	1.77442,
	1.39126,
	0.260149,
	0.97916,
	1.01395,
	0.0476441,
	-0.670023,
	0.209387,
	-0.336635,
	0.485901,
	0.316281,
	-0.296602,
	0.564331,
	0.407475,
	-1.42823,
	0.11205,
	-0.433905,
	0.328995,
	1.09013,
	-0.548851,
	-1.43931,
	-1.90939,
	-0.980518,
	-0.646079,
	-0.236471,
	0.752118,
	1.9381,
	1.68642,
	0.93879,
	0.656018,
	0.104336,
	-0.184701,
	0.0782624,
	-0.702298,
	-0.549759,
	-1.24257,
	-0.483455,
	0.121583,
	0.43577,
	1.16144,
	0.318292,
	-1.04493,
	-1.83515,
	1.37404,
	0.784979,
	0.401764,
	-0.408748,
	-1.17362,
	-1.21014,
	-0.514776,
	-0.732779,
	-0.895737,
	0.283748,
	1.12767,
	1.59253,
	1.76931,
	0.679917,
	0.515321,
	0.229858,
	-0.295528,
	-0.585573,
	-0.298068,
	-1.1547,
	-0.869949,
	-0.212351,
	-0.240579,
	0.211848,
	0.771364,
	0.144939,
	-0.403425,
	-0.00780373,
	0.610451,
	0.897506,
	1.47417,
	0.31581,
	-0.498197,
	-0.342652,
	-1.03121,
	0.246313,
	-0.160048,
	0.752254,
	1.23588,
	1.19277,
	1.43202,
	0.961726,
	0.353846,
	-0.391899,
	-0.385532,
	-1.58978,
	-1.77031,
	-0.951109,
	-0.145733,
	-1.03374,
	0.271661,
	0.825707,
	0.414004,
	-1.03443,
	-1.01506,
	0.417544,
	0.653613,
	1.45509,
	1.36186,
	0.157402,
	0.0274137,
	-0.859526,
	-1.01663,
	-0.18202,
	0.795785,
	1.73789,
	1.67277,
	1.23836,
	1.09157,
	0.816202,
	0.835985,
	-0.224099,
	0.116944,
	-1.40296,
	-1.10177,
	-0.296057,
	-0.496874,
	0.0160096,
	0.397501,
	-0.572017,
	0.605542,
	-1.11214,
	0.466579,
	1.2667,
	1.19774,
	0.975743,
	0.110554,
	-0.338873,
	-0.236434,
	-0.566878,
	-0.463108,
	0.116756,
	0.721084,
	1.44672,
	1.0956,
	0.357923,
	0.588286,
	0.161077,
	0.322938,
	-0.85508,
	-0.500872,
	-0.328661,
	-0.381256,
	-0.14761,
	0.0370669,
	1.37076,
	0.908429,
	0.48642,
	-0.0567546,
	-1.0388,
	-0.453652,
	1.12449,
	0.35203,
	-0.457175,
	-0.512477,
	-0.564658,
	-0.322298,
	0.00651225,
	0.353143,
	0.411455,
	0.86664,
	0.427648,
	1.03229,
	0.303602,
	-0.0191986,
	-0.0424489,
	-1.10278,
	-1.10456,
	-0.308546,
	-0.469593,
	0.129641,
	0.474937,
	0.608947,
	1.06511,
	0.718212,
	-0.918242,
	0.582646,
	-0.111843,
	0.6227,
	-0.756128,
	-0.842931,
	-0.0413001,
	0.498275,
	-0.418862,
	0.363604,
	-0.559742,
	0.219554,
	0.438532,
	1.1677,
	0.777116,
	0.157365,
	0.0206239,
	-1.00322,
	-1.40605,
	-1.46728,
	-1.20742,
	-0.21824,
	-0.976186,
	-0.79292,
	-0.171652,
	1.23358,
	0.219859,
	1.15933,
	-0.0504573,
	0.188277,
	1.04101,
	0.786035,
	-0.348902,
	-1.1271,
	-0.670945,
	-0.527057,
	-0.932084,
	-0.278532,
	-0.3981,
	0.759499,
	1.13397,
	0.797439,
	0.603877,
	-0.197083,
	-0.578177,
	-0.569333,
	-1.23862,
	-1.42089,
	-1.86831,
	-1.67435,
	-1.89464,
	-0.400039,
	-0.961632,
	0.513703,
	1.15379,
	0.316983,
	-0.0365569,
	0.585239,
	0.693022,
	0.545304,
	-1.22426,
	-1.85109,
	-2.10436,
	-1.50949,
	-1.28219,
	-0.790563,
	0.249374,
	0.826308,
	0.525609,
	0.359761,
	0.637501,
	0.595131,
	-0.182331,
	-0.950534,
	-2.09051,
	-2.08251,
	-2.80454,
	-2.53358,
	-1.27311,
	-0.688249,
	-0.540757,
	0.887766,
	0.190311,
	1.23063,
	0.0780509,
	0.117452,
	-1.02206,
	0.0386644,
	-1.88122,
	-2.41052,
	-2.85983,
	-2.66943,
	-0.482008,
	-0.319294,
	0.855636,
	0.782496,
	0.136641,
	0.924669,
	1.273,
	1.17117,
	-0.0511571,
	-0.0734006,
	-2.15372,
	-2.60442,
	-2.85812,
	-1.99512,
	-0.699312,
	-0.213618,
	-0.546338,
	-0.124368,
	0.983164,
	0.0584348,
	-1.02917,
	0.807286,
	-0.845437,
	-0.244974,
	-1.60983,
	-2.87926,
	-1.68501,
	-1.4428,
	-1.70224,
	-0.699049,
	0.58772,
	1.3836,
	0.620704,
	0.610118,
	0.382642,
	0.172125,
	-0.237795,
	-2.03888,
	-2.1275,
	-2.2209,
	-2.54541,
	-1.24615,
	-0.0972502,
	0.345822,
	0.358357,
	0.215274,
	0.472404,
	-0.835835,
	0.161467,
	0.255068,
	-0.544113,
	0.100806,
	-0.391099,
	-1.27071,
	-1.05476,
	-2.05378,
	-0.774307,
	0.268051,
	1.05468,
	0.651238,
	0.369356,
	0.137162,
	0.170959,
	-0.290028,
	-0.571735,
	-2.29292,
	-2.05225,
	-1.20384,
	-0.580427,
	0.318911,
	-0.337276,
	0.234016,
	1.36397,
	1.12879,
	1.82274,
	0.675317,
	-0.716345,
	0.00536239,
	-0.222779,
	-1.31618,
	-1.51536,
	-1.30949,
	-2.58019,
	-1.62462,
	-0.555685,
	0.258689,
	0.391605,
	0.462358,
	0.32679,
	0.54327,
	0.581025,
	-0.326327,
	-0.149467,
	-1.18996,
	-0.959345,
	-1.32571,
	-0.609922,
	-0.257984,
	0.157631,
	1.40724,
	1.31148,
	0.572669,
	-0.000673905,
	-0.0593992,
	-0.474958,
	-1.21055,
	-0.900062,
	-0.352349,
	-0.986847,
	-2.56038,
	-1.73054,
	-1.48468,
	-1.35883,
	0.471396,
	1.1169,
	0.943629,
	0.890363,
	1.09704,
	0.543143,
	-0.162217,
	-0.382004,
	-1.18731,
	-1.20972,
	-0.814059,
	-0.547723,
	0.0820837,
	-0.00192811,
	0.570288,
	0.428697,
	0.377335,
	-0.068151,
	-0.116845,
	-0.980859,
	-1.00619,
	-0.549239,
	0.552872,
	0.150372,
	0.176421,
	-1.47637,
	0.184587,
	-0.66703,
	-0.265551,
	0.705991,
	1.32652,
	1.32532,
	1.30499,
	0.276118,
	-0.948129,
	-0.544087,
	-0.544821,
	-0.341892,
	0.301887,
	0.795933,
	0.97968,
	1.12017,
	0.53019,
	-0.339434,
	0.446882,
	0.032708,
	0.340029,
	-0.469081,
	-1.54881,
	0.0414758,
	0.107095,
	-0.35661,
	-0.557072,
	-0.578552,
	0.525409,
	-1.2318,
	0.526425,
	0.00386676,
	0.358045,
	1.12531,
	1.21138,
	1.21775,
	-0.152334,
	0.00605391,
	-0.950151,
	-0.391431,
	1.08995,
	2.11721,
	0.956526,
	0.0117565,
	0.82876,
	-0.275972,
	-0.351022,
	-0.301089,
	-1.5128,
	-0.881141,
	-0.121883,
	-0.224085,
	0.500591,
	-0.817509,
	-0.197018,
	-0.0855568,
	0.656001,
	-0.509151,
	-1.3618,
	0.693793,
	0.275524,
	0.382526,
	0.692445,
	0.869262,
	0.482795,
	-0.304051,
	-0.656413,
	1.26374,
	2.11531,
	1.99324,
	0.873883,
	-0.158043,
	-0.66059,
	-0.0169916,
	-0.052661,
	-0.345253,
	-0.144435,
	-0.895553,
	0.608938,
	0.896126,
	0.881801,
	0.682603,
	-0.561291,
	0.541381,
	-0.624591,
	-0.334749,
	-0.0843831,
	0.699477,
	0.416395,
	0.317577,
	0.0481713,
	0.300621,
	0.710336,
	0.394743,
	0.171704,
	1.41248,
	2.28997,
	0.552325,
	-0.0350683,
	-0.457998,
	0.127574,
	-0.390009,
	-0.192321,
	0.0246391,
	0.50545,
	0.295402,
	-0.0215419,
	0.792362,
	0.984457,
	0.475085,
	-0.524416,
	-0.219602,
	1.18441,
	-0.487047,
	0.0815313,
	0.276925,
	0.0207106,
	-0.445284,
	-0.811584,
	-0.89916,
	0.958264,
	-0.120685,
	0.875353,
	1.95243,
	1.77548,
	0.890113,
	0.153286,
	0.0916126,
	-0.440486,
	0.0657385,
	-0.406116,
	-0.743307,
	0.558384,
	0.853815,
	0.230281,
	0.459548,
	0.335173,
	0.13864,
	0.0889808,
	0.977302,
	0.850507,
	-0.652481,
	0.774789,
	-0.0360822,
	-0.511127,
	-0.480521,
	0.523061,
	0.168494,
	-0.399025,
	0.0710345,
	1.55245,
	1.53963,
	1.52626,
	1.18252,
	0.325256,
	-1.47077,
	-0.911149,
	-0.699189,
	-0.614139,
	-0.0547693,
	-0.561246,
	1.16309,
	-1.41901,
	0.153791,
	0.0773,
	-0.0317867,
	-0.970785,
	-0.459741,
	-0.796363,
	-0.902731,
	-0.769156,
	0.306875,
	-0.732589,
	-1.24223,
	-0.572148,
	-0.385688,
	-1.66279,
	-0.390159,
	0.717875,
	0.313733,
	1.86205,
	0.972997,
	0.330938,
	-1.30703,
	-1.16903,
	-2.11613,
	-0.612464,
	-0.179923,
	0.400476,
	-0.245512,
	-0.294202,
	-0.77844,
	0.813498,
	0.106246,
	-0.386364,
	1.3021,
	0.804044,
	-1.67534,
	0.582776,
	0.0364261,
	0.441968,
	0.342461,
	-1.21734,
	-0.0657047,
	0.0852474,
	-1.33581,
	-0.203898,
	0.194255,
	0.966838,
	0.34426,
	-0.794864,
	-1.83393,
	-1.01114,
	-2.01148,
	-0.870317,
	-0.787445,
	-1.50865,
	-0.312064,
	-0.496404,
	-0.350204,
	0.484809,
	-0.277392,
	0.059363,
	0.313096,
	0.152431,
	-0.0126542,
	-0.10538,
	-0.0682724,
	-0.808371,
	0.0831777,
	-0.0135636,
	-0.290634,
	0.453288,
	-1.13555,
	-1.62326,
	-1.50053,
	-0.614669,
	-1.06301,
	-1.23257,
	-0.919866,
	-1.49192,
	-1.57323,
	-1.82271,
	-1.09994,
	-0.895518,
	-0.435779,
	-0.144459,
	0.320803,
	1.40318,
	0.500776,
	-0.628106,
	-1.11101,
	0.486062,
	0.997401,
	0.894374,
	0.435843,
	-0.271042,
	0.554777,
	-1.86828,
	-0.671201,
	-0.959726,
	0.976107,
	-0.0556893,
	-1.24159,
	-0.225623,
	-1.83152,
	-2.24125,
	-1.73508,
	-1.5754,
	-1.71173,
	-1.55559,
	-2.2966,
	-0.952534,
	-1.16604,
	-1.79283,
	-2.24603,
	0.292963,
	0.29656,
	0.308851,
	0.109476,
	0.249698,
	0.14094,
	-1.41189,
	-0.956756,
	-0.514661,
	0.353263,
	0.168721,
	0.820724,
	0.311132,
	0.120775,
	0.12729,
	-0.206095,
	-0.743001,
	-0.573971,
	-0.516755,
	-0.381319,
	-0.640846,
	0.456592,
	1.27579,
	0.230098,
	-1.10111,
	1.13864,
	-0.126691,
	-0.420773,
	1.27357,
	0.321856,
	0.460892,
	0.426822,
	-0.900447,
	-0.789373,
	-0.749444,
	-0.366401,
	-0.209964,
	-0.200221,
	0.589946,
	0.371072,
	-0.290077,
	0.566745,
	-0.817085,
	-0.312346,
	-0.14589,
	0.19913,
	-1.28047,
	0.632855,
	-0.227804,
	0.855856,
	0.203342,
	0.688796,
	0.709028,
	0.696499,
	-0.0674524,
	0.245834,
	0.240818,
	0.492481,
	-0.310028,
	-1.20717,
	-0.949097,
	-0.283541,
	0.135089,
	-0.235525,
	0.113741,
	0.567266,
	0.752309,
	0.356162,
	0.385397,
	-0.713297,
	-0.829449,
	-0.226254,
	0.203994,
	-0.0841485,
	0.64113,
	0.14935,
	-0.111691,
	0.643408,
	0.210632,
	0.216818,
	-0.634795,
	-0.642174,
	-0.756904,
	0.334958,
	0.504123,
	-0.172882,
	-0.145999,
	-0.996179,
	-0.304782,
	-0.250528,
	0.00664146,
	1.04148,
	1.00581,
	0.701959,
	0.879099,
	1.28361,
	0.467985,
	-0.653435,
	-2.05109,
	-1.79374,
	-0.882459,
	-0.370173,
	0.145437,
	0.044011,
	0.767177,
	0.284277,
	0.815745,
	0.731502,
	-0.149539,
	-0.761408,
	-0.442902,
	-0.947077,
	-0.458705,
	0.975752,
	-0.823754,
	-1.05498,
	-1.13728,
	-0.554092,
	-0.198354,
	0.958898,
	0.845002,
	1.52174,
	-0.383103,
	0.544235,
	-0.208741,
	-0.769134,
	-1.72145,
	-1.24352,
	-1.05642,
	-0.341365,
	-0.0628744,
	0.456675,
	0.812226,
	-0.188247,
	0.743908,
	0.364782,
	0.195659,
	0.539551,
	0.214863,
	-0.535372,
	-1.65449,
	-0.474928,
	-2.18614,
	-1.04922,
	-0.380903,
	-0.319462,
	-0.493587,
	0.869629,
	0.461562,
	1.12124,
	0.899893,
	0.444496,
	-1.19199,
	-1.54165,
	-1.21809,
	-1.14606,
	-1.17524,
	0.0232328,
	0.608179,
	0.0619469,
	1.74006,
	0.474339,
	0.229104,
	0.305484,
	-0.0681018,
	-0.931122,
	-0.422918,
	-2.03084,
	-0.912619,
	-0.0655936,
	-0.257885,
	-0.881056,
	-0.301757,
	-0.531315,
	0.0315358,
	1.29146,
	1.42947,
	1.68397,
	0.308762,
	-0.202169,
	-0.1198,
	-1.36909,
	-2.24837,
	-2.30712,
	-0.373236,
	-0.338809,
	0.75037,
	0.102495,
	1.1677,
	-0.359642,
	0.403016,
	-0.992785,
	0.0191501,
	0.127132,
	-0.253425,
	-0.418602,
	-0.142296,
	-0.938955,
	-0.942261,
	-1.03348,
	0.311666,
	-0.539317,
	0.453999,
	1.51775,
	1.54395,
	0.932715,
	0.0513712,
	-0.390744,
	-0.440792,
	-1.09105,
	-1.35957,
	-0.751377,
	0.147468,
	-0.0731689,
	0.893159,
	1.05124,
	1.14862,
	1.12966,
	0.971921,
	0.207133,
	-0.825334,
	-0.707069,
	-0.0307807,
	-0.090071,
	0.921607,
	-0.240723,
	-0.0734594,
	-0.873606,
	0.9123,
	0.138149,
	1.02944,
	2.08943,
	1.4514,
	1.15754,
	-0.111514,
	-0.231012,
	-0.989553,
	-1.70223,
	-0.798618,
	-0.716788,
	-0.0983741,
	0.194093,
	0.950402,
	1.24605,
	2.07686,
	0.724708,
	0.430923,
	-0.274584,
	-0.816344,
	0.386311,
	-0.685373,
	-1.06865,
	0.615421,
	-0.947643,
	-0.640608,
	-0.00740486,
	0.72334,
	1.15257,
	1.94463,
	1.5102,
	0.959332,
	0.937848,
	0.402104,
	-0.207998,
	-0.881771,
	-1.9217,
	-1.37581,
	-1.50031,
	-0.0907196,
	0.394271,
	0.673296,
	1.85649,
	2.44308,
	1.29644,
	-0.205056,
	-0.788332,
	-1.18097,
	0.212889,
	-0.881931,
	0.200959,
	-1.10916,
	-0.410678,
	0.731017,
	0.418105,
	0.308364,
	1.53613,
	1.23679,
	1.36959,
	0.910867,
	0.600111,
	-0.226451,
	-1.16339,
	-1.80855,
	-1.75035,
	-1.32526,
	-1.34301,
	-0.301883,
	0.277129,
	0.662201,
	1.39802,
	0.601554,
	0.137486,
	-0.285248,
	-0.824632,
	-0.264293,
	-0.514468,
	-0.483183,
	-1.28931,
	-0.618538,
	-0.41881,
	-0.1378,
	-0.677164,
	0.547342,
	0.94619,
	1.35217,
	1.23876,
	0.172341,
	0.211484,
	-0.754999,
	-1.83718,
	-2.07248,
	-1.84885,
	-1.48949,
	-1.56457,
	-0.921213,
	0.630261,
	1.40282,
	2.57265,
	1.30097,
	0.405542,
	0.371841,
	-0.854469,
	-1.79053,
	-1.01933,
	-0.128469,
	-0.107628,
	-1.11296,
	-1.22688,
	-0.972687,
	0.149928,
	0.33777,
	0.597533,
	1.14026,
	1.08507,
	0.191394,
	-0.748078,
	-1.58138,
	-2.26506,
	-1.64228,
	-1.78306,
	-1.24606,
	0.0686324,
	0.656444,
	1.15563,
	1.70897,
	1.15226,
	0.5577,
	0.618959,
	1.42252,
	-1.06909,
	-1.53279,
	-0.542017,
	-0.155919,
	0.164915,
	-1.42714,
	-0.381475,
	-0.460002,
	-0.256173,
	1.23683,
	0.57412,
	1.55639,
	0.611397,
	-0.294593,
	-0.614263,
	-0.868065,
	-1.32021,
	-1.82616,
	-0.827441,
	-0.553138,
	0.214349,
	1.42438,
	1.55282,
	1.37555,
	1.53039,
	1.11945,
	0.244519,
	-0.408836,
	-1.67731,
	-1.12219,
	-1.05978,
	-1.52518,
	-0.0967407,
	-0.000966715,
	0.717382,
	-0.676008,
	0.622288,
	1.2257,
	1.43716,
	0.611036,
	-0.0586631,
	-0.789733,
	-1.16893,
	-1.37619,
	-2.00753,
	-1.89929,
	-0.804201,
	-0.35227,
	0.984165,
	1.54878,
	1.58095,
	1.77069,
	0.810209,
	0.383615,
	-1.34532,
	-1.80496,
	-2.27748,
	-1.75641,
	-0.613764,
	-0.219498,
	-0.0287312,
	0.766003,
	-0.856156,
	-1.11665,
	1.075,
	0.859243,
	1.1923,
	1.4229,
	0.030817,
	-0.771758,
	-1.28425,
	-2.07187,
	-1.5212,
	-1.12644,
	-0.641643,
	0.311924,
	1.24729,
	1.50987,
	1.77314,
	1.57541,
	1.36666,
	0.378866,
	0.181432,
	-0.856677,
	-1.52716,
	-0.915285,
	-0.0943166,
	0.370315,
	0.399483,
	-0.174119,
	-0.768506,
	0.33291,
	1.23371,
	1.06839,
	0.788701,
	0.92734,
	-0.25377,
	-0.814555,
	-2.25807,
	-2.07078,
	-1.48792,
	-0.404997,
	0.352896,
	0.91738,
	0.399748,
	1.24226,
	2.20255,
	1.37463,
	0.87351,
	-0.151974,
	-0.155707,
	-1.28757,
	-0.488619,
	-0.45053,
	-0.259172,
	0.0555236,
	0.00815833,
	-0.314694,
	-0.279248,
	0.837643,
	0.50909,
	0.235855,
	-0.359475,
	-0.47395,
	-1.6721,
	-1.74046,
	-1.94171,
	-2.0896,
	-1.61263,
	-0.274492,
	0.916153,
	1.57062,
	1.71078,
	1.74051,
	1.89947,
	0.429271,
	-0.640166,
	-1.31507,
	-1.08503,
	-1.28302,
	-0.484067,
	-0.307806,
	-0.170478,
	0.0760565,
	0.406675,
	1.11554,
	0.566121,
	0.892825,
	1.51578,
	-0.954398,
	-0.0685031,
	-0.972431,
	-1.77822,
	-1.52687,
	-1.44248,
	-0.514612,
	-0.144443,
	0.970491,
	0.932303,
	1.20516,
	1.1267,
	1.16767,
	0.807466,
	0.166883,
	-1.15229,
	-2.22921,
	-1.89112,
	-0.887731,
	-1.02765,
	-0.104639,
	-0.188117,
	0.456264,
	0.714229,
	0.518335,
	0.815505,
	0.484261,
	0.0147419,
	-0.59246,
	-0.68044,
	-1.74015,
	-2.20046,
	-1.01875,
	-0.902534,
	-0.386782,
	0.512747,
	1.56303,
	2.11785,
	1.98164,
	1.40066,
	1.54875,
	0.980453,
	-0.831072,
	-1.24466,
	-1.53677,
	-1.47858,
	-1.07456,
	-0.616591,
	0.076294,
	-0.547576,
	-0.521644,
	0.899548,
	0.815341,
	0.569406,
	0.201298,
	0.0490973,
	-0.291453,
	-0.653358,
	-0.470472,
	-1.29972,
	-0.812431,
	-1.90613,
	-0.00966547,
	0.816953,
	1.44923,
	1.54115,
	1.62088,
	1.13233,
	0.600684,
	0.352346,
	-1.18756,
	-1.32434,
	-1.2418,
	-0.959096,
	-0.627662,
	-0.774291,
	0.236268,
	-0.530323,
	-0.405198,
	0.549631,
	2.12549,
	1.07776,
	1.32846,
	0.393595,
	-1.39972,
	-0.831245,
	-1.41699,
	-1.43187,
	-1.07286,
	-0.601273,
	0.84594,
	0.903154,
	0.76058,
	1.20487,
	1.69036,
	1.1543,
	0.216742,
	-0.647733,
	-2.06404,
	-1.259,
	-1.04079,
	-1.59203,
	-0.319685,
	-0.00714993,
	0.589788,
	0.278326,
	-0.318934,
	0.612886,
	0.524676,
	0.878071,
	0.503894,
	0.416881,
	-0.193704,
	-1.15323,
	-1.21212,
	-0.500323,
	-0.172531,
	0.0331769,
	1.14126,
	0.959258,
	1.21162,
	0.787414,
	1.40003,
	0.429492,
	0.190696,
	-1.446,
	-1.46953,
	-2.20306,
	-1.30414,
	-1.74421,
	-0.440844,
	0.305371,
	0.507228,
	1.41111,
	0.602875,
	0.0456479,
	0.351943,
	0.12483,
	1.27497,
	0.441024,
	0.388761,
	-1.04843,
	0.185598,
	-0.131149,
	-0.0103012,
	0.899798,
	1.52082,
	1.9349,
	0.567351,
	1.46859,
	0.888472,
	-0.512982,
	0.391249,
	-0.378147,
	-1.49438,
	-2.56491,
	-0.659887,
	-0.711666,
	0.00999083,
	0.96869,
	1.40824,
	0.244265,
	-0.201597,
	-0.210153,
	-0.068209,
	0.479566,
	-0.598001,
	0.156505,
	-0.793861,
	-0.864375,
	-1.39592,
	-0.20528,
	0.043127,
	0.124199,
	1.81405,
	0.879225,
	0.728117,
	1.15318,
	0.843993,
	-0.155819,
	-1.04944,
	-1.15667,
	-1.56014,
	-1.04601,
	-0.578506,
	0.509203,
	1.12298,
	0.641198,
	0.729426,
	-0.376242,
	-0.511154,
	-1.18866,
	-0.00136625,
	-0.00588801,
	-0.259056,
	0.412912,
	0.305448,
	-0.619767,
	-0.602317,
	-0.348966,
	0.432422,
	1.27931,
	1.92267,
	0.625141,
	0.330875,
	0.43623,
	0.160685,
	0.0270958,
	-0.845902,
	-1.54708,
	-0.714444,
	-0.54153,
	-0.177929,
	0.911366,
	1.4569,
	0.885194,
	0.764925,
	-0.133174,
	-0.474432,
	-0.428882,
	-0.291294,
	0.756635,
	-0.417518,
	0.0575791,
	0.618124,
	0.77282,
	0.560586,
	0.258665,
	-0.351888,
	0.407181,
	0.504473,
	0.834431,
	0.698296,
	-0.671338,
	-0.57937,
	-1.39824,
	-1.51796,
	-1.41523,
	-0.191778,
	-0.214689,
	0.794232,
	1.08764,
	1.57515,
	1.36756,
	0.648707,
	0.249764,
	0.468164,
	-0.100104,
	-0.309358,
	0.728767,
	-0.155364,
	-0.235783,
	-0.0832287,
	-0.721771,
	-0.594304,
	-0.111172,
	-0.00953692,
	-0.29498,
	0.598571,
	0.173487,
	0.271889,
	-0.547772,
	-0.241766,
	-1.36978,
	-1.55231,
	-1.85072,
	-0.567859,
	0.322282,
	1.30838,
	1.59044,
	1.52728,
	2.4905,
	1.32613,
	0.0545542,
	-0.536771,
	-1.06825,
	3.22961,
	2.15604,
	-0.113723,
	-0.267136,
	-0.807702,
	-0.810741,
	0.585914,
	0.839128,
	-0.281122,
	-0.482399,
	0.279087,
	0.718771,
	0.572614,
	0.921254,
	0.806778,
	-0.429715,
	-0.870318,
	-1.65353,
	-0.902086,
	0.773071,
	-0.540549,
	-0.471506,
	-0.662805,
	0.654582,
	0.0832223,
	-0.874469,
	-0.102707,
	-0.551025,
	2.09314,
	1.08085,
	-0.478747,
	0.0399949,
	0.0533057,
	0.190369,
	1.09622,
	0.447347,
	0.01941,
	-0.264678,
	0.766596,
	-0.237842,
	0.528468,
	-0.647178,
	-0.206113,
	-0.174505,
	-1.53999,
	-1.78392,
	-0.875348,
	0.443913,
	-0.0495495,
	-0.409868,
	-1.89106,
	-1.21106,
	0.313171,
	-0.933062,
	-1.02998,
	-0.359775,
	0.465942,
	0.624743,
	-0.112678,
	0.418072,
	0.87904,
	0.482454,
	0.222241,
	1.16358,
	0.215101,
	0.724237,
	0.67908,
	0.0242448,
	-0.490401,
	-0.763877,
	-0.588843,
	0.224609,
	-1.72794,
	-1.7269,
	-0.868385,
	-2.31383,
	-0.513701,
	-0.605891,
	-1.13071,
	-0.0301331,
	1.03531,
	0.282831,
	-1.30873,
	-1.20367,
	0.839267,
	0.958504,
	0.391311,
	-0.783223,
	1.03039,
	1.09664,
	0.536769,
	0.157035,
	0.481875,
	0.742904,
	0.505776,
	-0.532638,
	-0.876117,
	-0.891669,
	0.223416,
	-0.466679,
	-1.10537,
	-1.05987,
	-1.12122,
	-0.763516,
	-0.886195,
	-0.436215,
	-0.855451,
	1.02721,
	-0.0788713,
	-0.0387546,
	-2.48276,
	-1.84367,
	1.89904,
	0.205541,
	0.744955,
	0.513114,
	0.595045,
	1.38326,
	0.579055,
	0.143534,
	0.559444,
	1.10664,
	0.984888,
	0.850829,
	1.09387,
	0.276583,
	-0.258041,
	-0.919024,
	-0.0940791,
	-1.22233,
	-0.573969,
	-0.513073,
	-1.32195,
	-0.183306,
	0.0180286,
	-0.400981,
	-0.41836,
	-0.266926,
	-0.500191,
	-0.0344482,
	0.556772,
	0.315501,
	1.52938,
	-0.216643,
	0.775716,
	-0.473157,
	0.383872,
	1.24458,
	1.28131,
	1.4039,
	0.893434,
	0.114754,
	0.173529,
	-0.168815,
	-0.249743,
	-0.3157,
	-0.628022,
	-1.23633,
	-1.38296,
	-2.13374,
	-1.84182,
	-0.899042,
	0.0949952,
	-2.10804,
	-0.288025,
	0.210046,
	-0.253978,
	0.438207,
	0.0767563,
	0.684386,
	0.115587,
	0.0804294,
	-0.427795,
	0.638696,
	0.449493,
	0.65686,
	0.498316,
	0.973911,
	0.716067,
	0.436209,
	0.524145,
	0.404726,
	-0.748044,
	0.317891,
	-0.249465,
	0.432242,
	-1.87622,
	-1.68252,
	-1.37643,
	-1.34944,
	-2.0615,
	-2.06679,
	-1.78751,
	-0.469571,
	-0.759933,
	-1.29917,
	0.503386,
	-0.13986,
	-0.04737,
	-0.0356383,
	-0.152591,
	0.853839,
	0.797406,
	-0.65646,
	1.43836,
	1.85452,
	2.02507,
	1.92095,
	2.32475,
	1.51536,
	0.458037,
	0.387039,
	0.0127097,
	0.0679867,
	-0.417537,
	-0.587185,
	-0.916328,
	-0.0741856,
	-2.55349,
	-1.52237,
	-1.60893,
	-0.973582,
	0.0875106,
	-1.47793,
	-0.286659,
	0.328703,
	0.222404,
	-0.304058,
	0.656677,
	1.55931,
	1.14592,
	0.507696,
	1.12388,
	1.40569,
	2.06086,
	0.741662,
	0.634991,
	0.467183,
	-0.0908926,
	-0.297858,
	-0.288032,
	0.288576,
	-0.0862867,
	-0.0886178,
	0.458716,
	-0.873382,
	-0.900981,
	-0.985379,
	-1.40437,
	-0.387254,
	-1.2087,
	-1.15536,
	-0.257478,
	0.496844,
	0.00225722,
	0.367199,
	-0.703855,
	0.917432,
	1.07536,
	0.396507,
	1.01875,
	0.717716,
	0.992337,
	0.927282,
	0.472331,
	0.0407053,
	-0.433414,
	-0.370888,
	-0.424217,
	-0.177871,
	-0.620773,
	-0.224387,
	-0.0396626,
	-0.68039,
	-1.03852,
	-0.682331,
	-1.24404,
	-1.2412,
	-1.11441,
	-1.03152,
	0.00661791,
	0.476504,
	0.698046,
	0.577936,
	-0.398974,
	-0.0351765,
	0.56845,
	1.43893,
	0.0345334,
	0.0730282,
	0.344189,
	1.01992,
	0.503374,
	0.0800035,
	0.0229291,
