//SIDE: 28
float Network_weights[20384] = {
	-0.0186757,
	-0.500537,
	-0.115274,
	0.252266,
	-0.276818,
	-0.481892,
	0.225294,
	0.170712,
	-0.150978,
	-0.0971973,
	0.201421,
	0.238452,
	0.129416,
	0.0356676,
	0.129688,
	-0.105723,
	-0.0134864,
	0.359243,
	0.185524,
	0.250434,
	-0.0734598,
	0.0993714,
	0.213322,
	0.00552102,
	-0.39404,
	0.105263,
	0.141653,
	-0.107696,
	-0.198676,
	0.0897394,
	0.0474892,
	-0.689453,
	-0.151972,
	0.576382,
	0.106282,
	-0.240607,
	0.1285,
	0.245554,
	0.149852,
	-0.226986,
	0.166616,
	-0.411125,
	0.332257,
	0.228028,
	0.248355,
	0.0620341,
	-0.303626,
	-0.0638975,
	0.211071,
	-0.138448,
	-0.243565,
	0.15591,
	0.0994033,
	0.289522,
	-0.244853,
	0.0993945,
	0.526108,
	-0.372923,
	-0.364788,
	0.417654,
	-0.16063,
	-0.407519,
	0.0882279,
	-0.00255583,
	-0.0468209,
	-0.302894,
	0.0594516,
	-0.107058,
	0.497204,
	0.0473387,
	0.0757541,
	0.121522,
	-0.0260582,
	-0.273245,
	0.0610844,
	-0.309317,
	-0.0216729,
	-0.036415,
	0.0139873,
	0.439691,
	-0.0698875,
	-0.163099,
	-0.190767,
	0.077933,
	0.0115953,
	0.0386642,
	-0.623842,
	-0.33721,
	0.0240695,
	0.272188,
	0.0177996,
	-0.388444,
	-0.0334277,
	-0.669639,
	0.433586,
	-0.460731,
	0.445979,
	0.330917,
	-0.0130274,
	-0.244888,
	-0.0704959,
	0.216003,
	0.157307,
	0.0153612,
	0.161022,
	0.394339,
	-0.202863,
	-0.317946,
	-0.461852,
	-0.242692,
	0.31398,
	-0.616862,
	-0.10404,
	-0.504167,
	-0.072075,
	0.30731,
	0.0714871,
	-0.661932,
	-0.236741,
	-0.403763,
	0.435425,
	-0.384623,
	0.489627,
	0.0799071,
	0.254429,
	0.105765,
	0.000409335,
	0.41801,
	0.32049,
	0.124936,
	0.180283,
	0.712483,
	-0.21919,
	-0.350235,
	-0.115471,
	-0.667712,
	0.03492,
	-0.724173,
	-0.64244,
	-0.181313,
	-0.239942,
	0.0413701,
	-0.0101797,
	-0.475198,
	-0.115215,
	-0.298152,
	0.40681,
	-0.0412451,
	0.283248,
	0.190851,
	0.16813,
	0.298398,
	0.203035,
	0.250662,
	0.396977,
	0.0954562,
	0.224307,
	0.505816,
	-0.334101,
	-0.552523,
	-0.10999,
	-0.568681,
	-0.0731103,
	-0.527312,
	-0.927906,
	0.167665,
	-0.460397,
	0.0223079,
	0.151076,
	-0.361859,
	0.190894,
	-0.503412,
	0.442338,
	-0.0135747,
	0.151354,
	0.189071,
	0.138345,
	0.46471,
	0.334722,
	0.356166,
	0.317142,
	0.152244,
	0.239241,
	0.412501,
	-0.24242,
	-0.52207,
	-0.122824,
	-0.199719,
	-0.102532,
	-0.546804,
	-0.487498,
	0.100561,
	-0.0892252,
	-0.15745,
	0.144741,
	-0.257985,
	0.321636,
	-0.0455421,
	0.297192,
	-0.169227,
	0.142585,
	0.0315103,
	0.0361301,
	0.325664,
	0.245119,
	0.0607264,
	0.248373,
	0.0722367,
	0.335662,
	0.292285,
	-0.0774589,
	-0.451519,
	-0.115433,
	-0.260078,
	-0.196602,
	-0.317818,
	-0.323638,
	0.206729,
	-0.355242,
	-0.325107,
	0.171729,
	-0.259122,
	0.0880818,
	0.0483392,
	0.201068,
	-0.0957249,
	0.131053,
	0.0119314,
	0.094782,
	0.417872,
	0.284547,
	0.0719928,
	0.0663893,
	0.0685666,
	0.159773,
	0.321521,
	0.0892045,
	-0.177382,
	-0.161257,
	-0.425335,
	-0.174096,
	-0.0449202,
	-0.122195,
	0.151531,
	-0.357744,
	-0.424222,
	0.0278615,
	-0.299693,
	-0.17536,
	-0.0832614,
	0.219072,
	0.0523505,
	0.11471,
	-0.057787,
	0.123471,
	0.565379,
	0.174791,
	0.253304,
	-0.0864443,
	-0.0397557,
	0.0443403,
	0.159662,
	0.0173255,
	-0.0948208,
	-0.0628731,
	-0.240735,
	0.0200269,
	0.136685,
	0.0689857,
	0.0860256,
	-0.31753,
	-0.261006,
	-0.169799,
	-0.095086,
	-0.249438,
	-0.207254,
	0.286672,
	0.0112425,
	0.0179601,
	-0.257436,
	0.0905276,
	0.343945,
	0.373843,
	0.159679,
	0.00421994,
	-0.00305397,
	0.0501126,
	0.156391,
	-0.0870612,
	-0.153476,
	0.097967,
	0.066263,
	0.119306,
	0.105194,
	-0.21392,
	0.121908,
	-0.193344,
	-0.256343,
	-0.0273692,
	0.0160848,
	-0.0442633,
	-0.242257,
	0.176506,
	-0.401791,
	0.0271241,
	-0.230753,
	0.149245,
	0.311077,
	0.0693875,
	0.318135,
	-0.0665298,
	-0.0487371,
	-0.2133,
	0.173108,
	-0.123031,
	-0.0303512,
	-0.0378555,
	0.190703,
	0.155395,
	0.0793112,
	-0.124893,
	0.116497,
	-0.122571,
	-0.15429,
	0.220112,
	0.0413818,
	-0.0692613,
	-0.188625,
	0.214889,
	-0.355715,
	-0.0149001,
	-0.363585,
	-0.0868509,
	0.301914,
	-0.14388,
	0.414244,
	-0.0402889,
	0.021093,
	-0.190503,
	0.10218,
	0.0155328,
	-0.148484,
	-0.0648572,
	0.102947,
	0.121737,
	0.153109,
	-0.0208304,
	0.194882,
	0.134776,
	-0.132441,
	-0.0170413,
	0.0553887,
	-0.226891,
	-0.162151,
	0.269299,
	-0.129287,
	-0.052137,
	-0.276265,
	-0.0922563,
	0.23411,
	-0.124613,
	0.325055,
	-0.117012,
	0.0182411,
	0.00407661,
	0.0151422,
	0.0496086,
	0.0660055,
	-0.113624,
	0.0572682,
	-0.145703,
	0.163936,
	-0.124649,
	0.0526078,
	-0.140893,
	0.0597335,
	-0.058073,
	0.123793,
	-0.300867,
	-0.0521338,
	0.270545,
	-0.341137,
	0.00358946,
	-0.184922,
	0.012925,
	0.126208,
	0.179043,
	0.333458,
	0.119577,
	0.00882886,
	0.305394,
	0.05255,
	-0.172295,
	-0.219498,
	-0.170457,
	0.141917,
	-0.0628358,
	0.155705,
	0.139659,
	-0.0531709,
	-0.468827,
	0.187771,
	0.113832,
	0.189006,
	-0.0112059,
	-0.0135487,
	0.199698,
	-0.468885,
	-0.0198594,
	-0.301346,
	0.0136462,
	0.234728,
	-0.0258861,
	0.171241,
	0.181485,
	0.0214622,
	0.211514,
	-0.0773579,
	-0.104808,
	-0.135378,
	-0.163056,
	0.195736,
	-0.20112,
	0.0405863,
	-0.182618,
	-0.00802923,
	-0.055398,
	0.231554,
	0.192691,
	-0.139388,
	-0.0700769,
	-0.178098,
	0.205223,
	0.0638738,
	0.0413127,
	-0.41605,
	0.111897,
	0.0747038,
	0.127148,
	0.244318,
	-6.86095e-05,
	0.0593478,
	0.199005,
	0.0634079,
	-0.114367,
	-0.560044,
	-0.134579,
	0.0245125,
	-0.328719,
	-0.0212053,
	-0.0269722,
	-0.110269,
	0.112824,
	0.375737,
	0.276657,
	-0.206259,
	0.0136398,
	-0.0365245,
	0.269148,
	0.030677,
	0.0534654,
	-0.258172,
	0.148195,
	0.0232522,
	-0.120065,
	0.105212,
	0.156424,
	0.101621,
	0.256736,
	0.0428649,
	-0.21895,
	-0.459117,
	-0.0907562,
	-0.132773,
	-0.0903214,
	-0.0976008,
	-0.081494,
	-0.192719,
	-0.126368,
	0.328124,
	0.12249,
	-0.182245,
	-0.220862,
	-0.0683418,
	0.262881,
	0.272416,
	0.0160257,
	-0.0658484,
	0.23625,
	0.103505,
	0.162285,
	-0.00342999,
	0.0518252,
	0.214099,
	0.322137,
	0.137304,
	-0.0063851,
	-0.428151,
	0.0188576,
	-0.157375,
	-0.0560718,
	-0.0714705,
	0.126132,
	-0.201722,
	-0.131395,
	0.347096,
	0.0557185,
	-0.00698708,
	-0.585506,
	-0.089632,
	0.184482,
	0.032201,
	-0.067401,
	-0.0238668,
	0.204734,
	-0.0728529,
	-0.0342234,
	0.122094,
	0.0314674,
	0.210409,
	0.359132,
	0.168882,
	-0.0345043,
	-0.372227,
	-0.007089,
	-0.105446,
	0.230182,
	-0.0854719,
	0.0457096,
	-0.165645,
	-0.30084,
	0.373133,
	0.0181889,
	-0.207632,
	-0.580203,
	-0.135863,
	0.216254,
	0.164757,
	-0.127652,
	-0.0861484,
	0.273635,
	-0.107041,
	0.00844335,
	0.0121269,
	-0.0209469,
	0.162399,
	0.426189,
	0.270411,
	-0.0250432,
	-0.125236,
	-0.0401123,
	0.0555702,
	0.227236,
	-0.152334,
	0.14891,
	-0.262061,
	-0.152319,
	0.185059,
	0.068078,
	-0.260183,
	-0.756044,
	-0.329617,
	0.197098,
	0.0854905,
	-0.0384707,
	-0.210584,
	0.135038,
	-0.0857682,
	-0.108513,
	-0.0272741,
	-0.116626,
	0.303576,
	0.493429,
	0.342525,
	0.149993,
	-0.207484,
	-0.126278,
	0.412412,
	0.561435,
	-0.279563,
	-0.0891147,
	-0.312542,
	-0.381668,
	0.235155,
	0.350642,
	-0.502894,
	-0.750038,
	-0.391072,
	0.230261,
	0.064619,
	-0.210568,
	-0.413978,
	-0.0231297,
	0.012184,
	-0.795513,
	-0.0326013,
	-0.158285,
	0.414156,
	0.411044,
	0.508327,
	0.194964,
	0.284045,
	-0.488937,
	0.311283,
	0.327802,
	-0.371364,
	-0.119495,
	0.221249,
	-0.191693,
	-0.207961,
	0.0174844,
	-0.39358,
	-0.441578,
	-0.717411,
	0.225897,
	-0.388991,
	-0.105471,
	-0.330393,
	-0.16108,
	0.07264,
	0.0503575,
	0.174616,
	-0.253873,
	0.389032,
	0.133858,
	0.257801,
	-0.0989393,
	0.315471,
	0.0815946,
	0.161042,
	0.226462,
	-0.482268,
	-0.389839,
	0.35376,
	-0.657334,
	-0.27001,
	-0.047843,
	-0.288711,
	-0.188491,
	-0.380399,
	-0.0519016,
	0.0786167,
	-0.266005,
	-0.153572,
	-0.34985,
	0.395534,
	0.164808,
	0.323527,
	0.0593232,
	0.148615,
	0.315983,
	-0.292467,
	0.109527,
	0.0790581,
	0.182886,
	-0.16314,
	-0.108731,
	-0.477809,
	-0.308082,
	0.543415,
	-0.0895416,
	-0.0256252,
	0.313297,
	-0.150791,
	0.0253321,
	-0.0203691,
	-0.148459,
	0.070868,
	0.116618,
	-0.0411583,
	-0.411195,
	0.361329,
	-0.134533,
	-0.177105,
	0.504499,
	-0.0685106,
	0.165042,
	-0.624394,
	-0.0185473,
	0.15887,
	0.138698,
	-0.378714,
	-0.381877,
	-0.147388,
	-0.582585,
	0.608641,
	-0.292602,
	0.330482,
	0.153781,
	0.124834,
	0.320298,
	0.00820833,
	0.0165086,
	0.525438,
	0.336962,
	-0.0237578,
	-0.0463926,
	0.157915,
	0.226282,
	-0.46332,
	0.306727,
	-0.0612338,
	-0.186754,
	-0.867468,
	0.148821,
	0.149937,
	-0.267736,
	-0.400348,
	-0.714041,
	0.126006,
	-0.591051,
	0.122508,
	-0.161351,
	0.496554,
	0.00384138,
	0.262016,
	0.478514,
	0.328698,
	0.199793,
	0.47365,
	0.240548,
	0.122266,
	0.0286778,
	0.171996,
	0.19374,
	-0.025708,
	0.172717,
	-0.074513,
	-0.111697,
	-0.173115,
	-0.201725,
	-0.354761,
	-0.0749555,
	-0.216242,
	0.134265,
	0.0808774,
	0.13346,
	0.0203023,
	-0.0533248,
	0.016204,
	-0.217752,
	0.0436329,
	0.494706,
	-0.0280802,
	0.106877,
	0.363489,
	0.28352,
	-0.112082,
	0.123603,
	0.25383,
	-0.166099,
	0.215768,
	-0.420686,
	-0.0754028,
	0.322812,
	-0.251281,
	-0.162529,
	0.0389727,
	-0.497026,
	-0.218134,
	-0.0828483,
	0.212379,
	0.300974,
	-0.108971,
	-0.40355,
	0.069811,
	-0.14716,
	0.0649915,
	0.280774,
	-0.0276303,
	0.0767425,
	0.255621,
	0.0831263,
	0.0546855,
	0.0859286,
	0.288168,
	-0.110823,
	0.147175,
	-0.133133,
	0.109237,
	0.244775,
	-0.0112711,
	-0.178181,
	-0.182955,
	-0.241497,
	0.190915,
	-0.301335,
	0.193497,
	0.0756345,
	-0.243368,
	-0.0430606,
	0.0866894,
	-0.305281,
	0.00936051,
	0.222201,
	-0.267958,
	0.299173,
	0.000169595,
	0.298049,
	0.337494,
	0.00648766,
	0.0723641,
	0.0592799,
	-0.134197,
	-0.142442,
	0.051946,
	0.206791,
	-0.0851545,
	-0.189492,
	-0.450832,
	-0.117815,
	0.123775,
	0.137453,
	0.0815392,
	0.00172466,
	-0.15174,
	0.13269,
	0.138095,
	-0.118421,
	-0.521989,
	0.18705,
	-0.158976,
	0.231809,
	-0.336382,
	0.263144,
	-0.0164841,
	0.161226,
	-0.00396053,
	0.0343825,
	0.321501,
	0.146058,
	0.111994,
	0.216256,
	0.0817964,
	-0.368323,
	-0.136322,
	-0.127299,
	0.068618,
	-0.23929,
	-0.153645,
	0.0660184,
	-0.130526,
	-0.289556,
	0.0812978,
	-0.0493423,
	-0.521729,
	0.217593,
	-0.237538,
	0.185582,
	0.1662,
	0.225198,
	-0.0557701,
	0.073497,
	0.206907,
	0.193416,
	0.336043,
	0.316269,
	0.132107,
	0.142217,
	0.336985,
	-0.249829,
	-0.355483,
	-0.130145,
	0.00930222,
	-0.186132,
	-0.119173,
	-0.121848,
	-0.0228896,
	-0.0207508,
	0.0036184,
	-0.129402,
	-0.279215,
	-0.0359839,
	-0.301684,
	0.160144,
	0.112967,
	0.153506,
	-0.0241086,
	0.113311,
	0.221388,
	0.17626,
	0.283198,
	0.309624,
	0.187419,
	0.155897,
	0.371608,
	-0.140882,
	-0.212818,
	-0.200715,
	-0.0538261,
	-0.378449,
	-0.0103812,
	-0.0320702,
	-0.124278,
	-0.0546779,
	0.134943,
	-0.132941,
	-0.175203,
	-0.0359337,
	-0.213611,
	0.145461,
	0.0875615,
	0.112473,
	-0.0641128,
	0.0271615,
	0.152695,
	0.146978,
	0.217158,
	0.233909,
	0.230864,
	0.175497,
	0.352658,
	-0.154793,
	-0.227881,
	-0.227835,
	-0.129564,
	-0.272387,
	-0.0466444,
	0.108587,
	-0.0177308,
	-0.0790636,
	0.0918891,
	0.00137584,
	-0.0848095,
	-0.127765,
	-0.131499,
	0.133924,
	0.0685515,
	0.0764217,
	-0.0594585,
	-0.00588121,
	0.147438,
	0.0867066,
	0.204053,
	0.191771,
	0.225799,
	0.18626,
	0.315382,
	-0.196572,
	-0.1949,
	-0.19602,
	-0.165551,
	-0.223085,
	-0.0445805,
	-0.0129341,
	0.0442162,
	-0.132153,
	0.105122,
	0.00348436,
	-0.065109,
	0.0620442,
	-0.132529,
	0.139243,
	0.0336945,
	0.0522644,
	-0.0411906,
	-0.0650519,
	0.176587,
	0.0795696,
	0.199174,
	0.161889,
	0.204881,
	0.0708041,
	0.302788,
	-0.188876,
	-0.180236,
	-0.14421,
	-0.18499,
	-0.0418072,
	-0.0726251,
	-0.021559,
	0.0156644,
	-0.101895,
	0.114487,
	0.124684,
	-0.0350375,
	-0.148548,
	-0.0951468,
	0.13772,
	0.0514396,
	0.00694436,
	0.0755954,
	-0.056754,
	0.221054,
	0.0195336,
	0.17265,
	0.118009,
	0.21629,
	0.0301177,
	0.293081,
	-0.208089,
	-0.130137,
	-0.0628531,
	-0.271847,
	-0.0423021,
	-0.0807889,
	-0.0896628,
	0.0140034,
	-0.0539425,
	0.104047,
	0.0386699,
	-0.0341139,
	-0.0360727,
	-0.0907903,
	0.132764,
	0.0254029,
	0.00316933,
	0.119269,
	0.0100311,
	0.216969,
	0.0608699,
	0.16297,
	0.0940599,
	0.166558,
	0.161853,
	0.294835,
	-0.167248,
	-0.0973091,
	-0.18855,
	-0.149588,
	-0.0877554,
	-0.0793478,
	-0.0543735,
	-0.00102937,
	-0.0854237,
	0.0874981,
	0.0668437,
	-0.0452015,
	-0.148123,
	-0.0894004,
	0.131914,
	0.0246845,
	-0.0027521,
	0.0977076,
	0.0230841,
	0.255746,
	0.00450844,
	0.158676,
	0.0968833,
	0.165721,
	0.191582,
	0.293197,
	-0.169465,
	-0.108939,
	-0.185532,
	-0.139331,
	0.0775985,
	-0.0775261,
	0.0731451,
	-0.022527,
	-0.0762737,
	0.00194836,
	0.148856,
	-0.0358741,
	-0.283186,
	-0.0487459,
	0.130474,
	-0.00184483,
	0.0188056,
	-0.12146,
	0.0142235,
	0.250357,
	-0.00873213,
	0.144623,
	0.124964,
	0.178075,
	0.157022,
	0.288527,
	-0.153107,
	-0.137988,
	-0.178751,
	-0.095586,
	-0.0024981,
	-0.0703738,
	-0.0568876,
	-0.0471599,
	-0.130497,
	0.0790785,
	0.0741943,
	-0.0432566,
	-0.100398,
	-0.0310201,
	0.127877,
	-0.0277579,
	0.00793832,
	-0.0778616,
	0.0147647,
	0.247577,
	-0.011568,
	0.151053,
	0.132766,
	0.175437,
	0.158256,
	0.290214,
	-0.153406,
	-0.138296,
	-0.172628,
	-0.0869806,
	0.0496443,
	-0.0573724,
	-0.101225,
	-0.0364937,
	-0.121748,
	0.0791541,
	0.119762,
	-0.0393691,
	-0.248267,
	-0.0462021,
	0.126311,
	-0.0245537,
	-0.00138111,
	0.0509919,
	0.0329311,
	0.214978,
	0.0160673,
	0.156947,
	0.101198,
	0.168587,
	0.1521,
	0.28436,
	-0.174973,
	-0.1251,
	-0.208353,
	-0.100991,
	0.160635,
	-0.080058,
	0.0074317,
	-0.0160794,
	-0.0866842,
	0.0693519,
	0.136659,
	-0.0707979,
	-0.255425,
	0.00516375,
	0.124584,
	-0.0258371,
	0.00310217,
	-0.17242,
	0.0161741,
	0.206858,
	0.00176564,
	0.139039,
	0.126704,
	0.158346,
	0.127279,
	0.287752,
	-0.187644,
	-0.278398,
	-0.207719,
	-0.0955239,
	0.0480644,
	-0.0535494,
	-0.00549357,
	-0.0509929,
	-0.117308,
	0.0986888,
	0.0987969,
	-0.0862945,
	-0.0436413,
	0.0802895,
	0.11445,
	-0.0229637,
	0.00100316,
	-0.133138,
	0.0491431,
	0.201854,
	0.0280725,
	0.140785,
	0.126526,
	0.155505,
	0.154872,
	0.292695,
	-0.194779,
	-0.256504,
	-0.223562,
	-0.157079,
	0.0405453,
	-0.0552635,
	-0.0328653,
	-0.0590395,
	-0.116084,
	0.102783,
	0.0842516,
	-0.0502352,
	-0.0420201,
	0.0748249,
	0.116029,
	-0.0192539,
	-0.00599979,
	-0.0644229,
	0.0710891,
	0.225889,
	0.0433279,
	0.136917,
	0.103009,
	0.158289,
	0.156347,
	0.297726,
	-0.187416,
	-0.276219,
	-0.222939,
	-0.13847,
	0.000770193,
	-0.0564443,
	-0.0668714,
	-0.0712045,
	-0.0973837,
	0.103146,
	0.0825465,
	-0.0956275,
	0.0337853,
	0.0679895,
	0.118344,
	-0.021665,
	0.00072967,
	-0.092191,
	0.0627121,
	0.208633,
	0.0501815,
	0.138527,
	0.129213,
	0.167879,
	0.0963791,
	0.290047,
	-0.170421,
	-0.296044,
	-0.135426,
	-0.21665,
	0.0332561,
	-0.0232224,
	0.00877514,
	-0.0723725,
	-0.0938844,
	0.1091,
	0.054593,
	-0.0900723,
	-0.0817707,
	0.0843112,
	0.124628,
	0.00627508,
	0.00674498,
	-0.0493255,
	0.109261,
	0.0454432,
	0.0529328,
	0.148698,
	0.126612,
	0.209896,
	0.175176,
	0.202636,
	-0.183967,
	-0.229618,
	-0.0935169,
	-0.0800765,
	0.144037,
	-0.0165104,
	0.0509369,
	-0.0603984,
	-0.0564107,
	0.11456,
	0.0554681,
	-0.074311,
	-0.26562,
	0.0946484,
	0.130664,
	-0.123403,
	0.0256444,
	-0.0304735,
	0.1725,
	-0.165474,
	0.0738454,
	0.178819,
	0.0683305,
	0.245113,
	0.191238,
	0.20387,
	-0.225217,
	-0.197654,
	-0.152733,
	0.0171889,
	0.178525,
	-0.00797617,
	0.103503,
	-0.046059,
	-0.0644812,
	0.15617,
	0.0423328,
	-0.0732025,
	-0.307227,
	0.113868,
	0.15784,
	-0.065886,
	0.0322401,
	-0.216673,
	0.197963,
	-0.153455,
	0.0349977,
	0.195923,
	-0.0498977,
	0.248862,
	0.182162,
	0.285759,
	-0.138695,
	-0.312631,
	-0.0468139,
	0.202773,
	0.347702,
	0.0309183,
	0.199872,
	-0.0864542,
	-0.193189,
	0.115516,
	0.111858,
	-0.069563,
	-0.682028,
	0.138379,
	0.259503,
	-0.0391515,
	-0.145494,
	-0.510907,
	0.216637,
	0.12118,
	-0.215302,
	0.211493,
	-0.284076,
	0.254933,
	0.198379,
	0.181971,
	-0.0851367,
	-0.220116,
	-0.282978,
	0.156057,
	0.458016,
	-0.0557351,
	0.313643,
	0.153683,
	-0.0309085,
	0.0658881,
	0.0742009,
	-0.304415,
	-0.549371,
	-0.236471,
	0.30008,
	-0.0232202,
	0.0289655,
	-0.686372,
	0.0301481,
	0.164658,
	0.0813738,
	0.327766,
	-0.611328,
	0.368023,
	0.0729966,
	-0.0177725,
	-0.151297,
	0.226934,
	0.0801893,
	0.0424944,
	0.134222,
	-0.360196,
	0.238356,
	0.273417,
	-0.284376,
	-0.0776367,
	0.228057,
	-0.508421,
	-0.0631961,
	0.194568,
	0.327806,
	0.134534,
	-0.0915259,
	-0.607854,
	-0.32073,
	-0.177101,
	-0.022268,
	0.473059,
	-0.390654,
	0.382969,
	0.0292333,
	-0.0463365,
	-0.072647,
	0.00626921,
	0.258329,
	0.0859433,
	-0.0400631,
	-0.197759,
	0.187487,
	0.251997,
	-0.0104578,
	-0.122769,
	0.183717,
	-0.283726,
	-0.0918261,
	0.158852,
	0.206317,
	0.00538785,
	0.209767,
	-0.426132,
	-0.293462,
	-0.220806,
	0.122726,
	0.217449,
	-0.116523,
	0.126687,
	0.115695,
	-0.377295,
	0.114279,
	-0.418451,
	0.063755,
	-0.0643052,
	-0.512134,
	0.00339321,
	-0.292507,
	0.228539,
	-0.196478,
	0.252401,
	0.314145,
	-0.164481,
	0.074786,
	0.230269,
	0.403302,
	0.276845,
	0.245685,
	-0.207049,
	0.255046,
	-0.323718,
	0.451818,
	0.221943,
	-0.190067,
	0.0979806,
	-0.100683,
	0.133855,
	0.284758,
	-0.531326,
	-0.117595,
	-0.178442,
	-1.04769,
	0.121389,
	-0.368151,
	-0.122409,
	-0.0570047,
	0.440779,
	0.355753,
	0.112663,
	0.257484,
	0.130923,
	0.188338,
	0.549467,
	-0.319641,
	0.0593184,
	0.130048,
	-0.472941,
	0.0615748,
	0.249021,
	0.147186,
	0.0485571,
	-0.274221,
	0.136447,
	0.117812,
	-0.273198,
	0.195,
	-0.271226,
	0.219095,
	-0.268007,
	-0.542903,
	-0.211084,
	0.204465,
	-0.0189319,
	-0.0787613,
	0.227582,
	-0.202486,
	0.219257,
	-0.0737647,
	0.262789,
	0.282308,
	-0.0524628,
	0.199231,
	0.265235,
	-0.103575,
	0.0952863,
	-0.122301,
	-0.0908882,
	0.33083,
	-0.138713,
	-0.0637344,
	0.170186,
	0.172711,
	-0.353401,
	0.102001,
	0.0776905,
	-0.198389,
	-0.346117,
	0.0409007,
	0.0783263,
	-0.398549,
	0.0443067,
	-0.121413,
	-0.0244117,
	0.0865258,
	0.102487,
	0.164149,
	0.0528333,
	0.162415,
	0.22289,
	0.0784282,
	0.0024929,
	-0.0213001,
	-0.00380168,
	0.334626,
	0.0461668,
	-0.165206,
	-0.198051,
	0.0627749,
	-0.0245431,
	-0.237715,
	0.350033,
	-0.0770913,
	-0.29611,
	-0.0448747,
	0.0724477,
	-0.334709,
	-0.178982,
	0.162908,
	-0.0602274,
	0.205175,
	0.0660093,
	0.0866113,
	0.271684,
	0.0375205,
	0.139464,
	0.080936,
	-0.261759,
	0.0219021,
	0.163,
	0.235651,
	-0.304297,
	-0.0751031,
	-0.337975,
	0.127692,
	-0.0778284,
	0.114764,
	0.21873,
	-0.172142,
	-0.211063,
	-0.134101,
	0.19039,
	0.111854,
	-0.610052,
	0.142756,
	-0.0236143,
	0.129091,
	0.204275,
	0.0537688,
	-0.0600131,
	0.0018662,
	0.104817,
	0.0503296,
	0.182426,
	0.171365,
	0.0962667,
	0.22306,
	-0.171608,
	-0.0205318,
	-0.2514,
	0.0797615,
	0.010817,
	-0.0348141,
	-0.14624,
	0.00787021,
	-0.161922,
	-0.0804514,
	0.17194,
	0.105713,
	-0.406164,
	-0.00203826,
	-0.055703,
	0.109908,
	0.181,
	0.0365418,
	-0.04896,
	0.0178896,
	0.0723369,
	0.187333,
	0.0790182,
	0.190076,
	0.0972137,
	0.172857,
	0.0933506,
	-0.0485678,
	-0.289955,
	7.66074e-05,
	0.0147284,
	0.123092,
	-0.0916182,
	-0.0680318,
	-0.107953,
	-0.00427278,
	0.0980658,
	-0.0712793,
	-0.140536,
	-0.181176,
	-0.0474174,
	0.0914508,
	0.135131,
	0.0474611,
	-0.0542429,
	0.000192216,
	0.0856522,
	0.106885,
	0.0706645,
	0.159046,
	0.0663413,
	0.123924,
	0.210463,
	-0.0270935,
	-0.401595,
	-0.0588774,
	0.0220166,
	-0.0670501,
	-0.0516104,
	-0.157164,
	0.00735435,
	-0.0171318,
	0.0749706,
	0.0517133,
	-0.0552458,
	0.110641,
	0.0253264,
	0.0696418,
	0.0760297,
	-0.0501229,
	-0.0242303,
	-0.0925836,
	0.116291,
	0.0383144,
	0.0369354,
	0.0769926,
	0.0396556,
	0.113633,
	0.214367,
	-0.0913282,
	-0.332064,
	-0.0556354,
	0.0012443,
	-0.0894235,
	-0.0541777,
	-0.131753,
	0.130103,
	-0.0083039,
	0.0521327,
	0.0502617,
	0.0233483,
	0.10638,
	0.0257916,
	0.0744832,
	0.0709396,
	-0.0471288,
	-0.102781,
	-0.0938423,
	0.15229,
	-0.00192261,
	0.0336455,
	0.0869804,
	0.0551226,
	0.104951,
	0.202427,
	-0.0276452,
	-0.305726,
	-0.111272,
	-0.000996066,
	-0.135881,
	-0.0657651,
	-0.155456,
	0.117622,
	-0.0162419,
	-0.0357803,
	0.00968449,
	0.0391247,
	0.174238,
	0.0173528,
	0.0662116,
	0.0728624,
	-0.0533298,
	-0.0251416,
	-0.0813796,
	0.144692,
	0.057205,
	0.0295636,
	0.0588811,
	0.0339125,
	0.115798,
	0.197069,
	0.0587234,
	-0.331393,
	-0.148544,
	-0.0133469,
	-0.147887,
	-0.0668472,
	-0.158187,
	0.136784,
	-0.0923934,
	-0.0331553,
	-0.0803486,
	0.0338295,
	0.215974,
	0.0121048,
	0.0630618,
	0.0889366,
	-0.0557153,
	-0.0342321,
	-0.0774113,
	0.155786,
	0.0470701,
	0.0378026,
	0.0450022,
	0.0163733,
	0.111013,
	0.191552,
	0.0079686,
	-0.226776,
	-0.0978731,
	-0.0160889,
	-0.0342429,
	-0.0809541,
	-0.129849,
	0.104591,
	0.00923299,
	0.0128612,
	-0.0777222,
	-0.0627087,
	0.0957124,
	0.00568011,
	0.0614658,
	0.0593756,
	-0.0539514,
	-0.0648384,
	-0.0740548,
	0.142087,
	0.0369668,
	0.0259037,
	0.0542729,
	0.0155017,
	0.0943376,
	0.183756,
	0.0571221,
	-0.308717,
	-0.180653,
	-0.00549653,
	-0.0708078,
	-0.0779618,
	-0.153181,
	0.138295,
	0.0581827,
	0.0425773,
	-0.0315322,
	0.0922963,
	0.101208,
	0.00356616,
	0.0475089,
	0.0435334,
	-0.058315,
	-0.0547481,
	-0.0946988,
	0.122795,
	0.049354,
	0.0115011,
	0.0426981,
	0.0124141,
	0.105044,
	0.184203,
	0.059046,
	-0.183631,
	-0.196608,
	-0.00692892,
	0.0226009,
	-0.0737217,
	-0.0609297,
	0.131996,
	0.0778745,
	0.0460995,
	-0.0755602,
	0.0886436,
	-0.0432781,
	0.0079307,
	0.0565462,
	0.0427021,
	-0.0514324,
	-0.162003,
	-0.0672151,
	0.144044,
	-0.113118,
	0.0109456,
	0.0658097,
	0.0142757,
	0.0975171,
	0.184298,
	0.0579329,
	-0.143015,
	-0.189801,
	-0.00489258,
	0.00888882,
	-0.084843,
	-0.0261959,
	0.0838365,
	0.0782992,
	0.0462158,
	-0.0804013,
	0.0861193,
	-0.0819668,
	0.0081515,
	0.0491652,
	0.0431735,
	-0.0511667,
	-0.191864,
	-0.0441505,
	0.123992,
	-0.0107909,
	0.00945526,
	0.0667418,
	0.0148511,
	0.102001,
	0.184802,
	0.0592934,
	-0.121316,
	-0.198056,
	-0.00900256,
	-0.0544116,
	-0.0548942,
	-0.017372,
	0.142821,
	0.00887933,
	0.0434891,
	-0.0694002,
	0.0873994,
	-0.0851203,
	0.00974354,
	0.0407565,
	0.0506469,
	-0.0527853,
	-0.186337,
	-0.00409994,
	0.138097,
	-0.0147285,
	0.0157017,
	0.063224,
	0.0154514,
	0.109243,
	0.183994,
	0.0606827,
	-0.129311,
	-0.235651,
	-0.00752389,
	-0.0245999,
	-0.0298973,
	0.0208004,
	0.131101,
	0.0810728,
	0.0439979,
	-0.0876035,
	0.0878074,
	-0.0775072,
	0.00931177,
	0.0439536,
	0.0454086,
	-0.0524836,
	-0.206613,
	0.0011529,
	0.143218,
	-0.173949,
	0.0125248,
	0.0679341,
	0.0170478,
	0.0974418,
	0.18411,
	0.0608109,
	-0.186769,
	-0.217039,
	-0.0264416,
	-0.0404255,
	-0.0561906,
	0.0345459,
	0.125676,
	0.0841975,
	0.0439174,
	-0.0667565,
	0.0844656,
	-0.0205061,
	0.0069147,
	0.0487063,
	0.0425239,
	-0.0527028,
	-0.233076,
	-0.059331,
	0.122749,
	-0.0142739,
	0.00961877,
	0.0721157,
	0.0142176,
	0.0870558,
	0.183452,
	0.0586573,
	-0.184347,
	-0.216123,
	-0.0413802,
	-0.0902276,
	-0.03715,
	0.0525223,
	0.096562,
	0.0817231,
	0.0431731,
	-0.0966282,
	0.0805438,
	0.0263381,
	0.00307479,
	0.0319287,
	0.0421423,
	-0.0535391,
	-0.235271,
	-0.00112012,
	0.111021,
	0.0305772,
	0.00692901,
	0.0716862,
	0.0127394,
	0.0894476,
	0.186912,
	0.0640939,
	-0.209803,
	-0.206451,
	-0.0422258,
	-0.0525112,
	-0.058998,
	0.0307241,
	0.127925,
	0.046851,
	0.0430006,
	-0.0910742,
	0.102419,
	-0.0436237,
	0.00386288,
	0.0324101,
	0.0484789,
	-0.0534395,
	-0.219725,
	0.0339364,
	0.122749,
	0.0520368,
	0.0108336,
	0.0668136,
	0.013619,
	0.0969967,
	0.187094,
	0.0671875,
	-0.241665,
	-0.207661,
	-0.0559026,
	-0.0376884,
	-0.0557691,
	0.0360623,
	0.12371,
	0.0932431,
	0.0442189,
	-0.0888544,
	0.106897,
	-0.0664292,
	0.00735725,
	0.0330262,
	0.0430323,
	-0.053383,
	-0.211068,
	0.0509695,
	0.120965,
	0.00610696,
	0.00945515,
	0.0665894,
	0.0155457,
	0.106607,
	0.205334,
	-0.00677007,
	-0.109229,
	-0.181075,
	-0.0366713,
	0.027569,
	-0.0542993,
	0.051062,
	0.130447,
	0.104347,
	0.0468797,
	-0.0668971,
	0.0387786,
	-0.204184,
	0.00979662,
	0.0390595,
	0.0450341,
	-0.0500405,
	-0.221712,
	0.0651232,
	0.159637,
	-0.108775,
	0.0443902,
	0.0815021,
	0.0344635,
	0.117773,
	0.217658,
	0.00176412,
	-0.124485,
	-0.211117,
	-0.133033,
	0.0230233,
	-0.0118966,
	0.0952628,
	0.152535,
	0.064894,
	0.064997,
	-0.0838481,
	0.0317608,
	-0.265413,
	0.0198392,
	0.0416195,
	0.0596585,
	-0.0429356,
	-0.252263,
	0.194854,
	0.174122,
	-0.135616,
	0.0646045,
	0.0964417,
	0.0532159,
	0.121756,
	0.206394,
	0.0348771,
	-0.18045,
	-0.23148,
	-0.0638911,
	-0.0698412,
	-0.0324854,
	0.0626705,
	0.153497,
	0.0477005,
	0.0299985,
	-0.0450066,
	-0.0223984,
	-0.110646,
	0.0256044,
	0.0376914,
	0.0673356,
	-0.0421628,
	-0.217775,
	0.179462,
	0.127163,
	-0.132522,
	0.0453442,
	0.0740509,
	0.0355653,
	0.132758,
	0.24093,
	-0.0240909,
	-0.180913,
	-0.425761,
	0.134351,
	0.258928,
	0.0960622,
	0.204441,
	0.154925,
	0.0684375,
	-0.0489244,
	-0.00417239,
	-0.128705,
	-0.343572,
	-0.437775,
	0.122949,
	0.29212,
	-0.025267,
	-0.202037,
	0.125677,
	0.0706436,
	-0.060358,
	0.173268,
	-0.37853,
	0.125589,
	0.0717765,
	-0.0551874,
	0.0783533,
	-0.210253,
	-0.349518,
	0.287517,
	0.177606,
	-0.118296,
	0.214117,
	0.123832,
	-0.0745491,
	-0.115837,
	0.0350588,
	-0.17873,
	-0.0843733,
	-0.0662174,
	0.172875,
	0.437592,
	0.0730117,
	-0.464485,
	-0.106737,
	-0.194077,
	-0.0425877,
	0.297208,
	-0.349836,
	0.29398,
	0.0376286,
	0.122304,
	0.0257288,
	-0.195611,
	-0.0197712,
	0.152235,
	-0.0733653,
	-0.0566517,
	0.508195,
	-0.0858238,
	-0.0197656,
	-0.144411,
	0.007956,
	-0.106006,
	-0.131034,
	0.0144933,
	0.294327,
	0.261091,
	-0.000378011,
	-0.534975,
	-0.165372,
	-0.390083,
	0.156916,
	0.256022,
	-0.117293,
	0.139731,
	-0.18047,
	0.190465,
	0.00335724,
	-0.187621,
	0.304081,
	-0.0429162,
	-0.330193,
	0.0836135,
	0.144551,
	-0.21233,
	0.0369745,
	-0.0552703,
	0.217584,
	-0.0400719,
	-0.191298,
	-0.0899014,
	0.495269,
	0.2485,
	0.033958,
	-0.401091,
	0.0934426,
	-0.355045,
	0.302997,
	0.0654234,
	-0.0894944,
	0.0314688,
	-0.129466,
	0.347074,
	-0.0881731,
	-0.168495,
	0.0664936,
	-0.219798,
	-0.551396,
	0.164003,
	-0.113953,
	-0.309035,
	0.211815,
	0.247687,
	0.183026,
	0.154087,
	-0.242345,
	-0.200887,
	0.174833,
	0.322755,
	-0.0103959,
	-0.100425,
	0.226485,
	-0.315881,
	-0.157724,
	0.276885,
	0.124341,
	0.200078,
	-0.217884,
	-0.0123211,
	0.2362,
	-0.189678,
	0.294423,
	-0.0188052,
	0.264034,
	-0.389358,
	-0.802977,
	-0.266972,
	-0.117317,
	-0.100225,
	0.25618,
	0.255794,
	0.0145062,
	0.234075,
	-0.0325096,
	0.277982,
	0.155946,
	-0.266346,
	0.0386059,
	0.278787,
	-0.197834,
	0.137584,
	-0.012784,
	-0.180752,
	0.254026,
	-0.00547338,
	0.106213,
	0.068138,
	0.145441,
	-0.0552585,
	0.26593,
	-0.225151,
	-0.3967,
	-0.13759,
	-0.183169,
	-0.132463,
	-0.365483,
	0.115048,
	-0.0401995,
	0.0997036,
	-0.0266346,
	0.0737754,
	0.0873902,
	-0.173853,
	0.159082,
	0.235583,
	0.176568,
	0.0163602,
	-0.188095,
	-0.100876,
	0.293406,
	-0.03316,
	0.0756405,
	-0.0968848,
	0.246198,
	0.121902,
	-0.15329,
	0.111927,
	-0.149047,
	-0.222101,
	-0.451091,
	-0.0319948,
	-0.29044,
	-0.112857,
	-0.129308,
	0.264198,
	0.147214,
	0.170785,
	0.0308217,
	-0.112726,
	0.0871678,
	0.29159,
	0.109488,
	-0.227587,
	0.0522884,
	0.00116054,
	0.159307,
	-0.329798,
	0.0983355,
	-0.0127054,
	0.207438,
	0.0750004,
	-0.0145715,
	0.180239,
	-0.156143,
	-0.265275,
	-0.0166101,
	0.0437066,
	-0.0200435,
	-0.538753,
	-0.0396565,
	0.0480537,
	0.0682007,
	-0.013682,
	-0.00267299,
	0.010434,
	0.146475,
	0.0924799,
	0.15718,
	0.103563,
	-0.046107,
	0.000292571,
	0.20731,
	-0.17982,
	0.0742041,
	-0.0707331,
	0.239906,
	0.0381499,
	-0.1255,
	0.0056398,
	0.000830926,
	-0.150585,
	-0.159386,
	-0.0523059,
	0.0784713,
	-0.378534,
	0.0432208,
	0.115952,
	0.0461328,
	-0.0793798,
	0.00990809,
	0.0279779,
	0.024997,
	0.041768,
	0.151463,
	0.00407895,
	0.0659837,
	-0.00661173,
	0.083116,
	0.0464449,
	0.0480037,
	-0.0471173,
	0.122863,
	0.022341,
	-0.16595,
	0.0541424,
	-0.0245219,
	-0.0995238,
	0.00896418,
	0.0213964,
	-0.0419273,
	0.0443264,
	-0.057739,
	0.00588959,
	0.0386801,
	0.0430516,
	-0.0503183,
	-0.00530884,
	-0.0729797,
	0.0396011,
	0.0579751,
	-0.0107278,
	0.0124937,
	-0.0209839,
	0.0610093,
	0.162769,
	0.0251905,
	-0.0484518,
	0.0900396,
	0.0137539,
	-0.214843,
	0.0386163,
	-0.123342,
	0.102521,
	-0.0168485,
	-0.0320662,
	-0.0208125,
	0.0623968,
	-0.0116463,
	-0.00417625,
	0.0198222,
	0.0344431,
	-0.0831576,
	-0.0181429,
	0.0204976,
	0.0358342,
	0.00841162,
	-0.0163229,
	0.00292335,
	-0.025382,
	0.0557052,
	0.155649,
	0.0245986,
	0.0738807,
	0.0892825,
	0.019011,
	-0.215481,
	0.00954347,
	-0.126472,
	0.0996168,
	-0.0157937,
	-0.0858831,
	-0.0178118,
	0.0586797,
	-0.0489066,
	-0.00382007,
	0.0199578,
	0.0363144,
	-0.0831796,
	-0.0178923,
	0.0195484,
	0.0585778,
	-0.0114474,
	-0.0182474,
	0.00188466,
	-0.0256787,
	0.0516467,
	0.156665,
	0.0264753,
	0.0715678,
	0.102371,
	0.0242388,
	-0.206047,
	0.0164945,
	-0.121378,
	0.0987547,
	-0.00596471,
	-0.22385,
	0.0267036,
	0.0682039,
	-0.0489506,
	-0.00200523,
	0.0169257,
	0.0442078,
	-0.0810264,
	-0.0124772,
	0.0164934,
	0.0597836,
	-0.014375,
	-0.0158951,
	0.00309269,
	-0.0216945,
	0.0749487,
	0.162895,
	0.027647,
	0.0700644,
	-0.0171634,
	0.0216524,
	-0.166375,
	0.0130138,
	-0.117201,
	0.0929979,
	0.0181669,
	-0.176157,
	-0.109886,
	0.0702169,
	-0.0410029,
	0.00234522,
	0.0195984,
	0.0869816,
	-0.0692319,
	-0.00665959,
	0.0185137,
	0.059228,
	-0.0186987,
	-0.00515461,
	0.0600279,
	-0.0194529,
	0.109903,
	0.163673,
	0.0280355,
	0.0696998,
	-0.174603,
	0.035596,
	-0.176647,
	0.00108196,
	-0.0973522,
	0.0913951,
	0.0137873,
	-0.0575814,
	-0.0936452,
	0.0658619,
	-0.0403399,
	0.00108722,
	0.0252249,
	0.111311,
	-0.0533717,
	0.00194656,
	0.0126909,
	0.0716846,
	-0.0214954,
	0.00250766,
	0.0696025,
	-0.0123363,
	0.118708,
	0.168937,
	0.0279163,
	0.0692471,
	-0.2186,
	0.0309925,
	-0.156343,
	-0.00364462,
	-0.104674,
	0.0890447,
	0.00896504,
	-0.0228506,
	-0.0612676,
	0.0612085,
	-0.0414586,
	-1.63112e-05,
	0.0222493,
	0.116876,
	-0.049802,
	0.000328667,
	0.00765731,
	0.0690913,
	-0.0396336,
	0.0052624,
	0.0587713,
	-0.00959604,
	0.0639526,
	0.172644,
	0.0279188,
	0.0693241,
	-0.199943,
	0.034678,
	-0.188104,
	-0.0034986,
	-0.0926259,
	0.0897655,
	0.00971436,
	-0.0228861,
	0.0609707,
	0.0608775,
	-0.0417499,
	-0.000267703,
	0.0148745,
	0.112163,
	-0.0517745,
	-0.000634085,
	-0.00213838,
	0.0681317,
	-0.0592942,
	0.00546094,
	0.038449,
	-0.0100087,
	0.106087,
	0.160091,
	0.0277651,
	0.0692612,
	-0.179353,
	0.0320374,
	-0.190613,
	-0.00441266,
	-0.0974584,
	0.0894175,
	0.00815392,
	-0.0231632,
	0.116841,
	0.0587195,
	-0.0426293,
	-0.00442449,
	0.0140068,
	0.0833962,
	-0.0620881,
	-0.00144546,
	-0.00407603,
	0.0617321,
	-0.0304295,
	-0.00185054,
	0.0109991,
	-0.0144584,
	0.10923,
	0.160152,
	0.0277836,
	0.0694113,
	-0.179122,
	0.0342029,
	-0.196957,
	-0.00236537,
	-0.0967042,
	0.0907362,
	0.00885123,
	-0.022915,
	0.117588,
	0.0596162,
	-0.0424902,
	-0.00439345,
	0.0140738,
	0.0834117,
	-0.0619938,
	-0.00139126,
	-0.0027261,
	0.0639058,
	-0.0443896,
	-0.000811449,
	0.0116089,
	-0.014263,
	0.1118,
	0.160169,
	0.0277897,
	0.0694231,
	-0.179105,
	0.0342616,
	-0.195491,
	-0.00216542,
	-0.0960337,
	0.090927,
	0.009569,
	-0.0227374,
	0.117948,
	0.0600156,
	-0.0423008,
	-0.0043708,
	0.0141107,
	0.0834615,
	-0.0619283,
	-0.00133117,
	-0.00218983,
	0.0658313,
	-0.059443,
	-0.000106443,
	0.0116676,
	-0.0141983,
	0.115044,
	0.160521,
	0.0277816,
	0.0692843,
	-0.186971,
	0.0322223,
	-0.188515,
	-0.00412773,
	-0.0950309,
	0.089722,
	0.009485,
	-0.0229555,
	0.117941,
	0.06001,
	-0.0423504,
	-0.00438718,
	0.0140991,
	0.0835972,
	-0.0606933,
	-0.000690495,
	-0.00224709,
	0.0657284,
	-0.0600366,
	-0.000146472,
	0.0111594,
	-0.013994,
	0.106568,
	0.160142,
	0.0277768,
	0.0694002,
	-0.179134,
	0.034169,
	-0.197565,
	-0.00245034,
	-0.0971432,
	0.0906228,
	0.00824712,
	-0.0229407,
	0.116853,
	0.0587253,
	-0.042571,
	-0.0044017,
	0.0140529,
	0.0834034,
	-0.0620248,
	-0.00141979,
	-0.00401867,
	0.06185,
	-0.0298357,
	-0.00168775,
	0.0115237,
	-0.0143234,
	0.103502,
	0.15702,
	0.0298467,
	0.0731479,
	-0.0816718,
	-0.052759,
	-0.19678,
	0.00149366,
	-0.0874157,
	0.0962066,
	0.00480496,
	-0.0196407,
	0.0349196,
	0.0609123,
	-0.049865,
	-0.00127206,
	0.0137035,
	0.0907805,
	-0.0598906,
	-0.00437447,
	-0.00291291,
	0.0648412,
	-0.0408895,
	-0.0105235,
	0.0367558,
	-0.0134593,
	0.0599387,
	0.155613,
	0.0284679,
	0.0731824,
	0.0941787,
	-0.0801351,
	-0.200552,
	0.00193539,
	-0.114732,
	0.0962682,
	0.00383862,
	-0.0214938,
	-0.0409038,
	0.061496,
	-0.0511537,
	0.000296667,
	0.00317997,
	0.0575844,
	-0.0724978,
	-0.0172092,
	-0.00252318,
	0.0445844,
	-0.0398246,
	-0.0172618,
	0.0572164,
	-0.0227035,
	0.0545867,
	0.158432,
	0.0244801,
	0.0693303,
	0.141802,
	0.0433583,
	-0.203898,
	-0.00354447,
	-0.114601,
	0.089834,
	-0.0147628,
	-0.0326905,
	-0.0232992,
	0.0603406,
	-0.0515631,
	-0.000675362,
	0.00593857,
	0.0566304,
	-0.0741955,
	-0.0177181,
	-0.00162707,
	-0.18251,
	-0.0210206,
	-0.0168,
	0.0470119,
	0.00648173,
	0.0543185,
	0.16254,
	0.00507323,
	0.0700663,
	0.0241359,
	0.0377179,
	-0.209727,
	0.0015959,
	-0.0783625,
	0.101104,
	-0.0107514,
	-0.0110203,
	0.0105998,
	0.0596551,
	-0.0503916,
	-0.00202212,
	0.0130586,
	0.0489385,
	-0.0737943,
	-0.0113853,
	0.00101236,
	-0.0660346,
	0.00391105,
	-0.00933993,
	0.0460512,
	-0.00616986,
	0.0707586,
	0.154946,
	-0.0372326,
	0.0791422,
	0.098199,
	-0.0511413,
	-0.160767,
	0.00544148,
	-0.0901628,
	0.106507,
	0.0202097,
	-0.0512455,
	0.0976015,
	0.0676144,
	-0.0423992,
	-0.00238417,
	0.0658774,
	0.0427593,
	-0.080119,
	0.00381702,
	0.0035181,
	-0.10528,
	-0.0525882,
	-0.00783951,
	0.0090199,
	-0.0184988,
	0.0773463,
	0.105257,
	-0.0522231,
	0.0301973,
	-0.0361162,
	-0.0876262,
	-0.0722351,
	-0.0200914,
	0.118623,
	0.123659,
	0.0442295,
	-0.0415912,
	0.180201,
	-0.0191968,
	-0.00152125,
	-0.324427,
	0.0914267,
	0.243662,
	-0.0598139,
	0.070687,
	0.0591566,
	-0.149286,
	-0.139912,
	0.138089,
	-0.331936,
	0.0211718,
	0.0144988,
	-0.108395,
	-0.0287072,
	-0.172354,
	0.163586,
	-0.303933,
	-0.101896,
	-0.150486,
	0.230286,
	0.0216207,
	-0.0720572,
	-0.0278489,
	0.164097,
	-0.00631945,
	0.183034,
	0.125924,
	0.15564,
	0.406288,
	0.0802887,
	-0.0290782,
	-0.220499,
	-0.34968,
	-0.0364583,
	0.196883,
	-0.259483,
	0.131848,
	-0.0504008,
	0.275602,
	0.0600906,
	-0.0531149,
	0.0610574,
	-0.108156,
	-0.266122,
	0.127611,
	0.386727,
	-0.156381,
	0.0396568,
	0.0764315,
	-0.0039591,
	0.029452,
	-0.162943,
	0.0471232,
	0.205292,
	0.200732,
	0.0101882,
	-0.338079,
	-0.177408,
	-0.172177,
	0.0357128,
	0.0325361,
	-0.128789,
	0.0812089,
	-0.185649,
	0.266239,
	0.0666154,
	-0.221228,
	0.195255,
	-0.405344,
	-0.29322,
	0.19112,
	0.0347206,
	-0.213849,
	0.0535507,
	0.0480515,
	0.187976,
	0.118728,
	-0.133038,
	-0.0472795,
	0.346026,
	0.18043,
	-0.0895697,
	-0.258284,
	0.117149,
	-0.0695127,
	0.0684463,
	0.106825,
	0.0163529,
	-0.00389432,
	-0.157963,
	0.391461,
	0.00385229,
	-0.360657,
	0.217468,
	-0.428874,
	-0.759957,
	0.235927,
	-0.266063,
	-0.371448,
	0.249333,
	-0.0119396,
	-0.00942385,
	0.205517,
	0.0190211,
	0.131145,
	0.0164211,
	0.362457,
	-0.102028,
	-0.0892464,
	0.317771,
	0.197803,
	-0.233145,
	0.208517,
	0.0931246,
	0.0728074,
	-0.149187,
	-0.0397648,
	0.162604,
	0.0359382,
	0.168048,
	0.125258,
	0.0742375,
	-0.415862,
	0.161094,
	-0.163417,
	0.053624,
	-0.63087,
	0.169595,
	0.211278,
	0.111513,
	0.146896,
	-0.0597947,
	0.229489,
	0.126185,
	-0.523267,
	0.0790657,
	0.33331,
	-0.364875,
	0.111063,
	-0.229319,
	-0.211767,
	0.256059,
	-0.282434,
	0.114207,
	0.0833755,
	0.194838,
	-0.0138339,
	0.154399,
	-0.206264,
	-0.019589,
	-0.120972,
	-0.15731,
	-0.490131,
	0.0546724,
	0.138118,
	0.0239115,
	0.11047,
	-0.0764165,
	0.00972718,
	0.0676722,
	-0.183075,
	0.132538,
	0.149379,
	-0.020961,
	0.00176914,
	0.104568,
	-0.0807577,
	0.198846,
	-0.192366,
	-0.027695,
	0.123022,
	0.286697,
	0.170189,
	-0.180455,
	-0.0636107,
	0.0251686,
	-0.0787315,
	-0.173518,
	-0.288285,
	-0.0708864,
	0.053693,
	0.00845544,
	0.00332148,
	0.0937577,
	-0.0377113,
	0.00120209,
	0.0517257,
	0.208693,
	0.204843,
	0.246337,
	-0.273386,
	-0.112832,
	-0.0548877,
	0.129737,
	-0.394719,
	0.0684712,
	0.118084,
	0.17805,
	0.0733348,
	0.0423064,
	0.0782656,
	-0.196933,
	-0.293692,
	-0.248202,
	0.0777266,
	0.105527,
	-0.423894,
	0.0383253,
	0.178977,
	0.0309305,
	-0.00481036,
	-0.00848998,
	0.00109103,
	0.118656,
	-0.0263236,
	0.243859,
	0.0720076,
	0.0695042,
	-0.00678462,
	0.0996059,
	-0.25926,
	0.0332004,
	0.0720952,
	0.16508,
	-0.0213416,
	-0.0711091,
	-0.00204888,
	-0.117791,
	-0.178224,
	-0.19632,
	0.0353385,
	0.177276,
	0.0242848,
	0.121044,
	0.104062,
	0.018725,
	-0.0153534,
	-0.0216913,
	-0.00720773,
	0.0064599,
	0.0386899,
	0.176779,
	-0.0108024,
	0.0120241,
	-0.0147558,
	0.026389,
	0.156539,
	0.0560744,
	0.0696294,
	0.0959255,
	-0.024432,
	-0.0455104,
	-0.0114908,
	-0.107567,
	-0.108922,
	0.00191519,
	0.0109471,
	0.0649194,
	0.0588763,
	-0.0968092,
	0.00161943,
	0.0148372,
	0.0350624,
	-0.0591864,
	-0.0120611,
	-0.00445497,
	0.0511455,
	0.0707326,
	-0.0203831,
	-0.0127386,
	-0.245937,
	-0.00723245,
	0.154666,
	0.042359,
	0.0685758,
	0.0971437,
	-0.0500128,
	0.0423205,
	-0.132591,
	-0.173867,
	0.0758084,
	-0.00683799,
	-0.0195242,
	0.105774,
	0.0800382,
	0.0162373,
	-0.00109734,
	0.0301883,
	0.0407695,
	-0.0438586,
	-0.015708,
	-0.191814,
	0.00431408,
	0.0678974,
	-0.0198837,
	-0.0255446,
	-0.246587,
	0.0333946,
	0.114971,
	0.0487671,
	0.0805457,
	0.0482032,
	-0.0220897,
	-0.024799,
	-0.168215,
	-0.166402,
	0.0834095,
	0.00426137,
	-0.023659,
	0.129271,
	0.101714,
	0.0349072,
	0.0017688,
	0.0407719,
	0.0466567,
	-0.0258063,
	-0.0133828,
	-0.19746,
	0.0360425,
	0.0888439,
	-0.00857802,
	-0.0111917,
	-0.259736,
	0.0251172,
	0.000587564,
	0.0613017,
	0.127466,
	-0.0345796,
	-0.0343209,
	0.0928273,
	-0.186557,
	-0.147171,
	0.078555,
	-0.091879,
	-0.179503,
	0.156726,
	0.124385,
	0.0672246,
	0.00919266,
	0.0466602,
	0.0736823,
	0.00400398,
	-0.0038077,
	-0.105232,
	0.0320939,
	0.0835109,
	0.0137274,
	0.00732411,
	-0.246161,
	0.0556264,
	0.0292264,
	0.0641731,
	0.128387,
	-0.0922242,
	-0.029844,
	0.100124,
	-0.0919055,
	-0.113518,
	0.0996962,
	-0.0350175,
	-0.19764,
	0.00231082,
	0.149711,
	0.0283829,
	0.0440066,
	-0.0290545,
	-0.041004,
	0.019132,
	0.00109469,
	0.0234532,
	0.0425609,
	0.0791856,
	0.0342745,
	-0.0216138,
	-0.244408,
	-0.0997419,
	0.0138466,
	0.06359,
	0.142778,
	-0.192284,
	0.0149026,
	0.113102,
	0.0433555,
	-0.0582855,
	0.109019,
	0.0703482,
	-0.0859131,
	0.024066,
	0.108887,
	0.0457009,
	-0.0847296,
	-0.276913,
	-0.0851746,
	0.05572,
	0.0221139,
	0.137447,
	0.0622859,
	0.0714911,
	0.0463499,
	-0.0401947,
	-0.226757,
	-0.0849007,
	-0.0338315,
	0.0713377,
	0.181915,
	-0.474265,
	0.0578545,
	0.131523,
	0.0483749,
	-0.0226943,
	0.11147,
	0.0675928,
	0.0324078,
	0.057175,
	0.109955,
	0.0674151,
	-0.0324899,
	-0.265136,
	0.0125386,
	-0.186411,
	0.0324395,
	0.139063,
	0.116099,
	0.0596093,
	0.0649085,
	-0.00627253,
	-0.214384,
	-0.00118415,
	-0.246719,
	0.0726702,
	0.181476,
	-0.416431,
	0.0407391,
	0.110109,
	0.0398226,
	0.0111869,
	0.0799237,
	0.0608465,
	-0.00360678,
	0.11826,
	0.107598,
	0.0927716,
	-0.0481595,
	-0.222772,
	0.037631,
	-0.174129,
	0.0367073,
	0.128356,
	0.123287,
	0.126581,
	0.0593471,
	0.0930956,
	-0.216074,
	-0.0483649,
	-0.219715,
	0.0708729,
	0.180772,
	-0.438814,
	0.0500439,
	0.101163,
	0.034516,
	0.0154307,
	0.0771196,
	0.0536307,
	0.0223076,
	0.205647,
	0.0954502,
	0.0931639,
	-0.0623992,
	-0.118115,
	0.00517732,
	-0.123121,
	0.0291793,
	0.0948548,
	0.117159,
	0.126266,
	0.0573129,
	0.0431875,
	-0.219869,
	-0.127627,
	-0.103519,
	0.0612177,
	0.1591,
	-0.470721,
	0.0372872,
	0.0676751,
	0.0344545,
	-0.011583,
	0.0767799,
	-0.0223961,
	0.0675803,
	0.198037,
	0.0935856,
	0.11008,
	-0.0711901,
	-0.101215,
	-0.0519798,
	0.102279,
	0.0177415,
	0.0118068,
	0.0983538,
	0.129495,
	0.052672,
	0.028385,
	-0.135147,
	-0.0257101,
	0.229559,
	0.0341337,
	0.0704482,
	-0.560382,
	0.024817,
	0.0417222,
	-0.0416688,
	-0.0489241,
	0.0513043,
	-0.140992,
	0.12485,
	0.173276,
	0.0949394,
	0.072174,
	-0.0657639,
	-0.00802362,
	-0.0792876,
	0.0878828,
	0.0157314,
	-0.168737,
	0.0932299,
	0.131644,
	0.0465955,
	0.0314396,
	0.0159786,
	0.0760701,
	0.226165,
	0.03309,
	0.0698913,
	-0.569994,
	0.00193561,
	0.0392327,
	-0.0429706,
	-0.0517461,
	0.0752329,
	-0.141753,
	0.117211,
	0.162063,
	0.0923827,
	0.0604185,
	0.0198272,
	0.040764,
	-0.114759,
	0.0600385,
	0.0121911,
	-0.201081,
	0.0902296,
	0.121826,
	0.0428358,
	0.0277824,
	0.0114299,
	0.120179,
	0.1013,
	0.0292309,
	0.0691443,
	-0.457141,
	-0.0225089,
	0.0227586,
	-0.0780125,
	-0.0741553,
	0.072601,
	0.00999706,
	-0.0273809,
	0.145977,
	0.0609608,
	-0.015963,
	0.0234661,
	0.0192458,
	0.0681878,
	-0.00726929,
	0.0062816,
	-0.00982275,
	0.0736507,
	0.10094,
	0.0264427,
	0.0275265,
	0.00252288,
	0.106612,
	0.101549,
	0.026831,
	0.069217,
	-0.389208,
	-0.020265,
	0.0149794,
	-0.0629394,
	-0.0803779,
	0.0871522,
	-0.0162716,
	-0.0365409,
	0.0082097,
	0.0651306,
	-0.0317581,
	0.0089876,
	0.021872,
	0.220177,
	0.0105842,
	0.00289322,
	-0.0140188,
	0.0692086,
	-0.00561677,
	0.0107835,
	-0.00089048,
	-0.00131107,
	0.0420333,
	0.201574,
	0.0237451,
	0.0680233,
	-0.161788,
	-0.0436872,
	0.0138699,
	-0.0121032,
	-0.118591,
	0.0957549,
	-0.0189219,
	-0.0427057,
	-0.0312397,
	0.062119,
	-0.0509662,
	0.00574738,
	0.00938666,
	0.157911,
	-0.0244847,
	-0.0133418,
	-0.018471,
	-0.0200231,
	-0.0136603,
	-0.00800908,
	-0.0803355,
	-0.00642902,
	-0.00349847,
	0.158897,
	0.0231098,
	0.0679815,
	0.137889,
	-0.00853657,
	0.0119538,
	-0.0152351,
	-0.162061,
	0.0957046,
	-0.0183109,
	-0.0435508,
	-0.0654662,
	0.0597988,
	-0.0524274,
	0.00455745,
	0.00614631,
	0.065404,
	-0.0545267,
	-0.0174176,
	-0.0185886,
	-0.247196,
	0.113514,
	-0.0193457,
	-0.0866991,
	0.00869347,
	-0.00575955,
	0.176181,
	-0.0653773,
	0.0698994,
	0.026867,
	0.0260587,
	0.0096602,
	-0.0181084,
	-0.110333,
	0.0878576,
	-0.0106202,
	-0.0449662,
	-0.0341243,
	0.0632668,
	-0.0498792,
	-0.000131684,
	0.0240965,
	0.0615336,
	-0.0801044,
	0.000990354,
	-0.0146528,
	-0.195672,
	0.140638,
	0.0286716,
	0.0355424,
	0.0170003,
	-0.00196375,
	0.172878,
	-0.116048,
	0.0795394,
	0.0641138,
	0.00458477,
	0.143813,
	-0.0161673,
	-0.169987,
	0.0924072,
	-0.00544255,
	-0.137379,
	0.106976,
	0.0537664,
	-0.0413081,
	0.000314533,
	0.0991357,
	0.0480706,
	-0.0869198,
	0.00886288,
	-0.0099089,
	-0.239673,
	0.0793724,
	-0.000408242,
	0.00212154,
	-0.0100115,
	0.0167342,
	0.187208,
	-0.0479133,
	0.085764,
	0.0054772,
	-0.180059,
	0.103393,
	0.030151,
	0.0154272,
	0.113913,
	0.0213305,
	-0.187752,
	0.139509,
	-0.0324327,
	-0.036116,
	-0.27426,
	0.075842,
	0.193243,
	-0.0640584,
	-0.100087,
	0.0232565,
	-0.0721046,
	0.0064322,
	0.0787292,
	-0.214964,
	0.034303,
	-0.0181645,
	0.0641614,
	-0.0976013,
	0.140711,
	0.167339,
	-0.297816,
	0.17691,
	-0.199327,
	0.148658,
	-0.0146134,
	-0.0370853,
	-0.142362,
	0.0604331,
	-0.15628,
	0.100957,
	0.211863,
	0.120948,
	0.214733,
	0.0996862,
	0.00328545,
	0.0555871,
	-0.567896,
	-0.131373,
	0.197696,
	-0.232027,
	-0.0493085,
	-0.0347932,
	0.189774,
	0.0429258,
	-0.0858587,
	0.394711,
	-0.291368,
	-0.175188,
	0.077312,
	0.184881,
	-0.218707,
	0.0400878,
	-0.00326811,
	0.122624,
	0.189821,
	-0.111027,
	0.180807,
	0.309134,
	-0.0234543,
	-0.00601565,
	-0.176072,
	-0.0635813,
	-0.240481,
	-0.0369633,
	-0.130025,
	-0.0508847,
	0.0810167,
	-0.198425,
	0.247406,
	-0.0501039,
	-0.134642,
	0.224295,
	-0.306873,
	-0.0845797,
	0.177757,
	-0.00497328,
	-0.347093,
	-0.102224,
	0.0822907,
	0.101662,
	0.17327,
	-0.0279147,
	-0.0349913,
	0.294571,
	0.0783491,
	-0.0275361,
	-0.0387504,
	0.149406,
	-0.137815,
	0.0651094,
	0.0291209,
	-0.0390446,
	-0.0248667,
	0.25134,
	0.213407,
	0.16344,
	-0.448259,
	0.0375225,
	-0.164688,
	-0.598879,
	0.195282,
	-0.0626693,
	-0.678489,
	0.184442,
	-0.121382,
	0.134844,
	0.149155,
	0.223812,
	0.177194,
	-0.0558101,
	0.160957,
	-0.0909501,
	-0.0553075,
	0.239619,
	0.0990454,
	-0.392114,
	0.157405,
	0.0952199,
	0.0271685,
	-0.0811396,
	-0.0715023,
	0.158941,
	0.140517,
	0.0356399,
	0.236078,
	0.230583,
	-0.717607,
	-0.265315,
	-0.28534,
	0.194532,
	-0.443973,
	0.2699,
	0.224881,
	-0.129491,
	0.0741706,
	0.0729872,
	0.261027,
	0.0797906,
	-0.408087,
	0.175619,
	0.229381,
	-0.0219807,
	0.131339,
	-0.0468302,
	-0.245006,
	0.237184,
	-0.377162,
	0.146713,
	0.117152,
	0.0672791,
	0.114737,
	0.0525299,
	-0.386563,
	-0.149107,
	0.0263601,
	-0.0698479,
	-0.361528,
	0.0829347,
	0.201987,
	-0.0831927,
	0.0986215,
	0.00169797,
	0.0589357,
	-0.145623,
	-0.153639,
	0.205891,
	0.0472624,
	0.163341,
	0.0904138,
	0.258958,
	-0.163935,
	0.156293,
	-0.217426,
	-0.0324822,
	0.26047,
	0.299827,
	0.174297,
	-0.154037,
	-0.0588664,
	-0.233627,
	-0.00884943,
	-0.089339,
	-0.12006,
	0.100631,
	-0.036718,
	-0.187884,
	-0.0500662,
	0.0858167,
	0.0811097,
	-0.0279993,
	0.0411808,
	-0.0175842,
	0.185573,
	0.18768,
	-0.155883,
	0.00288825,
	-0.0295875,
	0.0829395,
	-0.31091,
	0.042661,
	0.0978138,
	0.181325,
	0.0115912,
	0.0935958,
	0.0645896,
	-0.252583,
	-0.250976,
	-0.169446,
	0.0120362,
	0.241731,
	-0.259313,
	0.163625,
	0.228382,
	0.032635,
	-0.21863,
	-0.0138,
	-0.00669558,
	0.0804908,
	0.0222454,
	0.0889158,
	0.0282019,
	0.0565964,
	-0.0114958,
	0.0577505,
	-0.314968,
	0.04363,
	0.0723044,
	0.186687,
	-0.00865925,
	0.0246654,
	0.00142044,
	-0.143502,
	-0.176737,
	-0.140884,
	0.0164281,
	0.214409,
	0.0703377,
	0.13925,
	0.0527052,
	0.0303545,
	0.0776456,
	-0.0318817,
	-0.0101536,
	-0.00399405,
	0.096532,
	-0.0110208,
	-0.143374,
	0.0047057,
	-0.0445212,
	-0.0123315,
	0.177124,
	0.056147,
	0.0722016,
	0.117484,
	-0.0198243,
	0.0555412,
	0.0675384,
	-0.192314,
	-0.0869988,
	0.0158628,
	0.0325331,
	-0.0972581,
	0.0684017,
	-0.0229974,
	0.0049337,
	0.0330906,
	0.0930885,
	-0.0661895,
	-0.0164794,
	0.00349409,
	0.0317344,
	-0.0175274,
	-0.17377,
	-0.0160932,
	-0.303539,
	0.0800255,
	0.121412,
	0.0599808,
	0.074195,
	0.0778444,
	-0.0453905,
	0.0846927,
	-0.202588,
	-0.171436,
	0.0813365,
	0.0712815,
	0.0387682,
	-0.107832,
	0.127542,
	0.0578329,
	0.0131019,
	0.0705234,
	0.0854462,
	-0.0136961,
	-0.00763723,
	-0.248292,
	0.0150634,
	0.0153653,
	-0.10076,
	-0.0112274,
	-0.353987,
	0.210403,
	-0.0189563,
	0.112153,
	-0.135694,
	-0.105563,
	-0.0124636,
	0.268678,
	-0.110157,
	-0.145733,
	0.113076,
	0.0494017,
	0.00499308,
	-0.0424509,
	0.141223,
	0.244168,
	-0.118389,
	0.0996518,
	-0.100014,
	0.0899492,
	-0.189047,
	-0.233376,
	0.0758547,
	0.00274919,
	-0.0514945,
	0.00728044,
	-0.356024,
	0.140437,
	0.0361753,
	0.141373,
	-0.131173,
	-0.21127,
	0.00632244,
	0.188513,
	-0.0785697,
	-0.0994938,
	0.120467,
	0.0770139,
	-0.0326999,
	0.153103,
	0.174115,
	0.283119,
	-0.207178,
	-0.0299458,
	-0.294522,
	0.248437,
	-0.209086,
	-0.383456,
	0.118061,
	0.19689,
	-0.0314396,
	0.0466198,
	-0.349246,
	-0.0723154,
	-0.0662648,
	0.186311,
	-0.233262,
	-0.0552025,
	0.0918346,
	0.17493,
	-0.0310528,
	0.0168147,
	0.151223,
	0.133666,
	-0.223115,
	0.225189,
	0.0253895,
	-0.00535123,
	-0.257972,
	-0.192858,
	-0.0521734,
	0.127489,
	-0.131803,
	-0.0560444,
	0.191903,
	0.227651,
	-0.130493,
	0.110705,
	-0.338362,
	0.0418855,
	-0.0429753,
	0.1289,
	-0.118168,
	-0.319149,
	0.215239,
	-0.0382586,
	0.155631,
	0.119518,
	0.185459,
	0.272234,
	-0.0607441,
	0.280557,
	0.0472662,
	-0.0671746,
	-0.267563,
	-0.243888,
	-0.290406,
	0.0092618,
	-0.0958584,
	0.0772434,
	0.256717,
	0.0806805,
	0.0416231,
	0.0121957,
	-0.29438,
	-0.144706,
	-0.11948,
	0.0287952,
	-0.0475009,
	-0.599953,
	0.202704,
	-0.140617,
	0.28412,
	0.104165,
	0.170507,
	0.259454,
	0.109947,
	0.242935,
	0.163136,
	-0.0475891,
	-0.385603,
	-0.334405,
	-0.0719908,
	0.0830771,
	-0.0410748,
	0.323849,
	0.316123,
	0.109356,
	0.160145,
	0.0342913,
	-0.339221,
	-0.0813576,
	-0.0538374,
	0.0156423,
	0.0317015,
	-0.510182,
	0.165735,
	-0.119217,
	0.275699,
	0.136247,
	0.161817,
	0.190765,
	0.0697233,
	0.336275,
	0.314129,
	-0.156296,
	-0.531759,
	-0.360084,
	-0.172643,
	-0.0722574,
	-0.0321576,
	0.327707,
	0.287079,
	0.108244,
	0.277513,
	0.0538573,
	-0.348401,
	-0.2587,
	-0.114872,
	-0.0119511,
	0.0718458,
	-0.468655,
	0.172394,
	0.0491509,
	0.206701,
	0.0576482,
	-0.0174481,
	0.145851,
	0.223304,
	0.397091,
	0.27863,
	-0.149724,
	-0.395215,
	-0.315826,
	-0.112923,
	-0.0616616,
	-0.0318457,
	0.314328,
	0.223561,
	0.114709,
	0.145105,
	0.139254,
	-0.244847,
	-0.144464,
	-0.111396,
	-0.0938569,
	0.097906,
	-0.284297,
	0.152651,
	-0.03033,
	0.00800511,
	0.0522937,
	-0.115108,
	-0.0839062,
	0.3683,
	0.259859,
	0.318808,
	0.247002,
	-0.480487,
	-0.206064,
	-0.142674,
	-0.0216845,
	-0.0623907,
	0.0482889,
	0.219077,
	0.186243,
	0.0960668,
	0.161547,
	-0.204405,
	0.0465323,
	-0.154942,
	-0.121723,
	0.156738,
	-0.228994,
	0.0741709,
	-0.157534,
	-0.069265,
	0.00212723,
	-0.0353948,
	-0.130046,
	0.362759,
	0.0554091,
	0.271434,
	0.278879,
	-0.420041,
	-0.0381237,
	-0.052371,
	0.0857738,
	-0.077759,
	-0.116757,
	0.178742,
	0.26658,
	0.102782,
	0.151404,
	-0.0596349,
	0.060252,
	-0.0471018,
	-0.017733,
	0.198761,
	-0.304118,
	0.0197438,
	0.0791023,
	-0.253662,
	-0.0246759,
	0.0163131,
	-0.123079,
	0.226881,
	0.0502571,
	0.166385,
	0.149177,
	-0.253093,
	-0.0320978,
	-0.151857,
	0.23627,
	-0.0892439,
	-0.341376,
	0.148447,
	0.220672,
	-0.0310742,
	0.14059,
	0.0940471,
	0.178868,
	0.0343482,
	0.0474782,
	0.118232,
	-0.258126,
	-0.01843,
	0.0582919,
	-0.105884,
	-0.0621232,
	0.0793757,
	0.0447774,
	0.081304,
	0.0541937,
	-0.000608872,
	0.0414986,
	-0.108627,
	0.063969,
	0.0572708,
	0.0473504,
	0.00288376,
	-0.445863,
	0.126753,
	0.040838,
	-0.215318,
	0.115761,
	0.0941607,
	0.168205,
	0.193082,
	0.0323853,
	0.12076,
	-0.21639,
	-0.036166,
	0.0573614,
	-0.167226,
	-0.0737795,
	0.108995,
	0.0125891,
	0.0133152,
	0.0986869,
	-0.0639764,
	0.0134023,
	0.181983,
	0.0390927,
	-0.0839038,
	0.0665207,
	0.00433277,
	-0.324696,
	0.106139,
	-0.0135011,
	-0.243655,
	-0.0298201,
	0.0694545,
	0.0933971,
	0.092934,
	0.0284414,
	0.0765858,
	-0.165355,
	-0.0450563,
	0.0251131,
	0.00294238,
	-0.0937617,
	0.108888,
	-0.0166044,
	-0.0341165,
	-0.0820953,
	0.0411831,
	-0.0148962,
	0.0692952,
	0.0235326,
	0.0731547,
	0.0318079,
	-0.00600484,
	-0.0482203,
	0.0749333,
	-0.00458561,
	0.0016049,
	-0.159384,
	-0.00638621,
	0.0180945,
	0.0934842,
	0.0258089,
	0.0692628,
	0.112897,
	-0.0291192,
	0.0179994,
	0.00679699,
	-0.161063,
	0.108647,
	-0.016038,
	-0.0408074,
	-0.0899322,
	0.0698644,
	-0.0238327,
	0.0144638,
	0.0123233,
	0.0999144,
	-0.0237743,
	-0.0147639,
	-0.0145984,
	-0.0344445,
	-0.025187,
	-0.0161953,
	-0.215696,
	-0.0147117,
	-0.00446918,
	0.182892,
	-0.0615917,
	0.0758279,
	0.0062315,
	-0.0160014,
	0.012366,
	-0.00736354,
	-0.150112,
	0.0986128,
	-0.0118883,
	-0.0390189,
	-0.0012419,
	0.0618364,
	-0.0393201,
	0.000748266,
	0.0506516,
	0.0689307,
	-0.0627358,
	0.0112699,
	-0.0120978,
	-0.0826473,
	0.021965,
	0.0134836,
	-0.000577471,
	0.0244681,
	0.00408009,
	0.176739,
	-0.0414281,
	0.0918698,
	0.110225,
	-0.0295515,
	0.0357508,
	-0.0189048,
	-0.348579,
	0.0662319,
	-0.00416346,
	-0.0167868,
	0.0931777,
	0.063681,
	-0.0498997,
	-0.0032044,
	0.0805622,
	-0.0643949,
	-0.0683604,
	0.0318016,
	-0.0140525,
	0.00966705,
	0.0643182,
	-0.00408528,
	-0.0308457,
	-0.000622502,
	0.079562,
	0.124141,
	-0.0128121,
	0.0808189,
	0.154355,
	-0.149045,
	0.0997429,
	-0.120847,
	-0.279376,
	0.091936,
	-0.0334846,
	-0.0624429,
	0.128542,
	0.0458341,
	-0.0208473,
	-0.355756,
	0.0548582,
	0.0448122,
	0.0058884,
	0.0762307,
	0.0537701,
	0.165203,
	0.012877,
	0.0330298,
	-0.32313,
	0.0242958,
	-0.0137188,
	0.0871152,
	0.023025,
	0.160934,
	0.295534,
	0.0122915,
	-0.0774247,
	-0.0459562,
	-0.0442337,
	-0.0312011,
	-0.116304,
	-0.284123,
	0.152351,
	-0.23446,
	0.0717015,
	0.0673359,
	0.115851,
	0.0295038,
	0.0119627,
	-0.00877347,
	0.0384715,
	-0.299312,
	0.0387712,
	0.139641,
	-0.342747,
	0.114365,
	-0.0136936,
	0.263592,
	0.135759,
	-0.0711835,
	0.419085,
	-0.255162,
	-0.269846,
	0.169956,
	0.123083,
	-0.185032,
	-0.0271845,
	-0.121281,
	0.0670515,
	0.170146,
	-0.138399,
	0.120678,
	0.249862,
	-0.178956,
	-0.14614,
	-0.154732,
	0.0672269,
	-0.0585063,
	0.143549,
	0.0204851,
	-0.135491,
	-0.0601148,
	-0.206241,
	0.0843031,
	-0.0249298,
	-0.00601484,
	0.50093,
	-0.201731,
	-0.0383949,
	0.20944,
	0.1071,
	-0.308541,
	0.0690237,
	-0.095313,
	0.108023,
	0.255305,
	-0.0652314,
	0.0229956,
	0.291418,
	-0.132277,
	-0.20277,
	-0.142174,
	0.123166,
	-0.0911299,
	-0.118017,
	0.0455544,
	-0.0793356,
	-0.104538,
	0.223153,
	0.0962416,
	0.200443,
	-0.332525,
	0.136695,
	0.129779,
	-0.488311,
	0.189666,
	-0.0937944,
	-0.689301,
	0.157711,
	-0.160701,
	0.125982,
	0.144672,
	0.0703684,
	0.105798,
	-0.0474037,
	0.158757,
	-0.115238,
	-0.187615,
	0.249083,
	0.173564,
	-0.337442,
	0.124596,
	0.00552015,
	0.00548204,
	-0.232982,
	0.184808,
	0.0818714,
	0.23295,
	-0.0721805,
	0.170557,
	0.265627,
	-0.58364,
	-0.357204,
	-0.348641,
	0.135296,
	-0.529224,
	0.163494,
	0.18521,
	-0.0726997,
	0.126157,
	0.0899666,
	0.257222,
	-0.0124528,
	-0.40055,
	0.141354,
	0.127428,
	-0.0252001,
	0.123344,
	0.0381249,
	-0.0769083,
	-0.0610547,
	-0.322864,
	0.0635853,
	0.282409,
	-0.26705,
	-0.101216,
	0.0347034,
	-0.414025,
	-0.252766,
	0.0959464,
	0.0850992,
	-0.116962,
	0.153016,
	0.117405,
	0.0843614,
	0.0757827,
	0.0492678,
	0.072963,
	-0.0446397,
	-0.103016,
	0.255255,
	0.15384,
	0.203168,
	0.0460313,
	0.289417,
	-0.16102,
	0.135934,
	-0.121409,
	-0.0394884,
	0.206411,
	0.156029,
	0.0177302,
	-0.163184,
	-0.083141,
	-0.15529,
	0.0120663,
	-0.21593,
	-0.204681,
	0.237697,
	0.0230574,
	0.0640415,
	0.186748,
	0.0731794,
	0.133704,
	-0.100019,
	0.0459051,
	-0.0868621,
	0.184801,
	0.166136,
	-0.268362,
	-0.126425,
	0.0231466,
	0.0782864,
	-0.348459,
	0.0932858,
	0.102479,
	0.10539,
	0.0972833,
	0.124998,
	0.0598989,
	-0.261032,
	-0.238627,
	0.0790732,
	-0.0202021,
	0.229461,
	-0.237195,
	0.0644619,
	0.189941,
	0.0803756,
	-0.0931802,
	-0.0188047,
	0.00353942,
	0.0861154,
	0.0543488,
	0.0452152,
	-0.231164,
	-0.043687,
	0.0453177,
	0.0327025,
	-0.260361,
	0.128793,
	0.0792512,
	-0.0804483,
	0.0657957,
	0.0722598,
	0.0336984,
	-0.215145,
	-0.144942,
	-0.063855,
	0.0687755,
	0.240892,
	0.0741924,
	0.115754,
	0.0263557,
	0.114477,
	0.109523,
	-0.0263992,
	-0.000486373,
	0.00885903,
	0.210915,
	-0.0379859,
	-0.439428,
	0.0428349,
	-0.110876,
	0.0770322,
	0.0935381,
	0.162031,
	0.0825899,
	-0.17386,
	0.0836995,
	0.126393,
	0.143478,
	-0.322448,
	-0.0690281,
	0.089173,
	0.0940389,
	-0.109128,
	0.0941481,
	0.00776098,
	0.0133899,
	0.133671,
	-0.0995446,
	-0.0699479,
	0.0845413,
	0.0217239,
	0.209836,
	-0.0690082,
	-0.483901,
	0.0333082,
	-0.218764,
	0.306702,
	-0.014202,
	0.183333,
	0.0705909,
	-0.192646,
	0.109922,
	0.168104,
	-0.364709,
	-0.12792,
	0.103198,
	0.259784,
	0.152587,
	-0.102402,
	0.055292,
	0.115367,
	0.0321461,
	0.142106,
	-0.186262,
	0.0520679,
	-0.118708,
	-0.313095,
	0.0252059,
	-0.0550367,
	-0.249827,
	0.0475382,
	-0.271676,
	0.487101,
	-0.231289,
	0.262653,
	-0.324749,
	-0.183349,
	0.211517,
	0.283807,
	-0.158812,
	-0.0585796,
	0.212257,
	0.295883,
	-0.0411522,
	-0.216032,
	0.0450333,
	0.212896,
	-0.168353,
	0.0593654,
	-0.196385,
	0.289956,
	-0.273785,
	-0.342286,
	0.0495901,
	0.104289,
	-0.193455,
	-0.1127,
	-0.24993,
	0.40895,
	-0.120237,
	0.214705,
	-0.504462,
	-0.134006,
	0.133523,
	0.532116,
	-0.0257546,
	0.0825801,
	0.275003,
	0.165072,
	-0.0128791,
	0.0569805,
	-0.0439689,
	0.213905,
	-0.167938,
	-0.345466,
	-0.448284,
	0.0828012,
	-0.42775,
	-0.406324,
	0.292379,
	0.38327,
	-0.190545,
	-0.0719569,
	-0.250864,
	0.382025,
	-0.251988,
	0.0856006,
	-0.540278,
	-0.0473763,
	0.193624,
	0.312622,
	-0.0175503,
	0.141512,
	0.280241,
	0.079097,
	-0.00807199,
	0.0714246,
	-0.103113,
	0.279066,
	-0.371487,
	-0.495319,
	-0.250693,
	-0.0951399,
	-0.492303,
	-0.0479275,
	0.42624,
	0.507653,
	0.0238729,
	0.0202036,
	-0.254983,
	0.285082,
	-0.0521048,
	-0.0209285,
	-0.362049,
	-0.350379,
	0.330418,
	0.195454,
	0.210388,
	0.142169,
	0.346892,
	0.397605,
	0.116327,
	0.261689,
	0.0234282,
	-0.037833,
	-0.534006,
	-0.299415,
	-0.611313,
	-0.149333,
	-0.486239,
	0.094081,
	0.4189,
	0.314527,
	0.204857,
	-0.00545332,
	-0.273683,
	0.124093,
	-0.324214,
	-0.0914842,
	-0.237593,
	-0.474709,
	0.10444,
	0.185755,
	0.514597,
	0.123213,
	0.358491,
	0.431321,
	0.160998,
	0.275252,
	0.329899,
	-0.224287,
	-0.696797,
	0.0817984,
	-0.360879,
	-0.458582,
	-0.38644,
	0.445464,
	0.473627,
	0.228316,
	0.298654,
	-0.0877259,
	-0.632366,
	0.0735167,
	-0.337073,
	-0.218751,
	-0.130738,
	-0.434263,
	0.0278056,
	-0.0936705,
	0.492986,
	0.0251504,
	0.282381,
	0.411546,
	0.311211,
	0.472339,
	0.451371,
	-0.328349,
	-0.577929,
	0.0722238,
	-0.364011,
	-0.0345668,
	-0.322225,
	0.504678,
	0.481758,
	0.119923,
	0.415955,
	-0.0748111,
	-0.752456,
	0.190504,
	-0.355809,
	-0.121565,
	-0.137955,
	-0.362265,
	-0.0550902,
	-0.143396,
	0.50948,
	-0.0264226,
	0.124364,
	0.0392846,
	0.433102,
	0.620124,
	0.566878,
	-0.26964,
	-0.602354,
	-0.298491,
	-0.169509,
	-0.0176785,
	-0.409413,
	0.533349,
	0.500465,
	0.118637,
	0.188508,
	0.170266,
	-0.601994,
	0.123025,
	-0.248005,
	-0.211716,
	-0.0393203,
	-0.184324,
	-0.143479,
	0.102432,
	0.203093,
	0.188683,
	-0.0722931,
	0.0124942,
	0.486212,
	0.449092,
	0.529243,
	-0.196096,
	-0.588255,
	-0.43497,
	-0.116955,
	-0.0602567,
	-0.46606,
	0.286976,
	0.412904,
	0.226231,
	-0.00315268,
	0.338684,
	-0.238264,
	0.322028,
	0.0014205,
	-0.148849,
	-0.0730793,
	-0.147598,
	-0.219109,
	0.0952133,
	0.0135438,
	0.168432,
	0.0663462,
	-0.279357,
	0.590091,
	0.30775,
	0.416371,
	-0.0762089,
	-0.502232,
	-0.131162,
	-0.188414,
	-0.194825,
	-0.502612,
	-0.0950009,
	0.181061,
	0.462189,
	0.0180679,
	0.330582,
	-0.121453,
	0.47081,
	0.0433338,
	-0.130023,
	0.08841,
	-0.0327499,
	-0.345901,
	-0.257839,
	-0.264271,
	0.170852,
	0.0935806,
	-0.166764,
	0.546245,
	0.140214,
	0.130201,
	0.278599,
	-0.210205,
	0.189356,
	0.0936153,
	-0.0928824,
	-0.299608,
	-0.488146,
	0.0515746,
	0.359175,
	-0.20237,
	0.145188,
	0.0380047,
	0.438745,
	0.169222,
	-0.0717589,
	0.212578,
	-0.269703,
	-0.0799674,
	0.250845,
	-0.410442,
	0.0895309,
	0.121501,
	-0.137306,
	0.365014,
	-0.0861753,
	-0.185612,
	0.0986794,
	-0.202886,
	0.0937616,
	0.114076,
	0.029066,
	-0.227866,
	-0.448554,
	0.132164,
	0.015553,
	-0.254588,
	0.0171667,
	0.233233,
	0.365404,
	0.229276,
	-0.0222272,
	0.179058,
	-0.2882,
	-0.1464,
	0.16068,
	-0.387644,
	-0.0792437,
	-0.0521997,
	0.0691418,
	0.25117,
	-0.0973981,
	-0.131502,
	0.118036,
	0.054843,
	0.0894185,
	0.111065,
	0.259863,
	0.0176613,
	-0.572837,
	0.178312,
	-0.0685126,
	-0.211558,
	-0.215364,
	0.152578,
	0.206036,
	0.225122,
	0.0473727,
	0.105385,
	-0.230365,
	-0.0047988,
	0.0518597,
	-0.0166301,
	-0.0880751,
	0.0209852,
	0.00143702,
	0.0744354,
	-0.260931,
	-0.00204856,
	0.039963,
	0.0035095,
	0.0400889,
	0.0233787,
	0.114503,
	0.0200682,
	-0.263966,
	0.0991045,
	-0.0240573,
	0.0142505,
	-0.299508,
	0.0104298,
	0.11025,
	0.0253781,
	0.030464,
	0.0741645,
	0.160158,
	-0.0373113,
	0.0327043,
	0.0282884,
	-0.187559,
	0.1005,
	-0.00662727,
	-0.0120337,
	-0.249242,
	0.116666,
	0.0125769,
	0.0265283,
	0.0340231,
	0.163978,
	0.0479181,
	-0.0028736,
	0.00120602,
	-0.123399,
	-0.145573,
	0.00523793,
	-0.356216,
	-0.00947694,
	0.0492799,
	0.257178,
	-0.0894271,
	0.0774291,
	0.0483884,
	-0.0613938,
	0.0328467,
	0.0022041,
	-0.109157,
	0.12764,
	-0.0118908,
	-0.0739509,
	-0.0980251,
	0.0696852,
	-0.0260695,
	0.0196766,
	0.0435561,
	0.106047,
	-0.0228323,
	0.00523838,
	0.00206628,
	-0.0516996,
	-0.168013,
	0.0370815,
	-0.171836,
	0.0196644,
	0.0140645,
	0.161904,
	-0.0540596,
	0.0798656,
	0.123361,
	-0.0629169,
	0.0517522,
	-0.0114743,
	-0.205608,
	-0.0701495,
	-0.0279761,
	-0.0937857,
	0.0934243,
	0.0312207,
	-0.0433627,
	0.0197245,
	0.0744777,
	0.030975,
	-0.0559467,
	0.023512,
	0.00753234,
	-0.0175017,
	0.0668445,
	-0.0086529,
	-0.0370504,
	-0.00292931,
	-0.0236722,
	0.0185818,
	-0.066713,
	0.083389,
	0.127893,
	-0.144521,
	0.189556,
	0.015322,
	-0.349917,
	0.0923037,
	-0.0673395,
	-0.131096,
	0.117158,
	-0.0473263,
	0.00783059,
	-0.294905,
	0.0618701,
	0.154415,
	-0.0038049,
	0.188202,
	0.0671954,
	0.0150307,
	0.106674,
	0.11742,
	-0.179334,
	0.0426703,
	0.000303832,
	0.101573,
	0.0743222,
	0.116168,
	0.119744,
	-0.00586789,
	-0.10228,
	-0.331744,
	-0.143181,
	-0.0547775,
	-0.151886,
	-0.104209,
	0.228504,
	-0.263195,
	0.0262297,
	0.115956,
	0.110978,
	0.0424542,
	0.153954,
	-0.0491727,
	0.125254,
	-0.361076,
	0.0726014,
	0.239585,
	-0.247071,
	0.16188,
	0.0914997,
	0.0328823,
	0.0515848,
	0.0288373,
	0.344614,
	-0.155818,
	-0.201813,
	0.121884,
	-0.342037,
	-0.0578065,
	-0.0693031,
	0.0596293,
	0.0290882,
	-0.0981448,
	-0.101381,
	0.072235,
	0.135796,
	0.0683129,
	-0.0476815,
	-0.0415116,
	0.0847689,
	-0.132872,
	0.216587,
	0.244842,
	-0.0284218,
	-0.0345816,
	-0.150184,
	0.0540095,
	0.0314158,
	-0.0949072,
	0.454887,
	-0.321577,
	-0.00574706,
	0.189661,
	-0.261396,
	-0.267132,
	-0.0472958,
	0.0587332,
	0.246788,
	0.00610033,
	-0.204872,
	-0.0591071,
	0.285324,
	0.0754574,
	-0.0995132,
	0.123881,
	0.162138,
	-0.0987536,
	-0.0331028,
	0.210104,
	-0.0667789,
	-0.221842,
	0.222698,
	-0.0471188,
	0.151836,
	-0.0897294,
	0.476875,
	0.0408942,
	-0.434355,
	0.178798,
	-0.335899,
	-0.569263,
	-0.0845471,
	-0.0784806,
	0.13461,
	0.13466,
	-0.0397764,
	0.0552007,
	-0.137558,
	0.166355,
	-0.010965,
	-0.185265,
	0.221964,
	0.184711,
	-0.196994,
	0.128286,
	-0.109278,
	0.0655412,
	-0.372084,
	0.270389,
	0.0857066,
	0.150878,
	-0.296174,
	-0.115693,
	-0.0880251,
	-0.44628,
	-0.171872,
	-0.334023,
	0.148493,
	-0.450942,
	0.0885502,
	0.15544,
	0.172149,
	0.222961,
	0.0567589,
	0.310893,
	0.143847,
	-0.135339,
	0.123583,
	0.13925,
	0.0480022,
	0.0812736,
	-0.0535496,
	0.0457194,
	0.100449,
	-0.357858,
	-0.0120072,
	0.18132,
	-0.220738,
	-0.0867971,
	0.170969,
	-0.38517,
	-0.162549,
	0.0315179,
	0.0302661,
	-0.301852,
	0.139988,
	0.142235,
	0.142146,
	0.078231,
	0.0444899,
	0.0907524,
	0.00405744,
	-0.0163447,
	0.257506,
	0.0948424,
	0.230003,
	-0.0719767,
	-0.0185949,
	-0.0484263,
	0.147159,
	-0.127823,
	-0.133531,
	0.241192,
	0.0913844,
	0.0144988,
	0.0575568,
	-0.0824892,
	-0.0554448,
	-0.0846204,
	-0.123482,
	-0.196699,
	0.167559,
	0.0164696,
	0.0259294,
	0.0789641,
	0.0734466,
	0.00665425,
	-0.09568,
	0.0666581,
	-0.00123763,
	0.166456,
	0.178207,
	-0.145675,
	-0.166948,
	-0.0103102,
	0.121981,
	-0.226135,
	0.0708029,
	0.109031,
	0.160603,
	0.146554,
	0.132784,
	0.071483,
	-0.208978,
	-0.208425,
	-0.0937676,
	-0.0873161,
	0.239138,
	-0.309107,
	0.120268,
	0.223294,
	0.095871,
	-0.201653,
	-0.0109222,
	0.00830134,
	0.0923973,
	-0.0215287,
	-0.0315696,
	-0.0587072,
	-0.130799,
	-0.0902136,
	0.145873,
	-0.119492,
	0.135122,
	0.0847033,
	-0.109738,
	0.142924,
	0.0686411,
	0.0375353,
	-0.131458,
	-0.167916,
	-0.428787,
	0.0839222,
	0.296901,
	0.136882,
	0.144294,
	0.0588212,
	0.128289,
	0.0604679,
	-0.00644328,
	-0.00106816,
	0.0143121,
	-0.021766,
	-0.163342,
	-0.290382,
	0.0538926,
	-0.24232,
	0.157464,
	0.0874848,
	0.224187,
	-0.0526634,
	-0.0654928,
	0.259878,
	0.131852,
	0.0990347,
	-0.149882,
	-0.0251402,
	-0.112765,
	0.108313,
	-0.0918484,
	0.165936,
	0.0542511,
	0.0313951,
	0.242247,
	-0.097815,
	-0.0505168,
	-0.113026,
	-0.268737,
	0.0376235,
	-0.125345,
	-0.402229,
	0.0369115,
	-0.336461,
	0.41293,
	0.00733227,
	0.215496,
	-0.322211,
	-0.0149015,
	0.377904,
	0.0563401,
	-0.338058,
	-0.026221,
	0.172868,
	0.0536764,
	0.241068,
	-0.275727,
	-0.181002,
	0.198044,
	0.162011,
	-0.00291633,
	0.0613212,
	0.121809,
	-0.442076,
	-0.669009,
	0.0265252,
	0.0490583,
	-0.162045,
	-0.0823863,
	-0.181454,
	0.657551,
	-0.284012,
	0.0661163,
	-0.697189,
	0.0532484,
	0.351307,
	0.589211,
	-0.229272,
	0.122587,
	0.359858,
	0.121826,
	-0.0930574,
	-0.209469,
	-0.436095,
	0.343423,
	-0.0740434,
	-0.146112,
	0.0414803,
	0.0791989,
	-0.600588,
	-0.320482,
	0.122541,
	0.0288953,
	0.0527021,
	-0.347892,
	-0.301607,
	0.479062,
	-0.116327,
	0.0227162,
	-0.782408,
	-0.00768495,
	0.155272,
	0.558391,
	0.255195,
	0.343913,
	0.409865,
	0.262224,
	-0.103229,
	-0.117722,
	-0.735489,
	0.249082,
	-0.241971,
	-0.217369,
	-0.196848,
	0.0100677,
	-0.656369,
	-0.159064,
	0.314265,
	0.204065,
	7.23863e-05,
	-0.240705,
	-0.431329,
	0.305303,
	0.1673,
	-0.156237,
	-0.88584,
	0.014772,
	0.0221182,
	0.541022,
	0.158232,
	0.232369,
	0.381757,
	0.0967502,
	-0.0668431,
	0.0452008,
	-0.408957,
	0.010043,
	-0.139885,
	-0.133838,
	-0.283507,
	-0.0940554,
	-0.712333,
	0.141892,
	0.317128,
	0.591152,
	-0.0517922,
	0.0852865,
	-0.363172,
	0.238727,
	0.489663,
	-0.183016,
	-0.582188,
	-0.396433,
	0.0615554,
	0.0968298,
	0.252939,
	0.0928089,
	0.396227,
	0.0566968,
	0.227771,
	0.181515,
	-0.245799,
	0.00754301,
	-0.27015,
	0.00618642,
	-0.397365,
	0.0314874,
	-0.768713,
	0.0780734,
	0.435264,
	0.408017,
	0.0268283,
	0.273906,
	-0.379937,
	-0.0933499,
	-0.125742,
	-0.287408,
	-0.32418,
	-0.679243,
	-0.147991,
	0.288904,
	0.487042,
	0.352701,
	0.494272,
	0.263232,
	0.275523,
	0.131008,
	-0.0108149,
	-0.0620607,
	-0.605662,
	-0.530566,
	-0.0955128,
	-0.0323389,
	-0.769293,
	0.546704,
	0.501251,
	0.37983,
	0.167097,
	-0.119189,
	-0.518459,
	-0.0320754,
	-0.10904,
	-0.0401428,
	-0.364128,
	-0.565223,
	-0.304987,
	-0.227275,
	0.567841,
	0.364686,
	0.192083,
	-0.00305616,
	0.134107,
	0.373049,
	0.470589,
	-0.186866,
	-0.424163,
	-0.504089,
	-0.141972,
	-0.0788745,
	-0.785134,
	0.773077,
	0.546555,
	0.0518163,
	0.133974,
	-0.0918975,
	-0.524248,
	0.0636294,
	-0.166565,
	-0.153953,
	-0.160248,
	-0.183743,
	-0.431024,
	-0.052161,
	0.595824,
	0.306105,
	0.181236,
	-0.0785267,
	0.446088,
	0.43813,
	0.584213,
	-0.404407,
	-0.655347,
	-0.254459,
	-0.363596,
	-0.233508,
	-0.819092,
	0.619677,
	0.478026,
	0.174453,
	-0.0773742,
	0.0383849,
	-0.30809,
	0.118426,
	0.224444,
	-0.399953,
	-0.600517,
	-0.202719,
	-0.328381,
	0.0529561,
	0.22322,
	0.344923,
	0.148112,
	-0.316354,
	0.487953,
	0.546727,
	0.34841,
	-0.153494,
	-0.634808,
	-0.10154,
	-0.0780573,
	-0.318627,
	-0.830953,
	0.212646,
	0.241264,
	0.19074,
	0.115707,
	0.476205,
	-0.130093,
	0.445727,
	0.0772888,
	-0.284334,
	-0.367732,
	-0.326553,
	-0.239929,
	0.000224543,
	-0.132019,
	0.472809,
	0.0793442,
	0.186639,
	0.70528,
	0.471156,
	0.0703734,
	-0.0414056,
	-0.635211,
	-0.151077,
	0.0229275,
	-0.400071,
	-0.592352,
	-0.245477,
	0.0201354,
	0.3603,
	-0.208598,
	0.372772,
	0.101245,
	0.44626,
	0.137153,
	-0.218156,
	-0.200097,
	-0.420535,
	-0.337681,
	-0.0496511,
	-0.239212,
	0.443917,
	0.0390203,
	-0.165671,
	0.693491,
	0.0712433,
	-0.0396304,
	0.170306,
	-0.199068,
	-0.152047,
	0.0841441,
	0.203617,
	-0.320072,
	-0.374685,
	-0.129204,
	0.484324,
	-0.205574,
	0.380323,
	0.207461,
	0.643466,
	0.215991,
	-0.0437537,
	0.00593882,
	-0.194674,
	-0.261997,
	-0.0839802,
	-0.242638,
	0.348555,
	0.0693044,
	-0.510534,
	0.563787,
	-0.381492,
	-0.18727,
	0.116329,
	-0.283169,
	0.0280514,
	0.43117,
	0.292734,
	-0.136414,
	-0.421057,
	0.0777465,
	0.00568192,
	-0.233345,
	0.0783231,
	0.213927,
	0.455017,
	0.308088,
	-0.0709711,
	0.139161,
	-0.0132964,
	-0.204183,
	0.317801,
	-0.324866,
	0.0924626,
	0.0175249,
	-0.38467,
	0.376116,
	-0.38503,
	-0.184498,
	0.253583,
	-0.112566,
	0.149786,
	0.198773,
	0.19655,
	-0.0657517,
	-0.720295,
	-0.0590525,
	-0.215494,
	-0.165484,
	-0.0307881,
	0.148483,
	0.353334,
	0.0975586,
	-0.0104626,
	0.154608,
	0.14591,
	-0.0820073,
	0.175422,
	0.0843606,
	-0.090103,
	-0.00614918,
	-0.225555,
	0.169215,
	-0.596549,
	-0.0305526,
	0.303373,
	0.0464195,
	0.079776,
	-0.0402584,
	0.24691,
	0.0836281,
	-0.436975,
	-0.293913,
	-0.0574533,
	-0.0631629,
	-0.36308,
	0.0518486,
	0.172807,
	0.122576,
	0.0354132,
	0.0827829,
	0.257689,
	-0.0019533,
	0.0838666,
	0.0567057,
	-0.181231,
	0.102101,
	0.0562767,
	0.00416366,
	-0.779496,
	0.166844,
	0.0622351,
	0.00769789,
	0.0510805,
	0.124196,
	0.135903,
	0.0101213,
	0.0356837,
	-0.434381,
	-0.172174,
	0.0546591,
	-0.534127,
	0.0371276,
	0.125321,
	0.184359,
	-0.0877673,
	0.0788896,
	0.111771,
	0.0373403,
	0.0794188,
	0.0161893,
	-0.144454,
	0.147861,
	0.0284077,
	0.023369,
	-0.325392,
	0.080456,
	0.0137982,
	0.0118052,
	0.0517694,
	0.114482,
	0.0836845,
	0.0231442,
	0.00614013,
	-0.352478,
	-0.248957,
	0.0555801,
	-0.321004,
	0.0366767,
	0.0267519,
	0.222708,
	-0.0825116,
	0.0880658,
	0.124526,
	0.0258991,
	0.0773144,
	-0.00886879,
	-0.155607,
	-0.11056,
	0.00594846,
	-0.050788,
	-0.0278633,
	0.0621977,
	-0.0252341,
	0.00966537,
	0.0895558,
	0.0297824,
	0.0314927,
	0.026784,
	0.00292959,
	-0.15021,
	-0.215719,
	0.0017373,
	-0.100008,
	0.00363585,
	0.0156561,
	0.113771,
	0.00626487,
	0.0990191,
	0.0578259,
	0.00898346,
	0.118371,
	-0.222376,
	-0.0689598,
	0.126494,
	-0.131778,
	-0.252889,
	0.187495,
	-0.0455635,
	0.0251675,
	-0.244832,
	-0.00313295,
	-0.0331132,
	-0.00539452,
	0.0620545,
	0.0916593,
	-0.330899,
	0.109175,
	0.257641,
	-0.100776,
	0.0536636,
	0.12036,
	-0.023941,
	0.086326,
	0.177223,
	0.0930208,
	-0.11237,
	-0.117381,
	-0.395324,
	0.0227069,
	-0.216256,
	-0.192004,
	-0.117427,
	0.296842,
	-0.356765,
	0.0725192,
	-0.0550212,
	-0.0664798,
	0.190228,
	0.149757,
	0.106734,
	0.219646,
	-0.451011,
	0.193372,
	0.280425,
	-0.241994,
	0.144062,
	-0.0122641,
	-0.0569991,
	0.187829,
	0.0250472,
	0.224795,
	-0.0725,
	-0.115651,
	-0.0340459,
	-0.119824,
	-0.146512,
	-0.232001,
	0.0411246,
	0.192323,
	-0.0824583,
	-0.185336,
	-0.00310982,
	0.104663,
	0.113425,
	0.054891,
	-0.136784,
	0.0537379,
	-0.134389,
	0.162455,
	0.267227,
	0.00903084,
	-0.0874456,
	-0.00515975,
	-0.170027,
	0.22998,
	-0.1008,
	0.1948,
	-0.265739,
	-0.174631,
	0.223984,
	0.0267228,
	-0.401279,
	0.0489246,
	-0.010681,
	0.196889,
	0.0350149,
	-0.131961,
	-0.158525,
	0.247482,
	0.0675272,
	-0.00157981,
	-0.066647,
	0.0727643,
	-0.0720645,
	0.0388567,
	0.208055,
	0.128318,
	-0.228381,
	-0.0177718,
	-0.0598226,
	0.182787,
	0.163848,
	0.283761,
	0.125672,
	-0.512588,
	0.127526,
	-0.132386,
	-0.477874,
	0.0178095,
	-0.14003,
	0.0846919,
	0.104441,
	-0.0168062,
	0.0733434,
	0.13371,
	0.171794,
	-0.0317127,
	-0.32174,
	0.152089,
	0.188204,
	-0.146598,
	0.0508151,
	-0.231342,
	0.052708,
	-0.480185,
	0.318213,
	0.0155789,
	-0.0154888,
	-0.14837,
	-0.427911,
	-0.245884,
	-0.368722,
	-0.0113068,
	-0.404558,
	0.128196,
	-0.296397,
	-0.00262573,
	0.16371,
	0.353814,
	0.219534,
	0.0377357,
	0.304996,
	-0.0521208,
	0.162961,
	0.110595,
	0.212986,
	0.262671,
	0.10363,
	-0.108742,
	-0.0453691,
	-0.0576148,
	-0.000338581,
	-0.0584135,
	0.140904,
	-0.33103,
	-0.11721,
	0.0518095,
	-0.140738,
	-0.102685,
	0.105455,
	0.0290393,
	-0.113479,
	0.0313906,
	0.0807018,
	0.231932,
	0.0781196,
	0.00421685,
	-0.00476346,
	-0.0143561,
	0.108764,
	0.191569,
	0.05989,
	0.248321,
	-0.0682857,
	-0.246729,
	0.0202808,
	0.214271,
	-0.0736988,
	-0.12573,
	0.247431,
	0.0374416,
	-0.104091,
	-0.310499,
	-0.0561594,
	-0.108201,
	-0.0881486,
	-0.134711,
	-0.179374,
	0.0858295,
	0.0671112,
	0.299115,
	0.0638286,
	0.0720161,
	0.122757,
	-0.0198947,
	0.0921539,
	0.165887,
	0.183483,
	-0.0154377,
	-0.25535,
	-0.193388,
	0.0578242,
	0.124104,
	-0.032858,
	0.013683,
	0.110438,
	0.203319,
	0.106986,
	0.129731,
	0.0659828,
	-0.173322,
	-0.21293,
	-0.197838,
	-0.0659301,
	0.258065,
	-0.260568,
	0.0306779,
	-0.0462995,
	0.0622449,
	-0.0449755,
	-0.00935097,
	0.00853462,
	0.0856416,
	-0.209257,
	-0.219043,
	0.08018,
	0.101839,
	-0.105983,
	0.196034,
	-0.222864,
	0.157171,
	0.0927081,
	-0.149016,
	0.217183,
	0.0692178,
	0.030524,
	-0.083543,
	-0.140271,
	-0.308141,
	0.115379,
	0.343244,
	0.132673,
	0.0696553,
	0.078262,
	0.109559,
	0.0154376,
	-0.00687912,
	0.0369219,
	0.0152054,
	-0.229884,
	-0.482846,
	-0.115205,
	0.0681426,
	-0.0888306,
	0.272066,
	-0.151297,
	0.227195,
	-0.116276,
	-0.0150442,
	0.271839,
	0.14923,
	0.0737993,
	-0.0609826,
	0.0562447,
	-0.0178084,
	0.127481,
	-0.162695,
	0.207324,
	0.0970333,
	0.0379229,
	-0.184172,
	-0.288608,
	-0.0132023,
	-0.0402638,
	-0.204843,
	-0.199506,
	-0.177328,
	-0.252606,
	0.133514,
	0.0483293,
	0.570378,
	-0.315877,
	0.0203298,
	-0.439572,
	0.20218,
	0.26372,
	0.211453,
	-0.252057,
	0.291404,
	0.209848,
	0.0669625,
	0.300848,
	-0.319009,
	-0.107633,
	0.204805,
	0.129958,
	-0.127241,
	-0.250949,
	-0.0152855,
	-0.0482283,
	-0.587633,
	0.00130911,
	0.034129,
	-0.304166,
	-0.108948,
	0.154917,
	0.614256,
	-0.375427,
	0.0358686,
	-0.651932,
	0.033243,
	0.467052,
	0.432997,
	-0.11521,
	0.414014,
	0.429074,
	-0.0927713,
	-0.0113545,
	-0.309677,
	-0.384056,
	0.23883,
	-0.0823308,
	-0.349087,
	-0.0655195,
	-0.126587,
	-0.211207,
	-0.524672,
	-0.0480097,
	-0.00121778,
	-0.255294,
	-0.0500966,
	0.217419,
	0.488395,
	-0.440236,
	-0.200792,
	-0.736107,
	0.0595163,
	0.0669981,
	0.647622,
	0.199219,
	0.513875,
	0.427408,
	0.0548681,
	-0.17082,
	-0.081833,
	-0.698286,
	0.100967,
	-0.136664,
	0.306982,
	-0.240568,
	-0.0103545,
	-0.331592,
	-0.172593,
	0.0614069,
	0.220529,
	-0.0254691,
	-0.367818,
	-0.208677,
	0.377606,
	-0.204845,
	-0.0697269,
	-0.806965,
	-0.228115,
	-0.02036,
	0.171527,
	0.140709,
	0.422182,
	0.365537,
	0.21703,
	-0.206974,
	-0.136682,
	-0.752557,
	0.324248,
	-0.0576539,
	0.0367574,
	-0.476858,
	0.000437626,
	-0.557089,
	-0.0200712,
	0.210519,
	0.411089,
	0.138665,
	-0.16842,
	-0.0712351,
	0.128497,
	-0.120304,
	-0.559092,
	-0.402736,
	-0.0195766,
	-0.171439,
	0.486027,
	0.229509,
	0.355633,
	0.411598,
	0.3925,
	0.154239,
	0.0847154,
	-0.51746,
	0.122118,
	-0.0937179,
	0.0438275,
	-0.403873,
	-0.0382871,
	-0.576785,
	0.196613,
	0.42589,
	0.247761,
	-0.243942,
	-0.184765,
	-0.40582,
	-0.134357,
	-0.393079,
	-0.306304,
	-0.149104,
	-0.578665,
	-0.0384925,
	0.235628,
	0.457809,
	0.371427,
	0.36326,
	0.239583,
	0.35039,
	0.248384,
	-0.122613,
	0.11522,
	-0.281015,
	-0.370918,
	-0.247374,
	-0.155437,
	-0.793935,
	0.519078,
	0.447791,
	0.134937,
	-0.171443,
	0.0161105,
	-0.436133,
	-0.146995,
	-0.284691,
	-0.587253,
	-0.214977,
	-0.202239,
	-0.47391,
	0.555803,
	0.473516,
	0.171762,
	0.410124,
	0.248801,
	0.253852,
	0.209934,
	0.251601,
	-0.202356,
	0.00404184,
	-0.36012,
	-0.279315,
	-0.541836,
	-0.688067,
	0.882417,
	0.564861,
	0.111164,
	-0.187985,
	0.0524838,
	-0.460297,
	-0.337309,
	-0.18957,
	-0.232523,
	-0.305995,
	0.24204,
	-0.151112,
	-0.175511,
	0.580631,
	0.0974074,
	0.320171,
	-0.132344,
	0.457828,
	0.37587,
	0.561667,
	0.163958,
	-0.0894507,
	-0.255018,
	-0.622637,
	-0.931544,
	-0.662479,
	0.56631,
	0.0823187,
	-0.221469,
	0.302776,
	0.135256,
	-0.339216,
	-0.305385,
	0.25261,
	-0.105847,
	-0.328482,
	0.136535,
	0.145755,
	-0.228786,
	0.118584,
	0.185006,
	0.0387407,
	-0.0988484,
	0.583777,
	0.494831,
	0.346318,
	-0.43984,
	-0.302624,
	-0.124341,
	-0.459169,
	-0.760299,
	-0.664248,
	0.247639,
	0.0143914,
	0.282266,
	0.0756913,
	0.537837,
	-0.420179,
	0.00309552,
	-0.146369,
	-0.206442,
	-0.0645668,
	-0.0427724,
	0.0600198,
	-0.257311,
	-0.020644,
	0.488178,
	-0.0671359,
	-0.0850819,
	0.667703,
	0.25781,
	0.156122,
	-0.0851924,
	-0.185636,
	-0.297397,
	-0.180728,
	-0.0979451,
	-0.421226,
	-0.180431,
	-0.0719128,
	0.434641,
	-0.31981,
	0.210768,
	-0.0771145,
	0.0685882,
	0.182082,
	-0.184657,
	-0.195088,
	0.104221,
	-0.0433023,
	-0.010097,
	-0.0356547,
	0.346305,
	0.166849,
	-0.17563,
	0.614877,
	-0.111182,
	-0.200082,
	-0.138999,
	-0.770578,
	-0.0154685,
	-0.0748001,
	0.383121,
	-0.102996,
	-0.44078,
	0.100608,
	0.309003,
	-0.238926,
	-0.137321,
	0.00474562,
	0.477513,
	0.2471,
	-0.181952,
	-0.228847,
	0.414813,
	0.109297,
	0.121347,
	-0.112995,
	0.438323,
	0.158652,
	-0.272759,
	0.566086,
	-0.413888,
	-0.326251,
	0.0596579,
	-0.468462,
	-0.137002,
	0.117384,
	-0.0376845,
	0.0265784,
	-0.531755,
	0.168135,
	-0.153609,
	-0.294953,
	-0.564282,
	0.122774,
	0.431234,
	0.145645,
	-0.0790351,
	-0.188178,
	0.576023,
	-0.108876,
	0.131037,
	-0.305965,
	0.355955,
	0.0846069,
	-0.0614835,
	0.380662,
	-0.384845,
	-0.233027,
	0.128634,
	-0.425429,
	0.0694757,
	-0.115853,
	0.213434,
	-0.0304495,
	-0.529528,
	-0.0854527,
	-0.294828,
	-0.0677295,
	-0.161966,
	0.143285,
	0.303585,
	-0.0728168,
	-0.0471572,
	0.182771,
	0.497897,
	-0.256457,
	0.216455,
	0.128868,
	0.195957,
	0.000770631,
	0.0447028,
	0.138527,
	-0.655055,
	0.077552,
	0.402513,
	-0.306065,
	0.0880094,
	-0.164149,
	0.155462,
	-0.0629917,
	-0.44202,
	-0.475864,
	-0.0721189,
	-0.0297261,
	-0.349457,
	0.0580565,
	0.204203,
	0.0208161,
	0.0433638,
	0.1008,
	0.312746,
	-0.170333,
	0.10449,
	0.0657836,
	0.00198512,
	0.107894,
	0.127878,
	0.0120662,
	-0.679636,
	0.264361,
	0.233487,
	-0.0353464,
	0.0564337,
	-0.00449133,
	0.238201,
	0.0317132,
	-0.035999,
	-0.83135,
	-0.405443,
	0.074006,
	-0.409024,
	0.0562475,
	0.116203,
	0.115741,
	-0.0580024,
	0.0785432,
	0.0353676,
	0.0617469,
	0.080229,
	0.0171596,
	-0.0826341,
	0.13406,
	0.0815341,
	0.0313475,
	-0.375407,
	0.105078,
	0.0333811,
	0.0139183,
	0.0587889,
	0.104182,
	0.0916581,
	0.0417929,
	0.0144802,
	-0.50183,
	-0.212379,
	0.091669,
	-0.280622,
	0.0403361,
	0.014987,
	0.19714,
	-0.0496668,
	0.10357,
	0.012179,
	0.069552,
	0.0661508,
	-0.00304043,
	-0.401046,
	0.102361,
	0.0110324,
	-0.148647,
	-0.133787,
	0.062877,
	-0.0324743,
	0.00455737,
	0.119804,
	0.0548622,
	0.00824844,
	0.132842,
	0.0138575,
	-0.218927,
	0.103514,
	-0.0402313,
	-0.00587264,
	0.0576068,
	-0.188474,
	0.125912,
	-0.0199428,
	0.103118,
	0.0953428,
	0.0164935,
	0.289681,
	-0.126681,
	-0.454782,
	0.144226,
	0.0703325,
	-0.036954,
	0.087814,
	-0.201311,
	0.0255602,
	-0.36636,
	-0.0431749,
	0.0837199,
	0.0572138,
	-0.0854156,
	0.0770411,
	-0.100778,
	0.158858,
	0.126118,
	-0.170619,
	0.0787321,
	-0.00726441,
	-0.168272,
	0.0572868,
	0.182601,
	0.209874,
	-0.0922395,
	0.0258463,
	-0.468937,
	-0.189517,
	-0.389062,
	-0.0654348,
	-0.0401559,
	0.296162,
	-0.265746,
	0.119922,
	0.00151917,
	-0.186958,
	0.226506,
	-0.00407096,
	0.0307613,
	0.300994,
	-0.299013,
	0.175298,
	0.308374,
	-0.168,
	0.187631,
	-0.0445712,
	-0.0521575,
	0.103773,
	0.0532974,
	0.37555,
	-0.0536111,
	-0.128011,
	-0.0721352,
	-0.231772,
	-0.168968,
	-0.00453582,
	0.105853,
	0.19232,
	0.0105559,
	0.061148,
	0.0374866,
	-0.0849849,
	-0.233639,
	-0.0514807,
	0.0244783,
	0.124717,
	-0.0636541,
	0.101867,
	0.196098,
	-0.00685532,
	-0.114654,
	-0.424146,
	-0.156276,
	0.251153,
	-0.0292264,
	0.0966246,
	-0.177742,
	-0.0940639,
	0.248831,
	-0.30572,
	-0.237557,
	0.0861279,
	-0.0187449,
	0.079393,
	0.2171,
	-0.0259432,
	0.036694,
	0.12642,
	0.0369081,
	0.114058,
	-0.0338354,
	0.141917,
	-0.167562,
	0.0860631,
	0.081518,
	0.133509,
	-0.0952817,
	-0.257294,
	-0.153442,
	0.255559,
	0.221557,
	0.0294226,
	-0.0385764,
	-0.606628,
	0.126524,
	-0.475283,
	-0.298069,
	-0.0604468,
	-0.158767,
	0.157848,
	0.0985414,
	0.0169691,
	0.116133,
	0.178795,
	0.301083,
	0.105078,
	0.046028,
	0.186263,
	0.187896,
	-0.055788,
	0.111371,
	-0.186905,
	0.00769728,
	-0.281559,
	0.38321,
	0.128343,
	-0.454043,
	-0.38012,
	-0.517604,
	-0.2064,
	-0.18005,
	-0.162921,
	-0.281085,
	0.112815,
	-0.0865912,
	-0.0998611,
	0.147742,
	0.510131,
	0.322052,
	-0.111206,
	0.263687,
	-0.274761,
	0.319274,
	0.155757,
	0.205636,
	0.272768,
	0.111279,
	-0.0672158,
	-0.0539867,
	0.00477393,
	0.0432014,
	0.0189584,
	0.149681,
	-0.392125,
	-0.147588,
	0.0341933,
	-0.0925817,
	-0.161906,
	0.0680677,
	0.0227474,
	-0.0314258,
	0.0358107,
	0.144955,
	0.267193,
	0.117613,
	0.0105886,
	-0.0284153,
	-0.163597,
	0.203506,
	0.149957,
	0.0121485,
	0.251181,
	-0.0408289,
	-0.428763,
	0.000412231,
	0.136309,
	-0.0565354,
	-0.0811644,
	0.126164,
	-0.123412,
	0.0507351,
	-0.319485,
	-0.0626427,
	-0.0210385,
	-0.0616736,
	-0.0316226,
	-0.185308,
	0.0208292,
	0.0704378,
	0.34363,
	-0.113919,
	0.0800309,
	0.0862447,
	-0.0452914,
	0.137683,
	0.120752,
	0.114612,
	0.192491,
	-0.187407,
	-0.15719,
	0.0343991,
	0.152527,
	-0.0317688,
	0.00760111,
	0.123467,
	0.178091,
	0.137144,
	0.150436,
	0.0675881,
	-0.162602,
	-0.169513,
	-0.0947301,
	-0.122033,
	0.157017,
	-0.214413,
	0.053942,
	0.0831244,
	0.0366197,
	-0.200207,
	0.0431866,
	0.027798,
	0.0716373,
	-0.354871,
	-0.267998,
	0.0843968,
	0.00466361,
	0.0265355,
	0.170026,
	-0.155133,
	0.0645371,
	0.112093,
	0.0147428,
	0.177907,
	0.069934,
	0.0333984,
	-0.0920343,
	-0.114845,
	-0.165009,
	0.0890283,
	0.277945,
	0.097496,
	0.0488885,
	0.06378,
	-0.15521,
	-0.0902925,
	-0.0225761,
	0.0524416,
	0.00987852,
	-0.265897,
	-0.486058,
	-0.0568368,
	0.0749435,
	0.210474,
	0.245944,
	-0.0410689,
	-0.064498,
	-0.0908649,
	0.0183964,
	0.202575,
	0.0889287,
	0.0892403,
	-0.0355228,
	0.0751778,
	-0.0281845,
	0.12487,
	-0.244506,
	0.212573,
	0.0992428,
	0.0319028,
	-0.245647,
	-0.28045,
	0.0614443,
	0.232824,
	-0.151174,
	-0.230742,
	-0.253359,
	-0.133677,
	0.148303,
	0.391423,
	0.622461,
	-0.264351,
	-0.0446009,
	-0.305874,
	0.0911198,
	0.239673,
	0.179836,
	-0.215262,
	0.248592,
	0.222742,
	-0.116375,
	0.282792,
	-0.308296,
	-0.0741021,
	-0.0615703,
	0.17766,
	-0.261272,
	-0.273463,
	-0.00272796,
	0.367872,
	-0.447408,
	-0.0253578,
	-0.144787,
	-0.395322,
	0.208576,
	0.48437,
	0.567605,
	-0.361907,
	-0.232717,
	-0.481869,
	0.0781853,
	0.262651,
	0.368425,
	-0.250861,
	0.367971,
	0.40693,
	-0.263955,
	0.0414918,
	-0.356269,
	-0.325088,
	0.200894,
	-0.0911373,
	0.102356,
	-0.0568339,
	-0.10342,
	0.373998,
	-0.396808,
	-0.108329,
	-0.0667529,
	-0.200596,
	0.00440661,
	0.337609,
	0.35825,
	-0.589097,
	-0.255049,
	-0.708533,
	-0.0326239,
	0.147526,
	0.616023,
	-0.0440363,
	0.429289,
	0.416086,
	-0.16008,
	-0.140575,
	-0.320838,
	-0.580878,
	0.494871,
	-0.203988,
	-0.0892565,
	-0.342576,
	-0.139105,
	0.0631087,
	-0.18985,
	-0.0657578,
	0.286179,
	0.0249671,
	-0.0568723,
	0.331582,
	0.319747,
	-0.272011,
	-0.170709,
	-0.0953002,
	-0.208152,
	0.21133,
	0.399788,
	0.116353,
	0.324231,
	0.352534,
	0.00518768,
	-0.172191,
	-0.148309,
	-1.01563,
	0.0531206,
	0.0386421,
	0.00845748,
	-0.217424,
	-0.232544,
	-0.110376,
	-0.130791,
	0.223568,
	0.371304,
	-0.168556,
	-0.307932,
	-0.0445167,
	0.106195,
	-0.265506,
	-0.0801187,
	-0.040974,
	0.0433869,
	0.0323731,
	0.169834,
	0.261569,
	0.402798,
	0.471642,
	0.321201,
	0.0706863,
	-0.0828313,
	-0.536423,
	-0.1343,
	0.124042,
	-0.023526,
	-0.172352,
	-0.625522,
	-0.378387,
	0.301345,
	0.458354,
	0.170809,
	-0.467686,
	-0.176847,
	-0.351088,
	-0.41395,
	-0.567663,
	-0.20258,
	0.04885,
	-0.278128,
	0.176862,
	0.272861,
	0.540301,
	0.245653,
	0.432412,
	0.252867,
	0.234609,
	0.116785,
	-0.296611,
	-0.125616,
	-0.0542843,
	0.127197,
	0.0528238,
	-0.135143,
	-0.581531,
	0.466322,
	0.475017,
	0.105359,
	-0.644142,
	-0.0607632,
	-0.606976,
	-0.888216,
	-0.119241,
	-0.193951,
	-0.208619,
	-0.137921,
	-0.329875,
	0.270892,
	0.563909,
	0.328481,
	0.405388,
	0.0391142,
	0.00271431,
	0.126078,
	-0.0706965,
	-0.132857,
	0.0398077,
	0.112246,
	0.0706096,
	-0.275963,
	-0.305441,
	0.708479,
	0.346873,
	0.0392682,
	-0.221159,
	0.0568162,
	-0.29794,
	-0.670831,
	-0.108116,
	-0.207152,
	-0.166559,
	0.193816,
	-0.069938,
	0.249159,
	0.583928,
	0.310895,
	0.265362,
	-0.27296,
	0.356062,
	0.38124,
	0.389166,
	-0.78656,
	0.422965,
	0.00429594,
	-0.308833,
	-0.340895,
	-0.238913,
	0.563712,
	0.100118,
	-0.240682,
	0.105024,
	0.13483,
	-0.275353,
	-0.186858,
	0.0124834,
	-0.194566,
	-0.198813,
	0.182079,
	-0.101135,
	-0.318902,
	0.216101,
	0.535079,
	-0.140003,
	0.176422,
	0.422858,
	0.216991,
	0.397493,
	-0.514822,
	-0.0140623,
	-0.199962,
	-0.348142,
	-0.113278,
	-0.00313121,
	0.343067,
	0.306321,
	0.169784,
	-0.105842,
	-0.019259,
	-0.204839,
	-0.0295274,
	-0.303567,
	-0.166564,
	0.0215728,
	0.19481,
	-0.0600117,
	-0.346778,
	0.114477,
	0.447148,
	-0.0249499,
	-0.0190399,
	0.638558,
	0.053072,
	0.261761,
	-0.685207,
	-0.16593,
	0.0692278,
	-0.0571614,
	-0.321238,
	0.00713643,
	-0.06165,
	0.219914,
	0.466772,
	-0.23848,
	0.232985,
	0.00663044,
	0.159514,
	-0.462716,
	-0.437089,
	-0.0173393,
	0.64035,
	-0.120117,
	0.128539,
	-0.201415,
	0.551759,
	0.18884,
	0.0788622,
	0.556712,
	-0.38167,
	0.0947629,
	0.149786,
	-0.567663,
	-0.424395,
	-0.504766,
	-0.0425135,
	0.0309481,
	-0.0682062,
	0.160037,
	0.286313,
	-0.315844,
	-0.156038,
	0.108468,
	0.258139,
	0.137402,
	-0.195191,
	-0.308658,
	0.604286,
	0.0108587,
	-0.191234,
	-0.269754,
	0.644147,
	0.175401,
	-0.0792457,
	0.565112,
	-0.583269,
	-0.109622,
	-0.120246,
	-0.524167,
	-0.208901,
	-0.306941,
	0.255316,
	-0.199818,
	-0.166418,
	-0.0163905,
	-0.238585,
	0.0405995,
	-0.170675,
	0.20127,
	0.429236,
	0.382454,
	-0.109882,
	-0.159543,
	0.838179,
	0.109485,
	-0.18501,
	-0.27914,
	0.617392,
	0.0829867,
	0.159371,
	0.431671,
	-0.39153,
	-0.0657165,
	-0.176233,
	-0.601471,
	-0.102281,
	-0.56257,
	0.0598151,
	-0.195818,
	-0.370128,
	-0.0612098,
	-0.301761,
	0.10425,
	-0.458412,
	0.215249,
	0.289498,
	-0.122474,
	-0.102847,
	-0.175344,
	0.568244,
	0.175,
	0.351482,
	0.105568,
	0.297715,
	0.00604674,
	0.336967,
	0.195684,
	-0.553853,
	0.105181,
	-0.118456,
	-0.503494,
	0.100539,
	-0.283967,
	0.146797,
	0.158003,
	-0.336456,
	-0.403292,
	-0.192726,
	0.248575,
	-0.658556,
	0.0615631,
	0.185415,
	-0.0069003,
	-0.0528503,
	0.0855496,
	0.327325,
	0.104876,
	0.145735,
	0.0479633,
	0.0605633,
	0.116229,
	0.146152,
	0.0291208,
	-0.536352,
	0.21583,
	0.0723976,
	-0.29531,
	0.0495788,
	0.106725,
	0.129316,
	0.0357737,
	-0.0505908,
	-0.49646,
	-0.415727,
	0.0636335,
	-0.52296,
	0.0481091,
	0.0497543,
	0.256836,
	-0.0768937,
	0.0771565,
	0.0450339,
	-0.174951,
	0.0578317,
	0.0144785,
	-0.0455424,
	0.11187,
	0.0704919,
	0.00105668,
	-0.338389,
	0.0734754,
	-0.0148047,
	0.00594559,
	0.0619935,
	0.111729,
	0.0311565,
	0.0414072,
	0.0141392,
	-0.109904,
	-0.316999,
	-0.0141993,
	-0.0654386,
	0.0553041,
	0.00973408,
	0.209846,
	-0.0899531,
	0.0885281,
	0.0271043,
	0.0680995,
	0.0801235,
	-0.00700102,
	-0.0997637,
	0.105531,
	0.019674,
	-0.0279953,
	-0.137749,
	0.0434488,
	-0.0365862,
	0.00717556,
	0.163125,
	-0.0642315,
	-0.0296372,
	0.0476254,
	-0.00465403,
	-0.0383415,
	0.098011,
	-0.204412,
	-0.178057,
	0.103614,
	-0.215885,
	0.169029,
	-0.139826,
	0.0998247,
	0.00704833,
	-0.0229112,
	0.259026,
	-0.438464,
	-0.121857,
	0.0807561,
	0.176749,
	0.15928,
	0.15664,
	0.0050413,
	0.0101585,
	-0.294897,
	0.0182595,
	0.0264164,
	-0.0432909,
	-0.113659,
	0.0903556,
	0.0899079,
	0.133698,
	0.0754328,
	-0.340479,
	0.107649,
	-0.0637028,
	-0.212173,
	-0.0933381,
	0.196152,
	0.202019,
	-0.194602,
	0.126306,
	-0.329482,
	0.0848327,
	-0.318667,
	0.19889,
	0.0760796,
	0.297681,
	-0.157673,
	0.138291,
	-0.0142151,
	-0.142691,
	-0.0463457,
	-0.107653,
	-0.0445041,
	0.250226,
	0.0617101,
	-0.0704243,
	0.235818,
	-0.232538,
	0.214048,
	-0.00894617,
	-0.0200432,
	0.062055,
	0.00190673,
	0.249009,
	0.0659789,
	-0.0435553,
	-0.174323,
	-0.158848,
	-0.176491,
	0.124103,
	0.0190763,
	0.19976,
	-0.114383,
	0.0832113,
	-0.00614229,
	-0.132606,
	0.0502323,
	-0.185354,
	-0.0127738,
	0.161075,
	0.0522904,
	0.0928092,
	0.0242418,
	-0.112382,
	-0.0944583,
	-0.266777,
	-0.000433559,
	0.157603,
	-0.154032,
	0.0152539,
	-0.113257,
	-0.291317,
	0.142708,
	-0.197417,
	-0.34231,
	0.0749582,
	0.0942233,
	0.146544,
	-0.012217,
	0.365319,
	0.0565521,
	0.0515663,
	0.00772355,
	-0.0769939,
	0.0819448,
	-0.0016064,
	-0.0620061,
	0.120748,
	0.0693179,
	0.0837436,
	-0.229685,
	-0.418366,
	-0.105806,
	0.248783,
	-0.0154666,
	-0.151435,
	-0.118657,
	-0.810452,
	0.0466176,
	0.0103082,
	-0.406789,
	-0.057542,
	-0.0744529,
	0.159512,
	0.0950527,
	0.215215,
	0.192047,
	0.191349,
	0.39554,
	0.113841,
	0.0895925,
	0.119214,
	0.112253,
	0.0341344,
	0.139009,
	-0.136574,
	-0.0624496,
	-0.281529,
	0.330914,
	0.180324,
	-0.302744,
	-0.340521,
	-0.363384,
	-0.154527,
	0.02362,
	-0.343374,
	-0.191922,
	0.115852,
	0.132935,
	-0.1161,
	0.160592,
	0.430912,
	0.246086,
	-0.123716,
	0.198318,
	-0.350984,
	0.254755,
	0.166473,
	0.158724,
	0.153534,
	0.196591,
	-0.10203,
	-0.261029,
	-0.141253,
	0.48811,
	0.0140454,
	0.0984042,
	-0.175645,
	-0.177252,
	-0.109337,
	-0.115377,
	-0.0845144,
	0.101427,
	0.0620642,
	0.0509525,
	-0.0530875,
	0.21299,
	0.274769,
	-0.209267,
	-0.0686449,
	-0.11152,
	-0.29192,
	0.16493,
	0.0635637,
	-0.068656,
	0.317979,
	-0.0561119,
	-0.256783,
	-0.159788,
	0.165793,
	-0.112522,
	-0.0878099,
	0.176275,
	-0.217695,
	-0.0895619,
	-0.0143573,
	-0.0337027,
	-0.130599,
	-0.0156764,
	-0.00766732,
	-0.217766,
	-0.0877651,
	0.0958409,
	0.305653,
	-0.106334,
	0.0898752,
	0.0758038,
	-0.0216138,
	0.158815,
	0.12405,
	0.114545,
	0.196035,
	-0.174449,
	-0.199561,
	0.0507807,
	0.157621,
	-0.148478,
	0.0306772,
	0.117164,
	0.209438,
	-0.12434,
	0.134595,
	0.0577179,
	-0.102077,
	-0.174273,
	0.0235635,
	-0.0768707,
	0.1458,
	-0.227784,
	0.12944,
	0.130124,
	-0.0225123,
	-0.161079,
	0.0686438,
	0.0161664,
	0.066484,
	-0.246967,
	-0.23233,
	0.0574186,
	-0.0695038,
	0.0536108,
	0.156505,
	-0.178518,
	-0.0685851,
	0.116676,
	0.108245,
	0.0993774,
	0.0587183,
	0.0153005,
	-0.0167143,
	-0.0919024,
	-0.214578,
	0.0717188,
	0.270187,
	0.0985078,
	0.111723,
	0.0678426,
	-0.226038,
	-0.143136,
	-0.0189157,
	0.0525763,
	0.0111239,
	-0.15495,
	-0.375429,
	0.0968788,
	0.0675311,
	0.23534,
	0.312931,
	-0.10007,
	-0.12469,
	-0.085342,
	0.0420974,
	0.257037,
	-0.0276463,
	0.0952399,
	-0.0647999,
	0.0834185,
	-0.0207683,
	0.142387,
	-0.246311,
	0.201475,
	0.11428,
	0.0323556,
	-0.288531,
	-0.29292,
	0.110233,
	0.233061,
	-0.130221,
	-0.147087,
	-0.367892,
	0.0498054,
	0.129127,
	0.439182,
	0.520098,
	-0.0430669,
	-0.108253,
	-0.104766,
	0.0845709,
	0.0792004,
	0.184892,
	-0.183842,
	0.203541,
	0.207864,
	-0.17208,
	0.273374,
	-0.450414,
	-0.0632085,
	-0.310832,
	0.195815,
	-0.234596,
	-0.253621,
	0.0754151,
	0.341339,
	-0.247159,
	0.0242679,
	-0.337291,
	-0.0826592,
	0.207891,
	0.506539,
	0.440349,
	0.0482066,
	-0.20829,
	-0.259268,
	-0.0271967,
	0.112544,
	0.309055,
	-0.204261,
	0.240298,
	0.374978,
	-0.401382,
	0.0384044,
	-0.619545,
	-0.289446,
	0.121453,
	-0.122962,
	0.00716776,
	0.0953633,
	-0.024946,
	0.327074,
	-0.566607,
	-0.0476811,
	-0.112226,
	-0.20004,
	0.00910012,
	0.581238,
	0.124947,
	0.00888832,
	-0.321128,
	-0.0631808,
	-0.00562909,
	-0.0173898,
	0.601031,
	-0.162061,
	0.267044,
	0.420283,
	-0.249447,
	-0.0940455,
	-0.574362,
	-0.345892,
	0.162894,
	-0.276057,
	-0.0553123,
	-0.0147135,
	-0.360795,
	0.136537,
	0.0310338,
	-0.237244,
	0.268501,
	-0.162103,
	0.0834365,
	0.415679,
	0.214863,
	-0.0891946,
	-0.162624,
	0.362335,
	0.0595136,
	-0.131252,
	0.0960558,
	-0.147585,
	0.308321,
	0.38811,
	0.0143884,
	-0.107849,
	-0.245389,
	-1.08281,
	-0.0571664,
	-0.0457473,
	0.155455,
	0.315362,
	-0.311713,
	0.0833964,
	-0.0196385,
	0.105773,
	0.0347414,
	-0.505571,
	-0.29593,
	0.192213,
	-0.104913,
	0.0293854,
	-0.154867,
	0.0351627,
	0.319839,
	-0.290715,
	0.165426,
	0.105171,
	0.127412,
	0.469458,
	-0.284841,
	0.316243,
	-0.191401,
	-0.792816,
	-0.151303,
	0.189726,
	0.203634,
	0.391284,
	-0.650602,
	-0.038203,
	0.343473,
	0.449475,
	0.0266425,
	-0.668736,
	-0.161434,
	-0.11929,
	-0.513508,
	-0.196062,
	-0.196906,
	0.413631,
	0.16771,
	-0.0786635,
	-0.0120595,
	0.345259,
	0.125156,
	0.461105,
	-0.164375,
	0.307966,
	-0.0338302,
	-0.406951,
	-0.120087,
	0.0779062,
	0.329956,
	0.512329,
	-0.39489,
	-0.223371,
	0.426892,
	0.347563,
	-0.134119,
	-0.839497,
	-0.341214,
	-0.112497,
	-0.645002,
	-0.2143,
	-0.0812342,
	0.1279,
	0.301698,
	-0.323827,
	0.0594405,
	0.324161,
	0.158189,
	0.427963,
	-0.628567,
	0.161828,
	0.0381998,
	-0.468344,
	0.0294754,
	0.175252,
	0.157892,
	0.486676,
	-0.173288,
	-0.116054,
	0.592398,
	0.126326,
	-0.239917,
	-0.460188,
	0.225998,
	-0.0745682,
	-0.575369,
	-0.68673,
	0.08099,
	-0.201244,
	0.0880964,
	-0.0514027,
	0.141176,
	0.351472,
	0.265357,
	0.219201,
	-0.279028,
	0.273663,
	0.119872,
	-0.0511998,
	0.173487,
	0.412865,
	0.170938,
	0.24381,
	0.27613,
	-0.374621,
	0.308634,
	0.0890171,
	-0.281643,
	-0.196885,
	0.0566812,
	-0.295372,
	-0.278423,
	-0.517039,
	-0.144802,
	0.00570888,
	0.301573,
	0.313051,
	0.130312,
	-0.0266198,
	0.326175,
	-0.0584373,
	-0.172552,
	0.454447,
	0.0894665,
	0.138069,
	-0.167577,
	0.0622599,
	0.0566233,
	-0.109968,
	0.296381,
	-0.0193155,
	0.265326,
	0.229029,
	-0.0224786,
	-0.0144147,
	-0.595693,
	-0.102218,
	-0.248804,
	-0.507668,
	-0.150013,
	0.22314,
	0.520416,
	0.230677,
	0.0985496,
	-0.0354949,
	0.263405,
	-0.037611,
	0.229336,
	0.663884,
	-0.157981,
	0.26837,
	-0.69961,
	-0.233423,
	0.145803,
	-0.602961,
	0.341455,
	0.0847629,
	0.0402943,
	0.0331223,
	0.459214,
	-0.226231,
	-0.482475,
	0.097905,
	-0.00849972,
	-0.596512,
	-0.202096,
	0.00387731,
	0.537291,
	0.382815,
	0.0627274,
	-0.115325,
	0.284895,
	0.139401,
	0.125735,
	0.527273,
	-0.647104,
	0.160065,
	-0.428645,
	-0.496018,
	-0.349324,
	-0.601804,
	0.272491,
	0.223553,
	0.213656,
	0.0933406,
	0.213471,
	-0.0769951,
	-0.65942,
	0.252983,
	0.108927,
	-0.146346,
	-0.0930508,
	-0.658434,
	0.450444,
	0.637722,
	0.0783135,
	-0.204014,
	0.50566,
	0.100595,
	0.175526,
	0.505003,
	-0.877905,
	-0.020856,
	0.036084,
	-0.511907,
	-0.374728,
	-1.00665,
	0.229533,
	0.0817312,
	0.0152938,
	-0.01257,
	-0.211006,
	0.13253,
	-0.488936,
	0.372177,
	0.453308,
	-0.0352583,
	-0.121518,
	-0.506933,
	0.561802,
	0.603777,
	-0.163742,
	-0.269248,
	0.61933,
	-0.0522376,
	0.577838,
	0.398744,
	-0.334253,
	-0.0184281,
	-0.0650149,
	-0.906541,
	-0.212217,
	-0.597881,
	0.31003,
	-0.0332535,
	-0.35993,
	-0.322977,
	-0.199884,
	0.206194,
	-0.536078,
	0.261268,
	0.259532,
	0.0159183,
	-0.0853411,
	-0.376215,
	0.50981,
	0.436279,
	-0.00480291,
	0.102614,
	0.368576,
	-0.00231621,
	0.411187,
	0.209689,
	-0.627203,
	0.180991,
	0.0138589,
	-0.416381,
	-0.0997371,
	-0.397342,
	0.161622,
	0.143688,
	-0.291388,
	-0.260666,
	-0.21791,
	0.168164,
	-0.554025,
	0.144255,
	0.161699,
	-0.0693971,
	0.0219687,
	0.0818246,
	0.190802,
	0.0925935,
	0.0496621,
	0.0320408,
	0.160653,
	0.10877,
	0.209312,
	0.0235564,
	-0.564773,
	0.187319,
	-0.107049,
	-0.364602,
	0.0289457,
	0.182093,
	0.104432,
	0.0570233,
	-0.0460986,
	-0.247886,
	-0.535246,
	0.0486102,
	-0.0351018,
	0.0217173,
	0.0353941,
	0.224415,
	-0.0778718,
	0.0731956,
	-0.00185078,
	-0.0387885,
	0.0667141,
	-0.00145642,
	-0.0590823,
	0.0956004,
	0.0287087,
	-0.00786085,
	-0.36194,
	0.0685059,
	-0.0258008,
	0.00236324,
	0.0324779,
	0.0613992,
	0.0239896,
	0.00440603,
	0.000241227,
	0.0531592,
	-0.38721,
	0.0466715,
	0.0669473,
	0.0123557,
	0.0158362,
	0.284172,
	-0.111352,
	0.0889839,
	0.0645055,
	0.0121396,
	0.0490025,
	-0.00767988,
	-0.0891456,
	0.105405,
	0.0540313,
	0.00788326,
	-0.154301,
	0.062989,
	-0.0359314,
	-0.00147726,
	0.12838,
	-0.361748,
	-0.0185672,
	0.0244895,
	-0.0141592,
	0.0282103,
	0.10318,
	-0.0753635,
	0.00523338,
	0.0958244,
	-0.152461,
	0.0465792,
	-0.128945,
	0.0835078,
	0.116094,
	0.0888352,
	0.198653,
	-0.147919,
	-0.120324,
	0.08584,
	0.028258,
	0.0448631,
	0.162576,
	-0.224196,
	0.0187643,
	-0.308402,
	0.0628844,
	-0.219568,
	-0.0502533,
	0.052316,
	0.0526864,
	0.153424,
	0.168449,
	0.109081,
	-0.0735716,
	0.064974,
	-0.100625,
	-0.257596,
	-0.0972872,
	0.228461,
	-0.0737844,
	-0.0881573,
	0.260653,
	-0.204968,
	0.249795,
	-0.196731,
	0.179161,
	-0.0334396,
	0.32938,
	-0.420678,
	0.108006,
	-0.177459,
	-0.050073,
	-0.0339056,
	-0.0425178,
	-0.040386,
	0.202914,
	0.200981,
	-0.0261844,
	0.244117,
	-0.306531,
	0.172998,
	-0.172944,
	-0.0224178,
	-0.0350697,
	0.0608959,
	0.352605,
	0.0217217,
	-0.0755379,
	-0.0835469,
	-0.0632824,
	-0.234785,
	0.179208,
	-0.101195,
	0.0664512,
	-0.202175,
	0.125167,
	-0.0306052,
	-0.0895882,
	0.334609,
	-0.0593501,
	-0.0777988,
	0.0565425,
	0.293892,
	0.0783046,
	-0.0578288,
	-0.505585,
	0.0285866,
	-0.254322,
	0.0390062,
	0.133327,
	-0.118466,
	-0.185177,
	-0.189136,
	-0.393383,
	0.160192,
	-0.145313,
	-0.228794,
	0.212276,
	-0.0317987,
	0.135844,
	0.127854,
	0.411795,
	0.0152576,
	-0.0886774,
	0.144689,
	0.0145483,
	-0.00414795,
	0.0541447,
	0.124489,
	0.123883,
	-0.121435,
	-0.0902004,
	-0.042712,
	-0.161593,
	0.00114978,
	0.252783,
	-0.173541,
	-0.20108,
	-0.307266,
	-0.728959,
	0.0387369,
	0.0502576,
	-0.155788,
	0.0102442,
	-0.0849937,
	0.13536,
	0.106485,
	0.248654,
	0.187979,
	0.0820854,
	0.293046,
	0.00384944,
	0.0227246,
	0.138155,
	0.138578,
	0.046992,
	0.0768166,
	-0.203651,
	0.0426124,
	-0.00565363,
	-0.101408,
	0.0955854,
	0.0917588,
	0.199776,
	-0.109844,
	-0.0407279,
	0.0543469,
	-0.41759,
	-0.153291,
	0.129008,
	0.0694715,
	-0.209157,
	0.208595,
	0.329252,
	0.187433,
	-0.0910327,
	0.235681,
	-0.575988,
	-0.0678568,
	0.138598,
	0.320897,
	0.24431,
	0.145184,
	-0.527878,
	-0.301361,
	0.165617,
	0.216154,
	0.0972269,
	0.171474,
	-0.184574,
	-0.0812001,
	-0.0701733,
	-0.0205416,
	-0.272706,
	0.00558041,
	-0.119334,
	0.0555155,
	-0.0532482,
	0.198852,
	0.22197,
	-0.117774,
	-0.0733256,
	-0.062312,
	-0.097567,
	-0.119559,
	0.00421098,
	0.0399044,
	0.303162,
	-0.00435051,
	-0.226857,
	-0.166971,
	0.206288,
	-0.312854,
	0.055146,
	0.170265,
	-0.198711,
	-0.188241,
	-0.01072,
	-0.00101653,
	-0.208972,
	-0.12723,
	-0.102904,
	-0.0676566,
	0.0465439,
	0.157349,
	0.27995,
	0.00314775,
	0.110926,
	0.180809,
	0.0303013,
	0.0631376,
	-0.0701448,
	0.114127,
	0.227841,
	-0.113893,
	-0.20537,
	-0.00450003,
	0.179137,
	-0.236046,
	-0.0766201,
	0.112956,
	0.140092,
	-0.120782,
	0.145265,
	0.0639639,
	-0.0870429,
	-0.145133,
	0.0286295,
	-0.146791,
	0.126391,
	-0.145942,
	0.182096,
	0.0866004,
	-0.165242,
	-0.114842,
	0.0717425,
	0.0400608,
	0.0738185,
	0.0132238,
	-0.132404,
	0.105778,
	-0.0707599,
	0.0944306,
	0.168493,
	-0.1761,
	-0.130965,
	0.124226,
	0.00987403,
	0.0761306,
	0.0782274,
	0.0352237,
	-0.160551,
	-0.0472509,
	-0.241852,
	0.115165,
	0.254374,
	0.0762001,
	0.110004,
	0.0293114,
	-0.252302,
	-0.0250225,
	-0.0102434,
	0.0661657,
	0.00521407,
	-0.0663764,
	-0.318396,
	0.199933,
	0.0976269,
	0.206251,
	0.330069,
	-0.031664,
	-0.120964,
	0.000980256,
	0.070371,
	0.25829,
	-0.0662397,
	0.0895231,
	-0.191669,
	0.160638,
	0.0183082,
	0.118008,
	-0.265674,
	0.18623,
	-0.0734442,
	0.0349691,
	-0.285144,
	-0.261976,
	0.153898,
	0.234544,
	-0.0939069,
	-0.112918,
	-0.398925,
	0.106839,
	0.156468,
	0.413521,
	0.35302,
	0.0678061,
	-0.074814,
	0.0557432,
	-0.0517539,
	-0.0125033,
	-0.0497032,
	-0.189719,
	0.163288,
	0.196266,
	-0.185387,
	0.293223,
	-0.481353,
	-0.0453873,
	-0.327336,
	0.195381,
	-0.19115,
	-0.216603,
	0.175455,
	0.320619,
	-0.165856,
	0.0534206,
	-0.260965,
	0.0518547,
	0.204576,
	0.574601,
	0.283762,
	-0.0427348,
	-0.0836829,
	-0.0367721,
	-0.15179,
	-0.0672843,
	0.360025,
	-0.334542,
	0.221762,
	0.368027,
	-0.435561,
	0.0355524,
	-0.486039,
	-0.249794,
	-0.266971,
	-0.105553,
	0.051873,
	0.0335386,
	0.0931725,
	0.284443,
	-0.491273,
	-0.169378,
	0.14824,
	-0.0457665,
	0.247737,
	0.722019,
	0.081429,
	-0.154529,
	-0.182783,
	0.289391,
	-0.15958,
	0.0526209,
	0.192924,
	-0.454934,
	0.216881,
	0.420735,
	-0.286291,
	0.00416246,
	-0.543017,
	0.0205711,
	-0.0375219,
	-0.232432,
	0.107797,
	0.0664732,
	-0.118604,
	0.349658,
	0.131848,
	-0.142838,
	-0.0575011,
	-0.148282,
	0.0334486,
	0.428483,
	0.0402279,
	-0.0828141,
	0.120118,
	0.332491,
	-0.223488,
	0.0150276,
	0.222462,
	-0.321293,
	0.216457,
	0.4091,
	-0.64708,
	0.0937268,
	-0.34565,
	-0.448444,
	-0.182612,
	-0.198793,
	0.379712,
	0.280002,
	-0.667497,
	0.204257,
	-0.00392028,
	0.0754761,
	-0.208394,
	-0.347502,
	0.100739,
	0.327229,
	-0.0687378,
	-0.0788677,
	0.383231,
	0.226448,
	-0.536972,
	-0.300055,
	0.0683865,
	-0.184209,
	-0.00716562,
	0.492995,
	-0.810563,
	0.539142,
	-0.177026,
	-0.65818,
	0.104185,
	0.146079,
	0.288868,
	0.19385,
	-0.627864,
	0.224202,
	0.311658,
	0.393947,
	-0.0832751,
	-0.904759,
	-0.171324,
	0.0988523,
	-0.484001,
	-0.223337,
	0.197824,
	0.657601,
	-0.318617,
	-0.02321,
	-0.0451821,
	-0.102883,
	0.167087,
	0.427335,
	-0.970767,
	0.440415,
	-0.0596878,
	-0.411208,
	0.164528,
	-0.358723,
	0.299101,
	0.50498,
	-0.609908,
	0.161156,
	0.205563,
	0.0180683,
	-0.182491,
	-0.31682,
	-0.246145,
	0.195544,
	-0.760453,
	-0.442184,
	0.283603,
	0.450764,
	0.0293316,
	0.0722418,
	0.16622,
	-0.163702,
	-0.0866652,
	0.415465,
	-0.642429,
	0.271565,
	0.0758771,
	-0.456379,
	0.245844,
	-0.450414,
	0.338204,
	0.567275,
	-0.355752,
	-0.0325718,
	0.402004,
	0.0180203,
	-0.626173,
	-0.448551,
	0.0126253,
	0.00461541,
	-0.764503,
	-0.267462,
	0.101855,
	0.450731,
	0.185529,
	0.325451,
	0.290055,
	-0.164964,
	0.284598,
	0.237324,
	-0.472735,
	0.374242,
	-0.0160491,
	-0.299919,
	0.249769,
	-0.0885007,
	0.224179,
	-0.287015,
	-0.126218,
	-0.282109,
	0.183955,
	0.254183,
	-0.498648,
	-0.0823723,
	-0.452943,
	-0.234053,
	-0.431637,
	-0.305245,
	0.140151,
	0.185209,
	0.217373,
	0.479298,
	0.728701,
	-0.386303,
	0.0873175,
	-0.0547371,
	-0.234225,
	0.3931,
	-0.103336,
	-0.0812253,
	-0.00401067,
	-0.284378,
	0.0544681,
	-0.603265,
	-0.131507,
	-0.0605264,
	0.0634148,
	0.0052813,
	0.127669,
	0.0895161,
	-0.845113,
	0.00744133,
	-0.217856,
	-0.465885,
	0.102819,
	0.19182,
	0.479786,
	0.368932,
	0.369603,
	-0.40779,
	-0.0352381,
	0.0507218,
	0.147788,
	0.585478,
	-0.0560155,
	0.297425,
	-0.285465,
	-0.535749,
	-0.116381,
	-0.583409,
	-0.234037,
	0.459275,
	-0.161323,
	0.0681073,
	-0.0915603,
	0.0344901,
	-0.816467,
	0.134182,
	-0.172564,
	-0.620944,
	0.00479164,
	-0.225692,
	0.478173,
